svm_type epsilon_svr
kernel_type rbf
gamma 1
nr_class 2
total_sv 284
rho -61.9051
SV
10.88929754633114 1:-0.10877 2:-0.0695567 3:-0.0965233 4:-0.311437 5:-0.0790155 6:-0.48063 7:1 8:1 
11.58943154219225 1:-0.103439 2:-0.066244 3:-0.0902848 4:-0.209932 5:-0.169507 6:-0.17818 7:1 8:1 
27.4161876144408 1:-0.0550959 2:-0.0391603 3:-0.026978 4:0.38545 5:0.131829 6:0.614743 7:0.771072 8:0.769092 
512 1:-0.0480066 2:-0.0205578 3:-0.0510456 4:0.440304 5:0.342631 6:0.471986 7:0.290585 8:0.337997 
512 1:-0.0662659 2:-0.0207426 3:-0.0978546 4:0.254507 5:0.323904 6:0.135751 7:-0.125883 8:-0.0547815 
512 1:-0.0835196 2:-0.0254002 3:-0.131867 4:0.0901531 5:0.25168 6:-0.0960555 7:-0.215845 8:-0.14022 
512 1:-0.0981835 2:-0.0326023 3:-0.153379 4:-0.0396615 5:0.156345 6:-0.234003 7:-0.26445 8:-0.183346 
512 1:-0.12595 2:-0.0449529 3:-0.197047 4:-0.34456 5:-0.018037 6:-0.616405 7:-0.567297 8:-0.470741 
512 1:-0.142782 2:-0.0585252 3:-0.209647 4:-0.514856 5:-0.196191 6:-0.734773 7:-0.450783 8:-0.404894 
512 1:-0.143534 2:-0.0692084 3:-0.18724 4:-0.518485 5:-0.31628 6:-0.600183 7:-0.107676 8:-0.205068 
512 1:-0.157534 2:-0.0808569 3:-0.196898 4:-0.652786 5:-0.445155 6:-0.707236 7:-0.380157 8:-0.405248 
238.147462633415 1:-0.157989 2:-0.0900918 3:-0.177025 4:-0.652169 5:-0.530848 6:-0.605011 7:-0.132937 8:-0.256835 
512 1:-0.157716 2:-0.0972956 3:-0.159898 4:-0.592444 5:-0.566267 6:-0.448068 7:-0.132937 8:-0.256835 
512 1:-0.168022 2:-0.105377 3:-0.168134 4:-0.666808 5:-0.61691 6:-0.531771 7:-0.376073 8:-0.410847 
512 1:-0.212958 2:-0.12216 3:-0.246109 4:-0.75455 5:-0.682564 6:-0.623575 7:-0.761737 8:-0.748376 
512 1:-0.247505 2:-0.143431 3:-0.286982 4:-0.689272 5:-0.702607 6:-0.474053 7:-0.769617 8:-0.756759 
512 1:-0.254236 2:-0.161881 3:-0.262332 4:-0.491891 5:-0.644224 6:-0.162236 7:-0.304302 8:-0.484963 
512 1:-0.261655 2:-0.178264 3:-0.24418 4:-0.393275 5:-0.569456 6:-0.0602045 7:-0.359832 8:-0.519632 
512 1:-0.242808 2:-0.187006 3:-0.175501 4:-0.140699 5:-0.427804 6:0.259882 7:0.0724633 8:-0.241839 
512 1:-0.225245 2:-0.189967 3:-0.123323 4:0.0386755 5:-0.26817 6:0.417594 7:0.0936495 8:-0.227177 
512 1:-0.21023 2:-0.188906 3:-0.0869031 4:0.158258 5:-0.118281 6:0.471488 7:0.0936495 8:-0.227177 
512 1:-0.209852 2:-0.187972 3:-0.0880527 4:0.214882 5:0.00222644 6:0.438605 7:-0.208278 8:-0.370242 
512 1:-0.204167 2:-0.185933 3:-0.0779962 4:0.361959 5:0.136025 6:0.564493 7:-0.0971398 8:-0.31381 
512 1:-0.146252 2:-0.171128 3:0.03806 4:0.637543 5:0.325394 6:0.87269 7:0.546268 8:0.160168 
512 1:-0.120647 2:-0.153475 3:0.0640498 4:0.578327 5:0.430116 6:0.635017 7:0.178315 8:-0.0533096 
512 1:-0.109168 2:-0.136756 3:0.0556299 4:0.452085 5:0.454044 6:0.363345 7:0.0400805 8:-0.136369 
512 1:-0.104553 2:-0.122341 3:0.0347084 4:0.312974 5:0.419431 6:0.135874 7:-0.0325811 8:-0.178411 
512 1:-0.095156 2:-0.108681 3:0.0278772 4:0.220233 5:0.362646 6:0.0239726 7:0.0629163 8:-0.125482 
512 1:-0.0791516 2:-0.0941232 3:0.0360889 4:0.25875 5:0.33879 6:0.126381 7:0.2014 8:-0.0470963 
512 1:-0.0403679 2:-0.0736735 3:0.0897922 4:0.433771 5:0.386503 6:0.407659 7:0.48616 8:0.15019 
512 1:-0.0167819 2:-0.0519631 3:0.101311 4:0.478296 5:0.434496 6:0.436942 7:0.338863 8:0.0785763 
512 1:-0.0262982 2:-0.0367592 3:0.0420377 4:0.168039 5:0.353718 6:-0.066158 7:-0.161407 8:-0.201356 
512 1:-0.00916384 2:-0.0207086 3:0.04977 4:0.204589 5:0.313151 6:0.0521602 7:0.168726 8:-0.00883987 
512 1:0.0211947 2:-0.000978453 3:0.083321 4:0.22756 5:0.294456 6:0.118502 7:0.335412 8:0.1038 
512 1:0.0586004 2:0.0232945 3:0.124744 4:0.375513 5:0.335771 6:0.355121 7:0.450242 8:0.187769 
512 1:0.0905123 2:0.0499545 3:0.146516 4:0.390143 5:0.368632 6:0.344592 7:0.483695 8:0.212369 
397.6275830110649 1:0.0552368 2:0.0632743 3:0.0249086 4:-0.00612635 5:0.246503 6:-0.275629 7:-0.317103 8:-0.28767 
512 1:0.0410453 2:0.0707085 3:-0.0287462 4:-0.163458 5:0.107896 6:-0.415623 7:-0.134051 8:-0.184189 
512 1:0.0404967 2:0.076531 3:-0.0434379 4:-0.182867 5:0.00843627 6:-0.335787 7:0.00432804 8:-0.105237 
512 1:0.0306608 2:0.0789565 3:-0.0744089 4:-0.24923 5:-0.081992 6:-0.357152 7:-0.0959849 8:-0.165222 
512 1:0.033707 2:0.0815882 3:-0.0725286 4:-0.227041 5:-0.134212 6:-0.25279 7:0.0665047 8:-0.0802412 
512 1:0.0391011 2:0.0849177 3:-0.0661657 4:-0.1788 5:-0.151491 6:-0.139383 7:0.127164 8:-0.0483832 
512 1:0.0493834 2:0.0899149 3:-0.0509604 4:-0.0908923 5:-0.131057 6:0.00605655 7:0.231236 8:0.00590818 
512 1:0.0509662 2:0.0942717 3:-0.0567981 4:-0.0657354 5:-0.10829 6:0.0277295 7:0.118 8:-0.0430381 
512 1:0.0441536 2:0.0962111 3:-0.0788405 4:0.0293045 5:-0.0585671 6:0.152391 7:-0.0343878 8:-0.109829 
512 1:0.0136855 2:0.0908479 3:-0.145425 4:-0.243633 5:-0.124626 6:-0.296089 7:-0.436118 8:-0.331501 
512 1:-0.0209462 2:0.0786978 3:-0.207308 4:-0.353655 5:-0.208657 6:-0.409195 7:-0.544918 8:-0.408259 
512 1:-0.0177999 2:0.0696918 3:-0.17864 4:-0.147256 5:-0.189655 6:-0.0335527 7:0.0560092 8:-0.125041 
512 1:-0.00697958 2:0.0649427 3:-0.139826 4:0.0742679 5:-0.0964669 6:0.28379 7:0.176176 8:-0.0543596 
512 1:0.00190073 2:0.0631588 3:-0.112789 4:0.291888 5:0.0447595 6:0.536963 7:0.197459 8:-0.0422338 
512 1:0.0735221 2:0.0779858 3:0.0386706 4:0.530321 5:0.225577 6:0.783598 7:0.659411 8:0.321769 
512 1:0.0615407 2:0.0871282 3:-0.0131615 4:0.326234 5:0.27194 6:0.335345 7:-0.0969912 8:-0.17658 
512 1:0.0549298 2:0.0929418 3:-0.043514 4:0.216107 5:0.262819 6:0.133716 7:-0.0574828 8:-0.15104 
512 1:0.0420241 2:0.0960576 3:-0.0839989 4:0.0895677 5:0.152701 6:0.0195161 7:0.079258 8:-0.0847007 
512 1:0.0421478 2:0.0971845 3:-0.0862477 4:-0.0174708 5:0.0984249 6:-0.122917 7:0.0526647 8:-0.097745 
512 1:0.0389431 2:0.0973588 3:-0.0949343 4:-0.100665 5:0.0320012 6:-0.205043 7:0.0210008 8:-0.111952 
512 1:0.0505511 2:0.100133 3:-0.0712316 4:-0.0377734 5:0.0105788 6:-0.0584968 7:0.263677 8:0.00345633 
512 1:0.0372698 2:0.0993375 3:-0.103773 4:-0.141817 5:-0.0415206 6:-0.197719 7:-0.141752 8:-0.18744 
512 1:0.00146633 2:0.090576 3:-0.176412 4:-0.355033 5:-0.153754 6:-0.476585 7:-0.43652 8:-0.369794 
512 1:-0.0816613 2:0.0647016 3:-0.332451 4:-0.557778 5:-0.302271 6:-0.692477 7:-0.759282 8:-0.658982 
512 1:-0.136008 2:0.0316685 3:-0.397725 4:-0.595057 5:-0.414832 6:-0.631656 7:-0.575422 8:-0.564138 
512 1:-0.173866 2:-0.0298632 3:-0.355387 4:-0.413346 5:-0.460505 6:-0.22737 7:-0.159038 8:-0.344521 
512 1:-0.195457 2:-0.057475 3:-0.348293 4:-0.428832 5:-0.459902 6:-0.257947 7:-0.33377 8:-0.442576 
512 1:-0.230418 2:-0.0874986 3:-0.370283 4:-0.559048 5:-0.506831 6:-0.453741 7:-0.50437 8:-0.54933 
320.3481871458761 1:-0.238967 2:-0.113458 3:-0.333222 4:-0.535957 5:-0.529724 6:-0.382219 7:-0.213199 8:-0.399847 
512 1:-0.261638 2:-0.13937 3:-0.332796 4:-0.613813 5:-0.573285 6:-0.481005 7:-0.395355 8:-0.50257 
512 1:-0.290357 2:-0.166617 3:-0.34497 4:-0.748087 5:-0.651132 6:-0.648171 7:-0.508631 8:-0.572102 
512 1:-0.383832 2:-0.209629 3:-0.48871 4:-0.871795 5:-0.747996 6:-0.772538 7:-0.840949 8:-0.853596 
301.8930444443487 1:-0.484107 2:-0.266795 3:-0.617772 4:-0.810412 5:-0.79026 6:-0.604329 7:-0.905947 8:-0.930661 
241.651162406713 1:-0.574308 2:-0.374706 3:-0.605102 4:-0.615034 5:-0.712335 6:-0.319414 7:-0.561549 8:-0.727952 
278.2221998949985 1:-0.656108 2:-0.557705 3:-0.399533 4:-0.538664 5:-0.654591 6:-0.240214 7:-0.250345 8:-0.57603 
512 1:-0.639602 2:-0.580544 3:-0.304775 4:-0.411635 5:-0.583041 6:-0.079595 7:-0.223877 8:-0.562537 
512 1:-0.671513 2:-0.606057 3:-0.329159 4:-0.609658 5:-0.60732 6:-0.432864 7:-0.647711 8:-0.772157 
361.3788541895245 1:-0.710762 2:-0.655079 3:-0.318936 4:-0.778855 5:-0.70954 6:-0.638642 7:-0.723743 8:-0.818424 
176.9568278704861 1:-0.754971 2:-0.759247 3:-0.195831 4:-0.786962 5:-0.849201 6:-0.489611 7:-0.384601 8:-0.698952 
3.996989428139036 1:-0.746211 2:-0.765972 3:-0.157842 4:-0.825589 5:-0.863247 6:-0.547543 7:-0.515625 8:-0.752399 
12.66292625904268 1:-0.725716 2:-0.766701 3:-0.103168 4:-0.727365 5:-0.836908 6:-0.38917 7:-0.350159 8:-0.677671 
247.7607095622988 1:-0.689893 2:-0.759154 3:-0.0277099 4:-0.534871 5:-0.74938 6:-0.121139 7:-0.0606669 8:-0.53245 
89.81779647175337 1:-0.647244 2:-0.743438 3:0.0467809 4:-0.104589 5:-0.534628 6:0.455471 7:0.0915139 8:-0.445555 
175.7988534742355 1:-0.555685 2:-0.691113 3:0.164333 4:0.391217 5:-0.0407679 6:0.829363 7:0.202567 8:-0.358298 
139.8025784307617 1:-0.439576 2:-0.612845 3:0.286251 4:0.642406 5:0.353972 6:0.848372 7:0.557134 8:-0.0874591 
302.0836069371345 1:-0.410211 2:-0.572598 3:0.270462 4:0.541079 5:0.435629 6:0.556683 7:0.0172944 8:-0.286339 
511.1883394405564 1:-0.330893 2:-0.492129 3:0.292195 4:0.455181 5:0.475497 6:0.344022 7:0.432762 8:-0.00606379 
176.3413350146198 1:-0.259297 2:-0.376342 3:0.213447 4:-0.055107 5:0.223431 6:-0.342887 7:-0.185881 8:-0.300026 
10.06191146127804 1:-0.236649 2:-0.344006 3:0.198318 4:-0.147118 5:0.098454 6:-0.372979 7:0.0639611 8:-0.157105 
308.6368435690793 1:-0.204708 2:-0.310889 3:0.205446 4:-0.0672623 5:0.044162 6:-0.154963 7:0.226849 8:-0.0540962 
-351.5999671680507 1:-0.138501 2:-0.197623 3:0.118504 4:-0.0257284 5:-0.00817914 6:-0.0131512 7:0.0357064 8:-0.133134 
-512 1:-0.127753 2:-0.176318 3:0.0977396 4:0.0457184 5:0.0141398 6:0.098321 7:0.134628 8:-0.09421 
-456.7410280085008 1:-0.211772 2:-0.164268 3:-0.147054 4:-0.49044 5:-0.285889 6:-0.581929 7:-0.788767 8:-0.656905 
-512 1:-0.230439 2:-0.172937 3:-0.175576 4:-0.511332 5:-0.373478 6:-0.518948 7:-0.568595 8:-0.560768 
-512 1:-0.230935 2:-0.179986 3:-0.160793 4:-0.409138 5:-0.394725 6:-0.296813 7:-0.199493 8:-0.38251 
-62.74536390788575 1:-0.237896 2:-0.187204 3:-0.162343 4:-0.394626 5:-0.403615 6:-0.258345 7:-0.346824 8:-0.461747 
-447.1072645172428 1:-0.204439 2:-0.182969 3:-0.0854563 4:-0.0800708 5:-0.0383723 6:-0.0823529 7:-0.406935 8:-0.449324 
-512 1:-0.202326 2:-0.181519 3:-0.0832964 4:-0.251608 5:-0.114062 6:-0.323926 7:-0.172336 8:-0.345302 
-171.0537714362369 1:-0.207568 2:-0.181548 3:-0.0967895 4:-0.398344 5:-0.217858 6:-0.484531 7:-0.374048 8:-0.446419 
-173.3208653296284 1:-0.486258 2:-0.389876 3:-0.342765 4:-1 5:-0.984261 6:-0.741219 7:-0.945936 8:-1 
488.9062683785342 1:-0.486315 2:-0.445642 3:-0.215792 4:-0.76448 5:-0.941567 6:-0.337349 7:-0.251823 8:-0.661706 
-433.3639221216387 1:-0.475401 2:-0.46369 3:-0.146422 4:-0.481626 5:-0.793744 6:0.0338528 7:-0.0774077 8:-0.485142 
-512 1:-0.423126 2:-0.454634 3:-0.0318485 4:0.0605184 5:-0.304972 6:0.503109 7:-0.034913 8:-0.451442 
251.6630173355819 1:-0.426115 2:-0.449638 3:-0.0509684 4:-0.280272 5:-0.302214 6:-0.157365 7:-0.475478 8:-0.66001 
-306.0302181224611 1:-0.522226 2:-0.476707 3:-0.237869 4:-0.727539 5:-0.569181 6:-0.705167 7:-0.888977 8:-0.978351 
-512 1:-0.531407 2:-0.504004 3:-0.199389 4:-0.610927 5:-0.64592 6:-0.389799 7:-0.309123 8:-0.63585 
-103.3939223858008 1:-0.407292 2:-0.471569 3:0.0477132 4:-0.015275 5:-0.35232 6:0.412766 7:0.375149 8:-0.0867856 
-18.35668503177519 1:-0.330746 2:-0.424496 3:0.138404 4:0.448111 5:0.0720514 6:0.806066 7:0.244986 8:-0.137577 
-289.292579097519 1:-0.302101 2:-0.397384 3:0.150694 4:0.502651 5:0.233714 6:0.720641 7:0.15271 8:-0.180246 
-432.9826608065742 1:-0.241614 2:-0.361966 3:0.226417 4:0.71735 5:0.419528 6:0.915611 7:0.514475 8:0.107541 
130.0163426354605 1:0.0408316 2:-0.0261535 3:0.191502 4:0.443482 5:0.696208 6:0.0612317 7:-0.189505 8:-0.150502 
-512 1:0.0245768 2:-0.00457195 3:0.100261 4:0.260614 5:0.561842 6:-0.133012 7:-0.255036 8:-0.192946 
-512 1:0.0660743 2:0.0221109 3:0.146775 4:0.533346 5:0.571398 6:0.381692 7:0.37147 8:0.159845 
-151.9090772523925 1:0.134824 2:0.0590595 3:0.240381 4:0.728489 5:0.6487 6:0.666889 7:0.559816 8:0.314337 
-252.7676457588297 1:0.24169 2:0.166763 3:0.271288 4:0.799706 5:0.749606 6:0.68526 7:0.513041 8:0.307595 
-222.5919241600354 1:0.217915 2:0.319019 3:-0.137283 4:-0.374532 5:0.0925894 6:-0.804639 7:-0.190735 8:-0.127282 
197.3432371190365 1:0.148437 2:0.271785 3:-0.209327 4:-0.491265 5:-0.440677 6:-0.401017 7:0.164081 8:-0.0018692 
-151.6116936841975 1:0.14729 2:0.261628 3:-0.18914 4:-0.206025 5:-0.365697 6:0.0606699 7:0.241972 8:0.0345703 
-512 1:0.0712247 2:0.215987 3:-0.281853 4:-0.40387 5:-0.310321 6:-0.38617 7:-0.460564 8:-0.323191 
-3.196304352781338 1:-0.0911393 2:0.133773 3:-0.514419 4:-0.672267 5:-0.532967 6:-0.641271 7:-0.875273 8:-0.73409 
-512 1:-0.16023 2:0.081429 3:-0.573809 4:-0.75913 5:-0.628267 6:-0.696426 7:-0.913505 8:-0.786425 
-512 1:-0.275769 2:-0.0326367 3:-0.612651 4:-0.634513 5:-0.674333 6:-0.401784 7:-0.79948 8:-0.781064 
-512 1:-0.297838 2:-0.0829285 3:-0.555093 4:-0.532519 5:-0.640142 6:-0.2454 7:-0.460522 8:-0.622224 
-512 1:-0.287487 2:-0.120813 3:-0.44196 4:-0.350553 5:-0.551207 6:0.00066912 7:0.00706361 8:-0.353903 
-31.99008826499553 1:-0.315919 2:-0.208614 3:-0.315355 4:-0.107384 5:-0.127509 6:-0.0299311 7:-0.567911 8:-0.64813 
-401.4295536037055 1:-0.295004 2:-0.223067 3:-0.22831 4:0.0928018 5:-0.0482995 6:0.262741 7:0.0263175 8:-0.262941 
284.2191075682907 1:-0.0104631 2:-0.103632 3:0.235438 4:0.779091 5:0.630496 6:0.78594 7:0.572849 8:0.168011 
46.71575100967998 1:-0.04769 2:-0.00360471 3:-0.0888721 4:-0.109193 5:0.338479 6:-0.582839 7:-0.598733 8:-0.496797 
-512 1:-0.0871231 2:-0.0118825 3:-0.172002 4:-0.289774 5:0.123299 6:-0.677389 7:-0.489494 8:-0.444806 
-512 1:-0.123044 2:-0.0266567 3:-0.231236 4:-0.443609 5:-0.07607 6:-0.739 7:-0.529152 8:-0.473387 
-512 1:-0.163767 2:-0.0477179 3:-0.288563 4:-0.635361 5:-0.278681 6:-0.869911 7:-0.632625 8:-0.549358 
-512 1:-0.20779 2:-0.0745576 3:-0.341252 4:-0.760502 5:-0.459242 6:-0.89836 7:-0.721733 8:-0.621139 
-512 1:-0.225223 2:-0.0999856 3:-0.32838 4:-0.723896 5:-0.566311 6:-0.701526 7:-0.355674 8:-0.461297 
-102.025856213057 1:-0.19773 2:-0.114089 3:-0.225119 4:-0.410279 5:-0.523695 6:-0.146953 7:0.185492 8:-0.147119 
-512 1:-0.183142 2:-0.122061 3:-0.169212 4:-0.21345 5:-0.423741 6:0.114787 7:0.0644661 8:-0.207021 
-512 1:-0.180422 2:-0.127821 3:-0.149046 4:-0.0399557 5:-0.294042 6:0.296456 7:-0.0808239 8:-0.27888 
-512 1:-0.156767 2:-0.127061 3:-0.0895909 4:0.300449 5:-0.0838457 6:0.705104 7:0.183958 8:-0.123817 
-512 1:-0.154548 2:-0.124312 3:-0.0901172 4:0.344445 5:0.187176 6:0.470406 7:-0.172359 8:-0.300216 
-512 1:-0.15088 2:-0.122917 3:-0.08381 4:0.383838 5:0.267277 6:0.451934 7:-0.0582315 8:-0.244912 
-314.2683059619178 1:-0.139563 2:-0.119233 3:-0.0629329 4:0.491111 5:0.35967 6:0.549878 7:0.0814818 8:-0.175471 
-512 1:-0.136716 2:-0.11564 3:-0.0637611 4:0.353237 5:0.37115 6:0.270449 7:-0.0619398 8:-0.236189 
-512 1:-0.0752296 2:-0.0988119 3:0.0569219 4:0.631729 5:0.480031 6:0.679152 7:0.547823 8:0.167843 
334.8963800727574 1:0.0216912 2:-0.0249839 3:0.139327 4:0.68362 5:0.677673 6:0.546197 7:0.422811 8:0.11057 
385.4930697163536 1:0.0335598 2:0.0869846 3:-0.0852106 4:-0.292895 5:0.15958 6:-0.726185 7:-0.235286 8:-0.199119 
-512 1:0.0149586 2:0.0816677 3:-0.121205 4:-0.353059 5:-0.15392 6:-0.472582 7:0.0378127 8:-0.0918492 
-512 1:0.0225623 2:0.0812278 3:-0.100534 4:-0.15968 5:-0.15768 6:-0.0952134 7:0.260906 8:0.0207163 
-472.0754133552494 1:0.0318017 2:0.0829727 3:-0.0806129 4:0.0333479 5:-0.0900237 6:0.197277 7:0.342567 8:0.0665429 
-512 1:0.0342528 2:0.0849249 3:-0.078723 4:0.119294 5:-0.0136798 6:0.273014 7:0.216875 8:0.0153736 
-235.8836274209876 1:0.0839241 2:0.0977593 3:0.0205023 4:0.42178 5:0.147165 6:0.666724 7:0.702631 8:0.375628 
-0.01863342322720671 1:0.117459 2:0.115637 3:0.0664904 4:0.596444 5:0.317881 6:0.802286 7:0.614455 8:0.328693 
118.6113896373981 1:0.220828 2:0.201192 3:0.138845 4:0.733277 5:0.672689 6:0.647839 7:0.656613 8:0.417687 
156.2070564363239 1:0.233156 2:0.22464 3:0.117282 4:0.67205 5:0.695713 6:0.502614 7:0.362423 8:0.258207 
512 1:0.205319 2:0.269616 3:-0.0572496 4:0.167423 5:0.422468 6:-0.148404 7:0.0273817 8:0.0763381 
512 1:0.151646 2:0.257853 3:-0.169266 4:-0.429551 5:-0.0217307 6:-0.775956 7:-0.197043 8:-0.100929 
3.648745905672369 1:0.126813 2:0.245835 3:-0.206105 4:-0.617853 5:-0.236091 6:-0.886362 7:-0.306754 8:-0.16726 
261.288764978083 1:0.0775921 2:0.22505 3:-0.286042 4:-0.753572 5:-0.42833 6:-0.921441 7:-0.685124 8:-0.471189 
133.83960295639 1:0.00987548 2:0.123307 3:-0.229272 4:-0.0992562 5:-0.410129 6:0.318965 7:0.235989 8:-0.0242793 
-222.9827756467725 1:-0.0187666 2:0.0946785 3:-0.238098 4:-0.145012 5:-0.225782 6:0.0133699 7:-0.319891 8:-0.341186 
-512 1:-0.0292451 2:0.079879 3:-0.231467 4:-0.133173 5:-0.195953 6:0.00103219 7:-0.136967 8:-0.247394 
-512 1:-0.0495116 2:0.0634402 3:-0.246416 4:-0.333634 5:-0.248931 6:-0.323099 7:-0.334363 8:-0.366441 
-512 1:-0.070844 2:0.0454478 3:-0.260581 4:-0.544205 5:-0.360788 6:-0.597307 7:-0.411413 8:-0.415286 
-12.74545845646799 1:-0.145473 2:-0.0402353 3:-0.2583 4:-0.735868 5:-0.773738 6:-0.480048 7:0.0209659 8:-0.269121 
-372.0519030460812 1:-0.161047 2:-0.0704673 3:-0.229669 4:-0.746561 5:-0.780999 6:-0.492109 7:-0.314994 8:-0.436484 
394.9563938745094 1:-0.281583 2:-0.224132 3:-0.191168 4:-0.426485 5:-0.700535 6:0.0302961 7:0.132813 8:-0.295936 
38.38130989461925 1:-0.273106 2:-0.230512 3:-0.154697 4:-0.319649 5:-0.580235 6:0.0944943 7:-0.0750179 8:-0.386536 
86.1755542302129 1:-0.141247 2:-0.215785 3:0.152804 4:0.427964 5:0.0495752 6:0.793713 7:0.500319 8:0.162586 
-24.24604143920936 1:-0.0429601 2:-0.074988 3:0.0860836 4:0.384245 5:0.506026 6:0.171225 7:-0.209777 8:-0.197717 
-512 1:-0.0417965 2:-0.0587026 3:0.0519701 4:0.259199 5:0.43454 6:0.0143555 7:-0.0260062 8:-0.106238 
-132.2978517545349 1:-0.0464269 2:-0.0467251 3:0.0126898 4:-0.0192569 5:0.285668 6:-0.347129 7:-0.140786 8:-0.171868 
-512 1:-0.014954 2:0.0143396 3:-0.0451009 4:0.285441 5:0.256797 6:0.274528 7:-0.112275 8:-0.114292 
-146.1396251732465 1:-0.0077268 2:0.0204914 3:-0.04043 4:0.446657 5:0.336525 6:0.491436 7:0.261901 8:0.06864 
-512 1:0.015763 2:0.0498945 3:-0.0466959 4:0.00158584 5:0.294359 6:-0.31718 7:-0.262422 8:-0.244388 
-512 1:0.0138259 2:0.0538266 3:-0.0606699 4:-0.0942074 5:0.164971 6:-0.349367 7:-0.00636774 8:-0.0905402 
-196.0877029815374 1:0.0204687 2:0.0584798 3:-0.0540946 4:-0.0298518 5:0.102105 6:-0.151133 7:0.139138 8:0.000952628 
-512 1:0.0194216 2:0.0619647 3:-0.0647472 4:-0.0510569 5:0.0524864 6:-0.133525 7:0.0324431 8:-0.0641441 
-512 1:0.0266979 2:0.0664039 3:-0.0560455 4:0.0630241 5:0.0608738 6:0.0765942 7:0.198506 8:0.031684 
-193.3748509982289 1:0.0467753 2:0.0807105 3:-0.0367247 4:0.187191 5:0.151173 6:0.209586 7:0.0985267 8:-0.00601688 
-512 1:0.0398721 2:0.0843904 3:-0.0629693 4:0.101409 5:0.140617 6:0.0565993 7:-0.0514224 8:-0.093969 
-512 1:0.0311767 2:0.0853609 3:-0.0876735 4:0.0267367 5:0.106438 6:-0.0471091 7:-0.0911526 8:-0.116544 
-512 1:0.0132117 2:0.0820603 3:-0.126619 4:-0.213531 5:-0.00368165 6:-0.380636 7:-0.316984 8:-0.249877 
-512 1:0.00571107 2:0.0777176 3:-0.136121 4:-0.286711 5:-0.103694 6:-0.403847 7:-0.0772584 8:-0.144743 
-229.8553954746857 1:-0.00147011 2:0.0726137 3:-0.143061 4:-0.335498 5:-0.188102 6:-0.398413 7:-0.0772584 8:-0.144743 
-189.1507126478761 1:-0.0194697 2:0.0644457 3:-0.171 4:-0.513567 5:-0.3091 6:-0.599163 7:-0.382264 8:-0.31179 
-512 1:-0.0457401 2:0.0519495 3:-0.210467 4:-0.58723 5:-0.41654 6:-0.614548 7:-0.583359 8:-0.453809 
-512 1:-0.0654477 2:0.0374799 3:-0.228459 4:-0.587024 5:-0.488092 6:-0.529788 7:-0.512455 8:-0.425835 
-512 1:-0.0702313 2:0.0248187 3:-0.211971 4:-0.422505 5:-0.475993 6:-0.226774 7:-0.0866665 8:-0.240224 
-433.8569752479915 1:-0.0614376 2:0.00634637 3:-0.147116 4:0.0322341 5:-0.131547 6:0.244086 7:-0.112826 8:-0.226208 
-512 1:0.0218201 2:0.0224469 3:0.0315393 4:0.62707 5:0.329454 6:0.847705 7:0.636666 8:0.343486 
116.9758800495467 1:0.110752 2:0.0538653 3:0.189955 4:0.764111 5:0.500352 6:0.910497 7:0.783201 8:0.528619 
-19.35328344353804 1:0.435191 2:0.198236 3:0.700061 4:1 5:0.810277 6:1 7:0.922635 8:0.769953 
125.7805117055302 1:0.557215 2:0.295819 3:0.793248 4:0.945483 5:0.886826 6:0.804608 7:0.745219 8:0.63789 
-110.9379852866468 1:0.75578 2:0.494198 3:0.854649 4:0.972637 5:0.962151 6:0.768163 7:0.717942 8:0.62621 
22.8597376038529 1:0.917952 2:0.614455 3:1 4:0.97829 5:1 6:0.73444 7:0.801116 8:0.701656 
40.52142574203241 1:0.980743 2:0.72491 3:0.910629 4:0.880526 5:0.989697 6:0.558046 7:0.386309 8:0.396244 
-4.143341477712485 1:1 2:0.817645 3:0.749047 4:0.751408 5:0.935897 6:0.372473 7:0.261332 8:0.303933 
31.69584343340021 1:0.905283 2:0.870337 3:0.383934 4:0.305043 5:0.737784 6:-0.254772 7:-0.247296 8:-0.109844 
-54.71585319654726 1:0.91828 2:0.915441 3:0.314738 4:0.239851 5:0.582012 6:-0.196835 7:0.144772 8:0.12251 
18.93227596699256 1:0.932688 2:0.954793 3:0.2623 4:0.251736 5:0.482484 6:-0.0565674 7:0.195741 8:0.154243 
-3.447884056976015 1:0.878198 2:0.987711 3:0.0463183 4:0.14318 5:0.282055 6:-0.029605 7:0.155266 8:0.0869774 
7.202124543745132 1:0.770345 2:0.980602 3:-0.216456 4:0.351266 5:0.309012 6:0.33991 7:0.0445544 8:0.0116396 
26.01697471550546 1:0.727385 2:0.960331 3:-0.281366 4:0.348335 5:0.335596 6:0.302914 7:-4.02789e-05 8:-0.00990271 
35.76464216995161 1:0.537586 2:0.875308 3:-0.578495 4:-0.243021 5:0.0829806 6:-0.539687 7:-0.558321 8:-0.347159 
11.49787990354991 1:0.452499 2:0.813711 3:-0.658173 4:-0.369642 5:-0.0760632 6:-0.596359 7:-0.385106 8:-0.281365 
-42.4785251793502 1:0.323686 2:0.735201 3:-0.812397 4:-0.585457 5:-0.260538 6:-0.795063 7:-0.634801 8:-0.469618 
179.8763163686344 1:0.159188 2:0.569934 3:-0.86116 4:-0.716325 5:-0.523196 6:-0.737758 7:-0.467171 8:-0.415053 
61.91168040937787 1:0.0181908 2:0.470849 3:-1 4:-0.845422 5:-0.653119 6:-0.833541 7:-0.733652 8:-0.627805 
-512 1:-0.0443434 2:0.377389 3:-0.948707 4:-0.770348 5:-0.712446 6:-0.618809 7:-0.303898 8:-0.412609 
309.730567832829 1:-0.0892928 2:0.29242 3:-0.871285 4:-0.681095 5:-0.719556 6:-0.438301 7:-0.265936 8:-0.39281 
324.722166908515 1:-0.166148 2:0.207003 3:-0.875369 4:-0.757896 5:-0.752211 6:-0.54791 7:-0.477494 8:-0.519811 
95.84109506110129 1:-0.230875 2:0.0645732 3:-0.718121 4:-0.607992 5:-0.697521 6:-0.323298 7:-0.30669 8:-0.436 
172.8535581510873 1:-0.408715 2:-0.0812182 3:-0.84579 4:-0.789428 5:-0.743334 6:-0.619187 7:-0.760634 8:-0.749627 
-155.4461522975121 1:-0.500535 2:-0.167794 3:-0.88594 4:-0.606286 5:-0.712956 6:-0.30181 7:-0.640411 8:-0.68783 
200.3414457387652 1:-0.580752 2:-0.25526 3:-0.894051 4:-0.520825 5:-0.66164 6:-0.1975 7:-0.68035 8:-0.717019 
-85.61650764074317 1:-0.724558 2:-0.427173 3:-0.874142 4:-0.557139 5:-0.615112 6:-0.322391 7:-0.79031 8:-0.798116 
-186.161027086457 1:-0.753587 2:-0.501986 3:-0.778688 4:-0.533852 5:-0.601146 6:-0.293948 7:-0.522045 8:-0.681695 
-174.3620232298228 1:-0.801738 2:-0.692268 3:-0.469485 4:-0.442843 5:-0.506418 6:-0.230124 7:-0.546208 8:-0.687445 
-21.52143504861687 1:-0.924891 2:-0.81019 3:-0.519226 4:-0.826206 5:-0.705434 6:-0.734802 7:-0.905359 8:-0.933322 
-114.9480624068174 1:-0.962088 2:-0.855718 3:-0.511659 4:-0.831027 5:-0.769378 6:-0.668705 7:-0.667994 8:-0.815282 
-24.37532417071856 1:-1 2:-0.989685 3:-0.30434 4:-0.930042 5:-0.895576 6:-0.710866 7:-0.75354 8:-0.865288 
-154.4799902496498 1:-0.96511 2:-1 3:-0.190579 4:-0.704608 5:-0.850189 6:-0.329623 7:-0.176878 8:-0.555124 
-108.2902829856736 1:-0.886431 2:-0.990263 3:-0.00925954 4:-0.342368 5:-0.626004 6:0.104643 7:-0.135212 8:-0.53265 
0.6246492620484665 1:-0.86251 2:-0.977179 3:0.0227866 4:-0.348886 5:-0.541175 6:-0.00794487 7:-0.333518 8:-0.607966 
-64.42139961022937 1:-0.670649 2:-0.859538 3:0.250896 4:0.376183 5:0.0514266 6:0.691669 7:0.0747532 8:-0.38133 
-25.01220458331044 1:-0.643003 2:-0.822782 3:0.238619 4:0.310454 5:0.150104 6:0.448564 7:-0.229074 8:-0.482799 
-33.97263181364305 1:-0.626407 2:-0.789612 3:0.205934 4:0.154444 5:0.159182 6:0.136991 7:-0.393203 8:-0.54943 
-181.9869204705303 1:-0.555071 2:-0.724827 3:0.242776 4:0.259727 5:0.14738 6:0.353946 7:0.261637 8:-0.169315 
119.278298110034 1:-0.59885 2:-0.677698 3:0.0221033 4:-0.31681 5:-0.0242453 6:-0.555567 7:-0.61199 8:-0.70715 
-335.7280311848731 1:-0.623467 2:-0.672877 3:-0.0525628 4:-0.318118 5:-0.128819 6:-0.434793 7:-0.425856 8:-0.587391 
334.7890031965298 1:-0.520542 2:-0.618532 3:0.0897824 4:0.0745486 5:-0.0423489 6:0.220523 7:0.0112148 8:-0.330351 
-190.2756335953754 1:-0.34389 2:-0.483458 3:0.238812 4:0.541012 5:0.448569 6:0.541297 7:0.155747 8:-0.178191 
-512 1:-0.304249 2:-0.44504 3:0.253773 4:0.505407 5:0.485727 6:0.428822 7:0.278902 8:-0.109743 
166.3097555690176 1:-0.130729 2:-0.272954 3:0.31033 4:0.618495 5:0.647351 6:0.456353 7:0.602459 8:0.108985 
-286.1457103002934 1:0.0167067 2:-0.0627829 3:0.212598 4:0.398949 5:0.451942 6:0.263349 7:0.486011 8:0.217083 
-287.6596438772788 1:0.0204373 2:-0.0348149 3:0.158493 4:0.120191 5:0.347957 6:-0.15164 7:0.00259492 8:-0.0632197 
-171.9542626940144 1:-0.000413368 2:-0.0171725 3:0.0643436 4:-0.202436 5:0.161364 6:-0.553834 7:-0.26604 8:-0.24853 
-139.5524557850478 1:-0.0132054 2:-0.00596158 3:0.00569961 4:-0.372267 5:-0.0247619 6:-0.661908 7:-0.19154 8:-0.21032 
-512 1:-0.0430974 2:-0.00151103 3:-0.0817653 4:-0.56879 5:-0.35643 6:-0.649857 7:-0.0652824 8:-0.177755 
-313.8440957317978 1:-0.0365222 2:0.00127599 3:-0.0711108 4:-0.467335 5:-0.404514 6:-0.397506 7:0.0675938 8:-0.104421 
-69.69551269242601 1:-0.0130788 2:0.00882591 3:-0.0276817 4:-0.228741 5:-0.349844 6:-0.00182832 7:0.289234 8:0.029821 
-512 1:0.0917363 2:0.0782095 3:0.0852738 4:0.338127 5:0.166885 6:0.482145 7:0.394747 8:0.155567 
-312.4896255688078 1:0.110588 2:0.0984381 3:0.0879238 4:0.407958 5:0.262517 6:0.504063 7:0.394747 8:0.155567 
-512 1:0.108521 2:0.114152 3:0.0467581 4:0.335226 5:0.299835 6:0.319797 7:0.0551766 8:-0.00899615 
-512 1:0.113983 2:0.127963 3:0.0294049 4:0.343251 5:0.327631 6:0.302502 7:0.201597 8:0.0617616 
-512 1:0.10776 2:0.137599 3:-0.00865929 4:0.156797 5:0.278388 6:0.000979525 7:0.0139789 8:-0.0310732 
-512 1:0.108381 2:0.145449 3:-0.024947 4:0.0470747 5:0.205678 6:-0.124895 7:0.159932 8:0.0343478 
-206.630084826836 1:0.122322 2:0.154892 3:-0.0104135 4:0.164436 5:0.199863 6:0.108296 7:0.386836 8:0.153678 
-177.5979690484831 1:0.2007 2:0.180235 3:0.134553 4:0.393029 5:0.279076 6:0.455749 7:0.75331 8:0.472415 
512 1:0.23628 2:0.208583 3:0.161963 4:0.394795 5:0.332527 6:0.396134 7:0.388099 8:0.24526 
-54.96347819189025 1:0.309096 2:0.270856 3:0.208359 4:0.550801 5:0.454014 6:0.553756 7:0.569122 8:0.373744 
-3.342509447957632 1:0.311375 2:0.359043 3:0.0132266 4:0.405346 5:0.500553 6:0.218369 7:0.128476 8:0.0917599 
-204.6712904095502 1:0.241421 2:0.379456 3:-0.21425 4:-0.224886 5:0.0558836 6:-0.472765 7:-0.384231 8:-0.189257 
19.7774794772578 1:0.146773 2:0.347647 3:-0.386561 4:-0.50645 5:-0.143855 6:-0.780268 7:-0.802005 8:-0.594834 
-91.00713423420549 1:0.0824495 2:0.307602 3:-0.461659 4:-0.620678 5:-0.318535 6:-0.794605 7:-0.569985 8:-0.481322 
-8.663973645094998 1:-0.108696 2:0.149745 3:-0.59624 4:-0.833716 5:-0.722123 6:-0.729607 7:-0.536499 8:-0.556075 
-370.0475743737347 1:-0.216666 2:-0.0331456 3:-0.458611 4:-0.718462 5:-0.809152 6:-0.404725 7:-0.375543 8:-0.509813 
-57.49158851847323 1:-0.202346 2:-0.0898179 3:-0.292384 4:-0.0534377 5:-0.523198 6:0.54064 7:0.290169 8:-0.136449 
445.335993893755 1:-0.183969 2:-0.123111 3:-0.168957 4:0.148495 5:-0.0446487 6:0.365842 7:-0.102084 8:-0.318179 
-369.6502571991163 1:-0.160834 2:-0.12545 3:-0.103783 4:0.155641 5:0.155269 6:0.143911 7:-0.164832 8:-0.316116 
512 1:-0.238529 2:-0.153081 3:-0.241766 4:-0.673106 5:-0.35193 6:-0.856339 7:-0.757973 8:-0.706254 
132.1576401276506 1:-0.30245 2:-0.180331 3:-0.34499 4:-0.775463 5:-0.513513 6:-0.863225 7:-0.887014 8:-0.848768 
-509.2815244721601 1:-0.33758 2:-0.210103 3:-0.367991 4:-0.761828 5:-0.616278 6:-0.715764 7:-0.607314 8:-0.698668 
-512 1:-0.426973 2:-0.281545 3:-0.436362 4:-0.848994 5:-0.788794 6:-0.680464 7:-0.788523 8:-0.843335 
-512 1:-0.427372 2:-0.311452 3:-0.369221 4:-0.665535 5:-0.764798 6:-0.354949 7:-0.227338 8:-0.518028 
-52.94887230826359 1:-0.430426 2:-0.336071 3:-0.321001 4:-0.529552 5:-0.699374 6:-0.16984 7:-0.29758 8:-0.555404 
170.5308406116973 1:-0.410028 2:-0.365505 3:-0.201142 4:-0.232951 5:-0.485885 6:0.150451 7:-0.123514 8:-0.455659 
10.2110002444047 1:-0.385666 2:-0.376058 3:-0.11407 4:0.217695 5:0.00797222 6:0.437255 7:-0.433312 8:-0.577728 
14.94093166350395 1:-0.393408 2:-0.379355 3:-0.12658 4:0.0867768 5:0.0398314 6:0.147212 7:-0.601492 8:-0.663326 
443.2251386115367 1:-0.388289 2:-0.382585 3:-0.105977 4:-0.381731 5:-0.159187 6:-0.521667 7:-0.454607 8:-0.603939 
86.6581482455763 1:-0.370653 2:-0.378758 3:-0.0690821 4:-0.535006 5:-0.379039 6:-0.558047 7:-0.292631 8:-0.545644 
284.6198293968669 1:-0.361129 2:-0.374189 3:-0.0548619 4:-0.592364 5:-0.465032 6:-0.567275 7:-0.354046 8:-0.56469 
-6.85090868010635 1:-0.413205 2:-0.381185 3:-0.173616 4:-0.815192 5:-0.826267 6:-0.571092 7:-0.940694 8:-0.977057 
-184.9083272531405 1:-0.398184 2:-0.38454 3:-0.127113 4:-0.430653 5:-0.704405 6:0.0268207 7:-0.0894431 8:-0.417516 
-116.4157343668712 1:-0.444119 2:-0.402555 3:-0.204867 4:-0.616677 5:-0.636638 6:-0.411833 7:-0.570888 8:-0.742662 
-512 1:-0.456415 2:-0.414851 3:-0.208641 4:-0.665833 5:-0.663469 6:-0.474996 7:-0.431562 8:-0.650759 
-512 1:-0.471644 2:-0.428144 3:-0.217732 4:-0.646002 5:-0.674149 6:-0.424159 7:-0.515715 8:-0.703976 
-512 1:-0.472273 2:-0.438921 3:-0.19479 4:-0.544971 5:-0.644545 6:-0.264222 7:-0.365411 8:-0.61553 
5.633207201267775 1:-0.22717 2:-0.309093 3:0.143254 4:0.628594 5:0.638889 6:0.485807 7:0.532837 8:-0.0144733 
10.19994282066369 1:-0.203215 2:-0.28262 3:0.144868 4:0.583454 5:0.640976 6:0.396292 7:0.440195 8:-0.0427452 
-265.1042795021583 1:-0.162834 2:-0.214714 3:0.0945241 4:0.268478 5:0.452342 6:0.01126 7:0.204466 8:-0.106938 
-512 1:-0.147846 2:-0.194551 3:0.0873298 4:0.290294 5:0.410053 6:0.103193 7:0.377903 8:-0.0261404 
-256.8447561568478 1:-0.091062 2:-0.146367 3:0.124373 4:0.386013 5:0.422489 6:0.273127 7:0.481742 8:0.15028 
-512 1:-0.0674245 2:-0.121622 3:0.129107 4:0.472566 5:0.456404 6:0.40006 7:0.574265 8:0.221087 
-430.414480976846 1:-0.00878284 2:-0.047991 3:0.112947 4:0.598836 5:0.62049 6:0.45011 7:0.302187 8:0.156908 
-16.15880267658012 1:0.144281 2:0.166069 3:0.0209076 4:0.55954 5:0.710999 6:0.267614 7:0.189743 8:0.178269 
-161.1390625004555 1:0.0986593 2:0.170445 3:-0.107073 4:-0.106174 5:0.198185 6:-0.411605 7:-0.0225703 8:-0.0319687 
-512 1:0.0934906 2:0.168346 3:-0.115659 4:-0.101938 5:0.0980455 6:-0.285367 7:0.0817118 8:0.0198386 
-512 1:0.0949056 2:0.166516 3:-0.107827 4:0.149706 5:0.127263 6:0.165487 7:0.13467 8:0.0498734 
200.2439738710834 1:0.131352 2:0.173796 3:-0.0301475 4:0.175496 5:0.151606 6:0.186523 7:0.60396 8:0.366852 
