svm_type epsilon_svr
kernel_type rbf
gamma 1
nr_class 2
total_sv 358
rho -13.5213
SV
-0.8793789114925833 1:-0.192322 2:-0.236788 3:0.0496419 4:-0.526104 5:-0.249231 6:-0.682434 7:1 8:1 
3.695081378448324 1:-0.168379 2:-0.220898 3:0.0815595 4:-0.0323045 5:-0.167042 6:0.208642 7:0.478451 8:0.480842 
-8 1:-0.17916 2:-0.220552 3:0.0503513 4:-0.251736 5:-0.188814 6:-0.205045 7:-0.128766 8:-0.120904 
1.780342105321119 1:-0.0267573 2:-0.110934 3:0.23449 4:0.526645 5:0.508134 6:0.518073 7:0.462948 8:0.414674 
8 1:-0.0240883 2:-0.0926652 3:0.201018 4:0.44775 5:0.52071 6:0.344826 7:0.274146 8:0.285219 
-8 1:-0.164603 2:-0.118605 3:-0.137389 4:-0.621719 5:-0.187143 6:-0.948661 7:-0.594025 8:-0.393271 
-8 1:-0.2064 2:-0.146056 3:-0.193757 4:-0.726744 5:-0.378374 6:-0.929491 7:-0.642908 8:-0.439904 
-8 1:-0.222522 2:-0.171974 3:-0.181089 4:-0.709224 5:-0.499364 6:-0.749054 7:-0.269087 8:-0.267075 
-8 1:-0.273596 2:-0.257134 3:-0.134103 4:-0.608331 5:-0.601791 6:-0.423795 7:-0.321868 8:-0.333401 
-8 1:-0.273785 2:-0.287433 3:-0.0666273 4:-0.208405 5:-0.437713 6:0.18076 7:-0.042323 8:-0.21112 
-6.209805041270654 1:-0.257357 2:-0.301584 3:0.0115092 4:0.224556 5:-0.105772 6:0.649911 7:0.207272 8:-0.0857419 
8 1:-0.208444 2:-0.286798 3:0.116388 4:0.601139 5:0.431145 6:0.759863 7:0.332913 8:-0.0120397 
8 1:-0.214098 2:-0.275519 3:0.0751106 4:0.129431 5:0.319213 6:-0.0512078 7:-0.0613019 8:-0.164559 
8 1:-0.190705 2:-0.26724 3:0.12256 4:0.247884 5:0.320642 6:0.184508 7:0.46254 8:0.109737 
8 1:-0.172438 2:-0.256022 3:0.148943 4:0.278999 5:0.333134 6:0.231873 7:0.46254 8:0.109737 
8 1:-0.154694 2:-0.242586 3:0.168868 4:0.282652 5:0.342816 6:0.227566 7:0.523755 8:0.150888 
1.107847648208669 1:-0.141255 2:-0.228457 3:0.175089 4:0.285088 5:0.350175 6:0.22361 7:0.523755 8:0.150888 
-2.430058881338415 1:0.0679785 2:-0.106473 3:0.491891 4:0.651354 5:0.512431 6:0.762882 7:0.802967 8:0.61645 
-0.2652340015776653 1:0.52174 2:0.348226 3:0.752106 4:0.494039 5:0.713159 6:0.206462 7:0.149585 8:0.24374 
-8 1:0.514519 2:0.409124 3:0.595029 4:0.393386 5:0.637232 6:0.0959023 7:0.149585 8:0.24374 
-3.999222710512398 1:0.479708 2:0.49068 3:0.313705 4:-0.0638136 5:0.365983 6:-0.49473 7:-0.138353 8:0.0141286 
-4.001079191003219 1:0.449894 2:0.506832 3:0.193291 4:-0.281714 5:0.155418 6:-0.678591 7:-0.0131146 8:0.0737193 
-0.8216415578260226 1:0.492138 2:0.530379 3:0.259681 4:-0.0860295 5:0.0876119 6:-0.20491 7:0.38719 8:0.297747 
-6.426574109167581 1:0.59043 2:0.573938 3:0.439358 4:0.295655 5:0.183957 6:0.444434 7:0.589793 8:0.446492 
0.7673522918847134 1:0.961802 2:0.858093 3:0.84982 4:0.793204 5:0.692964 6:0.830374 7:0.819242 8:0.644458 
4.152920886193129 1:1 2:0.93912 3:0.775765 4:0.752089 5:0.756796 6:0.671294 7:0.423777 8:0.410548 
3.149113170716569 1:0.923548 2:0.984713 3:0.457622 4:0.517124 5:0.712213 6:0.25387 7:-0.12667 8:0.021296 
0.6573905024196306 1:0.746051 2:0.988775 3:-0.052519 4:0.09836 5:0.460016 6:-0.282605 7:-0.254735 8:-0.0756613 
-0.4821339825026825 1:0.420552 2:0.808869 3:-0.567493 4:-0.432391 5:-0.158658 6:-0.603379 7:-0.0663237 8:-0.0972788 
1.949219262614206 1:0.365541 2:0.690384 3:-0.456821 4:-0.264573 5:-0.23023 6:-0.181032 7:0.0371473 8:-0.0422376 
-7.830677023189832 1:0.202039 2:0.48161 3:-0.449722 4:0.0502334 5:0.0237513 6:0.144923 7:-0.0816008 8:-0.133865 
-6.829951966168253 1:0.0751975 2:0.359481 3:-0.533624 4:-0.335037 5:-0.0842209 6:-0.497644 7:-0.402944 8:-0.315506 
-4.089123040742844 1:-0.203831 2:0.168617 3:-0.892828 4:-0.654054 5:-0.395481 6:-0.763242 7:-0.754577 8:-0.602322 
-5.865468910419855 1:-0.288553 2:0.0634553 3:-0.895926 4:-0.634377 5:-0.483011 6:-0.618668 7:-0.487999 8:-0.479266 
8 1:-0.546274 2:-0.392522 3:-0.599904 4:-0.647944 5:-0.663934 6:-0.428556 7:-0.451711 8:-0.501159 
6.828508127653184 1:-0.489046 2:-0.435881 3:-0.341039 4:-0.248958 5:-0.519046 6:0.197162 7:0.262904 8:-0.13416 
8 1:-0.471997 2:-0.466281 3:-0.224677 4:-0.0874148 5:-0.362544 6:0.332993 7:-0.0201388 8:-0.258227 
8 1:-0.521678 2:-0.503096 3:-0.282277 4:-0.3782 5:-0.366049 6:-0.24566 7:-0.406234 8:-0.469819 
8 1:-0.584127 2:-0.548254 3:-0.35719 4:-0.59803 5:-0.44991 6:-0.58557 7:-0.514952 8:-0.541358 
4.566015154165583 1:-0.566878 2:-0.681987 3:-0.00832116 4:-0.288019 5:-0.50402 6:0.10082 7:0.18271 8:-0.15584 
8 1:-0.443239 2:-0.655933 3:0.282196 4:0.160996 5:-0.260403 6:0.708236 7:0.481798 8:0.0804892 
8 1:-0.374702 2:-0.617851 3:0.390177 4:0.31678 5:-0.0402185 6:0.756033 7:0.2243 8:-0.0437848 
5.396714131272426 1:-0.0182943 2:-0.246452 3:0.562566 4:0.470127 5:0.548775 6:0.35597 7:0.188367 8:0.0265328 
0.4356876169570207 1:0.027821 2:-0.114298 3:0.396102 4:0.197358 5:0.407261 6:-0.0208067 7:0.326664 8:0.0815389 
8 1:0.0434122 2:-0.0793843 3:0.361743 4:0.0459278 5:0.304444 6:-0.200846 7:0.428162 8:0.122355 
8 1:0.0529284 2:-0.0490596 3:0.320536 4:-0.0550253 5:0.198461 6:-0.275904 7:0.428162 8:0.122355 
8 1:0.0536961 2:0.054818 3:0.089537 4:-0.0960328 5:0.127527 6:-0.272903 7:-0.185546 8:-0.037389 
8 1:0.0675109 2:0.0619699 3:0.112479 4:0.135173 5:0.151052 6:0.16228 7:0.406098 8:0.197003 
8 1:0.10395 2:0.0925958 3:0.146593 4:0.566885 5:0.45821 6:0.658694 7:0.575671 8:0.295769 
8 1:0.0863127 2:0.096921 3:0.0870993 4:0.411912 5:0.474137 6:0.32893 7:-0.0911933 8:-0.0068723 
8 1:0.0342062 2:0.0872758 3:-0.0383334 4:-0.0503007 5:0.313341 6:-0.404417 7:-0.5258 8:-0.321331 
4.060687902672434 1:-0.0326124 2:0.0627542 3:-0.171902 4:-0.368412 5:0.0881714 6:-0.771601 7:-0.679406 8:-0.472999 
8 1:-0.0516947 2:0.0383375 3:-0.17096 4:-0.311313 5:-0.0407665 6:-0.502283 7:-0.126512 8:-0.180828 
8 1:-0.0877611 2:0.00973311 3:-0.208559 4:-0.422788 5:-0.168066 6:-0.572829 7:-0.310009 8:-0.307597 
8 1:-0.0587195 2:-0.00584618 3:-0.0916132 4:-0.0484826 5:-0.11412 6:0.112649 7:0.228411 8:0.041077 
8 1:-0.0453017 2:-0.0149349 3:-0.0333376 4:0.141238 5:-0.00779671 6:0.365228 7:0.142439 8:-0.0115202 
8 1:-0.0598786 2:-0.0258721 3:-0.0499342 4:0.0882695 5:0.0434417 6:0.197514 7:-0.10081 8:-0.161218 
8 1:-0.05722 2:-0.0339532 3:-0.0242906 4:0.193395 5:0.116587 6:0.320378 7:0.0522613 8:-0.0719427 
8 1:-0.0566892 2:-0.0402846 3:-0.00858075 4:0.263479 5:0.191341 6:0.37107 7:0.0522613 8:-0.0719427 
8 1:-0.0734328 2:-0.0495609 3:-0.0350215 4:0.185368 5:0.21221 6:0.189436 7:-0.155659 8:-0.182123 
8 1:-0.0879184 2:-0.0606251 3:-0.051075 4:0.11769 5:0.201023 6:0.0672148 7:-0.155659 8:-0.182123 
8 1:-0.123872 2:-0.0785192 3:-0.112396 4:-0.210769 5:0.0717554 6:-0.435898 7:-0.437913 8:-0.342697 
8 1:-0.133331 2:-0.0952136 3:-0.101625 4:-0.240848 5:-0.0255783 6:-0.379283 7:-0.0999625 8:-0.19025 
8 1:-0.121925 2:-0.1057 3:-0.0458901 4:-0.0866995 5:-0.0333007 6:-0.0610258 7:0.149811 8:-0.056917 
8 1:-0.141106 2:-0.118914 3:-0.0703737 4:-0.231174 5:-0.092028 6:-0.280079 7:-0.209193 8:-0.247761 
8 1:-0.15283 2:-0.132434 3:-0.0731202 4:-0.279637 5:-0.149152 6:-0.308609 7:-0.150756 8:-0.219046 
8 1:-0.135175 2:-0.138809 3:-0.00897457 4:0.0230244 5:-0.0749918 6:0.208984 7:0.191239 8:-0.0339758 
8 1:-0.0400973 2:-0.119996 3:0.217176 4:0.368358 5:0.102517 6:0.687979 7:0.617511 8:0.313453 
8 1:0.0404475 2:-0.0846881 3:0.365279 4:0.43907 5:0.24708 6:0.656084 7:0.640094 8:0.337026 
3.282511385762057 1:0.0852853 2:-0.0451646 3:0.403128 4:0.422408 5:0.337276 6:0.514351 7:0.414661 8:0.217927 
4.631046120446562 1:0.238343 2:0.209133 3:0.264366 4:0.343296 5:0.528053 6:0.126636 7:-0.11071 8:-0.00178742 
8 1:0.193045 2:0.216995 3:0.118853 4:0.00300613 5:0.369055 6:-0.364483 7:-0.312806 8:-0.133828 
1.548635615532426 1:0.199956 2:0.225022 3:0.120343 4:0.121729 5:0.307085 6:-0.0520783 7:0.18212 8:0.101946 
8 1:-0.0255149 2:0.155753 3:-0.360616 4:-0.430861 5:-0.0715609 6:-0.704923 7:-0.665736 8:-0.536774 
8 1:-0.0941445 2:0.10206 3:-0.433818 4:-0.486382 5:-0.21218 6:-0.647315 7:-0.374611 8:-0.374707 
8 1:-0.18025 2:0.0374496 3:-0.531843 4:-0.653151 5:-0.367773 6:-0.794711 7:-0.506933 8:-0.476263 
8 1:-0.302469 2:-0.0449783 3:-0.691814 4:-0.80022 5:-0.526042 6:-0.899405 7:-0.677565 8:-0.62308 
0.378737421535792 1:-0.566958 2:-0.322295 3:-0.815921 4:-0.963642 5:-0.86248 6:-0.822883 7:-0.775812 8:-0.719586 
-1.537869503514903 1:-0.896651 2:-0.654891 3:-1 4:-1 5:-0.990685 6:-0.741773 7:-0.888854 8:-0.871202 
-3.02766825633473 1:-0.957958 2:-0.928768 3:-0.558303 4:-0.622406 5:-0.880492 6:-0.11726 7:-0.00497518 8:-0.40845 
-2.216955613065473 1:-0.626054 2:-0.835162 3:0.168461 4:-0.151454 5:0.14126 6:-0.400486 7:-0.247066 8:-0.384599 
4.526899040694499 1:-0.562187 2:-0.755694 3:0.170364 4:-0.437776 5:-0.263428 6:-0.488333 7:-0.344469 8:-0.418345 
7.135204243586252 1:-0.532073 2:-0.708273 3:0.148925 4:-0.569476 5:-0.558216 6:-0.398249 7:-0.0466979 8:-0.288537 
0.1106213149125053 1:-0.530421 2:-0.698889 3:0.132523 4:-0.704559 5:-0.617528 6:-0.597776 7:-0.302188 8:-0.398387 
7.60688535147738 1:-0.364407 2:-0.559447 3:0.288143 4:0.262445 5:0.0642334 6:0.521666 7:0.330147 8:-0.0449343 
8 1:-0.336626 2:-0.531087 3:0.302901 4:0.328584 5:0.180583 6:0.51449 7:0.228615 8:-0.0822833 
5.837630104005829 1:-0.324931 2:-0.505457 3:0.278385 4:0.253045 5:0.230136 6:0.303558 7:-0.0514323 8:-0.192615 
8 1:-0.310368 2:-0.48129 3:0.265246 4:0.242562 5:0.259284 6:0.247538 7:0.0327202 8:-0.155172 
8 1:-0.309328 2:-0.461695 3:0.224199 4:0.00200624 5:0.189504 6:-0.15083 7:-0.231681 8:-0.267702 
8 1:-0.377403 2:-0.463141 3:0.0352877 4:-0.363448 5:0.00745401 6:-0.664703 7:-0.790093 8:-0.683939 
1.9020888408759 1:-0.42474 2:-0.476203 3:-0.0690134 4:-0.535306 5:-0.177647 6:-0.786857 7:-0.714616 8:-0.64464 
8 1:-0.463092 2:-0.496299 3:-0.132164 4:-0.547058 5:-0.305406 6:-0.656963 7:-0.734543 8:-0.66229 
8 1:-0.423757 2:-0.502482 3:-0.00725217 4:-0.191146 5:-0.258587 6:0.000207633 7:0.15958 8:-0.125128 
8 1:-0.405917 2:-0.502942 3:0.044139 4:-0.0191249 5:-0.163579 6:0.2309 7:-0.0079076 8:-0.219999 
8 1:-0.370014 2:-0.49428 3:0.126038 4:0.232589 5:-0.00689182 6:0.547249 7:0.164052 8:-0.100887 
8 1:-0.339873 2:-0.479769 3:0.178548 4:0.400398 5:0.159799 6:0.683401 7:0.164052 8:-0.100887 
8 1:-0.310689 2:-0.460821 3:0.218395 4:0.530216 5:0.31907 6:0.752314 7:0.206365 8:-0.0749725 
8 1:-0.317692 2:-0.447423 3:0.168555 4:0.512487 5:0.418676 6:0.597141 7:-0.236899 8:-0.294377 
8 1:-0.349066 2:-0.444596 3:0.0736476 4:0.364869 5:0.430335 6:0.287246 7:-0.472272 8:-0.445375 
8 1:-0.41088 2:-0.457881 3:-0.0710146 4:0.0724582 5:0.329666 6:-0.177961 7:-0.67994 8:-0.612369 
8 1:-0.433427 2:-0.47418 3:-0.0980751 4:-0.00608307 5:0.233425 6:-0.219798 7:-0.351272 8:-0.434451 
8 1:-0.436656 2:-0.488031 3:-0.0760976 4:-0.0965747 5:0.135706 6:-0.283813 7:-0.204045 8:-0.351594 
8 1:-0.377905 2:-0.484336 3:0.081446 4:0.21437 5:0.185875 6:0.2792 7:0.283717 8:-0.0232355 
8 1:-0.325871 2:-0.468293 3:0.19231 4:0.383766 5:0.282143 6:0.503117 7:0.307108 8:-0.00514725 
8 1:-0.303098 2:-0.44973 3:0.214927 4:0.384542 5:0.346608 6:0.427242 7:0.0664575 8:-0.124783 
8 1:-0.30741 2:-0.435965 3:0.171859 4:0.250472 5:0.339865 6:0.166607 7:-0.17256 8:-0.254558 
8 1:-0.293886 2:-0.421551 3:0.177679 4:0.250817 5:0.335498 6:0.172543 7:-0.00310549 8:-0.162798 
8 1:-0.289947 2:-0.40903 3:0.160692 4:0.206184 5:0.316034 6:0.106458 7:-0.0950181 8:-0.20888 
8 1:-0.27796 2:-0.395997 3:0.165276 4:0.221291 5:0.30866 6:0.145596 7:0.00773178 8:-0.158613 
8 1:-0.259803 2:-0.381005 3:0.182875 4:0.201455 5:0.296388 6:0.120574 7:0.111899 8:-0.107446 
8 1:-0.248722 2:-0.366224 3:0.180976 4:0.111324 5:0.254782 6:-0.0101138 7:0.0365031 8:-0.137033 
8 1:-0.258913 2:-0.356962 3:0.131421 4:-0.0513054 5:0.166732 6:-0.230339 7:-0.282824 8:-0.278629 
8 1:-0.254449 2:-0.34843 3:0.12487 4:-0.0230022 5:0.118528 6:-0.11571 7:-0.061575 8:-0.185806 
8 1:-0.258058 2:-0.342512 3:0.1014 4:-0.000112186 5:0.0948817 6:-0.041426 7:-0.193653 8:-0.244856 
8 1:-0.287452 2:-0.345171 3:0.0243951 4:-0.280414 5:-0.024834 6:-0.459485 7:-0.519654 8:-0.42669 
8 1:-0.317212 2:-0.354783 3:-0.0380333 4:-0.551729 5:-0.205263 6:-0.786607 7:-0.586332 8:-0.472451 
8 1:-0.323515 2:-0.364057 3:-0.0350063 4:-0.563713 5:-0.329993 6:-0.660815 7:-0.238237 8:-0.325358 
8 1:-0.319169 2:-0.370384 3:-0.0085386 4:-0.487255 5:-0.384791 6:-0.441742 7:-0.0888986 8:-0.255671 
8 1:-0.314331 2:-0.374229 3:0.0137468 4:-0.436284 5:-0.402421 6:-0.318398 7:-0.0888986 8:-0.255671 
8 1:-0.313064 2:-0.376986 3:0.0235131 4:-0.416377 5:-0.406792 6:-0.273247 7:-0.177051 8:-0.289851 
8 1:-0.302906 2:-0.376636 3:0.0514017 4:-0.3074 5:-0.369291 6:-0.0998514 7:0.0314524 8:-0.205627 
8 1:-0.2976 2:-0.375022 3:0.0627553 4:-0.262093 5:-0.327488 6:-0.0592458 7:-0.0825855 8:-0.245441 
8 1:-0.284455 2:-0.370425 3:0.0895415 4:-0.129347 5:-0.25039 6:0.114234 7:0.133372 8:-0.155549 
8 1:-0.28482 2:-0.366839 3:0.0804612 4:-0.194662 5:-0.223214 6:-0.0493275 7:-0.205805 8:-0.283051 
8 1:-0.276264 2:-0.361819 3:0.0933442 4:-0.135664 5:-0.183216 6:0.0208908 7:0.0171501 8:-0.188517 
8 1:-0.272517 2:-0.35686 3:0.0927906 4:-0.120258 5:-0.150838 6:0.0128815 7:-0.0998849 8:-0.233913 
8 1:-0.264779 2:-0.350946 3:0.101359 4:-0.0621345 5:-0.107697 6:0.0775704 7:0.0262109 8:-0.182257 
8 1:-0.250102 2:-0.342524 3:0.123884 4:0.0723204 5:-0.0290734 6:0.252643 7:0.243137 8:-0.0816335 
8 1:-0.230156 2:-0.33077 3:0.153802 4:0.257663 5:0.0920775 6:0.478637 7:0.407986 8:0.0118174 
8 1:-0.21801 2:-0.318312 3:0.160121 4:0.414353 5:0.230954 6:0.62591 7:0.22579 8:-0.050232 
8 1:-0.216016 2:-0.307844 3:0.142254 4:0.408384 5:0.321325 6:0.505401 7:-0.0827138 8:-0.16965 
8 1:-0.221997 2:-0.300973 3:0.109951 4:0.293974 5:0.339142 6:0.254673 7:-0.313081 8:-0.278869 
5.433379099070053 1:-0.230257 2:-0.297555 3:0.0789592 4:0.190094 5:0.312497 6:0.0784549 7:-0.411146 8:-0.331193 
8 1:-0.232409 2:-0.295361 3:0.0679615 4:0.172111 5:0.288064 6:0.071756 7:-0.223556 8:-0.26223 
8 1:-0.233651 2:-0.293918 3:0.0612188 4:0.160123 5:0.267329 6:0.0726302 7:-0.223556 8:-0.26223 
8 1:-0.245867 2:-0.295837 3:0.0310422 4:-0.00168235 5:0.1935 6:-0.163023 7:-0.564873 8:-0.436209 
8 1:-0.262641 2:-0.30159 3:-0.00339274 4:-0.212095 5:0.0662481 6:-0.43194 7:-0.697636 8:-0.532815 
8 1:-0.271094 2:-0.308319 3:-0.0121492 4:-0.301098 5:-0.0515939 6:-0.468804 7:-0.474299 8:-0.447158 
8 1:-0.288533 2:-0.318088 3:-0.0394472 4:-0.510303 5:-0.20774 6:-0.700597 7:-0.685175 8:-0.587821 
8 1:-0.273808 2:-0.3222 3:0.0113467 4:-0.263269 5:-0.220223 6:-0.190437 7:0.141773 8:-0.128435 
8 1:-0.253554 2:-0.320396 3:0.0644674 4:0.112242 5:-0.0892858 6:0.404983 7:0.269753 8:-0.03351 
8 1:-0.248703 2:-0.317732 3:0.0721836 4:0.0965462 5:-0.00781497 6:0.275668 7:-0.0323066 8:-0.194522 
8 1:-0.228669 2:-0.310562 3:0.11264 4:0.263559 5:0.108436 6:0.470807 7:0.243277 8:-0.0104524 
8 1:-0.224273 2:-0.30372 3:0.109692 4:0.197425 5:0.161411 6:0.274617 7:-0.0281402 8:-0.162091 
8 1:-0.197074 2:-0.291406 3:0.158827 4:0.315732 5:0.240602 6:0.41664 7:0.314774 8:0.0724699 
8 1:-0.191324 2:-0.280109 3:0.149698 4:0.168709 5:0.238872 6:0.12402 7:0.00432874 8:-0.111631 
8 1:-0.179043 2:-0.267982 3:0.157146 4:0.142473 5:0.227989 6:0.0845034 7:0.123476 8:-0.036718 
8 1:-0.169584 2:-0.255902 3:0.156729 4:0.124983 5:0.214248 6:0.0659499 7:0.123476 8:-0.036718 
8 1:-0.139042 2:-0.238556 3:0.204007 4:0.301744 5:0.270639 6:0.352525 7:0.438461 8:0.170355 
8 1:-0.119182 2:-0.184514 3:0.13876 4:0.00650343 5:0.169847 6:-0.118206 7:0.0242983 8:-0.0559883 
8 1:-0.105764 2:-0.158297 3:0.117789 4:-0.00632238 5:0.10689 6:-0.0682975 7:0.155461 8:0.0113328 
8 1:-0.0996907 2:-0.150575 3:0.117599 4:0.0225231 5:0.0955174 6:0.00318156 7:0.24908 8:0.0552686 
7.619547439794245 1:-0.101132 2:-0.13986 3:0.089479 4:-0.054183 5:0.0430553 6:-0.0875592 7:0.0833584 8:-0.0105233 
8 1:-0.0499145 2:-0.11842 3:0.185926 4:0.270622 5:0.175951 6:0.403874 7:0.752911 8:0.424264 
8 1:-0.0229113 2:-0.0993622 3:0.219372 4:0.318085 5:0.251168 6:0.408666 7:0.614576 8:0.354889 
5.198980568292782 1:0.0337836 2:-0.0224093 3:0.206676 4:0.4461 5:0.459877 6:0.414585 7:0.702812 8:0.417926 
5.496062927434411 1:-0.0172113 2:-0.00693782 3:0.0280035 4:-0.159627 5:0.133051 6:-0.407008 7:-0.149428 8:-0.0122601 
8 1:-0.0294199 2:-0.0118138 3:0.00448677 4:-0.26612 5:0.00591355 6:-0.467763 7:-0.149428 8:-0.0122601 
8 1:-0.266093 2:-0.255774 3:-0.115977 4:-0.505125 5:-0.682346 6:-0.120171 7:-0.024327 8:-0.301462 
8 1:-0.267152 2:-0.270675 3:-0.0855195 4:-0.445181 5:-0.60409 6:-0.0940086 7:-0.162161 8:-0.3607 
8 1:-0.271042 2:-0.283573 3:-0.0675465 4:-0.400557 5:-0.535371 6:-0.0871014 7:-0.292066 8:-0.419086 
8 1:-0.269304 2:-0.293455 3:-0.0404604 4:-0.119114 5:-0.385184 6:0.296645 7:-0.103533 8:-0.331169 
8 1:-0.259277 2:-0.298839 3:-7.1722e-05 4:0.273599 5:-0.139419 6:0.788629 7:0.191427 8:-0.170079 
7.673189824789963 1:-0.235068 2:-0.297057 3:0.0642641 4:0.535407 5:0.121516 6:1 7:0.515308 8:0.0778936 
8 1:-0.211725 2:-0.289761 3:0.113776 4:0.654731 5:0.339725 6:0.977088 7:0.569229 8:0.129159 
8 1:-0.216632 2:-0.285158 3:0.0895935 4:0.332717 5:0.365777 6:0.30034 7:-0.195764 8:-0.268922 
8 1:-0.220212 2:-0.282376 3:0.0732442 4:0.118042 5:0.303532 6:-0.0552026 7:-0.195764 8:-0.268922 
8 1:-0.222711 2:-0.280779 3:0.0626046 4:-0.0250755 5:0.20896 6:-0.228482 7:-0.195764 8:-0.268922 
8 1:-0.220435 2:-0.278929 3:0.064877 4:-0.055233 5:0.134727 6:-0.199771 7:-0.0415484 8:-0.195041 
8 1:-0.226145 2:-0.278885 3:0.0486607 4:-0.205846 5:0.0293838 6:-0.375138 7:-0.302688 8:-0.32655 
8 1:-0.238047 2:-0.281843 3:0.0217052 4:-0.502017 5:-0.150681 6:-0.752519 7:-0.49187 8:-0.441321 
8 1:-0.246863 2:-0.286427 3:0.00710871 4:-0.699464 5:-0.343949 6:-0.916157 7:-0.49187 8:-0.441321 
8 1:-0.249261 2:-0.290697 3:0.00992577 4:-0.759316 5:-0.494991 6:-0.854712 7:-0.261642 8:-0.347403 
8 1:-0.250503 2:-0.294426 3:0.0147888 4:-0.768454 5:-0.599074 6:-0.748016 7:-0.261642 8:-0.347403 
0.8415123262483286 1:-0.263056 2:-0.309719 3:0.0136828 4:-0.54585 5:-0.676382 6:-0.208964 7:-0.00112462 8:-0.249038 
8 1:-0.270277 2:-0.315334 3:0.00590501 4:-0.563459 5:-0.556747 6:-0.387953 7:-0.50054 8:-0.527595 
8 1:-0.247104 2:-0.327845 3:0.0993966 4:0.19358 5:-0.0953553 6:0.575312 7:0.127833 8:-0.124913 
8 1:-0.242547 2:-0.322143 3:0.0994598 4:0.155792 5:0.0101101 6:0.372893 7:-0.0277874 8:-0.19747 
8 1:-0.226716 2:-0.3136 3:0.124971 4:0.326361 5:0.143677 6:0.554363 7:0.301041 8:0.00091037 
8 1:-0.225635 2:-0.306493 3:0.112072 4:0.244312 5:0.202293 6:0.319497 7:-0.102806 8:-0.208005 
8 1:-0.216619 2:-0.298541 3:0.119669 4:0.320121 5:0.269485 6:0.390747 7:0.109248 8:-0.0832628 
8 1:-0.217092 2:-0.292297 3:0.10432 4:0.207525 5:0.272522 6:0.161407 7:-0.127527 8:-0.21292 
8 1:-0.221094 2:-0.288309 3:0.0840723 4:0.0606815 5:0.22009 6:-0.0699554 7:-0.233946 8:-0.274042 
8 1:-0.231715 2:-0.28779 3:0.0529268 4:-0.180773 5:0.0955906 6:-0.404401 7:-0.42079 8:-0.388737 
8 1:-0.247401 2:-0.29132 3:0.0165726 4:-0.420047 5:-0.0761449 6:-0.677741 7:-0.566067 8:-0.490383 
8 1:-0.259076 2:-0.29708 3:-0.00345186 4:-0.573038 5:-0.247373 6:-0.778742 7:-0.566067 8:-0.490383 
8 1:-0.267474 2:-0.303801 3:-0.0120736 4:-0.667056 5:-0.396391 6:-0.78821 7:-0.566067 8:-0.490383 
8 1:-0.265409 2:-0.308658 3:0.00465774 4:-0.570226 5:-0.459827 6:-0.517926 7:-0.11058 8:-0.300371 
8 1:-0.262971 2:-0.31193 3:0.0188856 4:-0.475764 5:-0.467086 6:-0.319864 7:-0.11058 8:-0.300371 
8 1:-0.264168 2:-0.314849 3:0.0220573 4:-0.502513 5:-0.481846 6:-0.355755 7:-0.296111 8:-0.376435 
8 1:-0.268201 2:-0.318198 3:0.0181927 4:-0.610071 5:-0.531573 6:-0.511619 7:-0.449569 8:-0.44891 
8 1:-0.262707 2:-0.319496 3:0.0366136 4:-0.45248 5:-0.506282 6:-0.226116 7:0.0138046 8:-0.241959 
8 1:-0.269315 2:-0.322196 3:0.0240224 4:-0.486991 5:-0.50222 6:-0.30017 7:-0.408326 8:-0.45366 
0.4783677768569081 1:-0.285329 2:-0.328384 3:-0.00729122 4:-0.689447 5:-0.574593 6:-0.619053 7:-0.633 8:-0.610209 
8 1:-0.267086 2:-0.330311 3:0.0485275 4:-0.196603 5:-0.387295 6:0.143859 7:-0.0103612 8:-0.216109 
8 1:-0.269082 2:-0.33079 3:0.0439677 4:-0.25659 5:-0.33745 6:-0.03625 7:-0.202812 8:-0.327769 
8 1:-0.300988 2:-0.339197 3:-0.0272228 4:-0.446122 5:-0.374508 6:-0.371644 7:-0.626867 8:-0.638163 
8 1:-0.32086 2:-0.350921 3:-0.0569983 4:-0.527614 5:-0.429436 6:-0.469017 7:-0.51643 8:-0.571432 
8 1:-0.334976 2:-0.363851 3:-0.0678229 4:-0.581942 5:-0.486202 6:-0.509733 7:-0.51643 8:-0.571432 
0.7196680898758699 1:-0.445539 2:-0.480419 3:-0.11826 4:-0.619228 5:-0.665224 6:-0.369448 7:-0.50243 8:-0.644147 
-1.450146040458817 1:-0.484984 2:-0.54701 3:-0.0801312 4:-0.799979 5:-0.784734 6:-0.588208 7:-0.595084 8:-0.698233 
-8 1:-0.473415 2:-0.55554 3:-0.0283269 4:-0.599024 5:-0.729402 6:-0.251866 7:-0.143078 8:-0.475607 
4.667043923353095 1:-0.401423 2:-0.536899 3:0.133045 4:0.28621 5:-0.0281817 6:0.680301 7:-0.12963 8:-0.386186 
2.739572397002348 1:-0.390241 2:-0.526533 3:0.141341 4:0.364366 5:0.132243 6:0.644275 7:-0.12963 8:-0.386186 
-7.277436339068716 1:-0.542974 2:-0.586193 3:-0.155868 4:-0.520102 5:-0.30481 6:-0.603647 7:-0.844997 8:-0.917538 
-8 1:-0.508744 2:-0.630722 3:0.0407034 4:-0.202275 5:-0.33933 6:0.0748798 7:0.187669 8:-0.240858 
-8 1:-0.462721 2:-0.61982 3:0.146143 4:0.180379 5:-0.143421 6:0.606583 7:0.368887 8:-0.0776618 
-8 1:-0.450899 2:-0.608126 3:0.153265 4:0.171032 5:-0.016282 6:0.43514 7:-0.116981 8:-0.335341 
-8 1:-0.427 2:-0.59276 3:0.186233 4:0.278136 5:0.108198 6:0.500312 7:0.0499361 8:-0.217292 
-8 1:-0.405614 2:-0.575088 3:0.206933 4:0.314121 5:0.204529 6:0.456739 7:0.0499361 8:-0.217292 
-8 1:-0.386441 2:-0.556128 3:0.218496 4:0.338112 5:0.277647 6:0.417005 7:0.0499361 8:-0.217292 
-8 1:-0.327971 2:-0.476304 3:0.204367 4:0.216867 5:0.390412 6:0.0385363 7:-0.292098 8:-0.331684 
-8 1:-0.336109 2:-0.464442 3:0.154769 4:-0.0896997 5:0.242914 6:-0.398799 7:-0.53777 8:-0.466 
-0.4667617560270197 1:-0.378977 2:-0.456891 3:0.0168148 4:-0.29704 5:-0.0833938 6:-0.422475 7:-0.740876 8:-0.652901 
-8 1:-0.368803 2:-0.457134 3:0.0460792 4:-0.098358 5:-0.076168 6:-0.032907 7:-0.0562141 8:-0.289739 
-8 1:-0.298841 2:-0.439678 3:0.204379 4:0.236153 5:0.0612489 6:0.47255 7:0.508402 8:0.205343 
-0.3402201382425328 1:-0.211071 2:-0.403693 3:0.371359 4:0.489332 5:0.238208 6:0.767487 7:0.615429 8:0.32479 
-8 1:-0.181109 2:-0.367369 3:0.374398 4:0.447002 5:0.340482 6:0.559798 7:0.131682 8:0.00352879 
-8 1:-0.185079 2:-0.339309 3:0.300206 4:0.271001 5:0.343394 6:0.203516 7:-0.113137 8:-0.171921 
-5.876988157305282 1:-0.325232 2:-0.344965 3:-0.0827099 4:-0.526653 5:-0.250189 6:-0.682383 7:-0.314056 8:-0.373873 
-8 1:-0.353021 2:-0.363624 3:-0.119266 4:-0.605458 5:-0.375425 6:-0.689923 7:-0.368902 8:-0.409552 
-8 1:-0.369073 2:-0.382589 3:-0.122008 4:-0.63959 5:-0.471574 6:-0.642854 7:-0.31256 8:-0.381299 
-8 1:-0.387449 2:-0.402382 3:-0.12945 4:-0.688637 5:-0.553862 6:-0.64233 7:-0.387203 8:-0.422306 
-8 1:-0.415237 2:-0.425206 3:-0.156658 4:-0.684306 5:-0.607115 6:-0.569688 7:-0.524399 8:-0.501996 
-8 1:-0.43058 2:-0.447324 3:-0.15032 4:-0.608311 5:-0.614434 6:-0.408568 7:-0.439331 8:-0.46673 
-8 1:-0.424296 2:-0.463438 3:-0.0964122 4:-0.360158 5:-0.527284 6:-0.0158366 7:-0.125338 8:-0.328136 
-8 1:-0.428443 2:-0.477372 3:-0.0768418 4:-0.281884 5:-0.440157 6:0.0364104 7:-0.292971 8:-0.402213 
-8 1:-0.351002 2:-0.469042 3:0.123055 4:0.165085 5:-0.216311 6:0.663474 7:0.464594 8:0.0898888 
-8 1:-0.304135 2:-0.450591 3:0.21393 4:0.324137 5:-0.00809522 6:0.732197 7:0.263084 8:-0.0137721 
-8 1:-0.270056 2:-0.427258 3:0.257756 4:0.407017 5:0.161451 6:0.694683 7:0.210267 8:-0.0399573 
-8 1:-0.238581 2:-0.400676 3:0.286934 4:0.485425 5:0.303561 6:0.681161 7:0.246432 8:-0.0176812 
-8 1:-0.221208 2:-0.375041 3:0.278432 4:0.491387 5:0.400511 6:0.576666 7:0.106825 8:-0.0778988 
-8 1:-0.203379 2:-0.350049 3:0.272659 4:0.479617 5:0.46078 6:0.480685 7:0.160709 8:-0.0513591 
-8 1:-0.182467 2:-0.287909 3:0.192207 4:0.345679 5:0.493968 6:0.172352 7:-0.237926 8:-0.206585 
-3.925996576334237 1:-0.181103 2:-0.27474 3:0.1665 4:0.203452 5:0.420667 6:-0.0246926 7:-0.0535658 8:-0.13552 
-3.636062333871431 1:-0.207478 2:-0.270839 3:0.0832921 4:-0.0855923 5:0.264607 6:-0.416622 7:-0.471373 8:-0.360539 
-8 1:-0.272449 2:-0.284059 3:-0.0704297 4:-0.251371 5:0.0990869 6:-0.550111 7:-0.756986 8:-0.608288 
-8 1:-0.351316 2:-0.314471 3:-0.224787 4:-0.330995 5:-0.0407886 6:-0.541708 7:-0.851393 8:-0.72135 
-8 1:-0.400386 2:-0.351141 3:-0.280984 4:-0.338606 5:-0.136862 6:-0.441571 7:-0.644869 8:-0.616746 
-6.29618243260274 1:-0.416969 2:-0.384649 3:-0.252581 4:-0.262482 5:-0.172679 6:-0.245964 7:-0.316952 8:-0.442785 
-8 1:-0.40343 2:-0.472772 3:-0.0165598 4:0.199457 5:0.152221 6:0.289729 7:-0.385781 8:-0.436892 
-8 1:-0.394429 2:-0.476285 3:0.0167297 4:0.186899 5:0.186697 6:0.223147 7:-0.108766 8:-0.330735 
-8 1:-0.385087 2:-0.476745 3:0.0441335 4:0.0553754 5:0.160905 6:-0.00950512 7:-0.108766 8:-0.330735 
-8 1:-0.375583 2:-0.474723 3:0.066421 4:-0.0373334 5:0.109329 6:-0.133387 7:-0.108766 8:-0.330735 
-8 1:-0.373863 2:-0.472672 3:0.0666755 4:-0.270043 5:-0.0113559 6:-0.454884 7:-0.371731 8:-0.416125 
-1.823764260659904 1:-0.366557 2:-0.469195 3:0.0794897 4:-0.33973 5:-0.117657 6:-0.466892 7:-0.178745 8:-0.352728 
-8 1:-0.367442 2:-0.466635 3:0.0712466 4:-0.574183 5:-0.275472 6:-0.747286 7:-0.439262 8:-0.450403 
-8 1:-0.366933 2:-0.464459 3:0.0678016 4:-0.747574 5:-0.444984 6:-0.891239 7:-0.459952 8:-0.459208 
-8 1:-0.351294 2:-0.458785 3:0.0992095 4:-0.553212 5:-0.485913 6:-0.452493 7:0.116752 8:-0.230006 
-8 1:-0.337242 2:-0.450712 3:0.120752 4:-0.423638 5:-0.465146 6:-0.217712 7:0.116752 8:-0.230006 
-8 1:-0.320693 2:-0.440091 3:0.143625 4:-0.255687 5:-0.389015 6:0.0274956 7:0.252456 8:-0.163639 
-8 1:-0.302377 2:-0.426988 3:0.165915 4:0.18255 5:-0.17574 6:0.649751 7:0.372894 8:-0.0978218 
-8 1:-0.282884 2:-0.411602 3:0.186404 4:0.382683 5:0.0406642 6:0.790985 7:0.478015 8:-0.0329078 
-8 1:-0.274393 2:-0.397159 3:0.177949 4:0.332056 5:0.166158 6:0.538775 7:0.00827646 8:-0.185056 
-8 1:-0.270719 2:-0.384679 3:0.16031 4:0.166541 5:0.188439 6:0.180249 7:-0.166374 8:-0.255237 
-8 1:-0.266959 2:-0.37375 3:0.146391 4:0.0561978 5:0.162371 6:-0.00961754 7:-0.166374 8:-0.255237 
-8 1:-0.247573 2:-0.360132 3:0.170543 4:0.308906 5:0.238711 6:0.405229 7:0.409082 8:0.0339224 
-8 1:-0.239569 2:-0.347223 3:0.164163 4:0.282871 5:0.279949 6:0.303513 7:0.050443 8:-0.122297 
-8 1:-0.228871 2:-0.334206 3:0.165141 4:0.296886 5:0.312638 6:0.292343 7:0.172356 8:-0.0557502 
-8 1:-0.220086 2:-0.321583 3:0.161605 4:0.306229 5:0.337896 6:0.280734 7:0.172356 8:-0.0557502 
-8 1:-0.205097 2:-0.307714 3:0.172784 4:0.198264 5:0.314696 6:0.0921898 7:0.40934 8:0.0790797 
-8 1:-0.197122 2:-0.294613 3:0.16589 4:0.0664709 5:0.250352 6:-0.0946994 7:0.178315 8:-0.0151298 
-8 1:-0.194732 2:-0.283532 3:0.147763 4:-0.0812074 5:0.15269 6:-0.27341 7:-0.0275664 8:-0.106171 
-8 1:-0.192844 2:-0.274192 3:0.132126 4:-0.17966 5:0.0510701 6:-0.348696 7:-0.0275664 8:-0.106171 
-1.450756167436239 1:-0.18357 2:-0.264387 3:0.136295 4:-0.125662 5:0.00334879 6:-0.183143 7:0.314216 8:0.0539834 
-8 1:-0.180318 2:-0.255725 3:0.126034 4:-0.14948 5:-0.0372984 6:-0.182064 7:0.0686497 8:-0.0500142 
-8 1:-0.174018 2:-0.247212 3:0.124707 4:-0.177322 5:-0.0747217 6:-0.192922 7:0.23354 8:0.0302057 
-8 1:-0.161502 2:-0.237253 3:0.137681 4:-0.0842259 5:-0.0651456 6:-0.0178189 7:0.468699 8:0.170957 
-8 1:-0.15206 2:-0.226911 3:0.14112 4:-0.0221621 5:-0.035745 6:0.0712713 7:0.468699 8:0.170957 
-8 1:-0.141233 2:-0.215914 3:0.146998 4:0.235691 5:0.0794815 6:0.449725 7:0.571427 8:0.239123 
-8 1:-0.117743 2:-0.201209 3:0.180297 4:0.390503 5:0.213712 6:0.598813 7:0.782091 8:0.442759 
-8 1:-0.0963007 2:-0.184052 3:0.202311 4:0.54809 5:0.36164 6:0.737009 7:0.811107 8:0.481319 
-8 1:-0.0923097 2:-0.169323 3:0.180514 4:0.387111 5:0.40056 6:0.367592 7:0.170436 8:0.139398 
-8 1:-0.0864345 2:-0.156061 3:0.167332 4:0.335008 5:0.407183 6:0.255198 7:0.271524 8:0.195261 
-8 1:-0.0869513 2:-0.145582 3:0.142352 4:0.184823 5:0.355902 6:0.0157543 7:0.0885602 8:0.0917815 
-8 1:-0.0768677 2:-0.134663 3:0.146305 4:0.280461 5:0.357183 6:0.205918 7:0.390624 8:0.258137 
-8 1:-0.0741962 2:-0.125256 3:0.13273 4:0.252864 5:0.347802 6:0.161869 7:0.208229 8:0.15642 
-8 1:-0.0734619 2:-0.117545 3:0.117495 4:0.234467 5:0.334725 6:0.140699 7:0.208229 8:0.15642 
-8 1:-0.0742536 2:-0.111576 3:0.101862 4:0.0991512 5:0.275825 6:-0.0597888 7:0.208229 8:0.15642 
-8 1:-0.0762318 2:-0.107298 3:0.0866751 4:0.00894082 5:0.203104 6:-0.153265 7:0.208229 8:0.15642 
-8 1:-0.0674155 2:-0.101658 3:0.0989022 4:0.256427 5:0.246404 6:0.290798 7:0.580781 8:0.34631 
-8 1:-0.0541428 2:-0.0938079 3:0.118747 4:0.444204 5:0.344908 6:0.548874 7:0.69886 8:0.43973 
-8 1:-0.0609336 2:-0.0892358 3:0.0893159 4:0.25037 5:0.338694 6:0.167808 7:-0.0496459 8:0.010042 
-8 1:-0.0833661 2:-0.0912202 3:0.0304491 4:-0.0673648 5:0.216718 6:-0.322567 7:-0.411682 8:-0.275768 
-8 1:-0.0943945 2:-0.0955814 3:0.00910841 4:-0.0784063 5:0.131306 6:-0.24211 7:-0.163921 8:-0.141773 
-8 1:-0.108064 2:-0.102508 3:-0.0139284 4:-0.140982 5:0.0511576 6:-0.271275 7:-0.257699 8:-0.207999 
-8 1:-0.135349 2:-0.114912 3:-0.0631036 4:-0.403559 5:-0.0996523 6:-0.616458 7:-0.540478 8:-0.431371 
-8 1:-0.149586 2:-0.128416 3:-0.0729808 4:-0.468181 5:-0.224157 6:-0.596445 7:-0.276573 8:-0.290291 
-8 1:-0.161241 2:-0.142151 3:-0.075049 4:-0.471822 5:-0.308511 6:-0.502428 7:-0.276573 8:-0.290291 
-8 1:-0.162937 2:-0.153565 3:-0.0542169 4:-0.371708 5:-0.327619 6:-0.278804 7:-0.00701765 8:-0.150318 
-8 1:-0.172415 2:-0.16508 3:-0.0551226 4:-0.391732 5:-0.347784 6:-0.294721 7:-0.237896 8:-0.27861 
-8 1:-0.18008 2:-0.17622 3:-0.0517536 4:-0.267043 5:-0.314986 6:-0.084184 7:-0.237896 8:-0.27861 
-8 1:-0.186237 2:-0.18668 3:-0.0456539 4:-0.183918 5:-0.262293 6:0.019147 7:-0.237896 8:-0.27861 
-8 1:-0.187242 2:-0.195302 3:-0.0291402 4:0.0253121 5:-0.149571 6:0.303146 7:-0.0282113 8:-0.190757 
-4.595566045036485 1:-0.199802 2:-0.205358 3:-0.0420213 4:-0.108647 5:-0.124101 6:0.00404274 7:-0.449456 8:-0.405471 
-8 1:-0.22005 2:-0.227681 3:-0.049068 4:-0.211915 5:-0.16463 6:-0.154274 7:-0.313171 8:-0.367872 
-8 1:-0.232702 2:-0.239536 3:-0.0581732 4:-0.403521 5:-0.243497 6:-0.44361 7:-0.52941 8:-0.49413 
-8 1:-0.253869 2:-0.254343 3:-0.0846847 4:-0.554045 5:-0.351897 6:-0.615128 7:-0.72566 8:-0.644798 
-8 1:-0.265864 2:-0.269206 3:-0.0851802 4:-0.57464 5:-0.431801 6:-0.560436 7:-0.51346 8:-0.543337 
-8 1:-0.274436 2:-0.283252 3:-0.0778477 4:-0.588369 5:-0.490162 6:-0.517859 7:-0.51346 8:-0.543337 
-8 1:-0.272427 2:-0.293984 3:-0.0480891 4:-0.438013 5:-0.473309 6:-0.23672 7:-0.0933248 8:-0.339341 
-8 1:-0.266052 2:-0.300966 3:-0.0144229 4:-0.25802 5:-0.395323 6:0.0303957 7:0.0683211 8:-0.247718 
-8 1:-0.25633 2:-0.304106 3:0.0200705 4:-0.0582699 5:-0.269254 6:0.279362 7:0.213647 8:-0.159579 
-8 1:-0.247995 2:-0.304522 3:0.0445303 4:0.0748968 5:-0.135822 6:0.386023 7:0.213647 8:-0.159579 
-6.666213579525907 1:-0.270149 2:-0.312394 3:-0.000336821 4:-0.337841 5:-0.197555 6:-0.36714 7:-0.599398 8:-0.575847 
-8 1:-0.283912 2:-0.320186 3:-0.021695 4:-0.52476 5:-0.310408 6:-0.606258 7:-0.665315 8:-0.625894 
-8 1:-0.289763 2:-0.327891 3:-0.0209153 4:-0.57363 5:-0.403768 6:-0.592084 7:-0.434941 8:-0.516 
-8 1:-0.285448 2:-0.33297 3:0.00266511 4:-0.478033 5:-0.430555 6:-0.368291 7:-0.0662034 8:-0.318031 
-8 1:-0.281018 2:-0.335919 3:0.0217879 4:-0.387913 5:-0.414991 6:-0.206343 7:-0.0662034 8:-0.318031 
-8 1:-0.27655 2:-0.337154 3:0.0371746 4:-0.327832 5:-0.382335 6:-0.125139 7:-0.0662034 8:-0.318031 
-8 1:-0.272101 2:-0.337023 3:0.0494383 4:-0.287779 5:-0.345709 6:-0.0888445 7:-0.0662034 8:-0.318031 
-8 1:-0.267719 2:-0.335817 3:0.0590989 4:-0.137925 5:-0.265719 6:0.115451 7:-0.0662034 8:-0.318031 
-8 1:-0.26734 2:-0.334756 3:0.0577888 4:-0.0150167 5:-0.16681 6:0.243016 7:-0.360941 8:-0.420078 
-8 1:-0.2623 2:-0.33264 3:0.0672657 4:0.20496 5:-0.0192924 6:0.506762 7:-0.0065538 8:-0.278627 
-8 1:-0.261467 2:-0.330737 3:0.0653472 4:0.213573 5:0.0822473 6:0.402069 7:-0.278167 8:-0.384685 
-8 1:-0.244436 2:-0.324932 3:0.100389 4:0.49539 5:0.254453 6:0.760118 7:0.426274 8:0.040331 
-8 1:-0.242213 2:-0.319729 3:0.0949837 4:0.324371 5:0.305834 6:0.355607 7:-0.0979787 8:-0.241424 
-8 1:-0.239916 2:-0.314988 3:0.0908283 4:0.210358 5:0.297806 6:0.136718 7:-0.0979787 8:-0.241424 
-8 1:-0.207802 2:-0.272314 3:0.085689 4:0.294466 5:0.552022 6:-3.0148e-05 7:-0.401285 8:-0.365021 
-8 1:-0.210546 2:-0.26689 3:0.0657667 4:0.180875 5:0.408191 6:-0.054962 7:-0.209094 8:-0.264148 
-8 1:-0.209039 2:-0.264951 3:0.0656695 4:0.204419 5:0.363841 6:0.045498 7:-0.045075 8:-0.175103 
-8 1:-0.207681 2:-0.263059 3:0.0652568 4:0.220114 5:0.340096 6:0.10548 7:-0.045075 8:-0.175103 
-8 1:-0.218155 2:-0.264179 3:0.0382047 4:-0.0385945 5:0.228322 6:-0.278836 7:-0.460039 8:-0.41674 
-8 1:-0.22608 2:-0.267069 3:0.0223212 4:-0.211067 5:0.0898438 6:-0.458222 7:-0.460039 8:-0.41674 
-8 1:-0.231917 2:-0.270849 3:0.0143298 4:-0.300413 5:-0.0356094 6:-0.48663 7:-0.460039 8:-0.41674 
-8 1:-0.22825 2:-0.27295 3:0.0293977 4:-0.0865322 5:-0.0399261 6:-0.0527329 7:0.030603 8:-0.191324 
-8 1:-0.221079 2:-0.272828 3:0.0493636 4:0.175688 5:0.0544414 6:0.359527 7:0.198865 8:-0.0945703 
-8 1:-0.219047 2:-0.272219 3:0.0537339 4:0.230868 5:0.137817 6:0.369991 7:-0.0349534 8:-0.197899 
-8 1:-0.213262 2:-0.270277 3:0.0657041 4:0.363361 5:0.242537 6:0.509788 7:0.153659 8:-0.097011 
-8 1:-0.212404 2:-0.268507 3:0.064154 4:0.415801 5:0.331797 6:0.507689 7:-0.0812827 8:-0.203628 
-8 1:-0.207615 2:-0.265887 3:0.0717912 4:0.630208 5:0.470818 6:0.770479 7:0.12228 8:-0.0991244 
-8 1:-0.215402 2:-0.265749 3:0.0494998 4:0.234801 5:0.41686 6:0.0427179 7:-0.388753 8:-0.378307 
-8 1:-0.199231 2:-0.252304 3:0.0649679 4:0.0986658 5:0.398695 6:-0.208341 7:-0.240953 8:-0.277511 
-8 1:-0.212352 2:-0.25398 3:0.031691 4:-0.468419 5:-0.00844293 6:-0.856017 7:-0.352849 8:-0.346131 
-8 1:-0.226112 2:-0.258917 3:0.0039338 4:-0.543522 5:-0.191292 6:-0.786938 7:-0.537439 8:-0.470936 
-8 1:-0.220918 2:-0.261561 3:0.0245302 4:-0.259734 5:-0.207947 6:-0.198096 7:0.0435163 8:-0.150762 
-8 1:-0.220435 2:-0.263554 3:0.0303669 4:-0.154005 5:-0.17984 6:-0.0199283 7:-0.0785874 8:-0.218736 
-8 1:-0.22365 2:-0.265958 3:0.0266874 4:-0.166984 5:-0.165916 6:-0.0626682 7:-0.199177 8:-0.285713 
-8 1:-0.214122 2:-0.265484 3:0.0525182 4:0.0747563 5:-0.0669827 6:0.303058 7:0.16569 8:-0.0726895 
-8 1:-0.206422 2:-0.263168 3:0.0690571 4:0.235917 5:0.05874 6:0.47509 7:0.16569 8:-0.0726895 
-8 1:-0.208041 2:-0.261723 3:0.0612411 4:0.176428 5:0.120494 6:0.281676 7:-0.141955 8:-0.225125 
-8 1:-0.209144 2:-0.260844 3:0.0561566 4:0.136769 5:0.146955 6:0.1704 7:-0.141955 8:-0.225125 
-8 1:-0.198126 2:-0.25737 3:0.0794574 4:0.360723 5:0.24765 6:0.498358 7:0.269878 8:-0.0023713 
-4.887284264294667 1:-0.189441 2:-0.252407 3:0.0928323 4:0.449931 5:0.347863 6:0.556804 7:0.269878 8:-0.0023713 
-8 1:-0.163179 2:-0.24183 3:0.143224 4:0.652962 5:0.489967 6:0.793088 7:0.623486 8:0.270534 
-1.737845975787419 1:-0.0892159 2:-0.157421 3:0.162533 4:0.715579 5:0.722708 6:0.639056 7:0.493652 8:0.261179 
4.821944512637059 1:-0.0863773 2:-0.137923 3:0.126781 4:0.547485 5:0.711603 6:0.315459 7:0.236198 8:0.148808 
-8 1:-0.110557 2:-0.137009 3:0.0564761 4:0.000203998 5:0.490382 6:-0.515825 7:-0.57366 8:-0.36082 
-5.852341735932773 1:-0.118743 2:-0.138336 3:0.0363473 4:-0.0954772 5:0.307417 6:-0.487855 7:-0.144261 8:-0.143745 
-8 1:-0.126008 2:-0.141225 3:0.0223254 4:-0.159265 5:0.161785 6:-0.440795 7:-0.144261 8:-0.143745 
-8 1:-0.128568 2:-0.144181 3:0.0217335 4:-0.112065 5:0.0822013 6:-0.250599 7:-0.00187668 8:-0.0732891 
-8 1:-0.131312 2:-0.147235 3:0.0208426 4:-0.0805993 5:0.0408146 6:-0.137818 7:-0.00187668 8:-0.0732891 
-8 1:-0.126369 2:-0.148435 3:0.03749 4:0.196733 5:0.116073 6:0.327686 7:0.278631 8:0.0684077 
-8 1:-0.119359 2:-0.147632 3:0.0554736 4:0.223147 5:0.176042 6:0.308604 7:0.386063 8:0.132066 
-8 1:-0.118612 2:-0.146802 3:0.0557192 4:0.175503 5:0.198352 6:0.186307 7:0.150855 8:0.0279771 
-8 1:-0.11888 2:-0.146205 3:0.0536252 4:0.14374 5:0.201445 6:0.118924 7:0.150855 8:0.0279771 
-8 1:-0.119938 2:-0.145994 3:0.0501624 4:0.122565 5:0.195655 6:0.0834343 7:0.150855 8:0.0279771 
-8 1:-0.125506 2:-0.147225 3:0.0372107 4:0.0431938 5:0.16236 6:-0.035669 7:-0.145574 8:-0.0930183 
