svm_type epsilon_svr
kernel_type rbf
gamma 1
nr_class 2
total_sv 308
rho -17.0793
SV
-1.215338021506644 1:-0.00799604 2:-0.0255453 3:-0.0211615 4:-0.257438 5:0.0223107 6:-0.576261 7:1 8:1 
3.895934120555585 1:0.00786661 2:-0.0150347 3:-0.00163719 4:-0.023172 5:0.0105459 6:-0.105212 7:1 8:1 
-23.03240124199311 1:0.0522088 2:0.00657903 3:0.0709766 4:0.404456 5:0.137344 6:0.571972 7:0.774289 8:0.733521 
11.71203162529727 1:0.119639 2:0.0423072 3:0.174757 4:0.574714 5:0.297415 6:0.706583 7:0.861819 8:0.825347 
512 1:0.130566 2:0.0687099 3:0.143709 4:0.543644 5:0.393207 6:0.528019 7:0.422534 8:0.419622 
512 1:0.131299 2:0.10657 3:0.0578301 4:0.498412 5:0.509005 6:0.297208 7:0.0429072 8:0.0784425 
512 1:0.0736656 2:0.0985493 3:-0.0831549 4:0.235753 5:0.426031 6:-0.112462 7:-0.19885 8:-0.143507 
-49.02007483552642 1:0.0340442 2:0.0679694 3:-0.121875 4:0.0313723 5:0.205902 6:-0.239583 7:-0.092695 8:-0.0844074 
253.6636059941891 1:-0.000439897 2:0.0405428 3:-0.153691 4:-0.370848 5:-0.0728001 6:-0.680111 7:-0.171681 8:-0.137795 
252.528663420692 1:-0.0213324 2:0.0235459 3:-0.172084 4:-0.51472 5:-0.22566 6:-0.772183 7:-0.212611 8:-0.162781 
512 1:-0.0541701 2:0.00211016 3:-0.21325 4:-0.696692 5:-0.391536 6:-0.922469 7:-0.372418 8:-0.262382 
509.4162278253847 1:-0.170523 2:-0.04321 3:-0.430244 4:-0.818006 5:-0.544767 6:-0.97012 7:-0.762383 8:-0.61931 
-170.4963810504029 1:-0.390787 2:-0.243102 3:-0.576093 4:-0.514159 5:-0.642167 6:-0.257966 7:-0.192236 8:-0.365691 
348.2819991680087 1:-0.380989 2:-0.288986 3:-0.442416 4:-0.302915 5:-0.53078 6:0.016498 7:-0.121782 8:-0.322453 
204.684407325928 1:-0.389194 2:-0.430208 3:-0.137224 4:0.102586 5:-0.0342626 6:0.195077 7:-0.424028 8:-0.466148 
512 1:-0.3518 2:-0.431287 3:-0.0311608 4:0.216844 5:0.0572053 6:0.305067 7:0.118902 8:-0.231406 
512 1:-0.318627 2:-0.424224 3:0.0443107 4:0.192616 5:0.109667 6:0.193219 7:0.118902 8:-0.231406 
512 1:-0.309664 2:-0.416438 3:0.0510504 4:-0.00202398 5:0.0762177 6:-0.144902 7:-0.187561 8:-0.344574 
512 1:-0.262972 2:-0.399063 3:0.140014 4:0.18057 5:0.118107 6:0.159346 7:0.236561 8:-0.122971 
512 1:-0.171496 2:-0.363332 3:0.310379 4:0.3023 5:0.188826 6:0.309458 7:0.533848 8:0.109889 
266.8614418907564 1:-0.0614592 2:-0.308492 3:0.487777 4:0.533068 5:0.317097 6:0.601173 7:0.652314 8:0.233509 
184.1965308203409 1:0.0996046 2:-0.122565 3:0.502105 4:0.5417 5:0.558077 6:0.321115 7:0.0155515 8:-0.0603207 
512 1:0.111375 2:-0.0746747 3:0.4235 4:0.43281 5:0.528019 6:0.145933 7:0.0594489 8:-0.0372989 
512 1:0.156747 2:-0.0255415 3:0.435066 4:0.525581 5:0.540593 6:0.311242 7:0.323427 8:0.112564 
512 1:0.211892 2:0.0269178 3:0.465975 4:0.666174 5:0.598399 6:0.514024 7:0.436412 8:0.187129 
105.2210403561817 1:0.30114 2:0.0901736 3:0.566257 4:0.640127 5:0.62778 6:0.427065 7:0.616522 8:0.328237 
17.70319290566361 1:0.454151 2:0.177278 3:0.787749 4:0.7226 5:0.67636 6:0.527946 7:0.775767 8:0.499766 
-265.7910441680248 1:0.640746 2:0.446607 3:0.679124 4:0.582372 5:0.700764 6:0.224595 7:0.159449 8:0.108066 
123.7725406294343 1:0.70984 2:0.619371 3:0.469315 4:0.611195 5:0.647242 6:0.346704 7:0.270101 8:0.166543 
110.2084995696653 1:0.66318 2:0.650488 3:0.267844 4:0.352248 5:0.559142 6:-0.0494143 7:-0.0961732 8:-0.0515408 
87.86794722063726 1:0.547206 2:0.647717 3:-0.046898 4:-0.0752966 5:0.350109 6:-0.625127 7:-0.378725 8:-0.257631 
153.6241356542537 1:0.405798 2:0.611768 3:-0.35504 4:-0.403743 5:0.0952929 6:-0.951304 7:-0.506204 8:-0.364492 
140.097943154758 1:0.290312 2:0.555462 3:-0.544123 4:-0.359364 5:-0.0589838 6:-0.67475 7:-0.506204 8:-0.364492 
10.32629880594463 1:0.279612 2:0.507865 3:-0.463234 4:-0.0999294 5:-0.0706337 6:-0.154792 7:0.0134152 8:-0.111897 
94.88747696580208 1:0.275338 2:0.413344 3:-0.255597 4:0.338787 5:0.180489 6:0.390839 7:-0.0148578 8:-0.117397 
42.94467365158938 1:0.228901 2:0.363069 3:-0.267459 4:0.435668 5:0.33082 6:0.394445 7:-0.14063 8:-0.176684 
-214.5854133923351 1:0.157916 2:0.300597 3:-0.318985 4:0.434359 5:0.408007 6:0.296802 7:-0.22492 8:-0.21704 
64.84634643252573 1:0.0914833 2:0.259098 3:-0.406602 4:0.0431206 5:0.290981 6:-0.321502 7:-0.507394 8:-0.36356 
-154.7958846195521 1:0.0662667 2:0.219884 3:-0.385381 4:-0.170337 5:0.137925 6:-0.548946 7:-0.166462 8:-0.236276 
35.30017208944477 1:0.0271618 2:0.146952 3:-0.324332 4:-0.299301 5:-0.120132 6:-0.482364 7:0.00157982 8:-0.173955 
512 1:-0.0754199 2:0.0963697 3:-0.490968 4:-0.455722 5:-0.236474 6:-0.643879 7:-0.554889 8:-0.503846 
-46.27426901278817 1:-0.233465 2:-0.0379139 3:-0.61685 4:-0.425884 5:-0.386823 6:-0.400503 7:-0.21216 8:-0.354248 
512 1:-0.286789 2:-0.145382 3:-0.514984 4:-0.275541 5:-0.323236 6:-0.18584 7:-0.312086 8:-0.408742 
512 1:-0.414615 2:-0.300827 3:-0.508045 4:-0.588171 5:-0.447171 6:-0.642434 7:-0.535742 8:-0.536524 
512 1:-0.482001 2:-0.358838 3:-0.559962 4:-0.745659 5:-0.556424 6:-0.814763 7:-0.667765 8:-0.624871 
53.39727738099333 1:-0.563115 2:-0.424595 3:-0.63191 4:-0.850651 5:-0.666169 6:-0.884179 7:-0.764433 8:-0.702875 
123.0093773466899 1:-0.892728 2:-0.757257 3:-0.772299 4:-0.8913 5:-0.850123 6:-0.736773 7:-0.914724 8:-0.860674 
490.8594339632471 1:-0.897819 2:-0.877168 3:-0.507967 4:-0.756031 5:-0.831675 6:-0.495877 7:-0.440804 8:-0.664726 
393.3666216386109 1:-0.854321 2:-0.908722 3:-0.314236 4:-0.581466 5:-0.75504 6:-0.250084 7:-0.0529701 8:-0.476886 
149.7136214280963 1:-0.821854 2:-0.926221 3:-0.18369 4:-0.473457 5:-0.665981 6:-0.149305 7:-0.175729 8:-0.518414 
379.3242146851107 1:-0.775879 2:-0.929254 3:-0.0493273 4:-0.17834 5:-0.502863 6:0.224886 7:-0.0239042 8:-0.441906 
214.0941609690388 1:-0.756846 2:-0.929714 3:0.00445008 4:-0.480485 5:-0.450693 6:-0.42823 7:-0.406659 8:-0.587017 
27.7364867851559 1:-0.691203 2:-0.898131 3:0.112908 4:-0.136538 5:-0.269703 6:0.0191083 7:-0.364963 8:-0.565497 
107.8692758567034 1:-0.653988 2:-0.877706 3:0.168543 4:-0.0238482 5:-0.184368 6:0.133597 7:-0.105512 8:-0.46103 
447.3440977077186 1:-0.567575 2:-0.818562 3:0.270523 4:0.23892 5:0.0383567 6:0.371312 7:-0.0212497 8:-0.396606 
-150.683294210927 1:-0.51403 2:-0.780666 3:0.330816 4:0.514438 5:0.210234 6:0.696516 7:0.27145 8:-0.24352 
338.268440066114 1:-0.389884 2:-0.687376 3:0.458005 4:0.86533 5:0.550125 6:0.961628 7:0.615673 8:0.0213511 
-232.8226415300782 1:-0.251733 2:-0.565724 3:0.558123 4:0.922644 5:0.786066 6:0.782654 7:0.678889 8:0.0929107 
465.4277143184951 1:-0.211147 2:-0.506147 3:0.532184 4:0.85338 5:0.827859 6:0.596181 7:0.317668 8:-0.0262698 
205.1580055534223 1:-0.134536 2:-0.397724 3:0.492593 4:0.778417 5:0.798813 6:0.485871 7:0.450796 8:0.111904 
512 1:-0.0909637 2:-0.343079 3:0.486376 4:0.727638 5:0.792153 6:0.395113 7:0.450796 8:0.111904 
262.9750891187994 1:-0.010778 2:-0.280236 3:0.56252 4:0.829979 5:0.82369 6:0.555711 7:0.711226 8:0.347425 
253.0718118965097 1:0.0069729 2:-0.225727 3:0.485111 4:0.618834 5:0.770489 6:0.209756 7:0.0417039 8:-0.0381104 
135.8160734951307 1:0.0150715 2:-0.180188 3:0.401799 4:0.326743 5:0.63234 6:-0.189299 7:-0.0203676 8:-0.0782025 
126.094110690823 1:0.0211536 2:-0.142306 3:0.330682 4:0.132016 5:0.471787 6:-0.371002 7:-0.0203676 8:-0.0782025 
295.9560835417365 1:0.0206883 2:-0.0674356 3:0.155545 4:-0.288925 5:0.0163988 6:-0.630343 7:-0.123834 8:-0.129363 
105.4400441448197 1:0.055637 2:0.0010908 3:0.093214 4:-0.173193 5:-0.120683 6:-0.235915 7:-0.155069 8:-0.144079 
512 1:0.0318527 2:0.00526894 3:0.0176447 4:-0.354265 5:-0.201175 6:-0.489638 7:-0.41191 8:-0.300656 
86.36900402942835 1:-0.0623862 2:-0.0212932 3:-0.181662 4:-0.555455 5:-0.389628 6:-0.649567 7:-0.687494 8:-0.535375 
512 1:-0.118527 2:-0.069932 3:-0.224198 4:-0.49029 5:-0.493115 6:-0.395074 7:-0.0936595 8:-0.275231 
264.4845221380216 1:-0.0848674 2:-0.0793912 3:-0.109018 4:-0.291761 5:-0.427491 6:-0.0890129 7:0.231389 8:-0.0439339 
512 1:-0.0226447 2:-0.0697421 3:0.0408949 4:-0.0193544 5:-0.209579 6:0.173415 7:0.116052 8:-0.0774489 
512 1:-0.0421679 2:-0.0690539 3:-0.01477 4:-0.133262 5:-0.182748 6:-0.0816317 7:-0.23364 8:-0.293484 
378.8255036838814 1:-0.0345161 2:-0.0666782 3:0.000904354 4:-0.105561 5:-0.155123 6:-0.0616804 7:0.00677902 8:-0.148642 
511.0321087294557 1:-0.0113 2:-0.0592397 3:0.0479265 4:-0.00936593 5:-0.10289 6:0.0614436 7:0.160213 8:-0.0506038 
186.9714089251314 1:0.0084759 2:-0.0348934 3:0.0461618 4:-0.134853 5:-0.0621026 6:-0.233364 7:0.00233012 8:-0.131675 
512 1:-0.0344226 2:-0.0393275 3:-0.0623446 4:-0.443447 5:-0.193473 6:-0.672933 7:-0.507493 8:-0.42979 
-1.454636427595887 1:-0.296263 2:-0.158719 3:-0.510255 4:-0.818118 5:-0.610432 6:-0.889442 7:-0.838159 8:-0.765002 
-28.16805213159766 1:-0.48164 2:-0.337563 3:-0.60836 4:-0.88323 5:-0.813878 6:-0.765699 7:-0.796455 8:-0.801741 
349.8514378860534 1:-0.558986 2:-0.582034 3:-0.254904 4:-0.719552 5:-0.770216 6:-0.500501 7:-0.744003 8:-0.800693 
512 1:-0.556471 2:-0.601568 3:-0.202584 4:-0.647893 5:-0.737419 6:-0.401251 7:-0.556803 8:-0.725418 
259.4878741503062 1:-0.536971 2:-0.612543 3:-0.123096 4:-0.441246 5:-0.64291 6:-0.114953 7:-0.227426 8:-0.578757 
64.25669931601766 1:-0.630508 2:-0.659559 3:-0.272965 4:-0.660227 5:-0.533171 6:-0.676914 7:-0.909575 8:-0.984214 
73.65903954987763 1:-0.592612 2:-0.756556 3:0.0572091 4:0.167732 5:-0.221839 6:0.553128 7:0.299972 8:-0.139501 
168.8625196268617 1:-0.502172 2:-0.728233 3:0.241906 4:0.415438 5:0.00196816 6:0.760153 7:0.387154 8:-0.0553451 
356.7361276864762 1:-0.436963 2:-0.690019 3:0.333764 4:0.531896 5:0.192112 6:0.752865 7:0.248468 8:-0.122316 
58.06752910275817 1:-0.317241 2:-0.594675 3:0.443931 4:0.726199 5:0.495589 6:0.757666 7:0.336234 8:-0.0579563 
276.8580961676684 1:-0.302035 2:-0.550988 3:0.384602 4:0.612506 5:0.54953 6:0.469638 7:-0.129891 8:-0.273796 
129.1441628582081 1:-0.26985 2:-0.508361 3:0.374754 4:0.57996 5:0.57405 6:0.376001 7:0.0620008 8:-0.165349 
512 1:-0.24165 2:-0.467533 3:0.358048 4:0.558262 5:0.582769 6:0.322974 7:0.0620008 8:-0.165349 
512 1:-0.124314 2:-0.312934 3:0.324023 4:0.505088 5:0.467196 6:0.361726 7:0.31622 8:-0.0386136 
12.05365613488718 1:0.012002 2:-0.250686 3:0.556994 4:0.786378 5:0.591724 6:0.75651 7:0.835174 8:0.467882 
-467.9539350717806 1:0.193506 2:-0.0453067 3:0.582759 4:0.569186 5:0.658184 6:0.251355 7:0.225912 8:0.124516 
393.2192971866334 1:0.195348 2:0.0498175 3:0.366984 4:0.261666 5:0.484792 6:-0.134352 7:-0.0269137 8:-0.0271115 
261.3413165105899 1:0.240911 2:0.0941182 3:0.390299 4:0.40991 5:0.471112 6:0.171411 7:0.3726 8:0.196682 
43.63689177248303 1:0.363698 2:0.203157 3:0.477156 4:0.596416 5:0.562565 6:0.422221 7:0.321672 8:0.204017 
512 1:0.435267 2:0.263151 3:0.536056 4:0.783007 5:0.654119 6:0.673073 7:0.510067 8:0.333968 
193.3329575315915 1:0.441169 2:0.312554 3:0.437687 4:0.650378 5:0.66853 6:0.396841 7:0.0982866 8:0.0759397 
512 1:0.440674 2:0.351958 3:0.34482 4:0.561959 5:0.647055 6:0.250979 7:0.0982866 8:0.0759397 
512 1:0.457733 2:0.38755 3:0.309419 4:0.623492 5:0.65437 6:0.361889 7:0.249404 8:0.155941 
512 1:0.516552 2:0.430055 3:0.373615 4:0.784994 5:0.716021 6:0.600685 7:0.489857 8:0.306122 
512 1:0.511536 2:0.462862 3:0.283549 4:0.65744 5:0.712281 6:0.356704 7:0.0757055 8:0.0591124 
512 1:0.462206 2:0.47734 3:0.113315 4:0.199491 5:0.5488 6:-0.334381 7:-0.183843 8:-0.119227 
114.3243570233076 1:0.429479 2:0.481117 3:0.0139122 4:-0.0599119 5:0.348624 6:-0.593314 7:-0.0964879 8:-0.075892 
397.4768008123324 1:0.342452 2:0.463379 3:-0.185911 4:-0.363738 5:0.108365 6:-0.889444 7:-0.409376 8:-0.300822 
-267.4572880528912 1:0.144946 2:0.370492 3:-0.517199 4:-0.591711 5:-0.267733 6:-0.870395 7:-0.560273 8:-0.429135 
-160.136262261883 1:0.0884449 2:0.31429 3:-0.54317 4:-0.596063 5:-0.38421 6:-0.73538 7:-0.36411 8:-0.343285 
284.5744307215201 1:0.00566742 2:0.206031 3:-0.521038 4:-0.587783 5:-0.506311 6:-0.56882 7:-0.383817 8:-0.36168 
92.26006792896166 1:0.0112626 2:0.16431 3:-0.408667 4:-0.372487 5:-0.464666 6:-0.200539 7:0.0676243 8:-0.154543 
-36.50071463750056 1:0.0718273 2:0.145379 3:-0.196984 4:0.108651 5:-0.267765 6:0.494564 7:0.410841 8:0.0700109 
-47.76071945534175 1:0.133375 2:0.141474 3:-0.0174661 4:0.528373 5:0.303349 6:0.608959 7:0.0632551 8:-0.0848302 
-274.328833761281 1:-0.104231 2:0.0242212 3:-0.403228 4:-0.225214 5:-0.0279233 6:-0.451574 7:-0.576486 8:-0.474327 
88.99755682028393 1:-0.280381 2:-0.183539 3:-0.40864 4:-0.393069 5:-0.298168 6:-0.44577 7:-0.79932 8:-0.659382 
-82.32354140452676 1:-0.512663 2:-0.318296 3:-0.739014 4:-0.701833 5:-0.510176 6:-0.786329 7:-1 8:-0.963052 
-266.9053635386573 1:-0.575925 2:-0.395217 3:-0.735601 4:-0.65234 5:-0.565622 6:-0.621564 7:-0.579569 8:-0.719487 
-111.2821792910055 1:-0.579537 2:-0.457615 3:-0.600715 4:-0.471387 5:-0.538974 6:-0.301738 7:-0.208948 8:-0.481247 
92.14170832749521 1:-0.568279 2:-0.54731 3:-0.36127 4:-0.228054 5:-0.410413 6:0.0141054 7:-0.0604053 8:-0.376974 
96.25777373888388 1:-0.507951 2:-0.594472 3:-0.0846898 4:0.176366 5:-0.0734341 6:0.387123 7:-0.08659 8:-0.384336 
86.88263404606201 1:-0.51709 2:-0.602124 3:-0.0922303 4:0.210253 5:0.0287739 6:0.327248 7:-0.406069 8:-0.527442 
-298.5373622952804 1:-0.469361 2:-0.596635 3:0.0272024 4:0.340868 5:0.241916 6:0.319218 7:-0.11592 8:-0.368849 
-373.9901966580302 1:-0.453202 2:-0.586537 3:0.048508 4:0.0174002 5:0.109222 6:-0.147707 7:-0.0854437 8:-0.341555 
21.10177996012926 1:-0.454472 2:-0.5749 3:0.0179686 4:-0.302302 5:-0.093855 6:-0.520583 7:-0.394798 8:-0.49377 
512 1:-0.471975 2:-0.575705 3:-0.0286361 4:-0.555079 5:-0.253884 6:-0.816066 7:-0.517112 8:-0.563156 
512 1:-0.514242 2:-0.58643 3:-0.120782 4:-0.723598 5:-0.419811 6:-0.940072 7:-0.691835 8:-0.683111 
491.257486012456 1:-0.513387 2:-0.594807 3:-0.098964 4:-0.529964 5:-0.462359 6:-0.510285 7:-0.282757 8:-0.474101 
237.1964776287883 1:-0.490356 2:-0.606658 3:-0.00766665 4:-0.299271 5:-0.389414 6:-0.150559 7:-0.213991 8:-0.450126 
-61.59158282396688 1:-0.48359 2:-0.587276 3:-0.0339334 4:-0.0221503 5:-0.112349 6:0.0481813 7:-0.774951 8:-0.738092 
-512 1:-0.495902 2:-0.598961 3:-0.0408969 4:0.163545 5:-0.00964862 6:0.283557 7:-0.0892082 8:-0.387048 
257.6803608867244 1:-0.415784 2:-0.57731 3:0.130707 4:0.630567 5:0.311895 6:0.797595 7:0.212101 8:-0.182292 
118.0700576197242 1:-0.382636 2:-0.556322 3:0.173773 4:0.730344 5:0.468493 6:0.799125 7:0.0483957 8:-0.255342 
40.28576095413159 1:-0.350408 2:-0.514794 3:0.166597 4:0.68988 5:0.627486 6:0.524391 7:-0.18305 8:-0.362102 
251.9565419458558 1:-0.337063 2:-0.470541 3:0.100798 4:0.19527 5:0.448988 6:-0.21964 7:-0.320239 8:-0.432568 
-41.25207440947401 1:-0.301491 2:-0.440935 3:0.130566 4:-0.113026 5:0.148058 6:-0.449736 7:0.0313122 8:-0.265353 
358.0712835863472 1:-0.273275 2:-0.40861 3:0.133648 4:-0.252751 5:-0.0753704 6:-0.446787 7:-0.0567852 8:-0.295046 
22.59760626630411 1:-0.234088 2:-0.385928 3:0.189506 4:0.102663 5:-0.0103388 6:0.165755 7:0.311952 8:-0.084743 
260.639726968065 1:-0.206449 2:-0.36119 3:0.208606 4:0.250362 5:0.0849374 6:0.336225 7:0.174328 8:-0.139202 
499.9079958494601 1:-0.0542212 2:-0.225302 3:0.314655 4:0.777678 5:0.640494 6:0.679474 7:0.330623 8:0.0469712 
14.56864825279479 1:-0.0193028 2:-0.188048 3:0.324853 4:0.807465 5:0.714669 6:0.646143 7:0.461832 8:0.132199 
42.63910250969107 1:0.115345 2:-0.126126 3:0.553963 4:0.987962 5:0.827571 6:0.858819 7:0.838276 8:0.553592 
38.48377684100421 1:0.298779 2:0.0780933 3:0.587769 4:0.886834 5:0.946578 6:0.51512 7:0.225883 8:0.163564 
3.072419863779294 1:0.362556 2:0.231726 3:0.40766 4:0.799312 5:0.868094 6:0.44124 7:0.326885 8:0.215885 
145.315238413227 1:0.44317 2:0.287891 3:0.500496 4:0.817768 5:0.870025 6:0.47483 7:0.635327 8:0.428789 
147.2384573494177 1:0.495548 2:0.345317 3:0.512207 4:0.809478 5:0.868397 6:0.460678 7:0.556824 8:0.385251 
67.69459453866294 1:0.615447 2:0.419858 3:0.67117 4:0.989304 5:0.930529 6:0.734594 7:0.760989 8:0.563618 
-42.99064903628129 1:0.73612 2:0.508276 3:0.800057 4:0.975322 5:0.967034 6:0.662371 7:0.805736 8:0.613463 
38.80915521011107 1:0.793985 2:0.592813 3:0.764012 4:0.882334 5:0.958682 6:0.491438 7:0.496719 8:0.425999 
6.430473067002659 1:1 2:0.902516 3:0.615421 4:0.926217 5:0.996086 6:0.53088 7:0.604744 8:0.510169 
48.0316095258456 1:0.987964 2:0.954476 3:0.461438 4:0.813489 5:0.953848 6:0.363222 7:0.282491 8:0.343216 
-13.85090220135544 1:0.944623 2:0.985706 3:0.268897 4:0.602549 5:0.851537 6:0.0781712 7:0.0190621 8:0.189729 
-20.66654656094446 1:0.826156 2:0.993866 3:-0.0781318 4:-0.00401351 5:0.451988 6:-0.611716 7:-0.28309 8:0.000858246 
68.27304808584401 1:0.758944 2:0.972926 3:-0.215648 4:-0.20176 5:0.234217 6:-0.728812 7:-0.28309 8:0.000858246 
-23.12924826744232 1:0.577574 2:0.884565 3:-0.512754 4:-0.611813 5:-0.204516 6:-0.987453 7:-0.663319 8:-0.304821 
-6.960717072481047 1:0.501444 2:0.824062 3:-0.583101 4:-0.672177 5:-0.368823 6:-0.902674 7:-0.458256 8:-0.233348 
-13.72201798328293 1:0.327467 2:0.633997 3:-0.623582 4:-0.697936 5:-0.599968 6:-0.668113 7:-0.538235 8:-0.310266 
19.4005700314439 1:0.280568 2:0.570922 3:-0.607005 4:-0.658196 5:-0.627543 6:-0.556694 7:-0.392524 8:-0.264106 
500.1947859586656 1:0.195414 2:0.500149 3:-0.678495 4:-0.792343 5:-0.693083 6:-0.737385 7:-0.730759 8:-0.522229 
48.11406877615163 1:0.047419 2:0.408228 3:-0.874911 4:-0.856674 5:-0.759392 6:-0.781068 7:-0.914838 8:-0.783358 
424.0626980199439 1:-0.261821 2:0.0175136 3:-0.824081 4:-0.745478 5:-0.839525 6:-0.465641 7:-0.443791 8:-0.576307 
-5.328026089205189 1:-0.173785 2:-0.0306449 3:-0.468453 4:-0.0770812 5:-0.582962 6:0.520908 7:0.423804 8:0.0335672 
19.93984019383987 1:-0.0296011 2:-0.0347785 3:-0.0595547 4:0.323549 5:-0.271083 6:0.917463 7:0.612835 8:0.244637 
42.81174258572689 1:0.0441294 2:-0.0204981 3:0.111474 4:0.459882 5:-0.0152377 6:0.867967 7:0.305229 8:0.0607551 
337.460846722122 1:0.0956614 2:0.00321851 3:0.199116 4:0.532092 5:0.180711 6:0.767294 7:0.261643 8:0.0354056 
251.7961834083235 1:0.144219 2:0.0807232 3:0.153626 4:0.481505 5:0.466491 6:0.316634 7:-0.135994 8:-0.168294 
184.9122139920598 1:0.0825551 2:0.0878744 3:-0.0337492 4:0.0521417 5:0.316219 6:-0.335013 7:-0.313111 8:-0.271089 
136.0107044864749 1:0.0490799 2:0.0788051 3:-0.105396 4:-0.180302 5:0.151247 6:-0.584778 7:-0.360129 8:-0.297841 
-83.93288001029521 1:0.0584865 2:0.0617839 3:-0.0398229 4:-0.00285312 5:-0.00948603 6:-0.0409341 7:0.314068 8:0.0239778 
6.937687198679411 1:0.107496 2:0.0718669 3:0.0724891 4:0.170786 5:0.0575317 6:0.214903 7:0.409001 8:0.0906533 
512 1:0.166997 2:0.116463 3:0.133721 4:0.313612 5:0.226418 6:0.285193 7:0.286847 8:0.042103 
224.6944136027854 1:0.174602 2:0.131618 3:0.119593 4:0.32637 5:0.269495 6:0.256986 7:0.179907 8:0.000910102 
-37.19116191299822 1:0.153399 2:0.154879 3:0.00686077 4:0.201336 5:0.268641 6:0.0143624 7:-0.183026 8:-0.137352 
344.3403336831876 1:0.105185 2:0.145792 3:-0.105562 4:-0.219321 5:0.105812 6:-0.604847 7:-0.588849 8:-0.374084 
-231.8013855393521 1:0.037921 2:0.122478 3:-0.237706 4:-0.390232 5:-0.0628226 6:-0.73018 7:-0.74774 8:-0.523313 
219.3245771633516 1:-0.239968 2:-0.208528 3:-0.238697 4:-0.481774 5:-0.595406 6:-0.252458 7:-0.0212874 8:-0.313533 
512 1:-0.233881 2:-0.225813 3:-0.181705 4:-0.387871 5:-0.529471 6:-0.150683 7:-0.109113 8:-0.352151 
512 1:-0.237819 2:-0.240581 3:-0.158319 4:-0.440012 5:-0.503845 6:-0.283871 7:-0.2762 8:-0.428424 
512 1:-0.260845 2:-0.257887 3:-0.181902 4:-0.646886 5:-0.559484 6:-0.618498 7:-0.518983 8:-0.562127 
128.9473987179886 1:-0.319449 2:-0.337505 3:-0.159326 4:-0.593599 5:-0.649964 6:-0.40318 7:-0.133744 8:-0.414998 
237.0705383126473 1:-0.313651 2:-0.348023 3:-0.118849 4:-0.55804 5:-0.625664 6:-0.363816 7:-0.226689 8:-0.454639 
512 1:-0.30594 2:-0.360874 3:-0.0676557 4:-0.473908 5:-0.561292 6:-0.279157 7:-0.32017 8:-0.494905 
512 1:-0.292733 2:-0.361728 3:-0.0290957 4:-0.267885 5:-0.464549 6:0.00317244 7:-0.12872 8:-0.415979 
512 1:-0.27914 2:-0.359169 3:0.00260558 4:-0.0859146 5:-0.336084 6:0.199547 7:-0.12872 8:-0.415979 
377.9154950154211 1:-0.282321 2:-0.357881 3:-0.00919477 4:-0.232333 5:-0.301912 6:-0.127904 7:-0.516853 8:-0.568175 
512 1:-0.262436 2:-0.350085 3:0.0277718 4:-0.157036 5:-0.239435 6:-0.0581288 7:-0.0996549 8:-0.390366 
482.0588829582409 1:-0.254513 2:-0.34398 3:0.0355386 4:-0.0931461 5:-0.18855 6:0.00369632 7:-0.258128 8:-0.449823 
7.169717272299219 1:-0.419221 2:-0.407915 3:-0.272145 4:-0.2855 5:-0.261484 6:-0.281326 7:-0.7444 8:-0.82954 
-404.3610676119887 1:-0.535468 2:-0.584586 3:-0.183848 4:-0.259069 5:-0.370553 6:-0.0954459 7:-0.171842 8:-0.577724 
-69.50084171166351 1:-0.530812 2:-0.597488 3:-0.140996 4:-0.00654209 5:-0.245517 6:0.242659 7:-0.397441 8:-0.674068 
-443.186143347015 1:-0.435983 2:-0.598046 3:0.122916 4:0.429361 5:0.138848 6:0.618657 7:0.459248 8:-0.00198256 
-102.6620464204886 1:-0.472871 2:-0.563183 3:-0.0601908 4:-0.58313 5:-0.233926 6:-0.895321 7:-0.511329 8:-0.60405 
-87.06348926292171 1:-0.530524 2:-0.580297 3:-0.180116 4:-0.742298 5:-0.413079 6:-0.98481 7:-0.709701 8:-0.752859 
202.9386790739052 1:-0.625331 2:-0.637192 3:-0.310563 4:-0.829968 5:-0.657652 6:-0.854363 7:-0.783364 8:-0.815295 
-146.927086094691 1:-0.686054 2:-0.705057 3:-0.321148 4:-0.60793 5:-0.675339 6:-0.399848 7:-0.60859 8:-0.750631 
-62.1707878703202 1:-0.93864 2:-0.88696 3:-0.598278 4:-0.723845 5:-0.729055 6:-0.559574 7:-0.725057 8:-0.880745 
-48.19073496503686 1:-1 2:-0.951306 3:-0.618798 4:-0.816518 5:-0.769257 6:-0.690656 7:-0.809322 8:-0.940517 
-80.25891515663059 1:-0.923968 2:-0.984646 3:-0.330822 4:-0.401798 5:-0.650268 6:-0.0290079 7:0.0805579 8:-0.315326 
-197.0913572032751 1:-0.876521 2:-1 3:-0.16377 4:-0.180947 5:-0.493304 6:0.208029 7:-0.0473736 8:-0.384221 
-20.71258173117472 1:-0.699728 2:-0.970112 3:0.256437 4:0.329021 5:-0.209388 6:0.85212 7:0.41389 8:0.0298779 
-52.08861931952479 1:-0.536412 2:-0.907245 3:0.562744 4:0.543008 5:0.0551146 6:0.943297 7:0.453156 8:0.0701907 
-107.8604134686638 1:-0.280752 2:-0.667093 3:0.713136 4:0.644687 5:0.507914 6:0.583625 7:0.111965 8:-0.10092 
-124.0610197364947 1:-0.2865 2:-0.605217 3:0.553543 4:0.48572 5:0.513177 6:0.267332 7:-0.219693 8:-0.279217 
-496.2258983432933 1:-0.183566 2:-0.465003 3:0.513031 4:0.37311 5:0.363342 6:0.232461 7:0.39133 8:0.08047 
178.8895612136089 1:-0.16342 2:-0.294556 3:0.173049 4:-0.241882 5:0.0733212 6:-0.608787 7:-0.370244 8:-0.351865 
-281.2571272310304 1:-0.360638 2:-0.332985 3:-0.28389 4:-0.582182 5:-0.319995 6:-0.787439 7:-0.628506 8:-0.534936 
-512 1:-0.41223 2:-0.367922 3:-0.345648 4:-0.684295 5:-0.450069 6:-0.826199 7:-0.628506 8:-0.534936 
-512 1:-0.464966 2:-0.40845 3:-0.397586 4:-0.809742 5:-0.580884 6:-0.90952 7:-0.696437 8:-0.582996 
52.35983589571211 1:-0.605302 2:-0.574672 3:-0.400266 4:-0.987844 5:-0.911565 6:-0.849231 7:-0.775187 8:-0.667892 
322.0963001076746 1:-0.637469 2:-0.647141 3:-0.321078 4:-0.838595 5:-0.923533 6:-0.543619 7:-0.454009 8:-0.584506 
-472.7837186684121 1:-0.77708 2:-0.743963 3:-0.482894 4:-0.878861 5:-0.926928 6:-0.61791 7:-0.685101 8:-0.760978 
-512 1:-0.804573 2:-0.829049 3:-0.361462 4:-0.742119 5:-0.873676 6:-0.41702 7:-0.310273 8:-0.576476 
-316.5376807721821 1:-0.771616 2:-0.850499 3:-0.220387 4:-0.499075 5:-0.754077 6:-0.0906989 7:-0.11659 8:-0.467452 
-335.9387422111631 1:-0.795613 2:-0.909109 3:-0.150753 4:-0.759177 5:-0.771113 6:-0.576619 7:-0.269621 8:-0.533198 
254.7181097171124 1:-0.793103 2:-0.919672 3:-0.119274 4:-0.843437 5:-0.806759 6:-0.696917 7:-0.401935 8:-0.596002 
33.64955440690585 1:-0.757373 2:-0.9196 3:-0.0204927 4:-0.614637 5:-0.75009 6:-0.320828 7:-0.11124 8:-0.436498 
-34.04902945356074 1:-0.596858 2:-0.839502 3:0.238049 4:0.0263149 5:-0.241596 6:0.301863 7:-0.0453793 8:-0.378286 
-512 1:-0.55998 2:-0.808379 3:0.267912 4:0.13936 5:-0.108256 6:0.357903 7:-0.0453793 8:-0.378286 
-356.8491948597144 1:-0.508594 2:-0.725819 3:0.218517 4:-0.393518 5:-0.214234 6:-0.550049 7:-0.37739 8:-0.492806 
-231.9234355961124 1:-0.565779 2:-0.679044 3:-0.0484632 4:-0.7248 5:-0.522508 6:-0.815896 7:-0.845185 8:-0.848259 
-512 1:-0.608472 2:-0.691579 3:-0.13759 4:-0.67717 5:-0.582572 6:-0.649072 7:-0.574164 8:-0.685049 
-512 1:-0.62267 2:-0.704994 3:-0.145759 4:-0.586905 5:-0.590884 6:-0.462918 7:-0.422915 8:-0.594476 
-340.8701287056257 1:-0.595205 2:-0.709175 3:-0.05999 4:-0.304969 5:-0.497313 6:-0.0287348 7:-0.0897588 8:-0.384067 
-214.6420578030631 1:-0.417343 2:-0.6433 3:0.279615 4:0.596429 5:0.160606 6:0.917446 7:0.198787 8:-0.155091 
-512 1:-0.295993 2:-0.557585 3:0.416652 4:0.863863 5:0.564434 6:0.94114 7:0.423326 8:-0.000325653 
-24.83350619108552 1:-0.262939 2:-0.51199 3:0.402321 4:0.807474 5:0.663966 6:0.708625 7:0.0687957 8:-0.152665 
-512 1:-0.233009 2:-0.468375 3:0.383935 4:0.744575 5:0.708209 6:0.531537 7:0.0816207 8:-0.145804 
-512 1:-0.206995 2:-0.427277 3:0.36055 4:0.624757 5:0.695584 6:0.313579 7:0.0816207 8:-0.145804 
-512 1:-0.161786 2:-0.383615 3:0.384369 4:0.665357 5:0.70144 6:0.385491 7:0.357953 8:0.00100824 
-512 1:-0.118973 2:-0.338473 3:0.398115 4:0.723534 5:0.725795 6:0.468866 7:0.413135 8:0.0353422 
-50.7786311455522 1:-0.00605273 2:-0.234509 3:0.469431 4:0.523357 5:0.654338 6:0.166776 7:0.618217 8:0.190001 
-13.5286047097799 1:0.0612301 2:-0.176204 3:0.520378 4:0.632949 5:0.66255 6:0.370242 7:0.753054 8:0.323835 
-512 1:0.124436 2:-0.114482 3:0.552102 4:0.788814 5:0.722817 6:0.599758 7:0.790117 8:0.370092 
-512 1:0.149887 2:-0.0590341 3:0.493836 4:0.727117 5:0.741306 6:0.456739 7:0.277739 8:0.143566 
-512 1:0.173667 2:-0.0090031 3:0.443523 4:0.723029 5:0.752195 6:0.435358 7:0.334482 8:0.17385 
-512 1:0.152258 2:0.0546373 3:0.23646 4:0.299067 5:0.542352 6:-0.132373 7:-0.0332385 8:-0.042521 
-497.8137537523316 1:0.124635 2:0.070238 3:0.123737 4:0.0348208 5:0.377627 6:-0.444422 7:-0.297596 8:-0.209289 
-35.88516303287417 1:0.0958416 2:0.0758504 3:0.0309655 4:-0.330331 5:0.139445 6:-0.862627 7:-0.355002 8:-0.248303 
-512 1:0.0720993 2:0.0746769 3:-0.0320609 4:-0.473366 5:-0.0696256 6:-0.883817 7:-0.355002 8:-0.248303 
-512 1:0.0525851 2:0.0690832 3:-0.0731149 4:-0.490634 5:-0.215076 6:-0.73828 7:-0.355002 8:-0.248303 
-512 1:0.0422459 2:0.062142 3:-0.0856309 4:-0.429635 5:-0.2906 6:-0.526358 7:-0.186636 8:-0.192198 
-512 1:0.0335727 2:0.0545202 3:-0.0919523 4:-0.353112 5:-0.314048 6:-0.348337 7:-0.186636 8:-0.192198 
-512 1:0.037584 2:0.0493796 3:-0.0689073 4:-0.0778278 5:-0.232907 6:0.0881963 7:0.145257 8:-0.0731098 
-309.2327398521329 1:0.207765 2:0.104598 3:0.274174 4:0.514031 5:0.176771 6:0.736947 7:0.381459 8:0.2172 
-29.70913737320337 1:0.231287 2:0.135647 3:0.26722 4:0.505483 5:0.299363 6:0.569261 7:0.199775 8:0.0975171 
-512 1:0.269549 2:0.169613 3:0.294313 4:0.572455 5:0.404633 6:0.570091 7:0.336514 8:0.189428 
-512 1:0.279444 2:0.199146 3:0.253139 4:0.536783 5:0.462274 6:0.42956 7:0.139846 8:0.0692735 
-512 1:0.28392 2:0.22384 3:0.208197 4:0.480279 5:0.480838 6:0.296571 7:0.139846 8:0.0692735 
-477.60327448789 1:0.289741 2:0.244984 3:0.17522 4:0.472358 5:0.490429 6:0.269317 7:0.197554 8:0.098302 
-69.14762320153504 1:0.414989 2:0.291775 3:0.413432 4:0.764557 5:0.599542 6:0.704354 7:0.717942 8:0.488369 
-512 1:0.525546 2:0.397951 3:0.473069 4:0.807212 5:0.750055 6:0.602057 7:0.437015 8:0.307667 
-265.9971425057017 1:0.566354 2:0.450255 3:0.464632 4:0.859282 5:0.805926 6:0.634704 7:0.486905 8:0.339776 
-99.26181345577571 1:0.56922 2:0.492782 3:0.373824 4:0.765484 5:0.810199 6:0.446637 7:0.20131 8:0.182224 
-274.1426376983424 1:0.61572 2:0.565362 3:0.334071 4:0.722625 5:0.792756 6:0.3846 7:0.528595 8:0.363839 
-113.1352771866844 1:0.576987 2:0.631164 3:0.0740124 4:0.101397 5:0.496743 6:-0.461419 7:-0.0782415 8:0.0212418 
-177.1937734621777 1:0.519434 2:0.625633 3:-0.0725317 4:-0.285947 5:0.234458 6:-0.89318 7:-0.283402 8:-0.1136 
-18.49980188369542 1:0.545871 2:0.629291 3:-0.00781135 4:-0.00625624 5:0.0954137 6:-0.176799 7:0.162938 8:0.0996014 
-7.078508351535131 1:0.52076 2:0.623954 3:-0.0649603 4:0.0132858 5:0.0596321 6:-0.0946324 7:0.0940268 8:0.0636789 
-43.21825086688373 1:0.467038 2:0.607367 3:-0.175222 4:-0.198652 5:-0.0262613 6:-0.401856 7:-0.251537 8:-0.136675 
-512 1:0.150545 2:0.422745 3:-0.623022 4:-0.792717 5:-0.608449 6:-0.842381 7:-0.73674 8:-0.527201 
-22.50150949328205 1:0.0623821 2:0.349874 3:-0.697975 4:-0.838607 5:-0.696618 6:-0.823194 7:-0.775713 8:-0.569408 
-83.63019875441628 1:-0.0300536 2:0.269529 3:-0.767404 4:-0.825784 5:-0.75089 6:-0.731343 7:-0.843513 8:-0.649231 
-323.0524871137825 1:-0.144629 2:0.115958 3:-0.728118 4:-0.751314 5:-0.767746 6:-0.565444 7:-0.6287 8:-0.585831 
-512 1:-0.172632 2:0.0483856 3:-0.648768 4:-0.660546 5:-0.740221 6:-0.422458 7:-0.336953 8:-0.455552 
-117.674159178787 1:-0.158856 2:-0.00238601 3:-0.492724 4:-0.358844 5:-0.61581 6:0.0122537 7:0.0765765 8:-0.230849 
-338.2616578040588 1:-0.207026 2:-0.11697 3:-0.360065 4:-0.236487 5:-0.337386 6:-0.0922973 7:-0.425163 8:-0.48197 
-512 1:-0.223249 2:-0.150031 3:-0.328225 4:-0.224347 5:-0.299973 6:-0.114729 7:-0.329908 8:-0.438263 
-512 1:-0.239146 2:-0.180271 3:-0.302033 4:-0.50311 5:-0.373027 6:-0.568004 7:-0.388348 8:-0.467081 
-512 1:-0.271527 2:-0.212188 3:-0.317599 4:-0.688952 5:-0.48706 6:-0.789702 7:-0.58298 8:-0.57577 
-512 1:-0.260053 2:-0.234984 3:-0.232891 4:-0.468619 5:-0.485626 6:-0.362066 7:-0.0402528 8:-0.306623 
-512 1:-0.248191 2:-0.250391 3:-0.164265 4:-0.32173 5:-0.433034 6:-0.14059 7:-0.0402528 8:-0.306623 
-512 1:-0.230521 2:-0.258502 3:-0.0964946 4:-0.166433 5:-0.343379 6:0.051613 7:0.0450126 8:-0.262262 
-512 1:-0.21978 2:-0.262429 3:-0.0576324 4:-0.093794 5:-0.258074 6:0.0880846 7:-0.0602683 8:-0.301676 
-512 1:-0.150776 2:-0.242023 3:0.0860849 4:0.0140638 5:-0.0896723 6:0.0908216 7:0.0505665 8:-0.178256 
-512 1:-0.173981 2:-0.238321 3:0.0132234 4:-0.271151 5:-0.151284 6:-0.389125 7:-0.344137 8:-0.40339 
-359.3728330634153 1:-0.201551 2:-0.241936 3:-0.0547341 4:-0.534313 5:-0.28487 6:-0.737421 7:-0.42608 8:-0.457762 
-118.4659794574257 1:-0.220945 2:-0.249454 3:-0.0909879 4:-0.709753 5:-0.435601 6:-0.893638 7:-0.42608 8:-0.457762 
-202.0659607354573 1:-0.222939 2:-0.264268 3:-0.0621112 4:-0.681577 5:-0.612743 6:-0.620493 7:0.0112613 8:-0.249716 
-192.1586594393141 1:-0.151732 2:-0.232192 3:0.0606094 4:-0.168565 5:-0.309633 6:0.0058844 7:-0.215606 8:-0.310366 
-512 1:-0.148004 2:-0.224259 3:0.052515 4:-0.179066 5:-0.265553 6:-0.0688854 7:-0.215606 8:-0.310366 
-512 1:-0.154767 2:-0.219527 3:0.0227947 4:-0.272123 5:-0.268879 6:-0.246145 7:-0.473163 8:-0.418699 
-32.77529373827141 1:-0.145225 2:-0.201888 3:0.00826441 4:-0.55867 5:-0.561487 6:-0.444108 7:-0.0523203 8:-0.269621 
-123.6777173215341 1:-0.249455 2:-0.23652 3:-0.199974 4:-0.925784 5:-0.82226 6:-0.838304 7:-0.84798 8:-0.796777 
-48.60684444167791 1:-0.27803 2:-0.258738 3:-0.22752 4:-0.920534 5:-0.867959 6:-0.771774 7:-0.68733 8:-0.715131 
-88.9636069296547 1:-0.35094 2:-0.386252 3:-0.133349 4:-0.723361 5:-0.917138 6:-0.326919 7:-0.153556 8:-0.50203 
-512 1:-0.337413 2:-0.396711 3:-0.0716034 4:-0.500212 5:-0.678854 6:-0.185589 7:-0.443976 8:-0.617224 
-512 1:-0.334902 2:-0.400456 3:-0.0559508 4:-0.490683 5:-0.621245 6:-0.237988 7:-0.351626 8:-0.566337 
-512 1:-0.320184 2:-0.399942 3:-0.0163869 4:-0.299148 5:-0.515508 6:0.00502443 7:-0.114115 8:-0.432759 
-15.66642233338862 1:-0.298328 2:-0.394317 3:0.031081 4:-0.0509789 5:-0.357775 6:0.294355 7:0.043464 8:-0.337692 
6.098625336018171 1:-0.277896 2:-0.384944 3:0.0659009 4:0.186181 5:-0.169249 6:0.524293 7:0.043464 8:-0.337692 
-167.341521009826 1:-0.266707 2:-0.374776 3:0.0732757 4:0.183649 5:-0.0444548 6:0.365616 7:-0.188429 8:-0.425693 
-512 1:-0.241457 2:-0.360619 3:0.11033 4:0.304352 5:0.0811732 6:0.446083 7:0.174269 8:-0.222557 
-301.2772149799611 1:-0.213374 2:-0.342594 3:0.14625 4:0.451754 5:0.216743 6:0.566335 7:0.287521 8:-0.146903 
-195.5605481926129 1:-0.169181 2:-0.300375 3:0.170606 4:0.582068 5:0.459746 6:0.520929 7:-0.0045516 8:-0.232396 
-512 1:-0.167491 2:-0.283455 3:0.135996 4:0.229215 5:0.390893 6:-0.0819151 7:-0.276285 8:-0.368341 
-257.4771581419498 1:-0.16435 2:-0.269169 3:0.111525 4:-0.0899493 5:0.232793 6:-0.509153 7:-0.276285 8:-0.368341 
-319.4220475991759 1:-0.141612 2:-0.243225 3:0.114252 4:-0.102987 5:-0.0232874 6:-0.219079 7:0.231858 8:-0.0953727 
-512 1:-0.127705 2:-0.228244 3:0.117981 4:-0.0344523 5:-0.0238183 6:-0.0848602 7:0.0630522 8:-0.174449 
-512 1:-0.104164 2:-0.210643 3:0.142307 4:0.19045 5:0.0548895 6:0.256481 7:0.290075 8:-0.0298089 
-382.4327710785156 1:-0.00847514 2:-0.152288 3:0.271805 4:0.410437 5:0.250611 6:0.444089 7:0.628044 8:0.269907 
-512 1:0.0277213 2:-0.0919053 3:0.23184 4:0.304869 5:0.334857 6:0.134559 7:-0.0285639 8:-0.0698732 
-512 1:0.0466182 2:-0.0656058 3:0.223106 4:0.347886 5:0.349352 6:0.200539 7:0.243008 8:0.0896035 
-265.374174071344 1:0.0608012 2:-0.0411831 3:0.205675 4:0.360298 5:0.363378 6:0.207447 7:0.243008 8:0.0896035 
-94.63386576760389 1:0.0995938 2:0.00628621 3:0.202884 4:0.484551 5:0.427477 6:0.370633 7:0.488969 8:0.239853 
-121.4772573972544 1:0.319659 2:0.16037 3:0.454546 4:0.75519 5:0.637131 6:0.63979 7:0.486435 8:0.387282 
-194.7697742887033 1:0.390459 2:0.218233 3:0.516262 4:0.771745 5:0.699871 6:0.594761 7:0.568039 8:0.452916 
-403.4670729098079 1:0.425967 2:0.358706 3:0.288423 4:0.431153 5:0.644556 6:-0.000866704 7:-0.153615 8:-0.0704511 
-379.3319526949845 1:0.397565 2:0.378596 3:0.163582 4:0.249432 5:0.521207 6:-0.203057 7:-0.104665 8:-0.043701 
-512 1:0.547146 2:0.523994 3:0.240218 4:0.650077 5:0.686519 6:0.374093 7:0.103058 8:0.0861657 
-53.66003419008744 1:0.460954 2:0.560912 3:-0.0842032 4:0.219625 5:0.448313 6:-0.171345 7:-0.222033 8:-0.116977 
-512 1:0.371927 2:0.534245 3:-0.268835 4:-0.178443 5:0.239964 6:-0.690451 7:-0.499096 8:-0.322741 
