svm_type epsilon_svr
kernel_type rbf
gamma 2
nr_class 2
total_sv 432
rho -35.5147
SV
2 1:0.188019 2:0.206538 3:0.0996604 4:-0.192472 5:-0.0377909 6:-0.353331 7:-1 8:-1 
2 1:0.174462 2:0.198325 3:0.0817598 4:-0.449998 5:-0.179629 6:-0.694037 7:-1 8:-1 
2 1:0.149803 2:0.184612 3:0.0458602 4:-0.64453 5:-0.3423 6:-0.87972 7:-1 8:-1 
0.731306074419122 1:0.117144 2:0.162523 3:0.0090103 4:-0.718993 5:-0.59822 6:-0.700806 7:-0.683273 8:-0.628953 
2 1:0.191457 2:0.260241 3:-0.0364317 4:-0.0134034 5:0.182468 6:-0.273442 7:-0.538646 8:-0.234797 
2 1:0.281523 2:0.233875 3:0.30298 4:0.706759 5:0.468582 6:0.822017 7:0.513126 8:0.468135 
2 1:0.334478 2:0.260431 3:0.38796 4:0.834955 5:0.607864 6:0.902966 7:0.594189 8:0.527763 
2 1:0.386623 2:0.293047 3:0.454022 4:0.905507 5:0.725422 6:0.894712 7:0.659185 8:0.576757 
2 1:0.427509 2:0.328046 3:0.480142 4:0.937525 5:0.815005 6:0.844192 7:0.673116 8:0.586932 
2 1:0.443814 2:0.359582 3:0.442664 4:0.885771 5:0.856605 6:0.685223 7:0.419899 8:0.488607 
2 1:0.456155 2:0.387488 3:0.403301 4:0.853109 5:0.872903 6:0.597748 7:0.446422 8:0.501429 
2 1:0.519877 2:0.423712 3:0.493928 4:0.932522 5:0.911573 6:0.709353 7:0.797364 8:0.733524 
2 1:0.550128 2:0.459282 3:0.486899 4:0.902132 5:0.926713 6:0.627997 7:0.535326 8:0.611787 
2 1:0.630127 2:0.505186 3:0.59951 4:0.851524 5:0.919086 6:0.534905 7:0.787059 8:0.800775 
2 1:0.67434 2:0.551547 3:0.604559 4:0.746687 5:0.877295 6:0.375618 7:0.607417 8:0.705903 
2 1:0.743215 2:0.603655 3:0.667221 4:0.830778 5:0.878877 6:0.544615 7:0.755248 8:0.814459 
2 1:0.75595 2:0.648112 3:0.583939 4:0.731847 5:0.845292 6:0.386745 7:0.353753 8:0.586277 
2 1:0.697634 2:0.67095 3:0.348463 4:0.398824 5:0.706298 6:-0.111194 7:-0.101014 8:0.271855 
2 1:0.705446 2:0.690923 3:0.317259 4:0.422056 5:0.62177 6:0.0451785 7:0.256732 8:0.473834 
2 1:0.681265 2:0.701625 3:0.216262 4:0.290996 5:0.519528 6:-0.089412 7:0.0961128 8:0.365807 
2 1:0.648531 2:0.703046 3:0.11514 4:0.0310844 5:0.360363 6:-0.412601 7:0.0406928 8:0.32971 
2 1:0.644863 2:0.703382 3:0.103327 4:0.0394292 5:0.257174 6:-0.26242 7:0.233273 8:0.428044 
2 1:0.584844 2:0.69056 3:-0.0400558 4:-0.280966 5:0.0761991 6:-0.680479 7:-0.127365 8:0.20183 
2 1:0.57166 2:0.677427 3:-0.0434445 4:-0.22309 5:-0.0241863 6:-0.433171 7:0.143126 8:0.343126 
2 1:0.548703 2:0.661914 3:-0.0693856 4:-0.2016 5:-0.0835853 6:-0.31278 7:0.0816499 8:0.307391 
2 1:0.52109 2:0.643481 3:-0.101204 4:-0.213314 5:-0.127286 6:-0.280192 7:0.0352538 8:0.282122 
2 1:0.517728 2:0.628001 3:-0.0690201 4:-0.0440445 5:-0.0971526 6:0.0252013 7:0.231655 8:0.373132 
2 1:0.489204 2:0.609397 3:-0.103078 4:-0.108277 5:-0.0995537 6:-0.102348 7:0.00893836 8:0.262192 
2 1:0.446799 2:0.585265 3:-0.163314 4:-0.275053 5:-0.159549 6:-0.364122 7:-0.13731 8:0.182572 
0.9526547067191896 1:0.41063 2:0.55807 3:-0.196685 4:-0.270332 5:-0.197893 6:-0.305019 7:-0.13731 8:0.182572 
2 1:0.338066 2:0.520489 3:-0.309881 4:-0.524753 5:-0.312538 6:-0.674514 7:-0.449189 8:-0.0101469 
2 1:0.2823 2:0.478261 3:-0.360515 4:-0.611036 5:-0.419179 6:-0.712349 7:-0.402496 8:0.00706169 
2 1:0.326736 2:0.45417 3:-0.162865 4:-0.0808546 5:-0.304637 6:0.218174 7:0.43311 8:0.431587 
2 1:0.351584 2:0.440318 3:-0.0513009 4:0.145155 5:-0.14914 6:0.477145 7:0.347947 8:0.388515 
2 1:0.344033 2:0.427588 3:-0.0390569 4:0.147576 5:-0.044628 6:0.347153 7:0.102305 8:0.261953 
2 1:0.347524 2:0.418166 3:-0.00301472 4:0.21508 5:0.0486824 6:0.364 7:0.198385 8:0.312377 
2 1:0.337238 2:0.408386 3:-0.0069277 4:0.194193 5:0.103576 6:0.250653 7:0.0748646 8:0.252436 
2 1:0.372318 2:0.408212 3:0.0977678 4:0.443827 5:0.227578 6:0.598331 7:0.439629 8:0.451579 
2 1:0.355619 2:0.404431 3:0.0584566 4:0.353804 5:0.278726 6:0.349197 7:0.029376 8:0.234577 
2 1:0.349047 2:0.399973 3:0.0510758 4:0.265541 5:0.28192 6:0.165547 7:0.103731 8:0.273097 
2 1:0.347679 2:0.396108 3:0.0575417 4:0.194188 5:0.259066 6:0.0499175 7:0.158535 8:0.300071 
2 1:0.322295 2:0.387479 3:0.00563412 4:-0.134123 5:0.128876 6:-0.449802 7:-0.0823869 8:0.178251 
2 1:0.351513 2:0.386949 3:0.0938829 4:0.0112792 5:0.0929931 6:-0.107733 7:0.371449 8:0.416323 
2 1:0.468237 2:0.411983 3:0.372464 4:0.371302 5:0.195129 6:0.492704 7:0.732753 8:0.705827 
2 1:0.556482 2:0.451256 3:0.527641 4:0.59889 5:0.342907 6:0.764849 7:0.732753 8:0.705827 
2 1:0.553786 2:0.482086 3:0.435639 4:0.452378 5:0.390126 6:0.405888 7:0.144825 8:0.366578 
2 1:0.561598 2:0.508454 3:0.387009 4:0.416837 5:0.409161 6:0.309024 7:0.226222 8:0.413494 
2 1:0.554996 2:0.528109 3:0.313847 4:0.32179 5:0.388572 6:0.142278 7:0.155843 8:0.373204 
2 1:0.548459 2:0.542407 3:0.255474 4:0.26985 5:0.356659 6:0.0778279 7:0.179002 8:0.384272 
2 1:0.570274 2:0.558603 3:0.27616 4:0.348285 5:0.362847 6:0.229377 7:0.414404 8:0.50297 
2 1:0.588651 2:0.575568 3:0.284539 4:0.418894 5:0.391695 6:0.335755 7:0.452779 8:0.523759 
2 1:0.578711 2:0.586972 3:0.223938 4:0.241029 5:0.34865 6:0.0295452 7:0.182038 8:0.401848 
2 1:0.555168 2:0.590961 3:0.143127 4:0.0458777 5:0.251624 6:-0.242139 7:0.0431756 8:0.33408 
2 1:0.509931 2:0.584286 3:0.0269154 4:-0.237372 5:0.0877627 6:-0.606737 7:-0.193645 8:0.204667 
2 1:0.377545 2:0.550072 3:-0.273186 4:-0.492208 5:-0.110706 6:-0.868867 7:-0.628505 8:-0.166096 
2 1:0.333865 2:0.513174 3:-0.302435 4:-0.416035 5:-0.216347 6:-0.577556 7:-0.0778581 8:0.130711 
2 1:0.31212 2:0.478914 3:-0.273699 4:-0.279156 5:-0.238848 6:-0.270098 7:0.0213338 8:0.189014 
2 1:0.296497 2:0.448098 3:-0.236159 4:-0.176478 5:-0.217897 6:-0.0882979 7:0.0436721 8:0.201268 
2 1:0.257561 2:0.414953 3:-0.261537 4:-0.210847 5:-0.215964 6:-0.160699 7:-0.146748 8:0.0935162 
2 1:0.19797 2:0.37544 3:-0.330931 4:-0.348003 5:-0.262698 6:-0.379344 7:-0.319253 8:-0.0155052 
2 1:0.14268 2:0.331772 3:-0.376223 4:-0.473714 5:-0.337871 6:-0.537998 7:-0.367227 8:-0.0471702 
2 1:0.0545968 2:0.277626 3:-0.4904 4:-0.660341 5:-0.453331 6:-0.768548 7:-0.569488 8:-0.199706 
2 1:-0.0298756 2:0.215885 3:-0.573159 4:-0.732291 5:-0.555497 6:-0.783006 7:-0.625587 8:-0.24975 
2 1:-0.11622 2:0.147661 3:-0.643816 4:-0.719806 5:-0.619237 6:-0.67533 7:-0.692393 8:-0.313361 
2 1:-0.242688 2:0.0654997 3:-0.795705 4:-0.790673 5:-0.686543 6:-0.732586 7:-0.809336 8:-0.454644 
2 1:-0.348187 2:-0.0232391 3:-0.867379 4:-0.847223 5:-0.751214 6:-0.764123 7:-0.8245 8:-0.476409 
2 1:-0.407739 2:-0.107219 3:-0.815513 4:-0.835221 5:-0.790125 6:-0.68948 7:-0.568607 8:-0.35735 
2 1:-0.390963 2:-0.170743 3:-0.592605 4:-0.627464 5:-0.743323 6:-0.327321 7:0.0336234 8:-0.0214737 
2 1:-0.337232 2:-0.209844 3:-0.326446 4:-0.309077 5:-0.600642 6:0.136088 7:0.265699 8:0.140202 
2 1:-0.368461 2:-0.247936 3:-0.315449 4:-0.386153 5:-0.532508 6:-0.108639 7:-0.212744 8:-0.11493 
2 1:-0.392251 2:-0.283598 3:-0.288971 4:-0.424889 5:-0.500649 6:-0.228555 7:-0.238447 8:-0.130374 
2 1:-0.42694 2:-0.319693 3:-0.293692 4:-0.560332 5:-0.526833 6:-0.470245 7:-0.345319 8:-0.19296 
2 1:-0.441443 2:-0.351733 3:-0.24949 4:-0.616899 5:-0.564095 6:-0.537199 7:-0.282606 8:-0.1611 
2 1:-0.439964 2:-0.377042 3:-0.176145 4:-0.620881 5:-0.590331 6:-0.51143 7:-0.211256 8:-0.127132 
2 1:-0.434481 2:-0.396093 3:-0.107954 4:-0.6404 5:-0.614656 6:-0.51973 7:-0.235108 8:-0.137347 
2 1:-0.369253 2:-0.397108 3:0.0886021 4:-0.332985 5:-0.523235 6:-0.0124658 7:0.342793 8:0.173669 
2 1:-0.334467 2:-0.390333 3:0.173492 4:-0.262958 5:-0.437768 6:0.0196377 7:0.100647 8:0.0741195 
2 1:-0.298424 2:-0.377052 3:0.24439 4:-0.16568 5:-0.34673 6:0.0999782 7:0.129333 8:0.0899369 
2 1:-0.273144 2:-0.360913 3:0.275529 4:-0.0772177 5:-0.255064 6:0.161577 7:0.0240908 8:0.0492158 
2 1:-0.262252 2:-0.345627 3:0.266243 4:-0.151764 5:-0.220054 6:-0.0352441 7:-0.142407 8:-0.0186789 
2 1:-0.240085 2:-0.328564 3:0.285613 4:-0.128188 5:-0.18846 6:-0.0280758 7:-0.00222522 8:0.0413405 
2 1:-0.189496 2:-0.303879 3:0.368661 4:0.126542 5:-0.0782057 6:0.347716 7:0.356112 8:0.226137 
2 1:-0.088871 2:-0.262185 3:0.554023 4:0.448144 5:0.107902 6:0.761604 7:0.702671 8:0.501091 
2 1:0.0101278 2:-0.207239 3:0.698447 4:0.646805 5:0.301532 6:0.915719 7:0.765409 8:0.566859 
2 1:0.0812146 2:-0.147777 3:0.747646 4:0.730593 5:0.459957 6:0.881631 7:0.62237 8:0.507721 
2 1:0.118284 2:-0.0921232 3:0.706155 4:0.673766 5:0.545676 6:0.655389 7:0.312258 8:0.373336 
2 1:0.12828 2:-0.0454199 3:0.608613 4:0.523195 5:0.550101 6:0.343414 7:0.0591833 8:0.249583 
2 1:0.102776 2:-0.0136198 3:0.446206 4:0.229638 5:0.450265 6:-0.124801 7:-0.250539 8:0.0665255 
2 1:0.0780961 2:0.00643774 3:0.318239 4:0.00173656 5:0.303912 6:-0.399421 7:-0.293574 8:0.0383562 
2 1:0.0621243 2:0.0281873 3:0.211533 4:-0.239953 5:0.0145645 6:-0.517495 7:0.0228559 8:0.165824 
2 1:0.0645994 2:0.0369397 3:0.195041 4:-0.299462 5:-0.0920169 6:-0.500948 7:-0.0179393 8:0.14741 
2 1:0.0291606 2:0.0404193 3:0.0802741 4:-0.615495 5:-0.346069 6:-0.815799 7:-0.421624 8:-0.0642537 
2 1:0.0434882 2:0.042121 3:0.118205 4:-0.451299 5:-0.385603 6:-0.430788 7:0.135473 8:0.197611 
0.7803333493958373 1:0.0365157 2:0.0419616 3:0.0979238 4:-0.458999 5:-0.414655 6:-0.408946 7:-0.0980406 8:0.0756454 
2 1:0.0680599 2:0.0481442 3:0.174796 4:0.226051 5:-0.140159 6:0.630093 7:0.372991 8:0.31626 
2 1:0.150235 2:0.0715824 3:0.355081 4:0.448593 5:0.0667569 6:0.815632 7:0.738094 8:0.614682 
2 1:0.169686 2:0.0945753 3:0.350227 4:0.333396 5:0.164366 6:0.455316 7:0.181208 8:0.304671 
0.6114815449909051 1:0.276741 2:0.260125 3:0.217258 4:0.101265 5:0.0138201 6:0.177505 7:0.587881 8:0.559693 
2 1:0.165962 2:0.244597 3:-0.0695555 4:-0.226428 5:-0.066941 6:-0.384767 7:-0.463901 8:-0.195282 
2 1:0.0198513 2:0.0463307 3:0.0365114 4:-0.239001 5:-0.438759 6:0.0696461 7:0.571663 8:0.442938 
2 1:0.0930368 2:0.0576567 3:0.223086 4:0.119451 5:-0.247555 6:0.551908 7:0.623612 8:0.490665 
2 1:0.246025 2:0.161074 3:0.395858 4:0.581707 5:0.249481 6:0.850503 7:0.628781 8:0.523602 
2 1:0.29293 2:0.193048 3:0.448099 4:0.704366 5:0.416073 6:0.884936 7:0.628781 8:0.523602 
2 1:0.308635 2:0.222053 3:0.415739 4:0.652513 5:0.508978 6:0.659534 7:0.277174 8:0.384438 
2 1:0.35926 2:0.256297 3:0.472847 4:0.783051 5:0.616621 6:0.786089 7:0.582204 8:0.561294 
2 1:0.436667 2:0.300576 3:0.582188 4:0.885816 5:0.724366 6:0.856025 7:0.754399 8:0.698855 
2 1:0.522834 2:0.354792 3:0.69048 4:0.954327 5:0.820183 6:0.871682 7:0.838443 8:0.780557 
2 1:0.702777 2:0.43741 3:1 4:1 5:0.900054 6:0.861475 7:1 8:1 
2 1:0.767008 2:0.517513 3:0.972595 4:0.840042 5:0.897293 6:0.539684 7:0.430056 8:0.628654 
2 1:0.816404 2:0.592369 3:0.915411 4:0.748636 5:0.863448 6:0.397456 7:0.449932 8:0.641707 
2 1:0.842273 2:0.657896 3:0.813745 4:0.641525 5:0.803381 6:0.257134 7:0.401396 8:0.612615 
2 1:0.849414 2:0.711875 3:0.6879 4:0.55241 5:0.732134 6:0.167848 7:0.345111 8:0.581477 
2 1:0.807777 2:0.745977 3:0.47129 4:0.339611 5:0.610127 6:-0.107483 7:-0.00467474 8:0.374977 
2 1:0.824799 2:0.776971 3:0.437422 4:0.377696 5:0.542123 6:0.0577674 7:0.360661 8:0.55655 
2 1:0.751489 2:0.785778 3:0.195629 4:-0.015464 5:0.359128 6:-0.505686 7:-0.124943 8:0.228479 
2 1:0.72449 2:0.786934 3:0.112266 4:-0.146513 5:0.191245 6:-0.555518 7:0.0933724 8:0.346564 
2 1:0.70573 2:0.783768 3:0.0651565 4:-0.192214 5:0.0633218 6:-0.483335 7:0.143082 8:0.373204 
2 1:0.651108 2:0.769322 3:-0.0577673 4:-0.339865 5:-0.0736588 6:-0.606827 7:-0.0750308 8:0.238218 
2 1:0.622883 2:0.751609 3:-0.0933662 4:-0.283356 5:-0.145193 6:-0.399542 7:0.0742775 8:0.309758 
2 1:0.564624 2:0.724733 3:-0.193228 4:-0.286349 5:-0.193931 6:-0.342714 7:-0.133589 8:0.185751 
2 1:0.517524 2:0.692959 3:-0.246597 4:-0.271873 5:-0.221354 6:-0.277868 7:-0.106028 8:0.197562 
2 1:0.417324 2:0.645686 3:-0.415497 4:-0.52578 5:-0.328538 6:-0.655949 7:-0.428687 8:-0.0192249 
2 1:0.373066 2:0.598216 3:-0.417656 4:-0.494876 5:-0.389174 6:-0.514814 7:-0.0846002 8:0.141532 
2 1:0.310765 2:0.546651 3:-0.462269 4:-0.597875 5:-0.465661 6:-0.625574 7:-0.230062 8:0.0519346 
2 1:0.317261 2:0.506816 3:-0.334443 4:-0.270905 5:-0.402169 6:-0.0424827 7:0.191764 8:0.276073 
2 1:0.286854 2:0.468317 3:-0.319893 4:-0.289031 5:-0.366186 6:-0.125799 7:-0.0308293 8:0.151455 
2 1:0.276081 2:0.435167 3:-0.261587 4:-0.160927 5:-0.297344 6:0.0458938 7:0.0736276 8:0.206873 
2 1:0.201424 2:0.392365 3:-0.366781 4:-0.377257 5:-0.327195 6:-0.355586 7:-0.288878 8:-0.0116395 
2 1:0.122931 2:0.341004 3:-0.460051 4:-0.596036 5:-0.423699 6:-0.676005 7:-0.369826 8:-0.0686624 
1.432358627842092 1:0.13306 2:0.302124 3:-0.324035 4:-0.297134 5:-0.383377 6:-0.12009 7:0.1414 8:0.211017 
0.3830583410050283 1:0.0934206 2:0.262375 3:-0.333509 4:-0.377897 5:-0.384774 6:-0.282558 7:-0.11272 8:0.061592 
2 1:-0.0309071 2:0.167348 3:-0.44399 4:-0.688934 5:-0.532473 6:-0.72454 7:-0.318972 8:-0.070796 
1.55515862064117 1:-0.0608846 2:0.1209 3:-0.406509 4:-0.672652 5:-0.587377 6:-0.620546 7:-0.164439 8:0.00390826 
2 1:-0.109888 2:0.0730544 3:-0.421746 4:-0.767209 5:-0.657087 6:-0.722886 7:-0.314861 8:-0.0806855 
2 1:-0.0934366 2:-0.0973558 3:0.0913969 4:0.182253 5:-0.247308 6:0.679329 7:0.462868 8:0.306269 
2 1:-0.108713 2:-0.101294 3:0.0567419 4:0.0188339 5:-0.155151 6:0.227967 7:-0.123799 8:0.0279297 
0.3978473177568865 1:-0.037628 2:-0.0843716 3:0.221828 4:0.214496 5:0.0778171 6:0.325202 7:0.190878 8:0.206651 
1.169377119112516 1:0.120167 2:0.0395769 3:0.352945 4:0.492812 5:0.381556 6:0.499193 7:0.435761 8:0.336489 
2 1:0.212655 2:0.0783424 3:0.522111 4:0.645103 5:0.483372 6:0.677516 7:0.877088 8:0.681034 
2 1:0.264989 2:0.120769 3:0.562006 4:0.636448 5:0.548219 6:0.576199 7:0.542325 8:0.531287 
2 1:0.288102 2:0.159751 3:0.524471 4:0.481783 5:0.537297 6:0.275711 7:0.294895 8:0.411535 
2 1:0.30507 2:0.194637 3:0.479837 4:0.378673 5:0.493912 6:0.121992 7:0.294895 8:0.411535 
2 1:0.336877 2:0.229483 3:0.479401 4:0.434093 5:0.484394 6:0.247004 7:0.487796 8:0.514904 
2 1:0.331748 2:0.256242 3:0.391261 4:0.268664 5:0.420126 6:-0.00651293 7:0.0596403 8:0.305174 
2 1:0.326091 2:0.276415 3:0.319496 4:0.158379 5:0.338665 6:-0.125675 7:0.0596403 8:0.305174 
2 1:0.305908 2:0.288151 3:0.22756 4:-0.0790041 5:0.201241 6:-0.431108 7:-0.134865 8:0.202415 
2 1:0.266069 2:0.288851 3:0.107292 4:-0.375737 5:0.00572721 6:-0.78227 7:-0.367183 8:0.0547809 
2 1:0.265156 2:0.289212 3:0.103596 4:-0.31599 5:-0.103696 6:-0.51949 7:0.111112 8:0.272415 
1.252671551959003 1:0.0739656 2:0.210335 3:-0.24953 4:-0.774484 5:-0.616424 6:-0.790175 7:-0.636963 8:-0.235879 
2 1:0.0589649 2:0.129628 3:-0.0742192 4:-0.346483 5:-0.569227 6:0.0194513 7:0.387263 8:0.340635 
2 1:0.104802 2:0.116271 3:0.0983505 4:0.0650276 5:-0.298614 6:0.507125 7:0.34325 8:0.358002 
2 1:0.106498 2:0.116545 3:0.102644 4:0.0883928 5:-0.165 6:0.382164 7:0.0547526 8:0.180804 
2 1:0.0859008 2:0.0998529 3:0.0869259 4:-0.410198 5:-0.338995 6:-0.407356 7:0.105961 8:0.177833 
2 1:-0.280928 2:-0.0563027 3:-0.577477 4:-0.872492 5:-0.731752 6:-0.840644 7:-0.898136 8:-0.62374 
2 1:-0.365433 2:-0.124442 3:-0.642899 4:-0.850302 5:-0.782432 6:-0.730087 7:-0.586405 8:-0.428609 
2 1:-0.408322 2:-0.188308 3:-0.596323 4:-0.783391 5:-0.79279 6:-0.580619 7:-0.39103 8:-0.306375 
0.2861207068625868 1:-0.426622 2:-0.243392 3:-0.500622 4:-0.69214 5:-0.767744 6:-0.427345 7:-0.289809 8:-0.245161 
0.7766560425038793 1:-0.321722 2:-0.328976 3:0.044196 4:-0.0380591 5:-0.303063 6:0.30319 7:0.0425158 8:-0.0141821 
2 1:-0.298176 2:-0.327912 3:0.111254 4:0.196747 5:-0.130027 6:0.557409 7:0.000980396 8:-0.0296101 
2 1:-0.248668 2:-0.316264 3:0.226602 4:0.330223 5:0.0320654 6:0.619651 7:0.355795 8:0.16826 
2 1:-0.196398 2:-0.295545 3:0.325448 4:0.459976 5:0.185559 6:0.685421 7:0.446219 8:0.228604 
2 1:-0.159571 2:-0.270937 3:0.367821 4:0.473679 5:0.292686 6:0.575001 7:0.265524 8:0.166732 
2 1:-0.149439 2:-0.249042 3:0.338268 4:0.189197 5:0.264495 6:0.0327566 7:-0.10657 8:0.0152443 
2 1:-0.180186 2:-0.238231 3:0.217468 4:-0.159374 5:0.123654 6:-0.494422 7:-0.471067 8:-0.200909 
2 1:-0.208586 2:-0.235777 3:0.126407 4:-0.364401 5:-0.0420283 6:-0.697565 7:-0.520021 8:-0.237008 
2 1:-0.217811 2:-0.235825 3:0.0991325 4:-0.449258 5:-0.182195 6:-0.689221 7:-0.347116 8:-0.157207 
2 1:-0.245932 2:-0.241997 3:0.0324014 4:-0.644037 5:-0.343839 6:-0.876732 7:-0.529913 8:-0.273028 
2 1:-0.162957 2:-0.276388 3:0.372612 4:0.51616 5:0.162454 6:0.829526 7:0.478817 8:0.273554 
2 1:-0.103249 2:-0.243328 3:0.459933 4:0.707889 5:0.359288 6:0.965406 7:0.608655 8:0.375708 
2 1:-0.0418081 2:-0.20348 3:0.533909 4:0.835708 5:0.535265 6:0.998218 7:0.696266 8:0.452493 
2 1:0.0231251 2:-0.15744 3:0.60139 4:0.920921 5:0.68242 6:0.981577 7:0.787671 8:0.542327 
2 1:0.0276764 2:-0.119615 3:0.511861 4:0.601438 5:0.66866 6:0.349511 7:-0.039446 8:0.145643 
2 1:0.0614233 2:-0.0819947 3:0.50963 4:0.609797 5:0.662413 6:0.374578 7:0.261832 8:0.330853 
2 1:0.097812 2:-0.0439622 3:0.514123 4:0.672615 5:0.680244 6:0.479332 7:0.338805 8:0.381285 
2 1:0.113173 2:-0.010186 3:0.467739 4:0.58452 5:0.661285 6:0.32462 7:0.133544 8:0.273347 
2 1:0.111884 2:0.0165538 3:0.39106 4:0.231547 5:0.525057 6:-0.217467 7:-0.0487583 8:0.171619 
-1.421986052740294 1:0.0959727 2:0.0926322 3:0.136521 4:-0.26337 5:-0.248403 6:-0.225654 7:0.0512694 8:0.1781 
2 1:0.311146 2:0.239479 3:0.375725 4:0.66886 5:0.59182 6:0.585841 7:0.144217 8:0.339943 
2 1:0.306844 2:0.278921 3:0.255485 4:0.330178 5:0.549232 6:-0.0480605 7:-0.10115 8:0.177927 
1.243018323515297 1:0.256243 2:0.279324 3:0.104054 4:-0.124413 5:0.325719 6:-0.684162 7:-0.289815 8:0.0367075 
0.5125090951511714 1:0.181797 2:0.26341 3:-0.0737666 4:-0.427474 5:0.070598 6:-0.971246 7:-0.459871 8:-0.106172 
-2 1:0.143055 2:0.226827 3:-0.0891981 4:-0.361757 5:-0.191929 6:-0.498676 7:0.0037019 8:0.148695 
-2 1:0.108289 2:0.20538 3:-0.134059 4:-0.473016 5:-0.290447 6:-0.5978 7:-0.214217 8:0.0152402 
-2 1:0.0876292 2:0.183717 3:-0.136417 4:-0.514994 5:-0.370824 6:-0.579421 7:-0.144115 8:0.0509124 
-2 1:0.156725 2:0.16758 3:0.112827 4:0.101116 5:-0.0596166 6:0.272003 7:0.144959 8:0.246243 
-2 1:0.137529 2:0.16436 3:0.0645687 4:-0.0410161 5:-0.0509791 6:-0.0282451 7:-0.0919178 8:0.10963 
-2 1:0.123065 2:0.158629 3:0.0372083 4:-0.249753 5:-0.118307 6:-0.3659 7:-0.0919178 8:0.10963 
-2 1:0.123814 2:0.154208 3:0.0514792 4:-0.291212 5:-0.177709 6:-0.373545 7:0.0499838 8:0.177569 
-0.3712668502821701 1:0.325314 2:0.237906 3:0.422101 4:0.270543 5:0.147302 6:0.349501 7:0.241706 8:0.376473 
1.611910077750321 1:0.447513 2:0.345824 3:0.491138 4:0.610528 5:0.453635 6:0.645578 7:0.431963 8:0.509896 
2 1:0.45653 2:0.376529 3:0.434273 4:0.597336 5:0.5147 6:0.539917 7:0.25335 8:0.422749 
1.314212384709006 1:0.454864 2:0.40073 3:0.363391 4:0.493996 5:0.519227 6:0.323879 7:0.179772 8:0.387165 
2 1:0.469042 2:0.455809 3:0.255455 4:0.378508 5:0.19377 6:0.509115 7:0.805714 8:0.748523 
2 1:0.513496 2:0.476942 3:0.329952 4:0.486022 5:0.302482 6:0.587462 7:0.662005 8:0.676449 
2 1:0.530438 2:0.497543 3:0.324162 4:0.485422 5:0.374746 6:0.492953 7:0.425632 8:0.557555 
2 1:0.497279 2:0.506792 3:0.200451 4:0.268191 5:0.346861 6:0.0871022 7:-0.0702397 8:0.259751 
2 1:0.447928 2:0.503427 3:0.0629965 4:0.0221821 5:0.242134 6:-0.278085 7:-0.227067 8:0.146124 
2 1:0.359857 2:0.472111 3:-0.11334 4:-0.439081 5:-0.0740181 6:-0.808167 7:-0.328236 8:0.0775568 
2 1:0.315841 2:0.446875 3:-0.175355 4:-0.637252 5:-0.269345 6:-0.959096 7:-0.379035 8:0.0428949 
1.582377373100416 1:0.271393 2:0.416991 3:-0.225996 4:-0.769366 5:-0.445821 6:-1 7:-0.456146 8:-0.0101716 
2 1:0.193088 2:0.376006 3:-0.346977 4:-0.845831 5:-0.590245 6:-0.969089 7:-0.693798 8:-0.228317 
-2 1:-0.0584742 2:0.0557279 3:-0.221792 4:-0.493572 5:-0.36303 6:-0.545911 7:-0.46409 8:-0.210779 
-2 1:-0.0773941 2:0.0280034 3:-0.20247 4:-0.535852 5:-0.426516 6:-0.549954 7:-0.299841 8:-0.131113 
-2 1:-0.083522 2:0.00448735 3:-0.156608 4:-0.496127 5:-0.45493 6:-0.432472 7:-0.186541 8:-0.076909 
-0.1067375127164805 1:-0.0852285 2:-0.0146977 3:-0.109411 4:-0.469643 5:-0.4646 6:-0.366121 7:-0.186541 8:-0.076909 
2 1:-0.690691 2:-0.596181 3:-0.324021 4:-0.713559 5:-0.66646 6:-0.601661 7:-0.580989 8:-0.459717 
2 1:-0.696487 2:-0.628548 3:-0.25306 4:-0.792995 5:-0.718838 6:-0.695618 7:-0.626873 8:-0.483553 
2 1:-0.688112 2:-0.652615 3:-0.162612 4:-0.83233 5:-0.767529 6:-0.71277 7:-0.549451 8:-0.452746 
2 1:-0.665896 2:-0.667023 3:-0.0573542 4:-0.806219 5:-0.790848 6:-0.629558 7:-0.382549 8:-0.387709 
2 1:-0.607569 2:-0.665829 3:0.112677 4:-0.446126 5:-0.680311 6:-0.0398219 7:0.234666 8:-0.0707836 
2 1:-0.532958 2:-0.648601 3:0.287407 4:0.0368521 5:-0.437511 6:0.629119 7:0.456409 8:0.0940045 
1.595111947803209 1:-0.454944 2:-0.617803 3:0.435279 4:0.259566 5:-0.197663 6:0.772496 7:0.558588 8:0.181102 
0.2773037761115013 1:-0.366647 2:-0.573908 3:0.578016 4:0.516589 5:0.0522286 6:0.97269 7:0.7025 8:0.321657 
2 1:-0.325172 2:-0.529745 3:0.580921 4:0.437349 5:0.191078 6:0.632273 7:0.117324 8:0.0887513 
2 1:-0.0997144 2:-0.363207 3:0.797029 4:0.666993 5:0.500245 6:0.70026 7:0.635301 8:0.481786 
2 1:-0.0264641 2:-0.296036 3:0.831654 4:0.739341 5:0.595495 6:0.724455 7:0.668593 8:0.510977 
2 1:0.00218089 2:-0.236053 3:0.753338 4:0.553113 5:0.593789 6:0.34787 7:0.153181 8:0.27228 
-2 1:-0.0943357 2:-0.148426 3:0.227862 4:-0.228965 5:-0.0770294 6:-0.376904 7:0.156862 8:0.21123 
-2 1:-0.00294248 2:-0.119082 3:0.419442 4:0.174502 5:0.0128735 6:0.32769 7:0.452441 8:0.446951 
-0.8357686809918593 1:0.0793442 2:-0.0776598 3:0.551062 4:0.413713 5:0.156566 6:0.62875 7:0.486079 8:0.474955 
-2 1:0.146778 2:0.00321286 3:0.531074 4:0.495045 5:0.356092 6:0.536608 7:0.236674 8:0.334528 
-2 1:0.159472 2:0.037652 3:0.474964 4:0.472464 5:0.405949 6:0.426317 7:0.119272 8:0.274602 
-2 1:0.161237 2:0.0655882 3:0.404098 4:0.424208 5:0.422291 6:0.307068 7:0.0277968 8:0.228626 
-0.8552586269359803 1:0.143078 2:0.0839766 3:0.30005 4:0.314566 5:0.394795 6:0.11955 7:-0.170041 8:0.123554 
-0.3077934369010834 1:0.0301244 2:0.0740522 3:-0.00849207 4:-0.0167689 5:0.260452 6:-0.380959 7:-0.623267 8:-0.238324 
-0.3532718407495746 1:-0.0877617 2:0.0404017 3:-0.267049 4:-0.337549 5:0.0585725 6:-0.772815 7:-0.689813 8:-0.315331 
-1.633737745944096 1:-0.222346 2:-0.0158715 3:-0.513582 4:-0.547197 5:-0.14942 6:-0.930737 7:-0.765216 8:-0.411492 
-0.123515848796405 1:-0.374149 2:-0.0939985 3:-0.751735 4:-0.669979 5:-0.331072 6:-0.945978 7:-0.825029 8:-0.499381 
-2 1:-0.50759 2:-0.716139 3:0.546776 4:0.350467 5:0.0840651 6:0.5937 7:0.70855 8:0.491304 
-0.5830852450506354 1:-0.179919 2:-0.450774 3:0.797314 4:0.623701 5:0.546923 6:0.551946 7:0.181577 8:0.228555 
-2 1:-0.143654 2:-0.39165 3:0.743976 4:0.552922 5:0.561341 6:0.38937 7:0.147544 8:0.213134 
-2 1:-0.134145 2:-0.342276 3:0.637715 4:0.388972 5:0.513548 6:0.117592 7:-0.109069 8:0.0913635 
-2 1:-0.123023 2:-0.300351 3:0.556538 4:0.251523 5:0.43356 6:-0.0587215 7:-0.109069 8:0.0913635 
-2 1:-0.000185193 2:-0.240021 3:0.757119 4:0.501323 5:0.467699 6:0.405302 7:0.682625 8:0.596485 
-2 1:0.361718 2:0.210758 3:0.604219 4:0.705265 5:0.784132 6:0.41163 7:0.128795 8:0.387885 
-2 1:0.324494 2:0.239679 3:0.414834 4:0.302723 5:0.631876 6:-0.21059 7:-0.277427 8:0.152469 
-2 1:0.305116 2:0.25859 3:0.305742 4:0.0864443 5:0.454645 6:-0.42171 7:-0.10419 8:0.222636 
-2 1:0.271587 2:0.266406 3:0.184836 4:-0.0350572 5:0.293948 6:-0.461398 7:-0.270495 8:0.120294 
-2 1:0.173481 2:0.251262 3:-0.065374 4:-0.367903 5:0.0702752 6:-0.849662 7:-0.629112 8:-0.192599 
-2 1:0.0797711 2:0.218708 3:-0.255094 4:-0.556071 5:-0.144725 6:-0.954848 7:-0.676779 8:-0.248565 
-2 1:0.0331035 2:0.182487 3:-0.295061 4:-0.515721 5:-0.27393 6:-0.705982 7:-0.322548 8:-0.0744575 
-2 1:0.0408366 2:0.155197 3:-0.197737 4:-0.334188 5:-0.296506 6:-0.307603 7:0.100843 8:0.168061 
-2 1:0.0429018 2:0.133815 3:-0.133349 4:-0.2021 5:-0.265307 6:-0.0792094 7:0.0504179 8:0.140863 
-2 1:0.0745273 2:0.123607 3:-0.0115807 4:0.0954051 5:-0.14034 6:0.364593 7:0.294574 8:0.288825 
-2 1:0.143129 2:0.130403 3:0.173718 4:0.403775 5:0.050944 6:0.744886 7:0.545684 8:0.472178 
-2 1:0.271108 2:0.163752 3:0.463083 4:0.632966 5:0.258715 6:0.942844 7:0.780047 8:0.698746 
-2 1:0.353418 2:0.208383 3:0.586029 4:0.735166 5:0.433013 6:0.925714 7:0.600256 8:0.601854 
-1.640185050644189 1:0.646186 2:0.66602 3:0.209044 4:-0.0098133 5:0.366181 6:-0.503299 7:0.0653908 8:0.348102 
-0.6023362809100432 1:0.654582 2:0.675882 3:0.207122 4:0.0962823 5:0.28096 6:-0.177486 7:0.319215 8:0.468835 
-2 1:0.650172 2:0.682809 3:0.175149 4:0.10417 5:0.226907 6:-0.091665 7:0.257747 8:0.439166 
-2 1:0.578663 2:0.677645 3:-0.0232315 4:-0.244596 5:0.0554073 6:-0.579663 7:-0.255927 8:0.141348 
-2 1:0.518969 2:0.655604 3:-0.140532 4:-0.488452 5:-0.130961 6:-0.83508 7:-0.225109 8:0.154401 
-2 1:0.476935 2:0.628803 3:-0.1924 4:-0.565231 5:-0.28209 6:-0.796153 7:-0.120681 8:0.196069 
-2 1:0.471899 2:0.606265 3:-0.145958 4:-0.327845 5:-0.299724 6:-0.290545 7:0.207195 8:0.34104 
-2 1:0.476059 2:0.589141 3:-0.0869452 4:-0.178581 5:-0.259218 6:-0.0392339 7:0.306074 8:0.390409 
-2 1:0.470366 2:0.5742 3:-0.0631562 4:-0.119548 5:-0.211543 6:0.0192971 7:0.225522 8:0.35633 
-2 1:0.422992 2:0.551916 3:-0.143189 4:-0.312391 5:-0.247282 6:-0.32681 7:-0.20403 8:0.139165 
-2 1:0.380363 2:0.524791 3:-0.195939 4:-0.459593 5:-0.322649 6:-0.528926 7:-0.228184 8:0.124871 
-2 1:0.296571 2:0.484815 3:-0.335974 4:-0.650927 5:-0.439888 6:-0.766755 7:-0.530766 8:-0.090657 
-1.17610085556931 1:-0.609465 2:-0.281936 3:-0.938833 4:-0.950918 5:-0.975779 6:-0.685144 7:-0.781822 8:-0.561603 
-0.2585891800021531 1:-0.669725 2:-0.371315 3:-0.874357 4:-0.978477 5:-0.989995 6:-0.722847 7:-0.81485 8:-0.592493 
-1.20649345292388 1:-0.752528 2:-0.460878 3:-0.876357 4:-0.979985 5:-1 6:-0.712999 7:-0.876943 8:-0.662877 
-2 1:-0.758482 2:-0.533826 3:-0.695306 4:-0.802812 5:-0.944635 6:-0.4241 7:-0.253127 8:-0.307968 
-1.062593239243883 1:-0.772208 2:-0.595179 3:-0.568937 4:-0.756555 5:-0.891529 6:-0.398569 7:-0.355371 8:-0.357736 
-2 1:-0.857149 2:-0.717356 3:-0.488432 4:-0.598654 5:-0.782616 6:-0.217996 7:-0.157071 8:-0.20369 
-0.1678204155918372 1:-0.843069 2:-0.757457 3:-0.33735 4:-0.395283 5:-0.657021 6:0.0335273 7:-0.157071 8:-0.20369 
-1.205870904862337 1:-0.823123 2:-0.785189 3:-0.202542 4:-0.253897 5:-0.523787 6:0.149112 7:-0.173516 8:-0.211312 
-0.4106638977202763 1:-0.855044 2:-0.845864 3:-0.132071 4:-0.633195 5:-0.447029 6:-0.72147 7:-0.763981 8:-0.542497 
-2 1:-0.94119 2:-0.881664 3:-0.290475 4:-0.724996 5:-0.548742 6:-0.77689 7:-0.81852 8:-0.600959 
-2 1:-0.981639 2:-0.919126 3:-0.308585 4:-0.744532 5:-0.62339 6:-0.720259 7:-0.634679 8:-0.502817 
-2 1:-1 2:-0.953101 3:-0.270576 4:-0.757555 5:-0.677716 6:-0.676619 7:-0.634679 8:-0.502817 
-1.641912139248754 1:-0.980999 2:-0.976136 3:-0.151368 4:-0.707906 5:-0.696549 6:-0.55132 7:-0.332042 8:-0.353805 
-1.681415359335242 1:-0.937391 2:-0.999326 3:0.0413702 4:-0.648231 5:-0.70355 6:-0.420903 7:-0.132285 8:-0.234308 
-2 1:-0.816619 2:-0.972287 3:0.326512 4:-0.205728 5:-0.531342 6:0.256841 7:0.146422 8:-0.0451752 
-2 1:-0.698434 2:-0.907421 3:0.500915 4:0.17055 5:-0.187214 6:0.577949 7:0.15819 8:-0.00687731 
-2 1:-0.653672 2:-0.868202 3:0.527053 4:0.152838 5:-0.0681684 6:0.388245 7:-0.043235 8:-0.0826233 
-1.218769603848393 1:-0.637129 2:-0.776784 3:0.327142 4:-0.511539 5:-0.27057 6:-0.701814 7:-0.576543 8:-0.362815 
-0.3415716246744402 1:-0.639125 2:-0.76052 3:0.276903 4:-0.58437 5:-0.381864 6:-0.706281 7:-0.378018 8:-0.257812 
-2 1:-0.65111 2:-0.750122 3:0.212969 4:-0.718014 5:-0.502853 6:-0.821925 7:-0.482339 8:-0.319702 
-2 1:-0.577218 2:-0.725688 3:0.365932 4:-0.38856 5:-0.468159 6:-0.196605 7:0.23116 8:0.128943 
-0.5149670321376131 1:-0.530452 2:-0.695942 3:0.42383 4:-0.266279 5:-0.402214 6:-0.0330152 7:0.0730605 8:0.0486286 
-2 1:-0.537645 2:-0.656748 3:0.295679 4:-0.528552 5:-0.462506 6:-0.488647 7:-0.210947 8:-0.112929 
-2 1:-0.488844 2:-0.631714 3:0.372464 4:-0.324103 5:-0.418691 6:-0.129357 7:0.108323 8:0.0826516 
-2 1:-0.442896 2:-0.601666 3:0.427111 4:-0.177728 5:-0.33823 6:0.0645009 7:0.108323 8:0.0826516 
-2 1:-0.391201 2:-0.566353 3:0.484488 4:-0.0227137 5:-0.230313 6:0.240488 7:0.189506 8:0.129628 
-2 1:-0.36111 2:-0.53154 3:0.479041 4:-0.0342326 5:-0.162402 6:0.12939 7:-0.00486636 8:0.0485447 
-2 1:-0.336948 2:-0.49842 3:0.460593 4:-0.0801991 5:-0.133222 6:-0.0017744 7:-0.0683017 8:0.0213914 
-2 1:-0.334718 2:-0.471437 3:0.393707 4:-0.238056 5:-0.16904 6:-0.276616 7:-0.293487 8:-0.0840313 
-2 1:-0.34119 2:-0.451262 3:0.319514 4:-0.441643 5:-0.264203 6:-0.567865 7:-0.405704 8:-0.145294 
-2 1:-0.351572 2:-0.437387 3:0.250868 4:-0.611718 5:-0.387195 6:-0.755025 7:-0.487159 8:-0.193256 
-2 1:-0.342215 2:-0.424246 3:0.242866 4:-0.616129 5:-0.470733 6:-0.656156 7:-0.248074 8:-0.0978322 
-2 1:-0.348689 2:-0.415145 3:0.198837 4:-0.73086 5:-0.566598 6:-0.765765 7:-0.430342 8:-0.190243 
-2 1:-0.347645 2:-0.407637 3:0.181483 4:-0.807347 5:-0.657288 6:-0.804266 7:-0.430342 8:-0.190243 
-2 1:-0.320875 2:-0.395792 3:0.228744 4:-0.687366 5:-0.675739 6:-0.536407 7:0.00307709 8:-0.00805709 
-2 1:-0.251572 2:-0.3712 3:0.367646 4:-0.199397 5:-0.517182 6:0.251438 7:0.488165 8:0.295803 
-2 1:-0.152569 2:-0.329935 3:0.549355 4:0.230851 5:-0.260832 6:0.795635 7:0.706312 8:0.499828 
-2 1:-0.0739571 2:-0.279777 3:0.646258 4:0.498539 5:0.00379634 6:0.9985 7:0.657346 8:0.478765 
-2 1:-0.032064 2:-0.230514 3:0.636509 4:0.523849 5:0.189077 6:0.810798 7:0.287787 8:0.314652 
-2 1:-0.0109105 2:-0.18649 3:0.579416 4:0.445004 5:0.284991 6:0.52661 7:0.0967313 8:0.220583 
-2 1:0.0334481 2:-0.141596 3:0.588895 4:0.548613 5:0.385211 6:0.607974 7:0.359682 8:0.372321 
-2 1:0.138012 2:-0.0828758 3:0.739573 4:0.729524 5:0.515368 6:0.807925 7:0.71795 8:0.659209 
-2 1:0.214835 2:-0.0191443 3:0.79418 4:0.812186 5:0.631083 6:0.826682 7:0.640241 8:0.618656 
-2 1:0.325755 2:0.0560326 3:0.918907 4:0.90524 5:0.740808 6:0.874307 7:0.811286 8:0.778522 
-2 1:0.413924 2:0.135404 3:0.964614 4:0.967276 5:0.835679 6:0.878017 7:0.818978 8:0.786357 
-0.1897592421889231 1:0.491769 2:0.215879 3:0.976643 4:0.90887 5:0.878476 6:0.703973 7:0.8527 8:0.819023 
-2 1:0.549297 2:0.292806 3:0.937978 4:0.869933 5:0.893374 6:0.605543 7:0.8527 8:0.819023 
-2 1:0.584582 2:0.362042 3:0.854177 4:0.824023 5:0.887231 6:0.520091 7:0.715123 8:0.763984 
-2 1:0.624719 2:0.426186 3:0.79867 4:0.846726 5:0.891085 6:0.561294 7:0.80928 8:0.825243 
-2 1:0.679543 2:0.489458 3:0.789171 4:0.857435 5:0.897404 6:0.574919 7:0.914823 8:0.913344 
-2 1:0.708388 2:0.546367 3:0.719828 4:0.815126 5:0.886803 6:0.502547 7:0.714177 8:0.825098 
-2 1:0.730728 2:0.596766 3:0.648892 4:0.791893 5:0.871601 6:0.474916 7:0.748969 8:0.845168 
-2 1:0.767565 2:0.64512 3:0.626598 4:0.891711 5:0.896416 6:0.645912 7:0.872952 8:0.928444 
-2 1:0.752962 2:0.680618 3:0.486501 4:0.62771 5:0.820522 6:0.206906 7:0.1992 8:0.571012 
-2 1:0.774777 2:0.713774 3:0.460984 4:0.782255 5:0.824039 6:0.516712 7:0.508562 8:0.727414 
-2 1:0.793688 2:0.744423 3:0.433667 4:0.822788 5:0.840575 6:0.577807 7:0.559904 8:0.75663 
-2 1:0.764743 2:0.76263 3:0.298069 4:0.53454 5:0.750673 6:0.107568 7:0.0867968 8:0.464499 
-2 1:0.778023 2:0.780092 3:0.289951 4:0.694845 5:0.746867 6:0.438542 7:0.409562 8:0.634634 
-2 1:0.764692 2:0.791154 3:0.220208 4:0.649934 5:0.728605 6:0.370768 7:0.223409 8:0.516209 
-2 1:0.724088 2:0.798226 3:0.080307 4:0.393441 5:0.632184 6:-0.0264668 7:7.72432e-05 8:0.359421 
-2 1:0.703183 2:0.792246 3:0.03449 4:0.360459 5:0.550793 6:0.011516 7:0.16129 8:0.437914 
-0.06521885368311992 1:0.706451 2:0.788175 3:0.0552927 4:0.604088 5:0.581836 6:0.466984 7:0.366917 8:0.545993 
-0.5039987458116821 1:0.745635 2:0.793463 3:0.157296 4:0.766508 5:0.659401 6:0.697215 7:0.603293 8:0.694509 
-2 1:0.812963 2:0.820506 3:0.283652 4:0.87787 5:0.785656 6:0.760742 7:0.731788 8:0.783152 
-2 1:0.653871 2:0.796045 3:-0.122361 4:0.0601662 5:0.393137 6:-0.395757 7:-0.162415 8:0.221584 
-2 1:0.633387 2:0.775278 3:-0.126643 4:0.0598549 5:0.286175 6:-0.258312 7:0.144484 8:0.370216 
-2 1:0.62644 2:0.75715 3:-0.0978943 4:0.160835 5:0.250225 6:-0.00650925 7:0.262315 8:0.432226 
-2 1:0.576305 2:0.731713 3:-0.177541 4:-0.0551704 5:0.150626 6:-0.31729 7:-0.105506 8:0.212119 
-2 1:0.487235 2:0.691937 3:-0.3338 4:-0.381312 5:-0.0299682 6:-0.74753 7:-0.368413 8:0.0141967 
-2 1:0.405535 2:0.642298 3:-0.44129 4:-0.42936 5:-0.167188 6:-0.668121 7:-0.409117 8:-0.0191691 
-2 1:0.358893 2:0.592414 3:-0.443956 4:-0.341007 5:-0.227731 6:-0.410254 7:-0.16283 8:0.0949265 
-2 1:0.320404 2:0.544112 3:-0.426714 4:-0.282105 5:-0.24747 6:-0.264966 7:-0.16283 8:0.0949265 
-2 1:0.305752 2:0.502275 3:-0.356263 4:-0.146248 5:-0.213061 6:-0.0330537 7:0.0662773 8:0.197632 
-2 1:0.355309 2:0.479613 3:-0.147293 4:0.266283 5:-0.0456778 6:0.589958 7:0.54726 8:0.491892 
-2 1:0.471619 2:0.486852 3:0.178541 4:0.496475 5:0.146509 6:0.810069 7:0.795988 8:0.728981 
-2 1:0.590703 2:0.518615 3:0.445799 4:0.648063 5:0.327711 6:0.884484 7:0.855415 8:0.798717 
-0.7545094408400091 1:0.702096 2:0.56832 3:0.641327 4:0.665346 5:0.454564 6:0.75588 7:0.894323 8:0.84572 
-0.8281838562968878 1:0.757994 2:0.620275 3:0.665848 4:0.620948 5:0.523587 6:0.576471 7:0.595382 8:0.689157 
-2 1:0.758432 2:0.661935 3:0.553654 4:0.505805 5:0.529286 6:0.334915 7:0.241607 8:0.486753 
-2 1:0.789136 2:0.701959 3:0.535829 4:0.511259 5:0.534995 6:0.338637 7:0.438193 8:0.597888 
-2 1:0.783657 2:0.732784 3:0.435575 4:0.44074 5:0.51411 6:0.222162 7:0.232442 8:0.479061 
-2 1:0.778248 2:0.756264 3:0.355536 4:0.3711 5:0.475803 6:0.129966 7:0.271597 8:0.49836 
-2 1:0.753107 2:0.769565 3:0.244606 4:0.171169 5:0.380261 6:-0.153357 7:0.121605 8:0.418607 
-2 1:0.729805 2:0.775123 3:0.160234 4:-0.0887562 5:0.225557 6:-0.482334 7:0.150988 8:0.430461 
-2 1:0.719552 2:0.777334 3:0.123749 4:-0.211867 5:0.0793152 6:-0.543956 7:0.302288 8:0.491575 
-2 1:0.685613 2:0.7717 3:0.0382672 4:-0.303639 5:-0.0503121 6:-0.56328 7:0.0288869 8:0.36234 
-2 1:0.639176 2:0.757065 3:-0.0598252 4:-0.448581 5:-0.18748 6:-0.681019 7:-0.133529 8:0.274686 
-2 1:0.504084 2:0.715894 3:-0.349009 4:-0.519911 5:-0.303901 6:-0.675817 7:-0.623652 8:-0.133944 
-2 1:0.3833 2:0.656614 3:-0.546351 4:-0.6026 5:-0.410467 6:-0.706437 7:-0.653361 8:-0.169789 
-2 1:0.280772 2:0.586828 3:-0.660833 4:-0.633345 5:-0.492277 6:-0.663363 7:-0.669659 8:-0.188449 
-1.736768800897119 1:0.159692 2:0.504592 3:-0.796514 4:-0.766762 5:-0.593531 6:-0.804022 7:-0.765949 8:-0.309211 
-2 1:0.0764931 2:0.420658 3:-0.815024 4:-0.764897 5:-0.66038 6:-0.713931 7:-0.585545 8:-0.23064 
-2 1:-0.0186096 2:0.332768 3:-0.858124 4:-0.845609 5:-0.733207 6:-0.784086 7:-0.686993 8:-0.323836 
-2 1:-0.0879301 2:0.247338 3:-0.831326 4:-0.859756 5:-0.786712 6:-0.743792 7:-0.637349 8:-0.302605 
-2 1:-0.178792 2:0.159176 3:-0.861085 4:-0.883973 5:-0.830861 6:-0.736056 7:-0.753901 8:-0.412984 
-2 1:-0.268482 2:0.0690859 3:-0.882109 4:-0.881379 5:-0.859385 6:-0.693958 7:-0.799848 8:-0.466587 
-2 1:-0.310867 2:-0.0122308 3:-0.786495 4:-0.755039 5:-0.834165 6:-0.469539 7:-0.43139 8:-0.291642 
-2 1:-0.366744 2:-0.0894707 3:-0.742068 4:-0.783499 5:-0.827316 6:-0.536267 7:-0.561141 8:-0.371989 
-2 1:-0.449565 2:-0.169326 3:-0.77057 4:-0.833135 5:-0.84013 6:-0.620685 7:-0.698664 8:-0.477374 
-2 1:-0.473163 2:-0.238357 3:-0.652612 4:-0.722877 5:-0.810067 6:-0.435229 7:-0.279474 8:-0.243049 
-2 1:-0.455763 2:-0.289787 3:-0.460802 4:-0.531319 5:-0.722953 6:-0.158057 7:-0.0065296 8:-0.072117 
-2 1:-0.429124 2:-0.325121 3:-0.285393 4:-0.273756 5:-0.574694 6:0.174436 7:0.0461353 8:-0.0387629 
-2 1:-0.381371 2:-0.342973 3:-0.0948865 4:0.0750315 5:-0.353732 6:0.598624 7:0.22943 8:0.0780063 
-2 1:-0.334635 2:-0.347061 3:0.0551054 4:0.341156 5:-0.113243 6:0.829469 7:0.255926 8:0.0948579 
-2 1:-0.283555 2:-0.339192 3:0.18542 4:0.573058 5:0.128281 6:0.989371 7:0.342994 8:0.148122 
-2 1:-0.22682 2:-0.320522 3:0.303114 4:0.684228 5:0.328222 6:0.957384 7:0.455604 8:0.21967 
-2 1:-0.154959 2:-0.289914 3:0.43322 4:0.819934 5:0.509031 6:1 7:0.634952 8:0.353272 
-2 1:-0.103255 2:-0.25415 3:0.489396 4:0.828677 5:0.632632 6:0.858223 7:0.457798 8:0.29389 
-2 1:-0.0537564 2:-0.214744 3:0.529096 4:0.861748 5:0.726612 6:0.804169 7:0.51491 8:0.329738 
-2 1:0.0274753 2:-0.165502 3:0.636278 4:0.938281 5:0.816063 6:0.844364 7:0.780669 8:0.546664 
-2 1:0.0872771 2:-0.113066 3:0.671089 4:0.885647 5:0.857267 6:0.684115 7:0.656389 8:0.499838 
-2 1:0.0984186 2:-0.0686865 3:0.583284 4:0.616921 5:0.790646 6:0.22353 7:0.0569931 8:0.23073 
-2 1:0.184724 2:-0.0143602 3:0.691687 4:0.727842 5:0.785069 6:0.456342 7:0.585185 8:0.582659 
-1.066325988219368 1:0.269392 2:0.047567 3:0.774517 4:0.834555 5:0.818716 6:0.629961 7:0.651863 8:0.639968 
-2 1:0.329129 2:0.110137 3:0.781527 4:0.804247 5:0.830535 6:0.553056 7:0.57408 8:0.600012 
-2 1:0.362982 2:0.167577 3:0.725615 4:0.699771 5:0.801833 6:0.377605 7:0.408294 8:0.517833 
-1.818572820025745 1:0.438548 2:0.23001 3:0.780026 4:0.740147 5:0.796836 6:0.466181 7:0.683269 8:0.704752 
-2 1:0.407 2:0.273075 3:0.568972 4:0.349366 5:0.656677 6:-0.147734 7:-0.0653187 8:0.225554 
-2 1:0.450672 2:0.317053 3:0.578908 4:0.422956 5:0.589004 6:0.0893071 7:0.310069 8:0.468414 
-2 1:0.498907 2:0.362755 3:0.597702 4:0.552202 5:0.589143 6:0.352015 7:0.381219 8:0.517512 
-2 1:0.550168 2:0.410496 3:0.619927 4:0.715444 5:0.646393 6:0.610145 7:0.454786 8:0.566516 
-2 1:0.600379 2:0.45964 3:0.635214 4:0.840745 5:0.728432 6:0.7591 7:0.517761 8:0.60743 
-2 1:0.589653 2:0.496617 3:0.50261 4:0.660721 5:0.720092 6:0.403697 7:0.11298 8:0.376265 
-2 1:0.551154 2:0.517801 3:0.330517 4:0.392452 5:0.6206 6:-0.0135249 7:-0.0627699 8:0.262765 
-2 1:0.516852 2:0.527267 3:0.202819 4:0.213607 5:0.491652 6:-0.210835 7:-0.0627699 8:0.262765 
-2 1:0.506078 2:0.53249 3:0.15658 4:0.209683 5:0.404313 6:-0.106067 7:0.132077 8:0.348606 
-2 1:0.474165 2:0.529708 3:0.0693453 4:0.0375751 5:0.285825 6:-0.303177 7:-0.0575906 8:0.246942 
-2 1:0.47709 2:0.528121 3:0.0823598 4:0.127875 5:0.23845 6:-0.0583512 7:0.240778 8:0.384853 
-2 1:0.510111 2:0.534053 3:0.164305 4:0.411752 5:0.306264 6:0.431514 7:0.469629 8:0.51432 
-2 1:0.58902 2:0.556008 3:0.338923 4:0.638284 5:0.43079 6:0.731526 7:0.703218 8:0.68532 
-2 1:0.663286 2:0.58977 3:0.467582 4:0.708355 5:0.538342 6:0.735209 7:0.754055 8:0.728995 
-2 1:0.667853 2:0.617776 3:0.404854 4:0.58305 5:0.566169 6:0.444416 7:0.248139 8:0.460312 
-2 1:0.722671 2:0.652136 3:0.474105 4:0.701888 5:0.626331 6:0.60847 7:0.515969 8:0.624474 
1.71681018188912 1:0.977538 2:0.997463 3:0.290494 4:0.724044 5:0.902256 6:0.297338 7:0.508752 8:0.693317 
-2 1:0.501125 2:0.753581 3:-0.460476 4:-0.538025 5:-0.338488 6:-0.668009 7:-0.28903 8:0.137971 
-2 1:0.486212 2:0.709209 3:-0.383894 4:-0.434055 5:-0.374511 6:-0.410033 7:0.199648 8:0.324152 
-2 1:0.499483 2:0.676605 3:-0.255641 4:-0.206241 5:-0.31876 6:-0.0186279 7:0.482431 8:0.476868 
-2 1:0.483649 2:0.647069 3:-0.222216 4:0.033112 5:-0.197787 6:0.312048 7:0.141764 8:0.315736 
-1.573520215243325 1:0.490556 2:0.624946 3:-0.141422 4:0.290139 5:-0.0271424 6:0.614553 7:0.366176 8:0.436492 
-2 1:0.410048 2:0.511804 3:-0.0723648 4:0.487075 5:0.566382 6:0.248929 7:0.289914 8:0.407363 
-1.951754241049576 1:0.505331 2:0.519957 3:0.188504 4:0.458527 5:0.541262 6:0.22329 7:0.747462 8:0.785384 
2 1:0.710176 2:0.597178 3:0.58671 4:0.678243 5:0.622343 6:0.565523 7:0.815601 8:0.876798 
2 1:0.771298 2:0.646263 3:0.634572 4:0.733154 5:0.674728 6:0.609589 7:0.815601 8:0.876798 
2 1:0.826715 2:0.697618 3:0.659304 4:0.815756 5:0.738573 6:0.695183 7:0.857416 8:0.912925 
2 1:0.851513 2:0.74411 3:0.606314 4:0.834029 5:0.787534 6:0.669144 7:0.649539 8:0.80844 
2 1:0.818015 2:0.773998 3:0.425365 4:0.699028 5:0.772906 6:0.413437 7:0.0576786 8:0.455182 
1.576781447345381 1:0.753401 2:0.783816 3:0.206652 4:0.50784 5:0.696211 6:0.123567 7:-0.191592 8:0.266237 
-0.8310971350079185 1:0.52891 2:0.717391 3:-0.279331 4:-0.333984 5:0.0526229 6:-0.757884 7:-0.182463 8:0.142256 
-2 1:0.514709 2:0.686471 3:-0.237286 4:-0.237455 5:-0.0449337 6:-0.435607 7:0.14424 8:0.321122 
-2 1:0.559697 2:0.656609 3:-0.0222714 4:0.221348 5:0.159793 6:0.233313 7:0.0010388 8:0.25882 
-2 1:0.485106 2:0.63139 3:-0.17517 4:-0.00986475 5:0.106201 6:-0.16779 7:-0.233803 8:0.0880471 
-2 1:0.409103 2:0.594638 3:-0.300844 4:-0.209445 5:0.000592709 6:-0.437405 7:-0.302029 8:0.0359936 
-0.717638393499036 1:0.199194 2:0.47719 3:-0.604499 4:-0.593048 5:-0.309856 6:-0.816887 7:-0.541755 8:-0.16518 
-2 1:0.0482026 2:0.332728 3:-0.659517 4:-0.707317 5:-0.552873 6:-0.735598 7:-0.203909 8:-0.0332589 
-2 1:0.0088239 2:0.268407 3:-0.601276 4:-0.704237 5:-0.612036 6:-0.652959 7:-0.238383 8:-0.0530742 
-2 1:0.0820873 2:0.23293 3:-0.286959 4:-0.348283 5:-0.526844 6:-0.038922 7:0.445507 8:0.37889 
-2 1:0.112341 2:0.211146 3:-0.137729 4:-0.0782769 5:-0.375511 6:0.31491 7:0.234048 8:0.265341 
-2 1:0.136906 2:0.199077 3:-0.0318654 4:0.101727 5:-0.211595 6:0.469437 7:0.234048 8:0.265341 
-2 1:0.170912 2:0.196838 3:0.0752633 4:0.287314 5:-0.0373373 6:0.621968 7:0.327727 8:0.321806 
-2 1:0.228939 2:0.207703 3:0.218059 4:0.530028 5:0.163818 6:0.855973 7:0.508059 8:0.439265 
-2 1:0.220063 2:0.214459 3:0.173283 4:0.451517 5:0.270432 6:0.558651 7:0.0224101 8:0.196457 
-2 1:0.218414 2:0.219504 3:0.15464 4:0.424473 5:0.332039 6:0.424114 7:0.0681421 8:0.220376 
-2 1:0.228118 2:0.225656 3:0.166707 4:0.438436 5:0.377999 6:0.393185 7:0.167706 8:0.270352 
-2 1:0.260782 2:0.237702 3:0.230933 4:0.56565 5:0.453182 6:0.554883 7:0.369532 8:0.378949 
-2 1:0.296885 2:0.255213 3:0.290488 4:0.690289 5:0.546944 6:0.687358 7:0.449416 8:0.425422 
-2 1:0.326766 2:0.275739 3:0.323343 4:0.798678 5:0.647404 6:0.778137 7:0.47112 8:0.437612 
-2 1:0.314572 2:0.2895 3:0.249623 4:0.442913 5:0.58981 6:0.128861 7:0.00320861 8:0.23785 
-2 1:0.303575 2:0.298111 3:0.193495 4:0.205737 5:0.46837 6:-0.196786 7:0.00320861 8:0.23785 
-2 1:0.2341 2:0.289847 3:0.00960162 4:-0.207374 5:0.242763 6:-0.745814 7:-0.463441 8:-0.0479613 
-2 1:0.227344 2:0.281762 3:0.0115563 4:-0.157339 5:0.109878 6:-0.4725 7:0.0521108 8:0.206649 
-2 1:0.232945 2:0.276516 3:0.0424877 4:-0.0474085 5:0.0597794 6:-0.184227 7:0.146343 8:0.259396 
-2 1:0.256668 2:0.277493 3:0.110307 4:0.159884 5:0.098961 6:0.186825 7:0.304902 8:0.349968 
-2 1:0.328345 2:0.293907 3:0.278536 4:0.470372 5:0.233796 6:0.644296 7:0.5994 8:0.554432 
