svm_type epsilon_svr
kernel_type rbf
gamma 16
nr_class 2
total_sv 462
rho -6.67147
SV
2.033211150330624 1:0.154724 2:0.165448 3:0.108258 4:0.182301 5:0.137959 6:0.225603 7:-1 8:-1 
0.8843767930956727 1:0.148292 2:0.161574 3:0.0996474 4:0.0800864 5:0.13336 6:0.03219 7:-1 8:-1 
2.057492461639264 1:0.142973 2:0.15794 3:0.0937202 4:-0.0647175 5:0.0781633 6:-0.183327 7:-1 8:-1 
1.470881703290621 1:0.181207 2:0.170211 3:0.174797 4:0.143261 5:0.116239 6:0.175715 7:0.653521 8:0.743104 
0.5059070926655833 1:0.198004 2:0.182754 3:0.190545 4:0.249971 5:0.180038 6:0.306755 7:0.535074 8:0.635571 
3.219191690924474 1:0.190125 2:0.188468 3:0.150943 4:0.172048 5:0.194519 6:0.137697 7:0.0826692 8:0.239186 
-0.5938065739479276 1:0.184463 2:0.190803 3:0.127401 4:0.120099 5:0.185471 6:0.0474606 7:0.0826692 8:0.239186 
1.965317314785879 1:0.162464 2:0.186727 3:0.0724618 4:-0.0529485 5:0.117141 6:-0.207249 7:-0.241614 8:-0.0302418 
2.198511416685724 1:0.138578 2:0.177767 3:0.0254054 4:-0.232198 5:0.00705728 6:-0.423866 7:-0.353354 8:-0.127522 
1.180611424401632 1:0.124823 2:0.167743 3:0.0118195 4:-0.434083 5:-0.139011 6:-0.641307 7:-0.271573 8:-0.0776016 
1.897764279883307 1:0.187084 2:0.174918 3:0.179423 4:0.0219921 5:-0.0722015 6:0.166084 7:0.566997 8:0.57178 
1.024217004785284 1:0.240164 2:0.19278 3:0.289685 4:0.189641 5:0.0326923 6:0.366357 7:0.60512 8:0.609298 
5.944378665721779 1:0.267061 2:0.212774 3:0.315158 4:0.232386 5:0.11801 6:0.347051 7:0.413982 8:0.484505 
-4.132904189776532 1:0.285734 2:0.232591 3:0.316353 4:0.260883 5:0.185148 6:0.321855 7:0.413982 8:0.484505 
2.440928289888705 1:0.315157 2:0.254733 3:0.343469 4:0.374524 5:0.270817 6:0.44011 7:0.549752 8:0.57853 
3.853454621105028 1:0.361546 2:0.28251 3:0.406037 4:0.583593 5:0.403196 6:0.687979 7:0.69405 8:0.69336 
4.803160086051848 1:0.367747 2:0.305818 3:0.359965 4:0.582739 5:0.49114 6:0.580659 7:0.251953 8:0.428294 
2.327064612250014 1:0.319271 2:0.313568 3:0.192426 4:0.30265 5:0.448937 6:0.0862272 7:-0.221872 8:0.0782341 
0.5129235621384857 1:0.294728 2:0.314316 3:0.11642 4:0.141154 5:0.362663 6:-0.124441 7:-0.0691717 8:0.163981 
5.33444151688147 1:0.287202 2:0.313259 3:0.0966873 4:0.0929877 5:0.287806 6:-0.128253 7:0.0610039 8:0.236255 
2.74277767617918 1:0.334801 2:0.322837 3:0.213454 4:0.186979 5:0.271739 6:0.0739844 7:0.434548 8:0.475042 
-6.782018611555159 1:0.323094 2:0.334013 3:0.147145 4:0.00897908 5:0.169985 6:-0.150207 7:0.0315808 8:0.219773 
2.354733736384639 1:0.321795 2:0.336543 3:0.136204 4:-0.0142789 5:0.120738 6:-0.136309 7:0.116971 8:0.265163 
6.043213360109578 1:0.304873 2:0.334879 3:0.0898554 4:-0.0862712 5:0.0619894 6:-0.205846 7:-0.0246727 8:0.185181 
2.114805955788912 1:0.35838 2:0.345189 3:0.222382 4:0.140099 5:0.104318 6:0.183883 7:0.447399 8:0.460138 
8 1:0.377369 2:0.357554 3:0.245232 4:0.210317 5:0.157816 6:0.256276 7:0.247835 8:0.348068 
8 1:0.450758 2:0.398737 3:0.351883 4:0.341941 5:0.287051 6:0.357191 7:0.414778 8:0.452178 
3.574588156550504 1:0.44401 2:0.414833 3:0.286841 4:0.229813 5:0.286656 6:0.13943 7:0.10688 8:0.295029 
6.641851070127088 1:0.435388 2:0.425832 3:0.230318 4:0.15506 5:0.259481 6:0.0265874 7:0.10688 8:0.295029 
8 1:0.410632 2:0.429254 3:0.146247 4:0.00584978 5:0.187649 6:-0.177519 7:-0.0644252 8:0.208119 
8 1:0.409556 2:0.431757 3:0.13605 4:0.0483409 5:0.155058 6:-0.0556639 7:0.179158 8:0.309964 
-5.920245972656265 1:0.405774 2:0.432939 3:0.121376 4:0.0766683 5:0.143528 6:0.0133212 7:0.179158 8:0.309964 
8 1:0.378466 2:0.427959 3:0.0529571 4:-0.294849 5:0.0020939 6:-0.539841 7:-0.118927 8:0.170812 
3.021870861999782 1:0.31357 2:0.409899 3:-0.0923449 4:-0.563823 5:-0.189027 6:-0.833728 7:-0.449462 8:-0.043654 
2.135719422311686 1:0.243647 2:0.380285 3:-0.220693 4:-0.665366 5:-0.352996 6:-0.834368 7:-0.540241 8:-0.119141 
3.224130370900271 1:0.220522 2:0.35158 3:-0.210609 4:-0.547312 5:-0.41981 6:-0.52433 7:-0.0940389 8:0.0764739 
2.923991395262642 1:0.260591 2:0.33731 3:-0.0502776 4:-0.0365044 5:-0.280459 6:0.302434 7:0.350976 8:0.338459 
5.771810177593936 1:0.323587 2:0.339557 3:0.133227 4:0.103993 5:-0.13698 6:0.403506 7:0.500798 8:0.44947 
4.421924870093046 1:0.320431 2:0.340671 3:0.120629 4:0.0195568 5:-0.071724 6:0.16077 7:0.0684137 8:0.203982 
1.395129694177145 1:0.291821 2:0.335357 3:0.0492167 4:-0.121913 5:-0.0791496 6:-0.10565 7:-0.0885673 8:0.10457 
1.8899966056445 1:0.265641 2:0.325428 3:-0.00205878 4:-0.223969 5:-0.120841 6:-0.254194 7:-0.103535 8:0.0954341 
0.02789896401333012 1:0.243871 2:0.312764 3:-0.0324506 4:-0.292007 5:-0.173129 6:-0.323796 7:-0.103535 8:0.0954341 
3.176142076593444 1:0.216922 2:0.296788 3:-0.0692462 4:-0.36834 5:-0.235467 6:-0.397468 7:-0.186983 8:0.052446 
1.314799689077691 1:0.18843 2:0.277829 3:-0.1024 4:-0.540665 5:-0.339064 6:-0.608401 7:-0.252238 8:0.0191182 
1.180577155731204 1:0.176881 2:0.260158 3:-0.0880951 4:-0.651038 5:-0.447863 6:-0.692509 7:-0.0641698 8:0.08819 
1.515156774218029 1:0.154178 2:0.241097 3:-0.103529 4:-0.782117 5:-0.567585 6:-0.803792 7:-0.229699 8:0.0133456 
2.72576938641271 1:0.0938811 2:0.212772 3:-0.206466 4:-0.867948 5:-0.678299 6:-0.837833 7:-0.546921 8:-0.184102 
-1.73043892574722 1:0.0540759 2:0.181481 3:-0.239437 4:-0.798464 5:-0.727093 6:-0.643973 7:-0.426089 8:-0.136169 
8 1:-0.00738038 2:0.14312 3:-0.317985 4:-0.810128 5:-0.763822 6:-0.622549 7:-0.601032 8:-0.262559 
3.466364431334016 1:-0.00870306 2:0.112144 3:-0.235923 4:-0.524037 5:-0.685315 6:-0.160052 7:-0.015375 8:0.025538 
5.718371247710657 1:-0.0146247 2:0.0860801 3:-0.181355 4:-0.341132 5:-0.56713 6:0.0539457 7:-0.0764134 8:-0.00569511 
2.728393167448566 1:-0.00380726 2:0.0675746 3:-0.0973661 4:-0.0947157 5:-0.399629 6:0.332309 7:0.0761468 8:0.0749179 
5.118697161606645 1:-0.0138276 2:0.0505972 3:-0.0803868 4:-0.0804265 5:-0.282818 6:0.219782 7:-0.140179 8:-0.0277933 
3.010159445194573 1:0.0547725 2:0.051892 3:0.122645 4:0.292865 5:-0.0705574 6:0.691306 7:0.435601 8:0.334746 
3.94627035824193 1:0.0847861 2:0.0594366 3:0.19209 4:0.343053 5:0.0890172 6:0.597272 7:0.19653 8:0.20925 
1.394166926106271 1:0.133982 2:0.0761409 3:0.293868 4:0.508272 5:0.25488 6:0.719569 7:0.345397 8:0.309209 
1.842429914609831 1:0.175021 2:0.0984042 3:0.355636 4:0.630396 5:0.40942 6:0.771593 7:0.35913 8:0.318264 
1.028615012198903 1:0.193343 2:0.120188 3:0.35031 4:0.617877 5:0.50794 6:0.628866 7:0.188025 8:0.240028 
0.6251391734985656 1:0.207256 2:0.140632 3:0.335424 4:0.56129 5:0.553248 6:0.464296 7:0.188025 8:0.240028 
3.006994716592875 1:0.210749 2:0.157745 3:0.298407 4:0.473568 5:0.551874 6:0.295216 7:0.081642 8:0.196205 
1.580127058518973 1:0.203765 2:0.169921 3:0.243549 4:0.322846 5:0.496697 6:0.0681569 7:-0.058823 8:0.136693 
2.658821036826639 1:0.163663 2:0.170965 3:0.119859 4:-0.0772344 5:0.315882 6:-0.493285 7:-0.414957 8:-0.0584805 
2.546179108993664 1:0.102601 2:0.158558 3:-0.0295991 4:-0.418746 5:0.0723934 6:-0.865438 7:-0.585054 8:-0.192067 
2.325177852306699 1:0.0803692 2:0.143812 3:-0.0555993 4:-0.470739 5:-0.10865 6:-0.749126 7:-0.198025 8:-0.0204555 
0.4455779402374584 1:0.0490608 2:0.113307 3:-0.0651641 4:-0.525263 5:-0.333924 6:-0.5846 7:-0.239499 8:-0.0428261 
0.9196579678310113 1:0.0164494 2:0.0937493 3:-0.109062 4:-0.717432 5:-0.468338 6:-0.79713 7:-0.429696 8:-0.149649 
1.410341661762734 1:-0.0166311 2:0.0709291 3:-0.145311 4:-0.782964 5:-0.58154 6:-0.788674 7:-0.499268 8:-0.194065 
1.101422159286082 1:-0.0292043 2:0.0499463 3:-0.124894 4:-0.745493 5:-0.643518 6:-0.641285 7:-0.24955 8:-0.095305 
2.299503749254421 1:-0.0603166 2:0.0108484 3:-0.109997 4:-0.785334 5:-0.717348 6:-0.630127 7:-0.435835 8:-0.18757 
2.630861225830083 1:-0.154665 2:-0.0253257 3:-0.293693 4:-0.804434 5:-0.755275 6:-0.621735 7:-0.790467 8:-0.492204 
1.663707137970215 1:-0.263819 2:-0.077936 3:-0.476325 4:-0.721019 5:-0.750531 6:-0.465087 7:-0.847173 8:-0.575684 
1.055860885959505 1:-0.310352 2:-0.130115 3:-0.471538 4:-0.544328 5:-0.683759 6:-0.201415 7:-0.408639 8:-0.320049 
1.31905122698254 1:-0.3666 2:-0.184057 3:-0.491116 4:-0.50095 5:-0.623627 6:-0.189229 7:-0.511562 8:-0.389136 
1.28478680169274 1:-0.386471 2:-0.231519 3:-0.419124 4:-0.386061 5:-0.542179 6:-0.0634744 7:-0.296801 8:-0.263548 
2.07106685472124 1:-0.386741 2:-0.269548 3:-0.314299 4:-0.275398 5:-0.448042 6:0.038812 7:-0.190027 8:-0.201678 
1.432932551707027 1:-0.387747 2:-0.323889 3:-0.166375 4:-0.21116 5:-0.304656 6:-0.00842602 7:-0.33002 8:-0.264992 
2.46313503451421 1:-0.371535 2:-0.340146 3:-0.0723834 4:-0.114897 5:-0.231912 6:0.0915346 7:-0.107381 8:-0.156024 
1.945316433592431 1:-0.341419 2:-0.346621 3:0.0363155 4:0.131103 5:-0.0948552 6:0.40566 7:0.0595603 8:-0.0681031 
2.550079497636939 1:-0.344138 2:-0.35239 3:0.0441517 4:-0.167118 5:-0.110844 6:-0.155554 7:-0.293761 8:-0.218436 
1.405937124851161 1:-0.347433 2:-0.35772 3:0.0490319 4:-0.375073 5:-0.196368 6:-0.457546 7:-0.35167 8:-0.247345 
0.8721028012482167 1:-0.339723 2:-0.360312 3:0.0794552 4:-0.472271 5:-0.288376 6:-0.536183 7:-0.261345 8:-0.206986 
1.077594377221192 1:-0.362311 2:-0.367284 3:0.0307881 4:-0.566389 5:-0.383597 6:-0.604966 7:-0.538231 8:-0.351178 
2.265646948799992 1:-0.390105 2:-0.378889 3:-0.0206924 4:-0.665544 5:-0.482774 6:-0.6788 7:-0.621086 8:-0.407079 
0.2140661367989285 1:-0.391963 2:-0.388576 3:0.000619733 4:-0.652344 5:-0.54414 6:-0.579382 7:-0.34993 8:-0.280202 
1.354897758573848 1:-0.36434 2:-0.390335 3:0.0887088 4:-0.51137 5:-0.534299 6:-0.316828 7:0.00474447 8:-0.089801 
1.782089272999153 1:-0.366487 2:-0.392208 3:0.0874463 4:-0.589213 5:-0.555763 6:-0.442547 7:-0.286717 8:-0.227248 
0.52843429743387 1:-0.353088 2:-0.390801 3:0.123896 4:-0.528299 5:-0.548143 6:-0.333147 7:-0.151489 8:-0.15394 
1.287443027672736 1:-0.327661 2:-0.384161 3:0.182037 4:-0.376499 5:-0.488414 6:-0.109458 7:-0.0163734 8:-0.080491 
1.833938436892804 1:-0.297672 2:-0.372346 3:0.239545 4:-0.163082 5:-0.371764 6:0.165771 7:0.0537725 8:-0.0428777 
1.372734150861835 1:-0.275877 2:-0.358167 3:0.265806 4:-0.00421826 5:-0.236806 6:0.312827 7:-0.0609176 8:-0.0854552 
2.680746565130724 1:-0.242466 2:-0.339578 3:0.314806 4:0.249116 5:-0.0556328 6:0.588226 7:0.146367 8:0.0174062 
0.4589966654346906 1:-0.214048 2:-0.318545 3:0.341974 4:0.335447 5:0.0962289 6:0.573805 7:0.0957345 8:0.000484721 
3.670096741470201 1:-0.180723 2:-0.294491 3:0.375532 4:0.476963 5:0.248416 6:0.666398 7:0.232828 8:0.0669611 
4.209015576372081 1:-0.159934 2:-0.27074 3:0.37217 4:0.38402 5:0.316415 6:0.40381 7:-0.00323053 8:-0.0100737 
1.827743226593457 1:-0.0922543 2:-0.216034 3:0.424059 4:0.6294 5:0.510385 6:0.648356 7:0.355408 8:0.17057 
0.884701355811047 1:-0.0513 2:-0.184416 3:0.459585 4:0.553588 5:0.552105 6:0.45068 7:0.522218 8:0.275807 
2.012008362394163 1:0.00370942 2:-0.147192 3:0.521873 4:0.711625 5:0.636813 6:0.656498 7:0.709218 8:0.435398 
1.379336048998755 1:0.0439565 2:-0.108685 3:0.536131 4:0.610932 5:0.657035 6:0.436225 7:0.558805 8:0.380464 
2.124679697705589 1:0.0447446 2:-0.0777083 3:0.452456 4:0.202646 5:0.523532 6:-0.198028 7:-0.119326 8:0.0638063 
2.305354760302674 1:0.0717641 2:-0.0470676 3:0.448724 4:0.162097 5:0.419932 6:-0.152483 7:0.233878 8:0.264392 
0.5532212747772425 1:0.0870198 2:-0.0192467 3:0.417391 4:0.0693549 5:0.317478 6:-0.209897 7:0.119616 8:0.203542 
0.7823302906780376 1:0.0997438 2:0.0057693 3:0.386225 4:-0.00535723 5:0.222279 6:-0.240936 7:0.119616 8:0.203542 
2.474087576002518 1:0.117198 2:0.0295673 3:0.372691 4:0.0124766 5:0.165233 6:-0.137691 7:0.238552 8:0.263129 
0.9530065560896979 1:0.117583 2:0.0486891 3:0.320731 4:-0.110918 5:0.0827798 6:-0.278793 7:-0.0588567 8:0.123153 
0.8371605188643307 1:0.125167 2:0.0656312 3:0.29651 4:-0.125539 5:0.0225474 6:-0.234887 7:0.0872187 8:0.189434 
1.587725069187233 1:0.117726 2:0.0775713 3:0.240931 4:-0.270571 5:-0.0698194 6:-0.406191 7:-0.180222 8:0.0536439 
1.632213907767317 1:0.0803075 2:0.0790088 3:0.12423 4:-0.547637 5:-0.231142 6:-0.751629 7:-0.52268 8:-0.186991 
0.4878333553981051 1:0.0632716 2:0.0764644 3:0.0799852 4:-0.575541 5:-0.348736 6:-0.664661 7:-0.273829 8:-0.0662482 
-0.2147270099177348 1:0.0250045 2:0.056699 3:0.0196281 4:-0.696256 5:-0.578908 6:-0.623077 7:-0.367092 8:-0.120391 
0.6214559319927814 1:0.0250032 2:0.0503177 3:0.0373509 4:-0.593514 5:-0.587051 6:-0.413329 7:-0.128486 8:-0.0277731 
1.012704085043065 1:0.0240049 2:0.0415651 3:0.0586578 4:-0.529288 5:-0.550193 6:-0.332609 7:-0.284114 8:-0.0937806 
1.580744615514047 1:0.0331969 2:0.0399874 3:0.0907272 4:-0.407793 5:-0.501047 6:-0.155188 7:0.0887757 8:0.0675345 
1.838518463072669 1:0.0577903 2:0.0440586 3:0.153495 4:-0.011893 5:-0.325757 6:0.404756 7:0.406284 8:0.254246 
2.036515672640747 1:0.203932 2:0.0790077 3:0.496597 4:0.3332 5:-0.0846628 6:0.786756 7:0.905099 8:0.83732 
2.02386125409883 1:0.297289 2:0.127212 3:0.643887 4:0.462191 5:0.122504 6:0.788919 7:0.648083 8:0.663067 
1.428790897685206 1:0.400821 2:0.188228 3:0.786238 4:0.483283 5:0.268208 6:0.65492 7:0.733796 8:0.747986 
2.46003829008772 1:0.469984 2:0.252039 3:0.817302 4:0.461043 5:0.357338 6:0.504554 7:0.614008 8:0.673179 
2.26690368580017 1:0.43597 2:0.295712 3:0.59353 4:0.170833 5:0.312281 6:-0.00614795 7:-0.102758 8:0.162048 
3.626905680818386 1:0.467858 2:0.337566 3:0.573314 4:0.178315 5:0.284937 6:0.041266 7:0.232619 8:0.381211 
1.50830014849411 1:0.4695 2:0.400716 3:0.402837 4:0.0607841 5:0.208081 6:-0.0951481 7:0.035643 8:0.248604 
2.430563488848534 1:0.462657 2:0.420441 3:0.327431 4:0.00411864 5:0.152759 6:-0.138971 7:0.0868279 8:0.275693 
3.078311837053199 1:0.435492 2:0.430329 3:0.218139 4:-0.240196 5:0.0279232 6:-0.4645 7:-0.0682773 8:0.182416 
6.302087140980237 1:0.399575 2:0.430452 3:0.109616 4:-0.45487 5:-0.132584 6:-0.689485 7:-0.161739 8:0.125278 
0.9776326228136705 1:0.375505 2:0.42533 3:0.0513441 4:-0.5594 5:-0.27722 6:-0.719165 7:-0.0762173 8:0.160881 
2.705902211389792 1:0.367852 2:0.419572 3:0.0442849 4:-0.562425 5:-0.374733 6:-0.607901 7:0.0930238 8:0.232558 
4.176500368815026 1:0.331985 2:0.407188 3:-0.0293468 4:-0.703876 5:-0.490664 6:-0.743925 7:-0.203452 8:0.077291 
8 1:0.292717 2:0.388766 3:-0.096448 4:-0.817342 5:-0.6088 6:-0.822834 7:-0.284335 8:0.0292693 
8 1:0.239798 2:0.362551 3:-0.183024 4:-0.87382 5:-0.707889 6:-0.813711 7:-0.443317 8:-0.0739324 
2.596683581631912 1:0.211088 2:0.335354 3:-0.193948 4:-0.779446 5:-0.739974 6:-0.591484 7:-0.208408 8:0.0187088 
-0.06416929939433932 1:0.169658 2:0.304612 3:-0.233339 4:-0.843081 5:-0.784272 6:-0.662116 7:-0.371922 8:-0.0759383 
1.552746673248883 1:0.132455 2:0.27195 3:-0.254667 4:-0.786685 5:-0.793502 6:-0.541265 7:-0.410007 8:-0.0991865 
8 1:0.112708 2:0.241538 3:-0.229665 4:-0.540351 5:-0.710974 6:-0.160976 7:-0.216428 8:-0.0269007 
1.956817535322962 1:0.0702738 2:0.208006 3:-0.264333 4:-0.56778 5:-0.66583 6:-0.268597 7:-0.475394 8:-0.172882 
-4.426753406092284 1:-0.0206797 2:0.131221 3:-0.324991 4:-0.824893 5:-0.743285 6:-0.67596 7:-0.602103 8:-0.2658 
-2.280281429699405 1:-0.0548873 2:0.0926106 3:-0.32077 4:-0.792024 5:-0.768099 6:-0.582176 7:-0.632121 8:-0.287492 
0.5932893408597184 1:-0.0701521 2:0.0584116 3:-0.271747 4:-0.676242 5:-0.74296 6:-0.387031 7:-0.363532 8:-0.191779 
2.364930178584574 1:-0.0872514 2:0.00263636 3:-0.168314 4:-0.525357 5:-0.652292 6:-0.202294 7:-0.178527 8:-0.130231 
0.0297070918224372 1:-0.0965877 2:-0.0193006 3:-0.135497 4:-0.551741 5:-0.620935 6:-0.291318 7:-0.356902 8:-0.204749 
1.040768231236704 1:-0.11476 2:-0.040791 3:-0.130534 4:-0.656457 5:-0.637728 6:-0.474951 7:-0.514903 8:-0.28628 
-0.3960484263475389 1:-0.282662 2:-0.125558 3:-0.400791 4:-0.811373 5:-0.745154 6:-0.6474 7:-0.723789 8:-0.524802 
1.296776941362453 1:-0.408365 2:-0.227105 3:-0.497332 4:-0.900375 5:-0.83015 6:-0.718511 7:-0.830247 8:-0.631279 
0.972647484076943 1:-0.469134 2:-0.326238 3:-0.404993 4:-0.783857 5:-0.836141 6:-0.484534 7:-0.463195 8:-0.431683 
1.549701318224013 1:-0.551353 2:-0.38102 3:-0.500462 4:-0.881495 5:-0.862213 6:-0.643243 7:-0.731727 8:-0.609082 
-0.1098302625614012 1:-0.589429 2:-0.433103 3:-0.470466 4:-0.873749 5:-0.876806 6:-0.610636 7:-0.495803 8:-0.46365 
1.386867053356537 1:-0.625123 2:-0.519944 3:-0.336745 4:-0.846122 5:-0.882917 6:-0.549523 7:-0.518104 8:-0.475576 
1.280473341707462 1:-0.600526 2:-0.546649 3:-0.188475 4:-0.643859 5:-0.807848 6:-0.24605 7:-0.119425 8:-0.257638 
3.544720580942068 1:-0.565788 2:-0.56048 3:-0.0454215 4:-0.446522 5:-0.686759 6:-0.00745044 7:-0.0258887 8:-0.201971 
1.420217281560174 1:-0.53036 2:-0.563861 3:0.0706823 4:-0.314964 5:-0.558672 6:0.0947158 7:-0.0258887 8:-0.201971 
4.062106606571084 1:-0.506231 2:-0.561334 3:0.136341 4:-0.310586 5:-0.471705 6:-0.00124574 7:-0.192569 8:-0.257768 
2.944257435974825 1:-0.484367 2:-0.554571 3:0.183408 4:-0.063241 5:-0.324681 6:0.303525 7:-0.256204 8:-0.280137 
1.231454683455957 1:-0.459955 2:-0.543866 3:0.227204 4:0.0888787 5:-0.171902 6:0.416045 7:-0.256204 8:-0.280137 
3.588865894191157 1:-0.447544 2:-0.532611 3:0.233319 4:-0.164265 5:-0.161182 6:-0.089525 7:-0.456858 8:-0.352422 
1.766410928987905 1:-0.456113 2:-0.525465 3:0.187659 4:-0.476766 5:-0.266537 6:-0.57117 7:-0.664359 8:-0.462389 
1.352486277117427 1:-0.487881 2:-0.526638 3:0.0952284 4:-0.6851 5:-0.411774 6:-0.802161 7:-0.791241 8:-0.566491 
0.9072725896253192 1:-0.510022 2:-0.532377 3:0.044484 4:-0.770506 5:-0.539345 6:-0.81512 7:-0.804442 8:-0.579418 
3.105121678288082 1:-0.533514 2:-0.542063 3:0.000631028 4:-0.880927 5:-0.664145 6:-0.880097 7:-0.841927 8:-0.617444 
0.3522781194733611 1:-0.537527 2:-0.558714 3:0.0347958 4:-0.919733 5:-0.830534 6:-0.755724 7:-0.594137 8:-0.517883 
0.6049005589049947 1:-0.503926 2:-0.556716 3:0.130456 4:-0.743128 5:-0.808662 6:-0.438276 7:-0.0511568 8:-0.250645 
0.3147437602032946 1:-0.497536 2:-0.553732 3:0.141413 4:-0.806581 5:-0.816925 6:-0.551849 7:-0.386622 8:-0.386746 
0.08190074646469311 1:-0.463486 2:-0.539893 3:0.205532 4:-0.788585 5:-0.827008 6:-0.50471 7:-0.264614 8:-0.327204 
0.5395095141531919 1:-0.448656 2:-0.529674 3:0.22181 4:-0.856475 5:-0.847117 6:-0.612683 7:-0.39263 8:-0.377073 
0.566794791900769 1:-0.471325 2:-0.526414 3:0.144476 4:-0.810471 5:-0.843962 6:-0.526938 7:-0.693123 8:-0.54551 
1.701280478211189 1:-0.520855 2:-0.535099 3:0.0194125 4:-0.725617 5:-0.811309 6:-0.401016 7:-0.811387 8:-0.643391 
0.6032974425620696 1:-0.538348 2:-0.551753 3:0.0129858 4:-0.586132 5:-0.696366 6:-0.267629 7:-0.614533 8:-0.538895 
1.352009397439363 1:-0.524352 2:-0.555577 3:0.0657671 4:-0.502474 5:-0.632581 6:-0.18144 7:-0.306209 8:-0.371378 
0.1091816119339767 1:-0.475918 2:-0.548133 3:0.190974 4:-0.23963 5:-0.495433 6:0.165361 7:0.14847 8:-0.0723391 
1.638607977368676 1:-0.446792 2:-0.535861 3:0.244613 4:-0.156923 5:-0.374226 6:0.180716 7:-0.061641 8:-0.163716 
0.4204213836880373 1:-0.457086 2:-0.519639 3:0.168544 4:-0.343588 5:-0.304145 6:-0.266784 7:-0.481159 8:-0.386477 
2.081173154929275 1:-0.523463 2:-0.529693 3:-0.00346032 4:-0.559221 5:-0.39153 6:-0.581485 7:-0.705549 8:-0.556174 
0.8812494912677138 1:-0.590609 2:-0.552297 3:-0.142914 4:-0.688272 5:-0.496245 6:-0.706851 7:-0.75467 8:-0.60153 
1.728459275590598 1:-0.68732 2:-0.591354 3:-0.325719 4:-0.744234 5:-0.586201 6:-0.707694 7:-0.834193 8:-0.684044 
0.1072789522062399 1:-0.774076 2:-0.641413 3:-0.447976 4:-0.782002 5:-0.659769 6:-0.692819 7:-0.856884 8:-0.710141 
-0.07492807276329919 1:-0.914539 2:-0.759865 3:-0.54201 4:-0.905377 5:-0.811508 6:-0.750643 7:-0.7237 8:-0.654242 
-0.2110210191379622 1:-1 2:-0.957144 3:-0.251406 4:-0.959186 5:-0.976713 6:-0.656891 7:-0.864827 8:-0.750956 
-0.3809278015283746 1:-0.996373 2:-0.982253 3:-0.170733 4:-0.772833 5:-0.916809 6:-0.366163 7:-0.507298 8:-0.558663 
-0.2529704377223019 1:-0.966692 2:-0.995902 3:-0.0434147 4:-0.565261 5:-0.802147 6:-0.0999234 7:-0.297195 8:-0.438303 
-0.1326234065733211 1:-0.935232 2:-1 3:0.0627277 4:-0.419762 5:-0.673325 6:0.0284922 7:-0.334362 8:-0.451698 
-0.1980517131878945 1:-0.873007 2:-0.989784 3:0.221774 4:-0.160596 5:-0.494143 6:0.317635 7:0.0375674 8:-0.233206 
-0.04210208712998753 1:-0.798822 2:-0.965523 3:0.377831 4:0.100636 5:-0.280644 6:0.569571 7:0.194932 8:-0.125902 
-0.1275119351370768 1:-0.704983 2:-0.901443 3:0.482474 4:0.300268 5:0.0648946 6:0.542982 7:-0.131946 8:-0.240055 
-0.1771734334633153 1:-0.672816 2:-0.867525 3:0.485141 4:0.262971 5:0.150489 6:0.367558 7:-0.265534 8:-0.290521 
-0.1921197032569424 1:-0.606168 2:-0.825937 3:0.570364 4:0.475749 5:0.284153 6:0.621102 7:0.198685 8:-0.0239999 
0.1245380527913067 1:-0.549853 2:-0.780455 3:0.613642 4:0.513593 5:0.386886 6:0.571333 7:0.128161 8:-0.0498243 
-0.02348692362973867 1:-0.513711 2:-0.736231 3:0.599656 4:0.380991 5:0.407637 6:0.28832 7:-0.102784 8:-0.138474 
0.3466823643576403 1:-0.486924 2:-0.695043 3:0.565924 4:0.2024 5:0.357178 6:0.00135161 7:-0.217239 8:-0.186653 
1.251253208246926 1:-0.424368 2:-0.617653 3:0.539365 4:0.0565762 5:0.214629 6:-0.111205 7:-0.036889 8:-0.105828 
0.3503997060807262 1:-0.398286 2:-0.580958 3:0.515993 4:-0.0364237 5:0.142529 6:-0.205589 7:-0.198118 8:-0.164896 
-0.3871735820285536 1:-0.417286 2:-0.555723 3:0.388663 4:-0.373286 5:-0.0268096 6:-0.657777 7:-0.608126 8:-0.389094 
0.2778133104736967 1:-0.405071 2:-0.532886 3:0.362014 4:-0.382798 5:-0.143126 6:-0.536547 7:-0.2354 8:-0.193214 
0.4804410723984274 1:-0.395983 2:-0.512645 3:0.333163 4:-0.439135 5:-0.240952 6:-0.528667 7:-0.300502 8:-0.227092 
-0.596269506285841 1:-0.341423 2:-0.484621 3:0.419652 4:-0.104222 5:-0.1856 6:0.0566712 7:0.229923 8:0.0994793 
-0.3451446894093927 1:-0.288449 2:-0.450713 3:0.485023 4:0.242259 5:-0.0239638 6:0.536834 7:0.272574 8:0.130151 
-1.1245478636099 1:-0.262476 2:-0.417955 3:0.472255 4:0.305322 5:0.106497 6:0.502838 7:-0.0126164 8:-0.00115772 
-0.5678572885729817 1:-0.225938 2:-0.383824 3:0.487499 4:0.463517 5:0.250421 6:0.63782 7:0.131906 8:0.0836435 
-1.668942395027457 1:-0.204408 2:-0.351851 3:0.463531 4:0.452828 5:0.342522 6:0.506365 7:-0.0311826 8:0.00864456 
-1.988629039050503 1:-0.190308 2:-0.323215 3:0.426453 4:0.37601 5:0.376268 6:0.316312 7:-0.125665 8:-0.0358417 
-0.07452716688977894 1:-0.18905 2:-0.300033 3:0.365846 4:0.185414 5:0.330151 6:0.000763422 7:-0.297051 8:-0.121905 
-0.08759308177369897 1:-0.191007 2:-0.281912 3:0.309612 4:-0.0113411 5:0.228573 6:-0.260144 7:-0.373771 8:-0.163392 
-0.3090021994395551 1:-0.138289 2:-0.255982 3:0.396372 4:0.254195 5:0.256449 6:0.223177 7:0.343548 8:0.23394 
-0.7370059642844033 1:-0.031902 2:-0.212168 3:0.595106 4:0.556039 5:0.383697 6:0.657777 7:0.654823 8:0.517622 
0.1211858298636777 1:0.239222 2:-0.063944 3:1 4:0.828752 5:0.664732 6:0.850919 7:0.804224 8:0.702481 
0.1948238275166072 1:0.30202 2:0.013877 3:0.972972 4:0.790463 5:0.740279 6:0.685634 7:0.434286 8:0.497744 
0.1214802234393146 1:0.338107 2:0.0839598 3:0.886987 4:0.724588 5:0.766929 6:0.525406 7:0.305585 8:0.424534 
0.4012282280417083 1:0.401086 2:0.247327 3:0.622867 4:0.611024 5:0.742967 6:0.333166 7:0.227038 8:0.392056 
0.5020786707391414 1:0.437755 2:0.292329 3:0.608303 4:0.686235 5:0.754913 6:0.465195 7:0.501064 8:0.531172 
0.850806903986971 1:0.44725 2:0.33039 3:0.531175 4:0.336644 5:0.637024 6:-0.0735786 7:0.245203 8:0.40677 
1.630880441780243 1:0.471136 2:0.395058 3:0.423481 4:0.0393058 5:0.37424 6:-0.336575 7:0.136982 8:0.35064 
-0.5890111247625751 1:0.458249 2:0.414958 3:0.329384 4:-0.131977 5:0.214536 6:-0.478074 7:0.0463283 8:0.301231 
1.219527352842543 1:0.456128 2:0.430419 3:0.280048 4:-0.176474 5:0.0920483 6:-0.41752 7:0.190799 8:0.362444 
4.431229913544888 1:0.521181 2:0.473046 3:0.357576 4:0.220111 5:0.151817 6:0.282545 7:0.557811 8:0.562912 
0.8263598420500109 1:0.592978 2:0.526126 3:0.426386 4:0.665132 5:0.423531 6:0.822246 7:0.738866 8:0.688861 
0.8795901138890629 1:0.671067 2:0.565964 3:0.550928 4:0.733258 5:0.558885 6:0.792225 7:0.872143 8:0.822729 
0.5524480858850508 1:0.698922 2:0.603876 3:0.529514 4:0.659204 5:0.622461 6:0.571714 7:0.459769 8:0.598089 
0.2866932687776341 1:0.737134 2:0.670655 3:0.459105 4:0.641835 5:0.682168 6:0.466176 7:0.527089 8:0.635655 
0.8954981126587159 1:0.699371 2:0.687726 3:0.297939 4:0.410117 5:0.614977 6:0.0959088 7:-0.0484485 8:0.305785 
0.2611315407202625 1:0.681872 2:0.697588 3:0.217837 4:0.28946 5:0.526747 6:-0.0329254 7:0.135119 8:0.388574 
1.78586509744381 1:0.680928 2:0.712527 3:0.173493 4:0.276367 5:0.427693 6:0.0605977 7:0.275863 8:0.456455 
3.378331547119044 1:0.644776 2:0.709384 3:0.0733312 4:0.0779619 5:0.32575 6:-0.203084 7:-0.040334 8:0.277157 
0.6816527454497605 1:0.553002 2:0.66787 3:-0.0877767 4:-0.0736841 5:0.0799325 6:-0.202905 7:0.000901539 8:0.286596 
0.7178355244124608 1:0.508337 2:0.64407 3:-0.156198 4:-0.239469 5:-0.0203661 6:-0.405072 7:-0.283726 8:0.137564 
1.947118643520176 1:0.469313 2:0.616567 3:-0.197341 4:-0.349993 5:-0.127021 6:-0.492048 7:-0.283726 8:0.137564 
1.385196247694203 1:0.494612 2:0.600052 3:-0.0752594 4:-0.0347545 5:-0.0846367 6:0.0705777 7:0.510531 8:0.495625 
2.255098309140973 1:0.473177 2:0.56923 3:-0.0542014 4:-0.0252048 5:-0.0406157 6:0.0362772 7:0.172261 8:0.308293 
0.2378941922302007 1:0.454778 2:0.542516 3:-0.035412 4:0.0337973 5:0.0148602 6:0.0844637 7:0.204445 8:0.322659 
1.007123546371478 1:0.453632 2:0.531924 3:-0.00943927 4:0.129843 5:0.0692059 6:0.206105 7:0.335747 8:0.381618 
1.999074324692943 1:0.46991 2:0.52698 3:0.0533235 4:0.358146 5:0.187626 6:0.508179 7:0.554174 8:0.50113 
2.500143666880593 1:0.45849 2:0.520548 3:0.0367909 4:0.30661 5:0.24802 6:0.335317 7:0.128908 8:0.305165 
0.06771463088632683 1:0.452941 2:0.514199 3:0.0377136 4:0.265025 5:0.273312 6:0.223995 7:0.224255 8:0.34948 
3.500756927663374 1:0.422326 2:0.502481 3:-0.0219478 4:-0.118703 5:0.15203 6:-0.377143 7:-0.141736 8:0.152599 
2.523433442585536 1:0.390717 2:0.486252 3:-0.0720735 4:-0.422435 5:-0.0381695 6:-0.739788 7:-0.201419 8:0.116404 
-0.08664859173159269 1:0.355385 2:0.450457 3:-0.0790623 4:-0.473324 5:-0.296616 6:-0.528335 7:0.146274 8:0.253761 
-1.568667149588318 1:0.326344 2:0.430673 3:-0.111577 4:-0.618922 5:-0.408002 6:-0.677889 7:-0.20552 8:0.0709642 
-5.322073005173152 1:0.297061 2:0.408495 3:-0.13817 4:-0.758576 5:-0.532536 6:-0.800082 7:-0.267929 8:0.0337495 
-8 1:0.267924 2:0.384434 3:-0.159097 4:-0.83366 5:-0.642589 6:-0.814 7:-0.333386 8:-0.00467949 
-5.178167952032231 1:0.230084 2:0.35698 3:-0.196807 4:-0.92303 5:-0.748131 6:-0.86114 7:-0.500775 8:-0.114416 
-0.8071074314435853 1:0.185857 2:0.325425 3:-0.242365 4:-0.889687 5:-0.806489 6:-0.726135 7:-0.620037 8:-0.211063 
0.1025814519145697 1:0.116549 2:0.285151 3:-0.339249 4:-0.942553 5:-0.864426 6:-0.759421 7:-0.782449 8:-0.394592 
-4.096484717248729 1:0.0759766 2:0.214567 3:-0.265381 4:-0.603132 5:-0.755164 6:-0.230076 7:-0.19317 8:-0.0859378 
-6.210636564240693 1:0.0644927 2:0.185176 3:-0.218326 4:-0.488877 5:-0.666885 6:-0.113763 7:-0.149528 8:-0.0634971 
-1.911911087849868 1:0.0565236 2:0.159935 3:-0.172212 4:-0.373754 5:-0.566587 6:-0.0101978 7:-0.149528 8:-0.0634971 
-1.785064507942105 1:0.0605466 2:0.140614 3:-0.106424 4:-0.211827 5:-0.441428 6:0.154593 7:0.0666954 8:0.037226 
-1.797994676033452 1:0.0533374 2:0.123594 3:-0.0808593 4:-0.162264 5:-0.340145 6:0.129376 7:-0.166122 8:-0.0615207 
0.4227591796617957 1:0.0351234 2:0.106029 3:-0.0869253 4:-0.239552 5:-0.300448 6:-0.0687426 7:-0.371792 8:-0.16723 
-1.226057111363108 1:0.0336505 2:0.0916566 3:-0.051438 4:-0.111711 5:-0.22796 6:0.0929856 7:-0.0790172 8:-0.0318651 
-1.218343496013891 1:0.03845 2:0.0811998 3:-0.00793381 4:0.0112655 5:-0.135362 6:0.221088 7:0.0266486 8:0.0204203 
0.9132862468469474 1:0.0576148 2:0.073164 3:0.0721145 4:0.159522 5:0.0643245 6:0.269734 7:-0.0171008 8:0.0305415 
0.06698137711726979 1:0.0585071 2:0.0707553 3:0.0814932 4:0.107064 5:0.0939818 6:0.132005 7:-0.0681781 8:0.00801227 
-0.6320297855046931 1:0.040438 2:0.0632831 3:0.047825 4:-0.247645 5:-0.016515 6:-0.425611 7:-0.456515 8:-0.187222 
-1.923492683811851 1:0.0325424 2:0.0572199 3:0.0408859 4:-0.379031 5:-0.134907 6:-0.53909 7:-0.295917 8:-0.120184 
-0.189886504305675 1:-0.00655411 2:0.0438909 3:-0.0398489 4:-0.559422 5:-0.278776 6:-0.717338 7:-0.646625 8:-0.364484 
-0.01423360519894379 1:-0.0399211 2:0.0259917 3:-0.0906305 4:-0.682709 5:-0.419073 6:-0.788737 7:-0.673712 8:-0.389594 
-2.493716360463182 1:-0.0813427 2:-0.0137098 3:-0.105108 4:-0.817564 5:-0.652432 6:-0.770847 7:-0.453945 8:-0.305139 
0.04835357725272774 1:-0.10936 2:-0.0351473 3:-0.129947 4:-0.912299 5:-0.75083 6:-0.837013 7:-0.642683 8:-0.429663 
-0.3722334610044641 1:-0.148332 2:-0.0946221 3:-0.0821185 4:-0.768728 5:-0.837 6:-0.454056 7:-0.502798 8:-0.376497 
0.5512525437870571 1:-0.240549 2:-0.186691 3:-0.104127 4:-0.949116 5:-0.954494 6:-0.663986 7:-0.764925 8:-0.587206 
0.8063077898957481 1:-0.244942 2:-0.227614 3:-0.00367874 4:-0.981526 5:-1 6:-0.672395 7:-0.524624 8:-0.489586 
-0.05861184870052355 1:-0.178864 2:-0.221343 3:0.177935 4:-0.307868 5:-0.764945 6:0.356344 7:0.559435 8:0.292631 
-0.2101298865363137 1:-0.10828 2:-0.189349 3:0.301661 4:0.0881776 5:-0.28513 6:0.550713 7:0.138369 8:0.0763099 
-0.4713906684525204 1:-0.102858 2:-0.174249 3:0.276045 4:-0.0705581 5:-0.202933 6:0.143014 7:-0.124341 8:-0.0694065 
-0.1835517862697129 1:-0.100249 2:-0.161603 3:0.248775 4:-0.229252 5:-0.205264 6:-0.163048 7:-0.183243 8:-0.103135 
-0.2388944750253261 1:-0.111307 2:-0.153884 3:0.194026 4:-0.470632 5:-0.293717 6:-0.526578 7:-0.368955 8:-0.21393 
-0.3025853155166603 1:-0.126086 2:-0.150914 3:0.141259 4:-0.681011 5:-0.428422 6:-0.774201 7:-0.457124 8:-0.271102 
-0.266047388443409 1:-0.126822 2:-0.147854 3:0.130543 4:-0.76786 5:-0.637446 6:-0.692112 7:-0.196432 8:-0.147364 
-0.04237796878378799 1:-0.121703 2:-0.145139 3:0.13842 4:-0.76301 5:-0.687095 6:-0.623024 7:-0.239409 8:-0.16648 
-0.2310115878475484 1:-0.101902 2:-0.132649 3:0.163367 4:-0.660878 5:-0.746878 6:-0.352423 7:-0.0760255 8:-0.117699 
-0.3917406277121281 1:-0.12813 2:-0.134837 3:0.0904424 4:-0.822759 5:-0.837641 6:-0.558446 7:-0.354271 8:-0.26857 
-0.9151992401184207 1:-0.214573 2:-0.167886 3:-0.0781228 4:-0.896251 5:-0.921428 6:-0.60082 7:-0.833776 8:-0.624732 
-0.03624947126579437 1:-0.230958 2:-0.184858 3:-0.0803273 4:-0.777016 5:-0.881459 6:-0.416775 7:-0.510563 8:-0.441073 
-0.226192975088126 1:-0.255407 2:-0.203738 3:-0.101525 4:-0.800088 5:-0.863118 6:-0.483714 7:-0.623101 8:-0.51444 
-0.2910704650719076 1:-0.292925 2:-0.241176 3:-0.110532 4:-0.896376 5:-0.875866 6:-0.655804 7:-0.692941 8:-0.566566 
-0.09352638884558923 1:-0.300804 2:-0.258637 3:-0.0857581 4:-0.90587 5:-0.897471 6:-0.648325 7:-0.493886 8:-0.458311 
-0.9638245326382839 1:-0.30369 2:-0.284973 3:-0.021294 4:-0.965901 5:-0.949078 6:-0.703163 7:-0.542568 8:-0.482226 
-0.2374088216617753 1:-0.298168 2:-0.293103 3:0.0179242 4:-0.784047 5:-0.902423 6:-0.405273 7:-0.542568 8:-0.482226 
-0.1457800248459115 1:-0.310047 2:-0.314129 3:0.04055 4:-0.883761 5:-0.898381 6:-0.604201 7:-0.761563 8:-0.601594 
-0.2800033308207024 1:-0.302771 2:-0.317426 3:0.0716253 4:-0.851893 5:-0.89305 6:-0.548582 7:-0.61881 8:-0.546707 
-0.2110477110351333 1:-0.278135 2:-0.314721 3:0.138315 4:-0.621572 5:-0.806579 6:-0.204197 7:0.00274287 8:-0.24973 
-0.5213727452427972 1:-0.265335 2:-0.309781 3:0.163148 4:-0.642254 5:-0.756378 6:-0.304762 7:-0.276278 8:-0.34855 
-1.232044660387642 1:-0.241372 2:-0.300632 3:0.209912 4:-0.516659 5:-0.677695 6:-0.154846 7:0.0147277 8:-0.17933 
-0.4827799277785548 1:-0.229518 2:-0.290743 3:0.218145 4:-0.558374 5:-0.640258 6:-0.281013 7:-0.242816 8:-0.283611 
1.30478945880874 1:-0.321047 2:-0.30268 3:-0.0243866 4:-0.701803 5:-0.666935 6:-0.528119 7:-0.80678 8:-0.688381 
-1.534965693026411 1:-0.559681 2:-0.389468 3:-0.502077 4:-0.903041 5:-0.796178 6:-0.764514 7:-0.903723 8:-0.808563 
-1.503295886903123 1:-0.772242 2:-0.479507 3:-0.892211 4:-0.969284 5:-0.867175 6:-0.808144 7:-0.94615 8:-0.873851 
-1.618937256378835 1:-0.877905 2:-0.574451 3:-0.946727 4:-0.825156 5:-0.86262 6:-0.533101 7:-0.554666 8:-0.568053 
-1.291585754299104 1:-0.939773 2:-0.663824 3:-0.884812 4:-0.707455 5:-0.817211 6:-0.358577 7:-0.486091 8:-0.51659 
-1.637538258191094 1:-0.909454 2:-0.728747 3:-0.613139 4:-0.494608 5:-0.710313 6:-0.0727418 7:-0.0563562 8:-0.187941 
-0.8426190324386614 1:-0.871285 2:-0.772408 3:-0.376886 4:-0.348119 5:-0.58631 6:0.0633914 7:-0.0431381 8:-0.177743 
-0.3072340836736507 1:-0.854844 2:-0.803772 3:-0.24024 4:-0.287901 5:-0.481963 6:0.0552309 7:-0.177053 8:-0.242668 
-1.000495740881744 1:-0.830458 2:-0.823574 3:-0.111778 4:-0.143944 5:-0.360574 6:0.189575 7:-0.177053 8:-0.242668 
-1.560986576190397 1:-0.772682 2:-0.826887 3:0.0714485 4:0.158138 5:-0.170897 6:0.549636 7:0.061317 8:-0.0976502 
-1.31330847137283 1:-0.703127 2:-0.814453 3:0.246415 4:0.495651 5:0.0770603 6:0.908639 7:0.168679 8:-0.0285205 
-0.9744749574453158 1:-0.634282 2:-0.789576 3:0.384676 4:0.687197 5:0.311322 6:1 7:0.206896 8:-0.00466273 
-0.8339403944949457 1:-0.580499 2:-0.758012 3:0.45899 4:0.704162 5:0.473604 6:0.838052 7:0.0901158 8:-0.043822 
-0.2191263849003789 1:-0.534557 2:-0.722797 3:0.499548 4:0.677142 5:0.572065 6:0.667172 7:0.02795 8:-0.0642743 
-1.211111862746709 1:-0.490707 2:-0.685116 3:0.526952 4:0.639963 5:0.624321 6:0.532031 7:0.02795 8:-0.0642743 
-1.138998333815468 1:-0.478726 2:-0.652373 3:0.472084 4:0.366029 5:0.560541 6:0.075501 7:-0.34906 8:-0.201357 
-1.113423265643962 1:-0.457547 2:-0.621586 3:0.450354 4:0.221737 5:0.466076 6:-0.0918422 7:-0.25619 8:-0.165508 
-1.004205079738552 1:-0.424828 2:-0.58986 3:0.460775 4:0.087212 5:0.354669 6:-0.219823 7:-0.0699823 8:-0.0917905 
-1.388929952572912 1:-0.383442 2:-0.555505 3:0.489998 4:0.0997431 5:0.284909 6:-0.111625 7:0.0998416 8:-0.0183051 
-1.452314615578262 1:-0.326589 2:-0.515692 3:0.550646 4:0.312526 5:0.315005 6:0.266356 7:0.362126 8:0.119576 
-0.4543773856831491 1:-0.310864 2:-0.480431 3:0.50006 4:0.0966307 5:0.257346 6:-0.0845679 7:-0.169373 8:-0.0850576 
-1.192018161201778 1:-0.290951 2:-0.447904 3:0.469683 4:-0.00798626 5:0.181245 6:-0.196754 7:-0.13064 8:-0.0670094 
-0.9692643499779764 1:-0.327442 2:-0.429796 3:0.309466 4:-0.203927 5:0.0599708 6:-0.432412 7:-0.561845 8:-0.319512 
-2.911691632002994 1:-0.354769 2:-0.41286 3:0.180109 4:-0.13159 5:-0.0429447 6:-0.167982 7:-0.485177 8:-0.282265 
-0.8682599138309918 1:-0.362723 2:-0.409412 3:0.146574 4:-0.132785 5:-0.0638775 6:-0.145159 7:-0.536512 8:-0.312187 
-0.6890098945864889 1:-0.381352 2:-0.410693 3:0.0940208 4:-0.222464 5:-0.110117 6:-0.264147 7:-0.652134 8:-0.387807 
-1.393833766040532 1:-0.412707 2:-0.418518 3:0.0213134 4:-0.349812 5:-0.18679 6:-0.41989 7:-0.749698 8:-0.468905 
-0.9356126857007202 1:-0.437667 2:-0.43019 3:-0.0214428 4:-0.4601 5:-0.277609 6:-0.525431 7:-0.773518 8:-0.491365 
-3.397342729297224 1:-0.459619 2:-0.444289 3:-0.0483997 4:-0.567844 5:-0.376943 6:-0.615792 7:-0.804523 8:-0.521353 
-2.093914472722171 1:-0.494972 2:-0.463234 3:-0.102258 4:-0.745819 5:-0.507237 6:-0.805647 7:-0.867074 8:-0.594418 
-3.018792106954536 1:-0.533562 2:-0.486759 3:-0.153142 4:-0.864469 5:-0.636814 6:-0.8809 7:-0.897029 8:-0.638954 
-1.542309757105633 1:-0.629714 2:-0.552116 3:-0.261205 4:-0.835515 5:-0.768677 6:-0.666128 7:-0.831405 8:-0.661414 
-1.365017794944402 1:-0.686983 2:-0.591136 3:-0.325311 4:-0.815941 5:-0.793638 6:-0.598043 7:-0.891546 8:-0.728593 
-1.500931610738317 1:-0.710826 2:-0.627522 3:-0.29605 4:-0.74086 5:-0.783248 6:-0.464394 7:-0.665217 8:-0.607137 
-1.500851285678112 1:-0.719642 2:-0.658543 3:-0.236432 4:-0.677177 5:-0.753396 6:-0.376313 7:-0.665217 8:-0.607137 
-4.187643314883013 1:-0.682282 2:-0.675257 3:-0.07747 4:-0.457306 5:-0.65434 6:-0.067387 7:-0.0575552 8:-0.26243 
-1.220324642353144 1:-0.65262 2:-0.682197 3:0.0311498 4:-0.330102 5:-0.542509 6:0.0458358 7:-0.156552 8:-0.300567 
-2.743774306972229 1:-0.617894 2:-0.680218 3:0.13025 4:-0.216384 5:-0.427016 6:0.128409 7:-0.117869 8:-0.278385 
-2.759007620388212 1:-0.611611 2:-0.677272 3:0.140992 4:-0.255976 5:-0.364275 6:-0.0240264 7:-0.418298 8:-0.400913 
-0.6536805303884762 1:-0.588808 2:-0.66997 3:0.189393 4:-0.114255 5:-0.271426 6:0.140257 7:-0.247021 8:-0.309455 
-2.716759259648148 1:-0.557895 2:-0.657425 3:0.247655 4:0.00867644 5:-0.165272 6:0.251982 7:-0.158761 8:-0.262854 
-1.695863857174645 1:-0.534702 2:-0.642359 3:0.275662 4:-0.0594746 5:-0.119037 6:0.0637938 7:-0.280223 8:-0.308319 
-1.729887867312702 1:-0.49724 2:-0.622182 3:0.332452 4:-0.100262 5:-0.102897 6:-0.0349814 7:-0.0334227 8:-0.184096 
-1.76535771796662 1:-0.469607 2:-0.600048 3:0.354199 4:-0.250112 5:-0.146084 6:-0.274747 7:-0.183685 8:-0.237571 
-0.5100318914286234 1:-0.440842 2:-0.576103 3:0.374324 4:-0.350011 5:-0.210839 6:-0.391384 7:-0.183685 8:-0.237571 
-0.6432230465188763 1:-0.411519 2:-0.550588 3:0.39177 4:-0.416611 5:-0.277986 6:-0.440337 7:-0.183685 8:-0.237571 
-1.509957213898295 1:-0.377518 2:-0.522803 3:0.416998 4:-0.399682 5:-0.316655 6:-0.36093 7:-0.0196901 8:-0.172888 
-2.005317470302848 1:-0.325655 2:-0.467061 3:0.418367 4:-0.534194 5:-0.427416 6:-0.489661 7:-0.21395 8:-0.228222 
-0.3879932135347544 1:-0.329525 2:-0.445573 3:0.347021 4:-0.591212 5:-0.485227 6:-0.53118 7:-0.664328 8:-0.43164 
-2.271473939457347 1:-0.322464 2:-0.426852 3:0.316281 4:-0.556968 5:-0.51144 6:-0.43304 7:-0.493136 8:-0.35845 
-2.531159862604317 1:-0.33665 2:-0.414951 3:0.240494 4:-0.655692 5:-0.564456 6:-0.561491 7:-0.698715 8:-0.492229 
-2.653624934313484 1:-0.415344 2:-0.422496 3:0.0244213 4:-0.734693 5:-0.62824 6:-0.638619 7:-0.878262 8:-0.696676 
-3.073070507043556 1:-0.475076 2:-0.441486 3:-0.102745 4:-0.596078 5:-0.620862 6:-0.377699 7:-0.883678 8:-0.704927 
-5.41035161900902 1:-0.475821 2:-0.456839 3:-0.0623392 4:-0.365026 5:-0.532763 6:-0.0338473 7:-0.259659 8:-0.302089 
-5.294500550825733 1:-0.450924 2:-0.463722 3:0.0317734 4:-0.130424 5:-0.389573 6:0.250729 7:-0.0499904 8:-0.150685 
-3.068489123301231 1:-0.378779 2:-0.453583 3:0.220916 4:0.216577 5:-0.169191 6:0.661327 7:0.318356 8:0.14892 
-2.558318611544741 1:-0.320748 2:-0.432888 3:0.338217 4:0.445683 5:0.0602084 6:0.831631 7:0.265872 8:0.122543 
-1.70122661742352 1:-0.283586 2:-0.408272 3:0.381774 4:0.544935 5:0.248873 6:0.798144 7:0.101441 8:0.0427449 
-2.722215709767187 1:-0.242614 2:-0.379695 3:0.425798 4:0.637846 5:0.408097 6:0.787682 7:0.173459 8:0.0892206 
-2.404396268216482 1:-0.164822 2:-0.339963 3:0.549741 4:0.824583 5:0.581473 6:0.942833 7:0.49305 8:0.327049 
-1.854604754417411 1:-0.0682166 2:-0.287228 3:0.694231 4:0.927581 5:0.734136 6:0.959886 7:0.64026 8:0.46666 
-0.1247228263319674 1:0.00543846 2:-0.229066 3:0.754519 4:0.971559 5:0.851744 6:0.904185 7:0.567643 8:0.432844 
-1.159124020019583 1:0.0579861 2:-0.171142 3:0.751889 4:0.941319 5:0.919263 6:0.764213 7:0.447489 8:0.379822 
-1.816333671806692 1:0.129988 2:-0.109188 3:0.796661 4:1 5:0.985401 6:0.798965 7:0.627341 8:0.513842 
-1.25248236321812 1:0.166099 2:-0.0517941 3:0.745997 4:0.918077 5:1 6:0.62198 7:0.297845 8:0.356089 
-1.355675402126722 1:0.187401 2:-0.00125917 3:0.66978 4:0.823114 5:0.975546 6:0.466533 7:0.196872 8:0.305696 
-1.596434865901195 1:0.194571 2:0.0407236 3:0.574753 4:0.706008 5:0.917085 6:0.308847 7:0.0594899 8:0.237564 
-2.286242530245214 1:0.199735 2:0.0754296 3:0.493896 4:0.525051 5:0.812965 6:0.08174 7:0.0594899 8:0.237564 
-2.262043351155686 1:0.210128 2:0.105448 3:0.441812 4:0.270256 5:0.651825 6:-0.220571 7:0.178179 8:0.284964 
-2.114533488084378 1:0.222213 2:0.132084 3:0.404222 4:0.0812273 5:0.476348 6:-0.377656 7:0.25752 8:0.317352 
-2.42892078483565 1:0.276649 2:0.165198 3:0.476202 4:0.398746 5:0.47367 6:0.243545 7:0.68247 8:0.571948 
0.1894771094057482 1:0.276746 2:0.191709 3:0.402846 4:0.117606 5:0.370674 6:-0.179897 7:0.0546173 8:0.239347 
-4.47036565789274 1:0.296013 2:0.217097 3:0.390355 4:0.176589 5:0.323244 6:-0.00811626 7:0.244861 8:0.347338 
-5.215673487427714 1:0.295777 2:0.237356 3:0.333367 4:0.0516371 5:0.246641 6:-0.159277 7:0.0753784 8:0.24995 
-2.673840040613657 1:0.268829 2:0.247719 3:0.22341 4:-0.332832 5:0.0571622 6:-0.679925 7:-0.180352 8:0.0895268 
-3.160559338950066 1:0.255563 2:0.253133 3:0.168413 4:-0.479628 5:-0.122004 6:-0.750383 7:-0.0593044 8:0.147528 
-3.507377959688791 1:0.239447 2:0.253969 3:0.117547 4:-0.632251 5:-0.296393 6:-0.837919 7:-0.113361 8:0.116937 
-2.210482634081377 1:0.2876 2:0.26508 3:0.231721 4:-0.134885 5:-0.233599 6:0.0546591 7:0.464566 8:0.445178 
-2.588651149157546 1:0.307804 2:0.278351 3:0.255714 4:0.0388616 5:-0.129187 6:0.267379 7:0.263051 8:0.335301 
-0.8696020437755759 1:0.317315 2:0.29103 3:0.249142 4:0.109598 5:-0.0341137 6:0.290831 7:0.203892 8:0.303831 
-6.725068140068902 1:0.327488 2:0.303379 3:0.245478 4:0.20185 5:0.0624796 6:0.354333 7:0.251273 8:0.328385 
-3.849707080148981 1:0.342637 2:0.316544 3:0.254537 4:0.353541 5:0.181484 6:0.506594 7:0.349581 8:0.378703 
0.9464362984967936 1:0.345504 2:0.327697 3:0.232189 4:0.387026 5:0.272875 6:0.461969 7:0.211598 8:0.319686 
-4.358178765221428 1:0.341002 2:0.335644 3:0.196555 4:0.355372 5:0.322408 6:0.340854 7:0.116473 8:0.279128 
-3.408153177252067 1:0.353647 2:0.344743 3:0.209365 4:0.516485 5:0.41343 6:0.545071 7:0.382604 8:0.397732 
-2.312279632467415 1:0.36586 2:0.354671 3:0.218575 4:0.655221 5:0.524057 6:0.682184 7:0.437491 8:0.425782 
-3.004235002477864 1:0.414187 2:0.373094 3:0.312962 4:0.691132 5:0.610737 6:0.647941 7:0.734476 8:0.630943 
-1.377645975571783 1:0.419364 2:0.388954 3:0.284495 4:0.445724 5:0.580175 6:0.207022 7:0.212648 8:0.363738 
3.403518775359714 1:0.434401 2:0.416822 3:0.252374 4:0.311176 5:0.478406 6:0.067419 7:0.300586 8:0.411597 
-4.316936276757096 1:0.43583 2:0.436708 3:0.201437 4:0.279003 5:0.41001 6:0.0869713 7:0.241253 8:0.389731 
-2.47307249149151 1:0.436544 2:0.443572 3:0.184521 4:0.292239 5:0.391102 6:0.135449 7:0.354636 8:0.436761 
-3.882329857573144 1:0.443039 2:0.450471 3:0.184919 4:0.37857 5:0.409577 6:0.281278 7:0.48694 8:0.497839 
-6.218099485200197 1:0.431121 2:0.453406 3:0.140868 4:0.129045 5:0.332063 6:-0.111246 7:0.100279 8:0.334075 
-2.422124164039881 1:0.42092 2:0.453542 3:0.109766 4:0.0012083 5:0.234366 6:-0.242679 7:0.149628 8:0.35257 
-8 1:0.396174 2:0.448284 3:0.0498338 4:-0.270625 5:0.0713734 6:-0.575925 7:-0.170201 8:0.194532 
-4.432507114990651 1:0.346083 2:0.425215 3:-0.0369597 4:-0.428162 5:-0.189129 6:-0.56957 7:-0.256397 8:0.144983 
-1.266607151416383 1:0.366751 2:0.419242 3:0.0418859 4:-0.176157 5:-0.176947 6:-0.09373 7:0.525366 8:0.498658 
-0.7977097507835219 1:0.378241 2:0.416955 3:0.0828461 4:-0.0288727 5:-0.115804 6:0.11947 7:0.464974 8:0.47003 
-1.485105596890327 1:0.407564 2:0.421484 3:0.158587 4:0.276508 5:0.0348968 6:0.532778 7:0.662141 8:0.6094 
-0.5446146641374814 1:0.409362 2:0.425498 3:0.152853 4:0.314342 5:0.148984 6:0.469349 7:0.248738 8:0.392657 
-5.563383902145101 1:0.39186 2:0.424913 3:0.101762 4:0.194531 5:0.18191 6:0.196604 7:-0.0183145 8:0.231424 
-6.174699332334757 1:0.359438 2:0.417415 3:0.0249344 4:-0.0303774 5:0.122893 6:-0.17023 7:-0.225386 8:0.0910715 
-8 1:0.347711 2:0.408872 3:0.0133411 4:-0.141615 5:0.0435022 6:-0.291349 7:0.0429268 8:0.223143 
-3.933922741317231 1:0.315742 2:0.395106 3:-0.0447095 4:-0.371477 5:-0.092176 6:-0.575724 7:-0.218978 8:0.0539082 
-5.553411485628854 1:0.389482 2:0.400084 3:0.163572 4:0.13573 5:-3.19229e-05 6:0.300746 7:0.55573 8:0.574019 
-2.286359810746632 1:0.483457 2:0.424446 3:0.378956 4:0.248191 5:0.101884 6:0.397186 7:0.669946 8:0.681664 
-5.579820126462283 1:0.519035 2:0.451651 3:0.410547 4:0.198174 5:0.151821 6:0.239843 7:0.336444 8:0.459142 
-6.043674971753179 1:0.567913 2:0.484014 3:0.467869 4:0.256489 5:0.206107 6:0.288123 7:0.44849 8:0.537673 
2.730411669948643 1:0.585491 2:0.513717 3:0.438304 4:0.237037 5:0.235294 6:0.215198 7:0.289739 8:0.43867 
-8 1:0.594354 2:0.539402 3:0.393651 4:0.224069 5:0.250084 6:0.17219 7:0.289739 8:0.43867 
-3.643315094002344 1:0.57342 2:0.555409 3:0.286127 4:0.132097 5:0.226833 6:0.021118 7:0.0362365 8:0.291963 
-4.614112548050161 1:0.538525 2:0.560648 3:0.16647 4:0.0207856 5:0.17126 6:-0.128761 7:-0.0968946 8:0.209723 
-1.759025356221959 1:0.47937 2:0.552011 3:0.0122842 4:-0.214855 5:0.0493802 6:-0.44096 7:-0.316445 8:0.0598066 
-1.867860880114711 1:0.445332 2:0.53772 3:-0.0505414 4:-0.359189 5:-0.0838337 6:-0.561831 7:-0.109107 8:0.14949 
0.45391522499714 1:0.435934 2:0.524249 3:-0.0414279 4:-0.238743 5:-0.129282 6:-0.272807 7:0.11879 8:0.256697 
-1.949418191753133 1:0.411645 2:0.508204 3:-0.070019 4:-0.250439 5:-0.163792 6:-0.254111 7:-0.0374914 8:0.173251 
-4.134444766296753 1:0.421703 2:0.49755 3:-0.0101266 4:-0.0435862 5:-0.11233 6:0.0866597 7:0.280369 8:0.333745 
-2.125376003352743 1:0.44941 2:0.495035 3:0.0803134 4:0.211188 5:0.0136968 6:0.431114 7:0.440602 8:0.431069 
-2.024312368533241 1:0.550086 2:0.514856 3:0.328497 4:0.540144 5:0.21614 6:0.828144 7:0.738364 8:0.677024 
-1.504395875122829 1:0.715932 2:0.566678 3:0.684081 4:0.678142 5:0.400782 6:0.874897 7:0.867285 8:0.834102 
-0.6354063214091582 1:0.816604 2:0.629967 3:0.811502 4:0.693616 5:0.529448 6:0.750436 7:0.659738 8:0.707606 
-0.8575523311186307 1:0.830765 2:0.68367 3:0.704974 4:0.563011 5:0.568206 6:0.449676 7:0.231861 8:0.433059 
-0.9588840602557894 1:0.790704 2:0.717944 3:0.489099 4:0.318529 5:0.506031 6:0.0485406 7:-0.0104796 8:0.261752 
-1.089766787647588 1:0.804668 2:0.748392 3:0.446578 4:0.30126 5:0.458364 6:0.0721976 7:0.235206 8:0.400858 
-0.3398990475362172 1:0.771612 2:0.765581 3:0.29926 4:0.166892 5:0.378213 6:-0.0930285 7:0.0297907 8:0.265383 
-2.270913797461543 1:0.731822 2:0.770704 3:0.165181 4:0.00450332 5:0.266319 6:-0.274654 7:-0.00884133 8:0.240392 
-2.84270698880087 1:0.783259 2:0.785957 3:0.277741 4:0.175501 5:0.253282 6:0.0738194 7:0.396168 8:0.46804 
1.492712020886836 1:0.809535 2:0.803857 3:0.307161 4:0.201847 5:0.254076 6:0.124143 7:0.347111 8:0.440709 
-0.4288315802919753 1:0.831807 2:0.823008 3:0.321048 4:0.258724 5:0.275081 6:0.209607 7:0.386579 8:0.462861 
-0.6655175379976274 1:0.850688 2:0.842423 3:0.323987 4:0.442102 5:0.355101 6:0.470377 7:0.430171 8:0.486121 
-0.632655499312482 1:0.930729 2:0.875312 3:0.473712 4:0.593421 5:0.462923 6:0.635351 7:0.677755 8:0.645786 
-0.1793374270381926 1:0.965904 2:0.935282 3:0.413071 4:0.549898 5:0.570825 6:0.421008 7:0.368147 8:0.493607 
-0.4781070756763566 1:0.929708 2:0.949378 3:0.264888 4:0.411039 5:0.541081 6:0.186484 7:0.0741705 8:0.343776 
-0.4640493440036562 1:1 2:0.975899 3:0.402941 4:0.61205 5:0.593616 6:0.514593 7:0.541862 8:0.594906 
-0.4875867156086588 1:0.921651 2:0.999405 3:0.10165 4:0.254689 5:0.450105 6:-0.00852148 7:0.144825 8:0.340047 
-0.4066961953376189 1:0.883637 2:0.990686 3:0.0113702 4:0.104534 5:0.350258 6:-0.180811 7:0.066025 8:0.296392 
-0.6089013730095818 1:0.804383 2:0.966523 3:-0.160226 4:-0.297567 5:0.138936 6:-0.709533 7:-0.18608 8:0.146935 
-0.69685587609802 1:0.689149 2:0.922204 3:-0.384203 4:-0.55593 5:-0.0949578 6:-0.931383 7:-0.38732 8:0.00403217 
-0.6855316702349403 1:0.576768 2:0.862377 3:-0.556511 4:-0.720253 5:-0.310043 6:-0.992798 7:-0.447125 8:-0.0423687 
-0.6537589830336112 1:0.47705 2:0.792891 3:-0.663843 4:-0.838812 5:-0.496115 6:-1 7:-0.4746 8:-0.0629895 
-0.801012602746546 1:0.408971 2:0.722538 3:-0.67347 4:-0.8001 5:-0.606227 6:-0.792367 7:-0.304958 8:-0.00229816 
-0.591804213452897 1:0.309285 2:0.644638 3:-0.757333 4:-0.833578 5:-0.691687 6:-0.754854 7:-0.516465 8:-0.140414 
-0.7731791944629681 1:0.176824 2:0.553593 3:-0.903399 4:-0.915072 5:-0.777998 6:-0.80977 7:-0.668917 8:-0.275343 
-0.6578859751666422 1:0.0888005 2:0.461668 3:-0.913174 4:-0.860488 5:-0.815888 6:-0.658011 7:-0.483692 8:-0.197648 
-0.8905178220456244 1:-0.0320104 2:0.361929 3:-1 4:-0.926586 5:-0.864944 6:-0.727721 7:-0.641422 8:-0.322351 
-1.292691254206282 1:-0.0993793 2:0.267528 3:-0.940684 4:-0.864909 5:-0.875444 6:-0.595066 7:-0.378589 8:-0.201173 
-1.270623284180518 1:-0.121823 2:0.18714 3:-0.784978 4:-0.694963 5:-0.821263 6:-0.329395 7:-0.128248 8:-0.0769803 
-0.9626408594627818 1:-0.127108 2:0.121684 3:-0.619066 4:-0.541842 5:-0.730018 6:-0.140999 7:-0.0479067 8:-0.0361564 
-1.093031416344564 1:-0.17012 2:0.0135735 3:-0.448303 4:-0.475293 5:-0.597725 6:-0.170412 7:-0.227394 8:-0.11807 
-2.213596823226496 1:-0.17282 2:-0.0270827 3:-0.343496 4:-0.380367 5:-0.522862 6:-0.0756009 7:-0.131622 8:-0.0795659 
-3.014259898588043 1:-0.168916 2:-0.058761 3:-0.243738 4:-0.188389 5:-0.40384 6:0.155052 7:-0.0957944 8:-0.0658431 
-2.283321541351296 1:-0.0935629 2:-0.0677626 3:0.00823599 4:0.27376 5:-0.158116 6:0.759316 7:0.516887 8:0.272053 
-2.811317787705694 1:-0.0614254 2:-0.0679945 3:0.105681 4:0.321502 5:0.022886 6:0.634778 7:0.178622 8:0.133584 
-1.676030704693335 1:-0.0475044 2:-0.0651611 3:0.139741 4:0.259867 5:0.121366 6:0.396506 7:0.0442725 8:0.0736499 
-0.2380979089787318 1:-0.0297193 2:-0.0590375 3:0.1763 4:0.17104 5:0.155041 6:0.183165 7:0.0903519 8:0.0965508 
-0.5504127425648547 1:0.0129574 2:-0.0369924 3:0.243606 4:0.140628 5:0.178409 6:0.095899 7:0.16637 8:0.132825 
-2.089062060871013 1:0.0254964 2:-0.0245285 3:0.246751 4:0.0694522 5:0.156498 6:-0.0163053 7:0.078356 8:0.104625 
-1.411486012348507 1:0.0802435 2:-0.00268496 3:0.350974 4:0.185007 5:0.18349 6:0.176169 7:0.542536 8:0.346295 
-0.4002097417855704 1:0.159649 2:0.0527847 3:0.436059 4:0.273139 5:0.256339 6:0.260178 7:0.529895 8:0.362038 
-0.8733068710734939 1:0.230323 2:0.116845 3:0.470981 4:0.394764 5:0.352337 6:0.381564 7:0.628915 8:0.424556 
-1.850105328086136 1:0.341209 2:0.167007 3:0.665633 4:0.581833 5:0.456908 6:0.620022 7:0.910472 8:0.737576 
-0.6214819606439591 1:0.391657 2:0.218077 3:0.67572 4:0.555241 5:0.51705 6:0.496013 7:0.435835 8:0.488209 
-1.200989101665457 1:0.442203 2:0.269894 3:0.684026 4:0.598035 5:0.57255 6:0.512624 7:0.504861 8:0.534847 
-0.9315243888991381 1:0.448799 2:0.312778 3:0.584767 4:0.495434 5:0.572613 6:0.312857 7:0.158249 8:0.341242 
-0.7019815366291696 1:0.452903 2:0.347975 3:0.499353 4:0.352834 5:0.521319 6:0.0969409 7:0.177799 8:0.351106 
-0.6894983504323695 1:0.468728 2:0.379564 3:0.459267 4:0.338691 5:0.482031 6:0.116615 7:0.318484 8:0.421193 
-0.7381263353379205 1:0.472974 2:0.405757 3:0.399298 4:0.249665 5:0.42379 6:0.0133153 7:0.247479 8:0.387452 
-0.6077350086231657 1:0.472674 2:0.426646 3:0.340367 4:0.165826 5:0.35478 6:-0.0669508 7:0.247479 8:0.387452 
-2.504099103375717 1:0.459669 2:0.440537 3:0.262606 4:0.032902 5:0.26092 6:-0.212896 7:0.0677801 8:0.310623 
-0.3448686172132329 1:0.462012 2:0.452157 3:0.237383 4:-0.0693424 5:0.161539 6:-0.292496 7:0.305652 8:0.403495 
-0.909110813755755 1:0.455772 2:0.460101 3:0.196522 4:-0.18989 5:0.0518866 6:-0.395381 7:0.20273 8:0.361481 
-0.71110611957669 1:0.463461 2:0.468123 3:0.197396 4:-0.0466614 5:0.0303482 6:-0.0907398 7:0.422703 8:0.455804 
-0.1658024435848955 1:0.491122 2:0.480539 3:0.246222 4:0.119615 5:0.0758493 6:0.178217 7:0.636366 8:0.5806 
-0.1422548069548067 1:0.520394 2:0.49682 3:0.289165 4:0.212449 5:0.139604 6:0.282305 7:0.70419 8:0.630073 
-0.1727857693402353 1:0.591759 2:0.525321 3:0.424948 4:0.302042 5:0.214361 6:0.366866 7:0.874884 8:0.801456 
8 1:0.608388 2:0.551728 3:0.401681 4:0.207323 5:0.2301 6:0.163605 7:0.348359 8:0.507141 
-2.989724536046645 1:0.502228 2:0.554607 3:0.0739235 4:-0.377119 5:-0.0602797 6:-0.625026 7:-0.065647 8:0.172009 
-2.233140522761653 1:0.430978 2:0.536683 3:-0.0908975 4:-0.618669 5:-0.250354 6:-0.866797 7:-0.279984 8:0.00662391 
-1.877352738891699 1:0.385074 2:0.490688 3:-0.101395 4:-0.603661 5:-0.492522 6:-0.546645 7:0.206309 8:0.27957 
-0.8829758348901677 1:0.37307 2:0.462236 3:-0.0585133 4:-0.510937 5:-0.500139 6:-0.357027 7:-0.00299482 8:0.164201 
-0.4220185920710987 1:0.296647 2:0.416588 3:-0.1619 4:-0.606377 5:-0.56446 6:-0.465505 7:-0.168143 8:0.0607272 
-3.069789045161045 1:0.26428 2:0.390119 3:-0.185863 4:-0.628883 5:-0.590151 6:-0.478442 7:-0.210424 8:0.0378333 
-1.995027772785831 1:0.185074 2:0.351766 3:-0.317896 4:-0.664299 5:-0.620029 6:-0.511477 7:-0.543768 8:-0.186515 
