svm_type epsilon_svr
kernel_type rbf
gamma 0.5
nr_class 2
total_sv 209
rho -147.42
SV
-60.71689790246886 1:0.124202 2:0.0653232 3:0.0110867 4:-0.0334288 5:-0.0452356 6:-0.00927292 7:-1 8:-1 
-1024 1:0.121708 2:0.0543884 3:0.0314935 4:-0.427159 5:-0.447985 6:-0.290618 7:0.23164 8:0.201635 
-967.5413205691011 1:0.0985996 2:0.0466262 3:-0.0148876 4:-0.557435 5:-0.547924 6:-0.423501 7:-0.140185 8:-0.103959 
-1024 1:0.10919 2:0.0470304 3:0.0143031 4:-0.382767 5:-0.50622 6:-0.135122 7:0.0879771 8:0.0982928 
-1024 1:0.122784 2:0.050885 3:0.0433809 4:-0.191532 5:-0.40952 6:0.119653 7:0.192579 8:0.188057 
-1024 1:0.151239 2:0.0609858 3:0.0991257 4:0.0991342 5:-0.240332 6:0.480373 7:0.446889 8:0.412129 
-1024 1:0.197334 2:0.08007 3:0.182581 4:0.375471 5:-0.0279815 6:0.761804 7:0.656207 8:0.620367 
-1024 1:0.27117 2:0.211956 3:0.0612695 4:0.286389 5:0.540158 6:-0.0891486 7:-0.239376 8:0.10196 
-1024 1:0.169882 2:0.192706 3:-0.17921 4:-0.194162 5:0.287117 6:-0.717373 7:-0.614567 8:-0.280666 
-1024 1:0.115041 2:0.164832 3:-0.265487 4:-0.3743 5:0.053524 6:-0.787183 7:-0.320793 8:-0.095084 
-1024 1:0.104959 2:0.140342 3:-0.232612 4:-0.307419 5:-0.0781092 6:-0.500496 7:-0.00451439 8:0.113339 
-1024 1:0.0810698 2:0.115377 3:-0.237923 4:-0.356319 5:-0.183482 6:-0.469333 7:-0.125459 8:0.0306421 
-1024 1:0.0878373 2:0.0970149 3:-0.172405 4:-0.248689 5:-0.214954 6:-0.223364 7:0.103496 8:0.175762 
-1024 1:0.101882 2:0.0855631 3:-0.103521 4:-0.130192 5:-0.193243 6:-0.0198672 7:0.175619 8:0.221714 
-1024 1:0.113066 2:0.0789659 3:-0.0550141 4:-0.0511947 5:-0.150308 6:0.0818087 7:0.175619 8:0.221714 
-1024 1:0.164594 2:0.0854127 3:0.0757428 4:0.328672 5:0.0151741 6:0.619659 7:0.51076 8:0.441152 
-1024 1:0.221507 2:0.103495 3:0.192578 4:0.581917 5:0.216734 6:0.869268 7:0.601785 8:0.51342 
-1024 1:0.256055 2:0.125792 3:0.23501 4:0.700887 5:0.393971 6:0.887952 7:0.462596 8:0.449257 
-1024 1:0.281478 2:0.149386 3:0.248147 4:0.76207 5:0.534171 6:0.838981 7:0.462596 8:0.449257 
-1024 1:0.273003 2:0.166324 3:0.181344 4:0.598889 5:0.568847 6:0.481631 7:0.0392737 8:0.252573 
-1024 1:0.282448 2:0.18201 3:0.168805 4:0.595863 5:0.590874 6:0.449468 7:0.247063 8:0.352635 
-1024 1:0.279045 2:0.193781 3:0.129474 4:0.479586 5:0.563667 6:0.256831 7:0.112007 8:0.287308 
-1024 1:0.292606 2:0.206271 3:0.136722 4:0.575684 5:0.580151 6:0.423205 7:0.324336 8:0.390113 
-195.4541809072588 1:0.292211 2:0.21617 3:0.110681 4:0.447436 5:0.544934 6:0.216954 7:0.168707 8:0.319085 
-1024 1:0.299067 2:0.225642 3:0.106397 4:0.511514 5:0.544543 6:0.341486 7:0.289084 8:0.374361 
-1024 1:0.302416 2:0.233978 3:0.0949711 4:0.554234 5:0.559674 6:0.406128 7:0.289084 8:0.374361 
-43.62153318403397 1:0.331221 2:0.250948 3:0.134428 4:0.726348 5:0.636353 6:0.647791 7:0.602036 8:0.560868 
-1024 1:0.669831 2:0.563138 3:0.314591 4:0.529307 5:0.704439 6:0.184986 7:0.17693 8:0.439559 
-439.5526992552171 1:0.66488 2:0.586135 3:0.242592 4:0.416517 5:0.616654 6:0.0714444 7:0.246895 8:0.474524 
-377.6065411161808 1:0.654819 2:0.602252 3:0.17333 4:0.23254 5:0.491848 6:-0.135713 7:0.246895 8:0.474524 
-1024 1:0.593406 2:0.601224 3:0.000736969 4:-0.230061 5:0.241977 6:-0.732971 7:-0.214163 8:0.191449 
-729.0219153861873 1:0.510162 2:0.572902 3:-0.165437 4:-0.574087 5:-0.217346 6:-0.850521 7:-0.102235 8:0.238771 
-1024 1:0.49405 2:0.555222 3:-0.166901 4:-0.518516 5:-0.334743 6:-0.602731 7:0.150983 8:0.34055 
-1024 1:0.515394 2:0.545917 3:-0.0825946 4:-0.0659744 5:-0.249966 6:0.172206 7:0.479749 8:0.511181 
-1024 1:0.537204 2:0.543416 3:-0.0140886 4:0.318819 5:-0.0548147 6:0.684164 7:0.540678 8:0.548782 
-1024 1:0.578279 2:0.550726 3:0.0846799 4:0.575348 5:0.167709 6:0.915097 7:0.692029 8:0.652892 
-675.9767171301625 1:0.716227 2:0.620326 3:0.303008 4:0.857663 5:0.678448 6:0.851766 7:0.859624 8:0.797755 
-224.4602084634516 1:0.686218 2:0.684086 3:0.0569356 4:0.631265 5:0.607572 6:0.498068 7:0.611778 8:0.660514 
-1024 1:0.694652 2:0.70866 3:0.0191455 4:0.609942 5:0.674771 6:0.376535 7:0.188554 8:0.431097 
-1024 1:0.676522 2:0.705191 3:-0.0238387 4:0.545063 5:0.643188 6:0.288638 7:0.188554 8:0.431097 
-868.4400356656026 1:0.646356 2:0.695577 3:-0.0856931 4:0.427021 5:0.579605 6:0.136026 7:0.0735921 8:0.364318 
-1024 1:0.539624 2:0.652175 3:-0.280911 4:-0.12794 5:0.27215 6:-0.571285 7:-0.388495 8:0.0592187 
-1024 1:0.484121 2:0.61639 3:-0.34917 4:-0.266411 5:0.0824158 6:-0.6128 7:-0.243056 8:0.120233 
-1024 1:0.465556 2:0.583553 3:-0.319484 4:-0.154756 5:-0.00384628 6:-0.293605 7:0.117867 8:0.287575 
-1024 1:0.408415 2:0.544332 3:-0.383764 4:-0.301286 5:-0.114146 6:-0.445584 7:-0.226416 8:0.0712615 
-1024 1:0.350731 2:0.499879 3:-0.43643 4:-0.461297 5:-0.245328 6:-0.598727 7:-0.294332 8:0.023498 
-1024 1:0.283596 2:0.449099 3:-0.500128 4:-0.585778 5:-0.377631 6:-0.681741 7:-0.42134 8:-0.0687688 
-1024 1:0.248544 2:0.400529 3:-0.477874 4:-0.561923 5:-0.457239 6:-0.540488 7:-0.140359 8:0.0602212 
-1024 1:0.229347 2:0.357322 3:-0.423889 4:-0.385759 5:-0.446842 6:-0.211826 7:-0.0117601 8:0.122222 
-1024 1:0.232476 2:0.323465 3:-0.329753 4:-0.118737 5:-0.343708 6:0.181998 7:0.217593 8:0.240692 
-1024 1:0.243378 2:0.298851 3:-0.236707 4:0.134066 5:-0.183872 6:0.48058 7:0.318662 8:0.297118 
-1024 1:0.221503 2:0.274202 3:-0.237067 4:0.0782342 5:-0.09743 6:0.269252 7:-0.074873 8:0.108781 
-950.7118203322165 1:0.242004 2:0.259129 3:-0.140653 4:0.340169 5:0.0545681 6:0.594874 7:0.318233 8:0.328155 
1024 1:0.405377 2:0.362692 3:0.064719 4:0.420705 5:0.613002 6:0.0839136 7:0.059454 8:0.295882 
709.3905021726591 1:0.525908 2:0.365282 3:0.402019 4:0.690039 5:0.384499 6:0.878259 7:0.933397 8:0.889173 
-1024 1:0.895567 2:0.836419 3:0.270711 4:0.447134 5:0.731543 6:-0.00647964 7:-0.0475012 8:0.34058 
-15.60416820199524 1:0.850984 2:0.846945 3:0.117048 4:0.162298 5:0.543133 6:-0.332957 7:0.0267956 8:0.376424 
-253.1941921345408 1:0.563787 2:0.78037 3:-0.534625 4:-0.46373 5:0.0139838 6:-0.913111 7:-0.606089 8:-0.201971 
-525.1426376359108 1:0.386219 2:0.696753 3:-0.830693 4:-0.603588 5:-0.211173 6:-0.915009 7:-0.640693 8:-0.244716 
-348.6929134519704 1:0.150809 2:0.497215 3:-1 4:-0.713659 5:-0.523398 6:-0.755258 7:-0.429567 8:-0.145927 
-121.6104284626014 1:0.087105 2:0.402427 3:-0.943156 4:-0.702217 5:-0.604962 6:-0.635701 7:-0.321677 8:-0.0961628 
-741.3983009873178 1:-0.122865 2:0.123427 3:-0.83991 4:-0.784004 5:-0.799311 6:-0.561958 7:-0.102275 8:-0.0397418 
-690.7449629708486 1:-0.271156 2:-0.0902349 3:-0.725163 4:-0.718741 5:-0.699103 6:-0.555269 7:-0.456426 8:-0.246953 
-1007.497718194536 1:-0.254296 2:-0.14492 3:-0.539439 4:-0.320329 5:-0.584511 6:0.0792617 7:0.0737862 8:0.0569689 
-489.6690522720755 1:-0.337044 2:-0.253318 3:-0.502661 4:-0.597209 5:-0.623789 6:-0.409909 7:-0.14832 8:-0.0721044 
-195.8033364271567 1:-0.340603 2:-0.353088 3:-0.261712 4:-0.539795 5:-0.584327 6:-0.345874 7:-0.130678 8:-0.0522937 
-1024 1:-0.274408 2:-0.372857 3:-0.0231347 4:-0.0507334 5:-0.372148 6:0.347626 7:0.225406 8:0.127637 
-1024 1:-0.20725 2:-0.360354 3:0.136963 4:0.32898 5:-0.132608 6:0.796738 7:0.428853 8:0.251256 
-792.7781777770236 1:-0.150857 2:-0.337568 3:0.240478 4:0.457473 5:0.0733782 6:0.799527 7:0.428853 8:0.251256 
-712.3031121776612 1:-0.122939 2:-0.313011 3:0.258308 4:0.418488 5:0.196657 6:0.576825 7:0.152338 8:0.154964 
-1024 1:-0.0788499 2:-0.283371 3:0.309475 4:0.505814 5:0.310304 6:0.61018 7:0.338596 8:0.248941 
-1024 1:-0.0128931 2:-0.244709 3:0.400311 4:0.700011 5:0.456035 6:0.812138 7:0.544577 8:0.376486 
-1024 1:0.0680326 2:-0.164554 3:0.429419 4:0.732736 5:0.61939 6:0.680417 7:0.419929 8:0.354875 
-1024 1:0.251399 2:0.201754 3:0.0305465 4:-0.17859 5:0.15349 6:-0.527644 7:-0.201198 8:0.115445 
-1024 1:0.144958 2:0.168673 3:-0.189819 4:-0.548596 5:-0.255578 6:-0.75551 7:-0.318344 8:-0.00378027 
-1024 1:0.0926346 2:0.140847 3:-0.269039 4:-0.693289 5:-0.423198 6:-0.835479 7:-0.448037 8:-0.090376 
-835.1524075105364 1:0.0908008 2:0.118171 3:-0.217198 4:-0.55963 5:-0.486791 6:-0.500757 7:0.0537117 8:0.142486 
-1024 1:0.106499 2:0.0906437 3:-0.103137 4:-0.252478 5:-0.411568 6:0.00409854 7:0.150243 8:0.194365 
-571.0365881863894 1:0.0540276 2:0.0696727 3:-0.200033 4:-0.553406 5:-0.476795 6:-0.500643 7:-0.380898 8:-0.0943391 
-818.1736596991594 1:-0.0971109 2:-0.059707 3:-0.305532 4:-0.857557 5:-0.804008 6:-0.698757 7:-0.494529 8:-0.192337 
-1024 1:-0.134828 2:-0.0934171 3:-0.328279 4:-0.849951 5:-0.845261 6:-0.634766 7:-0.555817 8:-0.233935 
-1024 1:-0.0700381 2:-0.14459 3:-0.0146747 4:-0.0610851 5:-0.51875 6:0.502658 7:0.483505 8:0.34718 
-1024 1:0.0509277 2:-0.0861533 3:0.183308 4:0.302643 5:0.11355 6:0.451783 7:-0.0651378 8:0.0986907 
-1024 1:0.0373029 2:-0.0571535 3:0.0714562 4:0.153776 5:0.21075 6:0.0474792 7:-0.226679 8:-0.0217119 
-1024 1:0.00511397 2:-0.0596526 3:-0.0140727 4:-0.00211164 5:0.136705 6:-0.165914 7:-0.157913 8:0.0199325 
-1024 1:-0.00904804 2:-0.0648622 3:-0.0413586 4:-0.0592938 5:0.0667392 6:-0.193072 7:-0.0813139 8:0.063331 
-1024 1:-0.0186251 2:-0.0712007 3:-0.0527244 4:-0.0974153 5:0.00636121 6:-0.194776 7:-0.0813139 8:0.063331 
-547.9579251190029 1:0.0142994 2:-0.0688083 3:0.0351716 4:0.0641429 5:0.0243154 6:0.0965799 7:0.245092 8:0.241836 
-446.635754780528 1:0.892425 2:0.838804 3:0.255748 4:0.693864 5:0.707506 6:0.499928 7:0.654823 8:0.682892 
390.5660160896459 1:0.270097 2:0.49161 3:-0.645627 4:-0.894644 5:-0.82381 6:-0.746913 7:-0.466452 8:-0.129388 
41.4752614018226 1:0.149899 2:0.412178 3:-0.788575 4:-0.942154 5:-0.891681 6:-0.757848 7:-0.628289 8:-0.279588 
-283.0661895321358 1:0.142687 2:0.282548 3:-0.482895 4:-0.312659 5:-0.727421 6:0.264777 7:0.379994 8:0.349756 
891.1637687548925 1:0.205337 2:0.257494 3:-0.241132 4:0.0421795 5:-0.472786 6:0.6477 7:0.414491 8:0.377917 
1024 1:0.315551 2:0.2485 3:0.0958893 4:0.560428 5:0.277047 6:0.755638 7:0.410694 8:0.393103 
1024 1:0.39289 2:0.281336 3:0.23386 4:0.77896 5:0.548651 6:0.85439 7:0.569849 8:0.511507 
1024 1:0.417307 2:0.304574 3:0.245025 4:0.732531 5:0.626649 6:0.671351 7:0.343429 8:0.406399 
330.4677012377715 1:0.452497 2:0.33114 3:0.278541 4:0.783166 5:0.696891 6:0.685504 7:0.460303 8:0.473934 
1024 1:0.447226 2:0.351199 3:0.213021 4:0.612953 5:0.682394 6:0.373262 7:0.135182 8:0.316554 
347.7218576274198 1:0.233132 2:0.309029 3:-0.291548 4:-0.252074 5:0.223633 6:-0.753684 7:-0.381072 8:-0.0650455 
289.3195646436646 1:0.239071 2:0.286326 3:-0.217469 4:-0.113202 5:0.10527 6:-0.343459 7:0.128663 8:0.224051 
1024 1:0.164814 2:0.251331 3:-0.341213 4:-0.372569 5:-0.0670841 6:-0.6398 7:-0.209472 8:-0.0026669 
-146.5491025638545 1:-0.0974301 2:0.0798023 3:-0.65756 4:-0.832701 5:-0.588989 6:-0.90741 7:-0.432872 8:-0.175026 
235.3490571244027 1:0.193648 2:0.0183476 3:0.327409 4:0.509357 5:0.0485917 6:0.92958 7:0.510304 8:0.442486 
-193.222891948877 1:0.705755 2:0.444297 3:0.716166 4:0.715806 5:0.797801 6:0.434578 7:0.154695 8:0.375945 
1024 1:0.539682 2:0.591966 3:-0.129212 4:-0.186545 5:0.069252 6:-0.442449 7:-0.0732152 8:0.210361 
-171.1525700804781 1:0.865175 2:0.794227 3:0.290207 4:0.478115 5:0.56978 6:0.246684 7:0.0772765 8:0.342557 
980.7589627562465 1:0.769276 2:0.826143 3:-0.0636713 4:-0.210104 5:0.149253 6:-0.5836 7:-0.0280555 8:0.290815 
1024 1:0.655426 2:0.794395 3:-0.308526 4:-0.485795 5:-0.0785551 6:-0.845321 7:-0.408604 8:0.043086 
28.47671502328735 1:0.531073 2:0.740809 3:-0.528376 4:-0.708951 5:-0.310826 6:-1 7:-0.511142 8:-0.0442582 
558.6849025369024 1:0.467809 2:0.6836 3:-0.564852 4:-0.653752 5:-0.445786 6:-0.731957 7:-0.148023 8:0.109395 
902.301626136248 1:0.453128 2:0.634504 3:-0.483166 4:-0.446978 5:-0.461263 6:-0.313132 7:0.127036 8:0.244688 
825.9215261548194 1:0.457277 2:0.596168 3:-0.374847 4:-0.155151 5:-0.366441 6:0.138645 7:0.245157 8:0.307811 
935.8255131620567 1:0.398532 2:0.552184 3:-0.431717 4:-0.224561 5:-0.328233 6:-0.0413692 7:-0.142034 8:0.0983485 
1024 1:0.498742 2:0.513202 3:-0.0477595 4:0.346222 5:-0.0199283 6:0.695558 7:0.517966 8:0.500522 
1024 1:0.575596 2:0.525946 3:0.139391 4:0.531292 5:0.175094 6:0.82098 7:0.54491 8:0.521057 
124.4804236863591 1:0.630665 2:0.548625 3:0.239398 4:0.654673 5:0.34956 6:0.851511 7:0.54491 8:0.521057 
1024 1:0.601429 2:0.591092 3:0.0491226 4:0.39205 5:0.481718 6:0.185215 7:0.0037814 8:0.267759 
1024 1:0.462884 2:0.562709 3:-0.274645 4:-0.0524935 5:0.299198 6:-0.457511 7:-0.49687 8:-0.0788095 
1024 1:0.292277 2:0.501331 3:-0.606824 4:-0.420084 5:0.0450828 6:-0.865745 7:-0.624549 8:-0.209739 
1024 1:0.0414646 2:0.271635 3:-0.744166 4:-0.665763 5:-0.48084 6:-0.71335 7:-0.263211 8:-0.0555319 
810.2194377325195 1:0.0482441 2:0.213154 3:-0.577645 4:-0.517309 5:-0.509971 6:-0.391135 7:0.1122 8:0.148583 
1024 1:0.0350212 2:0.163373 3:-0.490073 4:-0.469825 5:-0.512284 6:-0.296437 7:-0.00164094 8:0.089879 
1024 1:-0.0325228 2:0.108237 3:-0.543976 4:-0.627077 5:-0.570481 6:-0.531398 7:-0.278558 8:-0.0687714 
1021.982317633006 1:-0.0836558 2:0.0525378 3:-0.549649 4:-0.678491 5:-0.627802 6:-0.562488 7:-0.278558 8:-0.0687714 
260.1930551484081 1:-0.043748 2:0.0170245 3:-0.346433 4:-0.214174 5:-0.498732 6:0.182353 7:0.229448 8:0.205088 
1024 1:-0.0105672 2:-0.00386481 3:-0.19921 4:0.0953713 5:-0.301162 6:0.545732 7:0.229448 8:0.205088 
1024 1:-0.0412355 2:-0.027528 3:-0.227136 4:-0.171929 5:-0.265752 6:-0.0140834 7:-0.13975 8:0.0221443 
1024 1:-0.0353665 2:-0.0678061 3:-0.109023 4:0.0296638 5:-0.191052 6:0.287018 7:0.244848 8:0.231811 
1024 1:-0.0837028 2:-0.0883075 3:-0.195304 4:-0.240664 5:-0.217109 6:-0.205253 7:-0.171491 8:-0.00592725 
1024 1:-0.0640671 2:-0.152398 3:0.0220104 4:-0.01204 5:-0.285378 6:0.31892 7:0.364443 8:0.289577 
1024 1:0.100927 2:-0.11413 3:0.396341 4:0.354775 5:-0.0654683 6:0.766503 7:0.660805 8:0.532937 
1024 1:0.21106 2:-0.0585506 3:0.570616 4:0.501768 5:0.134097 6:0.812776 7:0.522954 8:0.464893 
664.5049676780568 1:0.303024 2:0.0577976 3:0.540116 4:0.432958 5:0.348074 6:0.424018 7:0.0963791 8:0.258066 
173.6172164118967 1:0.243786 2:0.136249 3:0.173695 4:0.00187564 5:0.173614 6:-0.202271 7:-0.066457 8:0.163637 
1024 1:0.23569 2:0.147336 3:0.122698 4:-0.16387 5:0.0536687 6:-0.379936 7:0.0257011 8:0.199769 
1024 1:0.208676 2:0.150081 3:0.0387303 4:-0.400848 5:-0.111673 6:-0.641303 7:-0.142446 8:0.123596 
1024 1:0.186549 2:0.147262 3:-0.0172931 4:-0.558834 5:-0.27882 6:-0.747575 7:-0.142446 8:0.123596 
1024 1:0.207303 2:0.149712 3:0.0357424 4:-0.477185 5:-0.360835 6:-0.491549 7:0.281337 8:0.289528 
1024 1:0.203215 2:0.150744 3:0.0214841 4:-0.431251 5:-0.398963 6:-0.357083 7:0.0574535 8:0.199238 
1024 1:0.208813 2:0.152839 3:0.0321778 4:-0.138382 5:-0.318866 6:0.114298 7:0.160939 8:0.24225 
486.7234732166257 1:0.154854 2:0.137209 3:-0.0824019 4:-0.35163 5:-0.362451 6:-0.246529 7:-0.0976806 8:0.113926 
1024 1:0.0949153 2:0.0642298 3:-0.0697019 4:-0.226023 5:-0.387952 6:0.027116 7:0.356244 8:0.274023 
1024 1:0.0941248 2:0.0576307 3:-0.0553479 4:-0.161825 5:-0.319972 6:0.0702289 7:0.0359247 8:0.144055 
1024 1:0.08121 2:0.0398732 3:-0.0474956 4:-0.18398 5:-0.309503 6:0.0148319 7:0.188583 8:0.22053 
1024 1:0.0751973 2:0.033855 3:-0.0495001 4:-0.227283 5:-0.291256 6:-0.0907987 7:-0.0189275 8:0.111174 
1024 1:0.0516448 2:0.0237016 3:-0.0911296 4:-0.370412 5:-0.330657 6:-0.320862 7:-0.194676 8:0.01057 
1024 1:0.0146186 2:0.00718592 3:-0.15518 4:-0.55724 5:-0.424235 6:-0.570833 7:-0.342014 8:-0.0817995 
1024 1:-0.0325417 2:-0.0167168 3:-0.229547 4:-0.756581 5:-0.55844 6:-0.796515 7:-0.464484 8:-0.166454 
1024 1:-0.106505 2:-0.0526047 3:-0.350204 4:-0.801488 5:-0.664088 6:-0.757294 7:-0.63454 8:-0.308192 
1024 1:-0.343034 2:-0.260899 3:-0.50067 4:-0.891485 5:-0.925806 6:-0.618992 7:-0.426361 8:-0.286657 
635.6601341772155 1:-0.280364 2:-0.28736 3:-0.255304 4:-0.465237 5:-0.787854 6:0.0415355 7:0.344827 8:0.195903 
682.2483016533839 1:-0.207252 2:-0.291956 3:-0.0351855 4:0.0526442 5:-0.509304 6:0.711572 7:0.448468 8:0.283217 
9.67803942423475 1:-0.146141 2:-0.275003 3:0.0964653 4:0.28292 5:0.0348241 6:0.507612 7:0.0806142 8:0.104894 
1024 1:-0.137011 2:-0.266149 3:0.100224 4:0.263766 5:0.115211 6:0.374527 7:-0.0208256 8:0.0568993 
1024 1:-0.126882 2:-0.256769 3:0.105513 4:0.250996 5:0.164201 6:0.291298 7:-0.0208256 8:0.0568993 
1024 1:-0.0675836 2:-0.235824 3:0.221946 4:0.462142 5:0.272933 6:0.570256 7:0.457011 8:0.32989 
1024 1:-0.00923926 2:-0.205843 3:0.312916 4:0.670897 5:0.420632 6:0.798048 7:0.519336 8:0.375581 
535.235658222043 1:0.067093 2:-0.164555 3:0.42674 4:0.747742 5:0.546783 6:0.79618 7:0.674897 8:0.502119 
1024 1:0.117848 2:-0.120019 3:0.459433 4:0.688707 5:0.609615 6:0.606845 7:0.508912 8:0.433053 
844.901101673224 1:0.0121851 2:-0.108343 3:0.12864 4:0.0740501 5:0.430054 6:-0.368776 7:-0.472066 8:-0.188681 
1024 1:-0.0305226 2:-0.108682 3:0.00767057 4:-0.169523 5:0.222592 6:-0.592612 7:-0.19054 8:-0.0136438 
144.4235283224865 1:-0.0525198 2:-0.11394 3:-0.0418437 4:-0.290356 5:0.0407502 6:-0.609403 7:-0.122045 8:0.028118 
1024 1:-0.158184 2:-0.288363 3:0.0957383 4:0.273889 5:0.00755332 6:0.522693 7:0.263613 8:0.21267 
-434.0800147752997 1:-0.316091 2:-0.331537 3:-0.246033 4:-0.780978 5:-0.478309 6:-0.939443 7:-0.412329 8:-0.188702 
-79.52226426539976 1:-0.716744 2:-0.634808 3:-0.62562 4:-0.832604 5:-0.790884 6:-0.666116 7:-0.685714 8:-0.416918 
97.94656816206522 1:-0.752737 2:-0.777619 3:-0.368864 4:-0.674301 5:-0.78777 6:-0.363341 7:-0.188595 8:-0.172853 
-136.2029125701988 1:-0.538158 2:-0.866528 3:0.466988 4:0.533397 5:0.342311 6:0.625364 7:0.107506 8:0.128693 
-22.29677032038574 1:-0.432096 2:-0.690056 3:0.325386 4:-0.145893 5:0.205896 6:-0.526922 7:-0.11458 8:0.0257846 
-144.0436899300414 1:0.0634417 2:-0.289867 3:0.731712 4:0.667765 5:0.491111 6:0.707817 7:0.449085 8:0.390148 
-634.7794562812353 1:0.152031 2:-0.212521 3:0.789748 4:0.807979 5:0.615471 6:0.830776 7:0.483364 8:0.411534 
-1024 1:0.0963964 2:-0.0225615 3:0.15296 4:-0.17333 5:0.111192 6:-0.466947 7:-0.0235488 8:0.151634 
-272.6298360393489 1:0.147553 2:0.000308565 3:0.241324 4:0.0869867 5:0.102433 6:0.0475194 7:0.306648 8:0.316909 
-650.6739053498089 1:0.255267 2:0.043021 3:0.441081 4:0.38143 5:0.202676 6:0.497889 7:0.545953 8:0.473512 
-583.4603493837002 1:0.404806 2:0.186873 3:0.505593 4:0.560253 5:0.461469 6:0.535059 7:0.421636 8:0.422914 
-1024 1:0.476448 2:0.242409 3:0.570178 4:0.702309 5:0.55764 6:0.69525 7:0.58732 8:0.519944 
-197.8837163717551 1:0.790108 2:0.765759 3:0.147726 4:0.399339 5:0.384863 6:0.314993 7:0.41753 8:0.517981 
570.3003164100162 1:0.660046 2:0.661276 3:0.0396862 4:0.323235 5:-0.00212766 6:0.629795 7:0.756622 8:0.703891 
-461.3586613953269 1:0.661315 2:0.671373 3:0.0178954 4:0.263587 5:0.187941 6:0.287325 7:0.0588077 8:0.294374 
-707.7382572124989 1:0.622588 2:0.665195 3:-0.0770231 4:0.167827 5:0.218385 6:0.0655657 7:-0.0315579 8:0.223097 
1024 1:0.399822 2:0.561927 3:-0.452558 4:-0.523173 5:-0.197073 6:-0.776156 7:-0.304747 8:0.0079843 
41.15935124247919 1:0.407808 2:0.356152 3:0.0881153 4:0.775251 5:0.50433 6:0.900139 7:0.440474 8:0.417837 
132.2097775159703 1:0.334493 2:0.343379 3:-0.0888692 4:0.215034 5:0.397294 6:-0.0566917 7:-0.0832994 8:0.148904 
1024 1:0.373542 2:0.344288 3:0.0202316 4:0.452737 5:0.42494 6:0.370517 7:0.348518 8:0.376419 
1024 1:0.401295 2:0.351305 3:0.0817336 4:0.524397 5:0.469189 6:0.456419 7:0.348518 8:0.376419 
1024 1:0.392272 2:0.362736 3:0.0272279 4:0.417047 5:0.491152 6:0.222347 7:-0.0397609 8:0.198211 
1024 1:0.425787 2:0.371615 3:0.100481 4:0.552847 5:0.52358 6:0.446546 7:0.362836 8:0.402283 
1024 1:0.429208 2:0.379495 3:0.0904089 4:0.555392 5:0.546115 6:0.424563 7:0.189127 8:0.315789 
1024 1:0.365265 2:0.369166 3:-0.0659927 4:0.308924 5:0.440498 6:0.0734979 7:-0.0134925 8:0.195758 
1024 1:0.314342 2:0.351498 3:-0.166782 4:-0.0544901 5:0.270999 6:-0.427701 7:-0.219103 8:0.0792035 
1024 1:0.262579 2:0.32563 3:-0.249333 4:-0.261152 5:0.0835431 6:-0.603964 7:-0.2815 8:0.0416004 
484.5901842276283 1:0.201046 2:0.290987 3:-0.337666 4:-0.505769 5:-0.129558 6:-0.823085 7:-0.40113 8:-0.0332543 
1005.206133068786 1:0.258662 2:0.276334 3:-0.136436 4:-0.0812186 5:-0.118668 6:-0.0141061 7:0.404642 8:0.388245 
1024 1:0.331371 2:0.281092 3:0.0589893 4:0.308656 5:0.0290558 6:0.564328 7:0.513007 8:0.469483 
359.8491824884343 1:0.304272 2:0.271437 3:0.00598928 4:0.254737 5:0.193943 6:0.263024 7:0.286513 8:0.317606 
1024 1:0.323195 2:0.275321 3:0.0501911 4:0.28333 5:0.228339 6:0.277307 7:0.367511 8:0.357659 
1024 1:0.306653 2:0.274679 3:0.00462091 4:0.0530956 5:0.168321 6:-0.0967817 7:-0.00144793 8:0.201925 
191.644885973286 1:0.301313 2:0.272955 3:-0.00627081 4:-0.0172953 5:0.102948 6:-0.154999 7:0.110727 8:0.248631 
313.4262274710111 1:-0.221922 2:-0.329181 3:0.016658 4:0.362956 5:-0.15847 6:0.893406 7:0.392012 8:0.247122 
1024 1:-0.0658926 2:-0.280805 3:0.339978 4:0.669374 5:0.391983 6:0.829314 7:0.442401 8:0.354509 
1024 1:-0.0377729 2:-0.248295 3:0.338369 4:0.612238 5:0.478864 6:0.614936 7:0.131104 8:0.198438 
370.234369967116 1:0.0249044 2:-0.20808 3:0.415942 4:0.713431 5:0.573243 6:0.698149 7:0.338774 8:0.328908 
566.3081343210956 1:0.375519 2:0.0944523 3:0.654657 4:0.817511 5:0.879882 6:0.53347 7:0.304538 8:0.406864 
287.9333554160403 1:0.670965 2:0.384999 3:0.766169 4:0.889493 5:0.934218 6:0.607947 7:0.614474 8:0.629589 
1024 1:0.869768 2:0.73925 3:0.441676 4:0.560381 5:0.826959 6:0.0988342 7:0.0540278 8:0.414595 
985.9305038138617 1:0.852508 2:0.79901 3:0.242038 4:0.384813 5:0.643775 6:-0.0223272 7:0.12186 8:0.41323 
434.4134683496622 1:0.966519 2:0.95073 3:0.185405 4:0.774181 5:0.74479 6:0.610907 7:0.7497 8:0.781089 
14.13076417722167 1:1 2:0.972171 3:0.226945 4:0.878923 5:0.81015 6:0.735646 7:0.77993 8:0.803492 
105.7133070665421 1:0.91463 2:0.992236 3:-0.0670722 4:0.663654 5:0.801122 6:0.32964 7:0.104618 8:0.453987 
966.8726344489623 1:0.865173 2:0.965707 3:-0.141378 4:0.567232 5:0.718827 6:0.241231 7:0.301033 8:0.532105 
