svm_type epsilon_svr
kernel_type rbf
gamma 0.25
nr_class 2
total_sv 233
rho -22.3812
SV
-54.23328141088241 1:-0.243815 2:-0.233324 3:-0.159554 4:0.265622 5:0.0983499 6:0.435322 7:-1 8:-1 
91.67837660261928 1:-0.200975 2:-0.206664 3:-0.108371 4:0.680909 5:0.590226 6:0.688244 7:0.782341 8:0.816907 
-250.5415422399092 1:-0.227153 2:-0.198823 3:-0.194783 4:0.253657 5:0.504158 6:-0.0881853 7:-0.0844857 8:0.0943901 
-512 1:-0.235255 2:-0.204356 3:-0.203339 4:0.121703 5:0.386112 6:-0.215556 7:-0.024473 8:0.127973 
-512 1:-0.249883 2:-0.212215 3:-0.223658 4:-0.123631 5:0.215828 6:-0.512833 7:-0.225144 8:-0.0187973 
-512 1:-0.262754 2:-0.221406 3:-0.236337 4:-0.428816 5:-0.0116239 6:-0.863425 7:-0.271945 8:-0.0530248 
-512 1:-0.269755 2:-0.230216 3:-0.234529 4:-0.578768 5:-0.219238 6:-0.917867 7:-0.177448 8:-0.0102923 
-25.77120378225125 1:-0.253481 2:-0.233182 3:-0.185169 4:-0.433247 5:-0.303322 6:-0.514033 7:0.374839 8:0.289301 
-512 1:-0.243493 2:-0.233135 3:-0.159144 4:-0.36351 5:-0.333345 6:-0.333133 7:0.295446 8:0.247451 
-512 1:-0.238381 2:-0.231893 3:-0.148605 4:-0.266362 5:-0.317093 6:-0.152511 7:0.208231 8:0.204028 
-512 1:-0.247113 2:-0.232958 3:-0.169019 4:-0.306806 5:-0.321357 6:-0.230782 7:-0.149599 8:0.00891529 
-512 1:-0.26656 2:-0.238338 3:-0.207611 4:-0.533229 5:-0.408726 6:-0.590924 7:-0.37936 8:-0.145027 
-512 1:-0.268205 2:-0.242989 3:-0.201291 4:-0.322519 5:-0.388311 6:-0.18093 7:-0.0124015 8:0.034324 
-512 1:-0.250653 2:-0.242618 3:-0.156212 4:-0.00418215 5:-0.255862 6:0.313593 7:0.32055 8:0.228979 
-512 1:-0.247754 2:-0.241652 3:-0.150833 4:0.0873105 5:-0.133407 6:0.351997 7:0.0834159 8:0.100421 
-512 1:-0.24274 2:-0.239726 3:-0.142113 4:0.178489 5:-0.0177327 6:0.398086 7:0.136059 8:0.128426 
-512 1:-0.230588 2:-0.23539 3:-0.120224 4:0.329823 5:0.115879 6:0.546343 7:0.291923 8:0.211336 
-512 1:-0.22968 2:-0.231722 3:-0.126229 4:0.340164 5:0.208814 6:0.453464 7:0.0697508 8:0.105654 
-512 1:-0.243251 2:-0.231914 3:-0.161299 4:0.196142 5:0.217005 6:0.14601 7:-0.212417 8:-0.0481336 
-512 1:-0.256672 2:-0.235151 3:-0.189022 4:0.0699448 5:0.175355 6:-0.063376 7:-0.26114 8:-0.076673 
-512 1:-0.272735 2:-0.241425 3:-0.216718 4:-0.0745528 5:0.0936449 6:-0.261311 7:-0.360104 8:-0.134349 
-512 1:-0.287826 2:-0.249902 3:-0.236837 4:-0.383507 5:-0.0761652 6:-0.690538 7:-0.409535 8:-0.163383 
-512 1:-0.293235 2:-0.257918 3:-0.232674 4:-0.500427 5:-0.23302 6:-0.739164 7:-0.169384 8:-0.0762914 
-512 1:-0.258548 2:-0.256372 3:-0.145446 4:-0.0151937 5:-0.156445 6:0.168657 7:0.537018 8:0.313705 
-512 1:-0.210499 2:-0.244119 3:-0.0477164 4:0.292699 5:0.00954522 6:0.600388 7:0.685587 8:0.443286 
-512 1:-0.12851 2:-0.215526 3:0.101487 4:0.556879 5:0.218827 6:0.888644 7:0.850954 8:0.627468 
-512 1:-0.0176512 2:-0.167252 3:0.281261 4:0.732998 5:0.424096 6:1 7:0.931758 8:0.744451 
-240.6452233800977 1:0.105717 2:-0.100371 3:0.451259 4:0.818849 5:0.592992 6:0.969671 7:0.97004 8:0.808845 
-512 1:0.236315 2:0.0416627 3:0.468473 4:0.786136 5:0.77272 6:0.681209 7:0.581642 8:0.590672 
-512 1:0.274592 2:0.105424 3:0.422952 4:0.782109 5:0.811692 6:0.624992 7:0.625306 8:0.615257 
-377.0125657446533 1:0.472268 2:0.403347 3:0.259526 4:0.503721 5:0.705309 6:0.180919 7:0.462962 8:0.50477 
-512 1:0.456638 2:0.468283 3:0.0702708 4:0.330585 5:0.567414 6:-0.00708849 7:0.10233 8:0.303276 
-512 1:0.397486 2:0.474853 3:-0.0995121 4:0.0465243 5:0.400217 6:-0.388127 7:-0.122893 8:0.160688 
-512 1:0.359585 2:0.471428 3:-0.190856 4:-0.104353 5:0.232429 6:-0.493429 7:0.0258478 8:0.219619 
-512 1:0.297733 2:0.45452 3:-0.314067 4:-0.444289 5:-0.00633324 6:-0.901877 7:-0.178343 8:0.0963191 
-512 1:0.227276 2:0.424855 3:-0.430645 4:-0.602404 5:-0.224534 6:-0.960162 7:-0.288919 8:0.0243997 
-512 1:0.125501 2:0.377811 3:-0.589464 4:-0.711721 5:-0.410811 6:-0.956924 7:-0.505293 8:-0.138808 
-512 1:0.0447418 2:0.321678 3:-0.672529 4:-0.771678 5:-0.557379 6:-0.900574 7:-0.460394 8:-0.12227 
-512 1:-0.02499 2:0.260799 3:-0.715897 4:-0.801795 5:-0.666333 6:-0.828839 7:-0.47891 8:-0.135179 
-512 1:-0.0375329 2:0.209223 3:-0.630883 4:-0.617443 5:-0.670149 6:-0.443487 7:0.103793 8:0.0933443 
-512 1:-0.0656546 2:0.161522 3:-0.595482 4:-0.476258 5:-0.619986 6:-0.213617 7:-0.0545653 8:0.0181224 
-512 1:-0.0929091 2:0.117118 3:-0.565346 4:-0.401515 5:-0.558642 6:-0.134684 7:-0.0873008 8:0.00279091 
-512 1:-0.138348 2:0.0711865 3:-0.579302 4:-0.487351 5:-0.549789 6:-0.322806 7:-0.299523 8:-0.102345 
-512 1:-0.120772 2:0.0384676 3:-0.458561 4:-0.0420621 5:-0.377655 6:0.385078 7:0.268891 8:0.161083 
-512 1:-0.0956023 2:0.0180577 3:-0.346073 4:0.190503 5:-0.17608 6:0.617526 7:0.356261 8:0.21184 
-512 1:-0.0839861 2:0.00439055 3:-0.284454 4:0.304631 5:0.000909905 6:0.635639 7:0.270132 8:0.17622 
-512 1:-0.0831244 2:-0.00634579 3:-0.25767 4:0.339802 5:0.132033 6:0.547093 7:0.176722 8:0.13902 
-512 1:-0.0971201 2:-0.0181406 3:-0.267343 4:0.20735 5:0.170002 6:0.226927 7:-0.00602752 8:0.0642256 
-512 1:-0.116181 2:-0.0319424 3:-0.285684 4:0.052839 5:0.137633 6:-0.0523319 7:-0.0939712 8:0.0267681 
-512 1:-0.126142 2:-0.0452655 3:-0.28131 4:0.00243647 5:0.0972384 6:-0.106755 7:0.0223545 8:0.0668673 
-512 1:-0.109566 2:-0.0521272 3:-0.222261 4:0.179254 5:0.136317 6:0.210316 7:0.37198 8:0.213801 
-512 1:-0.123848 2:-0.0608879 3:-0.239616 4:0.0721005 5:0.122367 6:0.00620484 7:-0.0307497 8:0.0470816 
-512 1:-0.152499 2:-0.074459 3:-0.283577 4:-0.291583 5:-0.0227005 6:-0.566444 7:-0.21156 8:-0.0440963 
-512 1:-0.172766 2:-0.0899581 3:-0.301196 4:-0.491586 5:-0.194076 6:-0.768776 7:-0.15427 8:-0.0225252 
-512 1:-0.173346 2:-0.10249 3:-0.274081 4:-0.399194 5:-0.273835 6:-0.479962 7:0.113316 8:0.0838234 
-512 1:-0.187496 2:-0.115757 3:-0.280794 4:-0.510885 5:-0.368704 6:-0.593981 7:-0.0858182 8:-0.00090167 
-512 1:-0.208895 2:-0.131272 3:-0.30134 4:-0.674395 5:-0.49299 6:-0.778842 7:-0.2171 8:-0.0620061 
-512 1:-0.238959 2:-0.15057 3:-0.335914 4:-0.790841 5:-0.619318 6:-0.86401 7:-0.368295 8:-0.139934 
-512 1:-0.265794 2:-0.172155 3:-0.356814 4:-0.840576 5:-0.722104 6:-0.840366 7:-0.404249 8:-0.159334 
-189.3554437953512 1:-0.320984 2:-0.220277 3:-0.391279 4:-0.93792 5:-0.887448 6:-0.838136 7:-0.582476 8:-0.260274 
-20.77075717607629 1:-0.475261 2:-0.306502 3:-0.597956 4:-0.975923 5:-1 6:-0.778264 7:-0.851486 8:-0.541716 
-512 1:-0.49327 2:-0.349005 3:-0.547971 4:-0.75753 5:-0.944889 6:-0.39505 7:-0.19305 8:-0.215037 
-512 1:-0.561178 2:-0.433747 3:-0.532046 4:-0.734318 5:-0.878583 6:-0.428621 7:-0.313848 8:-0.289684 
-512 1:-0.528144 2:-0.458789 3:-0.3884 4:-0.393745 5:-0.728139 6:0.089697 7:0.194349 8:0.0122423 
-461.9545200013496 1:-0.511952 2:-0.475113 3:-0.308738 4:-0.248527 5:-0.573631 6:0.19964 7:0.06444 8:-0.0493025 
-512 1:-0.509143 2:-0.487529 3:-0.27302 4:-0.195186 5:-0.450713 6:0.158696 7:-0.0629619 8:-0.109464 
-512 1:-0.49745 2:-0.494783 3:-0.225851 4:-0.0577042 5:-0.317444 6:0.27877 7:0.016181 8:-0.0686519 
-512 1:-0.492607 2:-0.501912 3:-0.196893 4:-0.0708267 5:-0.138101 6:0.0312346 7:-0.233792 8:-0.172713 
-512 1:-0.511593 2:-0.50953 3:-0.229167 4:-0.385115 5:-0.231263 6:-0.503219 7:-0.390079 8:-0.250276 
-512 1:-0.491066 2:-0.510922 3:-0.172276 4:-0.196279 5:-0.222875 6:-0.123607 7:0.104425 8:-0.0187994 
-512 1:-0.478636 2:-0.509188 3:-0.143713 4:-0.13734 5:-0.195281 6:-0.0358232 7:0.0184381 8:-0.0550078 
-512 1:-0.472692 2:-0.50644 3:-0.13444 4:-0.164998 5:-0.18721 6:-0.102855 7:-0.0718868 8:-0.0922286 
-512 1:-0.471898 2:-0.50406 3:-0.1378 4:-0.21339 5:-0.199895 6:-0.187185 7:-0.164511 8:-0.13029 
-512 1:-0.420136 2:-0.490299 3:-0.0338023 4:0.219486 5:-0.0467526 6:0.518411 7:0.434221 8:0.186259 
-466.1307803688259 1:-0.133395 2:-0.348183 3:0.391779 4:0.662137 5:0.468882 6:0.798633 7:0.79581 8:0.515943 
-512 1:-0.062842 2:-0.283759 3:0.429198 4:0.712727 5:0.583232 6:0.762541 7:0.79581 8:0.515943 
-512 1:-0.0193389 2:-0.222255 3:0.402509 4:0.697942 5:0.653946 6:0.645093 7:0.591573 8:0.435842 
-512 1:0.0121862 2:-0.165831 3:0.356086 4:0.688084 5:0.697408 6:0.571316 7:0.591573 8:0.435842 
-512 1:0.027493 2:-0.117186 3:0.284999 4:0.653722 5:0.713555 6:0.480515 7:0.422993 8:0.376002 
-253.4008323379387 1:0.0946655 2:-0.062884 3:0.336696 4:0.79756 5:0.778017 6:0.698289 7:0.777041 8:0.586688 
280.9501509419955 1:0.354225 2:0.0949719 3:0.655195 4:0.957381 5:0.93317 6:0.837592 7:0.964463 8:0.806399 
512 1:0.610526 2:0.315294 3:0.822455 4:0.738075 5:0.946773 6:0.368033 7:0.502268 8:0.55958 
-162.3115355023791 1:0.888274 2:0.555676 3:1 4:0.841245 5:0.921462 6:0.612177 7:0.769489 8:0.73369 
88.20379557667722 1:0.965891 2:0.922866 3:0.364183 4:0.404756 5:0.688468 6:-0.00272946 7:0.182495 8:0.380675 
259.5664283549755 1:0.912931 2:0.99122 3:0.0694423 4:0.139323 5:0.436715 6:-0.24137 7:0.169228 8:0.356873 
106.4072354949828 1:0.693938 2:0.963188 3:-0.439518 4:-0.546892 5:-0.124307 6:-0.968732 7:-0.327492 8:0.082013 
57.8201063206917 1:0.543007 2:0.870001 3:-0.621533 4:-0.67632 5:-0.45728 6:-0.826709 7:-0.128352 8:0.147099 
191.6605626786085 1:0.531043 2:0.796165 3:-0.484147 4:-0.0824968 5:-0.288223 6:0.191661 7:0.238781 8:0.281168 
512 1:0.0955216 2:0.400587 3:-0.719944 4:-0.593047 5:-0.365859 6:-0.767132 7:-0.403005 8:-0.0688852 
315.031189993018 1:-0.0340074 2:0.321862 3:-0.879 4:-0.770085 5:-0.526816 6:-0.934851 7:-0.719997 8:-0.328123 
44.10720387816644 1:-0.279267 2:0.0560869 3:-0.913525 4:-0.710941 5:-0.755565 6:-0.531558 7:-0.208787 8:-0.153418 
512 1:-0.42612 2:-0.33281 3:-0.409271 4:-0.337659 5:-0.398993 6:-0.199062 7:-0.148225 8:-0.137913 
512 1:-0.431989 2:-0.373654 3:-0.33131 4:-0.472266 5:-0.440307 6:-0.426226 7:-0.137383 8:-0.129053 
512 1:-0.443509 2:-0.391328 3:-0.321074 4:-0.549285 5:-0.49402 6:-0.519239 7:-0.257114 8:-0.178553 
512 1:-0.447021 2:-0.406272 3:-0.296121 4:-0.556793 5:-0.532632 6:-0.487284 7:-0.184331 8:-0.152355 
512 1:-0.440979 2:-0.416843 3:-0.25616 4:-0.488153 5:-0.532749 6:-0.345406 7:-0.0330061 8:-0.0978347 
512 1:-0.459909 2:-0.429636 3:-0.276464 4:-0.66668 5:-0.599473 6:-0.632026 7:-0.396088 8:-0.244857 
109.9485050045369 1:-0.498189 2:-0.448639 3:-0.333211 4:-0.75013 5:-0.675109 6:-0.711371 7:-0.588992 8:-0.360631 
316.4247889913036 1:-0.828292 2:-0.719653 3:-0.57776 4:-0.944226 5:-0.956558 6:-0.766211 7:-0.802087 8:-0.613932 
-211.1612063893429 1:-0.565352 2:-0.733474 3:0.141809 4:0.501317 5:0.275331 6:0.704463 7:0.366219 8:0.0705798 
512 1:-0.143694 2:-0.353918 3:0.377937 4:0.624803 5:0.551708 6:0.619736 7:0.646435 8:0.484513 
-181.6227095531762 1:-0.08869 2:-0.247806 3:0.279425 4:0.512367 5:0.608854 6:0.31733 7:0.101849 8:0.184887 
-90.80895311733968 1:-0.0388372 2:-0.120907 3:0.119944 4:0.262181 5:0.355222 6:0.112482 7:0.493679 8:0.375999 
-512 1:-0.0156549 2:-0.0194512 3:-0.0511919 4:0.165333 5:0.0195324 6:0.325118 7:0.563092 8:0.387592 
-512 1:0.00902855 2:-0.00431135 3:-0.0211961 4:0.339782 5:0.14444 6:0.5318 7:0.587369 8:0.402322 
-512 1:0.0352028 2:0.0137958 3:0.00592123 4:0.424608 5:0.259379 6:0.565678 7:0.660972 8:0.447264 
-171.0672522387071 1:0.0298575 2:0.0270572 3:-0.0383629 4:0.366597 5:0.314348 6:0.378328 7:0.152652 8:0.238153 
-512 1:0.0322677 2:0.0382183 3:-0.0575563 4:0.377021 5:0.354886 6:0.350025 7:0.282451 8:0.293133 
-512 1:-0.294445 2:-0.103449 3:-0.588752 4:-0.688555 5:-0.523492 6:-0.770588 7:-0.683471 8:-0.360885 
-512 1:-0.374944 2:-0.159459 3:-0.671415 4:-0.756234 5:-0.626734 6:-0.783437 7:-0.77702 8:-0.462716 
-512 1:-0.423563 2:-0.215403 3:-0.670814 4:-0.739921 5:-0.689472 6:-0.672637 7:-0.515937 8:-0.349294 
512 1:-0.40978 2:-0.45969 3:-0.0766347 4:0.134962 5:0.123008 6:0.135217 7:-0.164793 8:-0.106445 
112.0914105477144 1:-0.428191 2:-0.423115 3:-0.208372 4:-0.81057 5:-0.760229 6:-0.731547 7:-0.166829 8:-0.133186 
-234.6442810848387 1:-0.334868 2:-0.398076 3:-0.0213924 4:0.109129 5:-0.340035 6:0.651026 7:0.550967 8:0.236973 
512 1:-0.112881 2:-0.125352 3:-0.0636385 4:-0.160729 5:0.139154 6:-0.495191 7:-0.0391856 8:0.152553 
-65.57718256328886 1:0.0498232 2:-0.00416337 3:0.0852067 4:0.485345 5:0.378388 6:0.544812 7:0.454405 8:0.430823 
-120.0568727635825 1:-0.0855846 2:0.0294827 3:-0.345964 4:-0.543552 5:-0.373817 6:-0.655151 7:-0.631767 8:-0.235534 
206.02544553517 1:-0.257152 2:-0.265127 3:-0.12179 4:0.450938 5:0.40178 6:0.445014 7:0.0279029 8:0.0361551 
5.909851939900435 1:-0.269214 2:-0.264584 3:-0.154592 4:0.136324 5:0.323318 6:-0.108181 7:-0.205278 8:-0.0830379 
512 1:-0.237155 2:-0.258665 3:-0.0842316 4:0.00995936 5:0.0105921 6:0.0152803 7:0.559146 8:0.329291 
504.9047546917435 1:-0.226668 2:-0.249669 3:-0.0773438 4:-0.0366709 5:-0.00205499 6:-0.0654597 7:0.168421 8:0.135442 
512 1:-0.165818 2:-0.20562 3:-0.018766 4:0.0552363 5:-0.16537 6:0.325056 7:0.710793 8:0.454436 
252.000591770582 1:-0.118031 2:-0.18235 3:0.0531068 4:0.220802 5:-0.023245 6:0.492234 7:0.777658 8:0.519274 
454.2331117746511 1:-0.0982187 2:-0.159195 3:0.0520462 4:0.204203 5:0.0653084 6:0.349113 7:0.380682 8:0.331301 
389.2336449117175 1:0.0498883 2:-0.0641768 3:0.222488 4:0.608646 5:0.430957 6:0.734797 7:0.852245 8:0.685381 
512 1:0.0952241 2:-0.0203486 3:0.240978 4:0.595146 5:0.514054 6:0.604781 7:0.577096 8:0.531015 
512 1:0.133358 2:0.0234486 3:0.240694 4:0.607869 5:0.574202 6:0.557122 7:0.611463 8:0.552967 
105.0052089288835 1:-0.0734628 2:0.00722752 3:-0.263401 4:-0.0296916 5:-0.292254 6:0.305651 7:0.415572 8:0.281303 
512 1:0.0758144 2:0.0324796 3:0.0694969 4:0.622992 5:0.387201 6:0.818203 7:0.850341 8:0.659947 
512 1:0.101739 2:0.0584689 3:0.0779539 4:0.545224 5:0.466246 6:0.560461 7:0.446236 8:0.438558 
512 1:0.114874 2:0.0822689 3:0.0579464 4:0.45469 5:0.485146 6:0.35029 7:0.391952 8:0.408735 
512 1:0.137272 2:0.106439 3:0.0613302 4:0.456741 5:0.498512 6:0.338097 7:0.521583 8:0.479324 
512 1:0.137522 2:0.125833 3:0.0176756 4:0.353242 5:0.468784 6:0.160924 7:0.278622 8:0.354937 
512 1:0.117177 2:0.136687 3:-0.060357 4:0.192184 5:0.388841 6:-0.0733758 7:0.0233117 8:0.21325 
512 1:0.103601 2:0.142261 3:-0.108614 4:0.112194 5:0.305684 6:-0.136333 7:0.118703 8:0.252286 
512 1:0.0922446 2:0.14412 3:-0.142574 4:0.024987 5:0.217691 6:-0.208245 7:0.17 8:0.272511 
28.24739855028184 1:0.0276943 2:0.130821 3:-0.281089 4:-0.337605 5:0.023668 6:-0.718466 7:-0.435811 8:-0.108932 
512 1:-0.17063 2:-0.0854304 3:-0.305951 4:0.0631468 5:-0.153696 6:0.32704 7:0.342581 8:0.192922 
187.6195817765284 1:-0.130454 2:-0.0890435 3:-0.192573 4:0.349956 5:0.0327529 6:0.690089 7:0.503388 8:0.297761 
512 1:-0.139136 2:-0.0939226 3:-0.204143 4:0.325611 5:0.147964 6:0.498209 7:0.0220061 8:0.0619506 
512 1:-0.121535 2:-0.093634 3:-0.158749 4:0.357216 5:0.313056 6:0.360546 7:0.0989509 8:0.110953 
512 1:-0.155566 2:-0.101358 3:-0.230144 4:0.0475405 5:0.231025 6:-0.178065 7:-0.194039 8:-0.0518862 
512 1:-0.189711 2:-0.115359 3:-0.2875 4:-0.31234 5:0.0419889 6:-0.688817 7:-0.244402 8:-0.0817945 
270.9107849201715 1:-0.242991 2:-0.138763 3:-0.373439 4:-0.431877 5:-0.12866 6:-0.725892 7:-0.424278 8:-0.194698 
512 1:-0.267382 2:-0.183922 3:-0.334085 4:-0.28144 5:-0.267843 6:-0.244181 7:0.123705 8:0.0552095 
512 1:-0.283796 2:-0.20296 3:-0.333537 4:-0.297974 5:-0.285226 6:-0.256955 7:-0.106793 8:-0.0569451 
512 1:-0.254094 2:-0.211388 3:-0.236568 4:0.0114711 5:-0.181295 6:0.254261 7:0.274153 8:0.149757 
512 1:-0.198317 2:-0.205353 3:-0.10441 4:0.20062 5:-0.0413961 6:0.47287 7:0.463546 8:0.275341 
512 1:-0.138941 2:-0.186926 3:0.00884932 4:0.390283 5:0.122674 6:0.662832 7:0.542249 8:0.331646 
512 1:-0.0126429 2:-0.143255 3:0.23954 4:0.621935 5:0.318532 6:0.900422 7:0.779565 8:0.542243 
512 1:0.132258 2:-0.0751284 3:0.463033 4:0.703532 5:0.479566 6:0.870974 7:0.853427 8:0.627946 
512 1:0.231782 2:0.0021691 3:0.546843 4:0.731468 5:0.597351 6:0.783884 7:0.744105 8:0.573459 
512 1:0.268709 2:0.0724652 3:0.482859 4:0.637657 5:0.640854 6:0.536706 7:0.372943 8:0.38465 
512 1:0.177731 2:0.204001 3:-0.0557041 4:-0.0993416 5:0.264736 6:-0.522793 7:-0.148768 8:0.0596456 
85.76375796469503 1:0.1725 2:0.220128 3:-0.106235 4:-0.20328 5:0.0160245 6:-0.431707 7:0.119215 8:0.183991 
512 1:0.0682633 2:0.19872 3:-0.330065 4:-0.512644 5:-0.255615 6:-0.736617 7:-0.286653 8:-0.0464187 
351.1828558459722 1:-0.0161818 2:0.142136 3:-0.421744 4:-0.206672 5:-0.286641 6:-0.0666884 7:-0.0445052 8:0.047688 
512 1:-0.0826881 2:0.10395 3:-0.508519 4:-0.289849 5:-0.294725 6:-0.228502 7:-0.329587 8:-0.106843 
512 1:-0.138297 2:-0.0454784 3:-0.312627 4:0.049873 5:-0.248529 6:0.416196 7:0.441856 8:0.279063 
512 1:-0.112376 2:-0.0529411 3:-0.227754 4:0.163946 5:-0.0999092 6:0.469066 7:0.185959 8:0.142355 
512 1:-0.106522 2:-0.0575703 3:-0.201859 4:0.182233 5:0.00599734 6:0.376651 7:0.110177 8:0.102084 
512 1:-0.126172 2:-0.0657745 3:-0.23453 4:0.0933409 5:0.043417 6:0.147105 7:-0.025971 8:0.0313858 
512 1:-0.0560708 2:-0.0521349 3:-0.0822703 4:0.413346 5:0.26518 6:0.535294 7:0.187039 8:0.153742 
512 1:-0.0667865 2:-0.0412888 3:-0.135088 4:0.34498 5:0.362562 6:0.274429 7:-0.010924 8:0.0633552 
512 1:-0.0722829 2:-0.040406 3:-0.151487 4:0.2235 5:0.329717 6:0.0639597 7:0.0715766 8:0.0966854 
512 1:-0.12065 2:-0.0507784 3:-0.254344 4:-0.139077 5:0.172465 6:-0.491427 7:-0.241006 8:-0.0512909 
512 1:-0.163187 2:-0.0688195 3:-0.324426 4:-0.301734 5:0.00690894 6:-0.623797 7:-0.261714 8:-0.0621071 
512 1:-0.177999 2:-0.0866451 3:-0.322457 4:-0.299701 5:-0.102703 6:-0.48487 7:-0.0347952 8:0.0194322 
512 1:-0.200071 2:-0.105961 3:-0.336078 4:-0.353581 5:-0.195892 6:-0.481582 7:-0.127432 8:-0.019063 
512 1:-0.250251 2:-0.132908 3:-0.405813 4:-0.573618 5:-0.340161 6:-0.7586 7:-0.376693 8:-0.139421 
512 1:-0.312166 2:-0.168647 3:-0.486162 4:-0.739597 5:-0.498302 6:-0.906945 7:-0.501337 8:-0.214392 
512 1:-0.382568 2:-0.213364 3:-0.568209 4:-0.797645 5:-0.6254 6:-0.870585 7:-0.601058 8:-0.283726 
393.709471248992 1:-0.533313 2:-0.283666 3:-0.802023 4:-0.906484 5:-0.750763 6:-0.941232 7:-0.807396 8:-0.495673 
349.9987556587926 1:-0.738462 2:-0.509943 3:-0.821837 4:-0.435085 5:-0.621974 6:-0.126156 7:-0.452908 8:-0.345837 
487.7628973035315 1:-0.967307 2:-0.841462 3:-0.663206 4:-0.510317 5:-0.571486 6:-0.343559 7:-0.496635 8:-0.407342 
491.1412886766976 1:-0.988044 2:-0.986592 3:-0.385893 4:-0.754633 5:-0.704975 6:-0.68396 7:-0.427149 8:-0.386269 
188.6952972179561 1:-0.772036 2:-0.925646 3:0.0400606 4:0.0281997 5:-0.0379225 6:0.112576 7:-0.195839 8:-0.18824 
195.9962600610804 1:-0.755771 2:-0.890665 3:0.00269954 4:-0.26695 5:-0.386494 6:-0.0684218 7:0.322421 8:0.0561583 
85.23630059921402 1:-0.731263 2:-0.870848 3:0.02155 4:-0.269431 5:-0.353671 6:-0.113888 7:-0.0141547 8:-0.0883166 
512 1:-0.606065 2:-0.744521 3:0.0605207 4:-0.0753125 5:-0.0752742 6:-0.0552519 7:-0.222489 8:-0.148542 
-228.6848623811062 1:-0.842552 2:-0.771127 3:-0.497471 4:-0.824321 5:-0.632463 6:-0.916984 7:-0.814934 8:-0.598317 
-512 1:-0.934088 2:-0.821675 3:-0.621496 4:-0.793754 5:-0.713388 6:-0.7544 7:-0.814934 8:-0.598317 
-512 1:-0.955832 2:-0.867094 3:-0.574623 4:-0.652186 5:-0.714489 6:-0.460727 7:-0.317465 8:-0.342549 
-512 1:-0.958276 2:-0.903989 3:-0.496725 4:-0.539163 5:-0.673029 6:-0.278309 7:-0.250388 8:-0.306378 
-40.86082689881636 1:-0.480108 2:-0.694322 3:0.275405 4:0.41272 5:0.289943 6:0.503564 7:0.588366 8:0.252173 
512 1:-0.113658 2:-0.366895 3:0.486174 4:0.775643 5:0.716397 6:0.728773 7:0.832603 8:0.533298 
304.9458695680943 1:-0.0728476 2:-0.301021 3:0.442454 4:0.761676 5:0.766515 6:0.63833 7:0.461438 8:0.379652 
-490.8829343604826 1:-0.0808666 2:-0.13869 3:0.0506004 4:-0.0528637 5:0.340318 6:-0.519724 7:0.0431772 8:0.138862 
-512 1:0.00722688 2:-0.100115 3:0.19297 4:0.326503 5:0.35334 6:0.247612 7:0.568492 8:0.457703 
-262.5637560276187 1:0.341564 2:0.114224 3:0.578082 4:0.692546 5:0.605249 6:0.693806 7:0.725992 8:0.609191 
-512 1:0.383518 2:0.188407 3:0.518375 4:0.610489 5:0.635977 6:0.486601 7:0.413858 8:0.440265 
-60.99643619820343 1:0.439002 2:0.319773 3:0.363421 4:0.554807 5:0.662216 6:0.339373 7:0.146882 8:0.28633 
184.2377345085534 1:0.329698 2:0.431388 3:-0.177581 4:-0.478215 5:-0.00509669 6:-0.97345 7:-0.0851396 8:0.152955 
-156.9293174485504 1:0.317573 2:0.419499 3:-0.182143 4:-0.246909 5:-0.242758 6:-0.203713 7:0.444262 8:0.37082 
-512 1:0.30535 2:0.414547 3:-0.202812 4:-0.124509 5:-0.168638 6:-0.0420773 7:0.155315 8:0.245861 
-339.1584849148234 1:0.289977 2:0.407239 3:-0.22634 4:-0.101371 5:-0.145695 6:-0.0225019 7:0.218269 8:0.27 
512 1:0.100037 2:0.308096 3:-0.496816 4:-0.715691 5:-0.497566 6:-0.858487 7:-0.407209 8:-0.0368349 
512 1:0.0387684 2:0.264538 3:-0.557614 4:-0.778201 5:-0.61765 6:-0.83996 7:-0.485696 8:-0.0870004 
295.8927917983146 1:0.0328906 2:0.228346 3:-0.490306 4:-0.562111 5:-0.617037 6:-0.394517 7:0.194053 8:0.163748 
325.2517777307324 1:0.0121764 2:0.194647 3:-0.467515 4:-0.427257 5:-0.566286 6:-0.178442 7:0.0332445 8:0.0901572 
242.8663253853994 1:-0.476479 2:-0.265546 3:-0.694711 4:-0.881457 5:-0.81618 6:-0.809148 7:-0.703865 8:-0.459948 
512 1:-0.481952 2:-0.313647 3:-0.599136 4:-0.728845 5:-0.811634 6:-0.49961 7:-0.070357 8:-0.15299 
512 1:-0.460853 2:-0.347296 3:-0.467056 4:-0.501365 5:-0.723682 6:-0.138001 7:0.16567 8:-0.0115153 
512 1:-0.451567 2:-0.372087 3:-0.386117 4:-0.395965 5:-0.625701 6:-0.0407992 7:0.0497018 8:-0.0622499 
512 1:-0.471074 2:-0.396389 3:-0.381637 4:-0.435534 5:-0.575151 6:-0.184636 7:-0.235509 8:-0.199247 
512 1:-0.47876 2:-0.434876 3:-0.313819 4:-0.317307 5:-0.465993 6:-0.0746859 7:-0.0827103 8:-0.128315 
512 1:-0.471459 2:-0.446708 3:-0.267682 4:-0.232755 5:-0.392979 6:0.0101588 7:-0.0254379 8:-0.103159 
512 1:-0.446949 2:-0.450559 3:-0.194752 4:-0.0290931 5:-0.268274 6:0.277411 7:0.234397 8:0.0196496 
510.6324575882537 1:-0.415715 2:-0.446486 3:-0.122332 4:0.158234 5:-0.115205 6:0.476071 7:0.360818 8:0.0884021 
352.7488959820359 1:-0.297647 2:-0.397489 3:0.074655 4:0.488221 5:0.322464 6:0.619489 7:0.768391 8:0.377492 
512 1:-0.260792 2:-0.368544 3:0.10496 4:0.422854 5:0.377407 6:0.416982 7:0.461411 8:0.260573 
512 1:-0.267351 2:-0.346891 3:0.0383269 4:0.132214 5:0.305535 6:-0.0948102 7:-0.0847461 8:0.00097156 
429.4401698746978 1:-0.298134 2:-0.336619 3:-0.0656843 4:-0.225205 5:0.124191 6:-0.609934 7:-0.316844 8:-0.14184 
512 1:-0.318393 2:-0.333043 3:-0.126866 4:-0.377564 5:-0.0535823 6:-0.706024 7:-0.263829 8:-0.117861 
378.0299875872384 1:-0.378761 2:-0.344008 3:-0.259768 4:-0.62643 5:-0.265003 6:-0.96003 7:-0.55838 8:-0.322606 
359.1197992148901 1:-0.520671 2:-0.498776 3:-0.27749 4:-0.414531 5:-0.528068 6:-0.199141 7:-0.513664 8:-0.31963 
-512 1:-0.493693 2:-0.510056 3:-0.181129 4:-0.25642 5:-0.439014 6:0.0178769 7:0.207124 8:-0.0662937 
-198.2155770186059 1:-0.443039 2:-0.4963 3:-0.0800199 4:0.0293533 5:-0.18801 6:0.299438 7:0.261287 8:0.00165283 
-262.0618856784869 1:-0.567294 2:-0.534402 3:-0.318085 4:-0.669091 5:-0.672794 6:-0.546883 7:-0.38901 8:-0.35476 
512 1:-0.56851 2:-0.624115 3:-0.116304 4:-0.0649097 5:-0.505628 6:0.495199 7:0.319197 8:0.0875453 
199.2431873256125 1:-0.52077 2:-0.609394 3:-0.025023 4:0.206887 5:-0.255278 6:0.748705 7:0.344509 8:0.105584 
118.0768858261264 1:-0.493167 2:-0.591294 3:0.0058512 4:0.298816 5:-0.05406 6:0.691198 7:0.151483 8:0.0238781 
-512 1:-0.0123958 2:-0.105294 3:0.153458 4:0.325886 5:0.277549 6:0.339495 7:0.521384 8:0.401999 
-512 1:0.0147879 2:-0.0716664 3:0.147758 4:0.405717 5:0.341066 6:0.426264 7:0.572722 8:0.430777 
434.5488211726911 1:0.128275 2:0.166994 3:-0.100559 4:-0.210857 5:0.119848 6:-0.574969 7:0.170851 8:0.31535 
512 1:0.0692069 2:0.155751 3:-0.229428 4:-0.595504 5:-0.289665 6:-0.865858 7:0.0142755 8:0.190334 
194.8421565767005 1:0.0493297 2:0.145082 3:-0.257061 4:-0.648978 5:-0.430809 6:-0.802789 7:0.0142755 8:0.190334 
392.6722338281157 1:-0.0211193 2:0.0964717 3:-0.330335 4:-0.83505 5:-0.737441 6:-0.810104 7:-0.229784 8:0.0824152 
329.3948494488731 1:-0.072091 2:0.0698463 3:-0.402875 4:-0.93142 5:-0.834766 6:-0.889469 7:-0.634872 8:-0.188927 
149.5280212363701 1:-0.0815937 2:0.0463695 3:-0.374102 4:-0.627434 5:-0.786167 6:-0.321514 7:0.08655 8:0.11386 
512 1:-0.0876486 2:0.0262011 3:-0.343867 4:-0.342947 5:-0.647565 6:0.095551 7:0.13605 8:0.138894 
64.48124596213231 1:-0.0876942 2:0.0100559 3:-0.3071 4:-0.0714593 5:-0.453813 6:0.417987 7:0.240508 8:0.190186 
512 1:-0.095987 2:-0.00475969 3:-0.29495 4:0.0277029 5:-0.287627 6:0.418475 7:0.0889414 8:0.123049 
