svm_type epsilon_svr
kernel_type rbf
gamma 2
nr_class 2
total_sv 398
rho -71.7218
SV
-1.544427375202913 1:0.066821 2:0.0275356 3:-0.0815894 4:-0.23304 5:-0.115786 6:-0.302727 7:-1 8:-1 
-0.8997916193542153 1:0.0414742 2:0.0136294 3:-0.11822 4:-0.557872 5:-0.366679 6:-0.634174 7:-1 8:-1 
-1.859967853243676 1:0.0268818 2:0.00444415 3:-0.136333 4:-0.74086 5:-0.514519 6:-0.813122 7:-1 8:-1 
-103.6612791133694 1:0.0352064 2:0.00109456 3:-0.104323 4:-0.634077 5:-0.574472 6:-0.53411 7:-0.0781456 8:-0.106555 
58.36503342143536 1:0.0499933 2:0.00245078 3:-0.0659017 4:-0.458234 5:-0.56035 6:-0.209389 7:0.0994748 8:0.0515702 
59.65415288872267 1:0.0469322 2:0.00309385 3:-0.0761868 4:-0.502853 5:-0.557581 6:-0.299369 7:-0.189095 8:-0.140573 
56.11124195045316 1:0.0659081 2:0.0101552 3:-0.0403101 4:-0.0954389 5:-0.369569 6:0.267573 7:0.283401 8:0.244824 
-46.02344408982231 1:0.0608706 2:0.0124549 3:-0.0603686 4:-0.138191 5:-0.298549 6:0.0997312 7:-0.0948923 8:0.00542445 
48.80460533680333 1:0.0653113 2:0.0152882 3:-0.0549531 4:-0.0405291 5:-0.215892 6:0.190756 7:0.134052 8:0.17131 
146.5521936632611 1:0.0825014 2:0.0215286 3:-0.0220577 4:0.234851 5:-0.0612228 6:0.541026 7:0.417686 8:0.396256 
-65.10403595608761 1:0.109443 2:0.0326807 3:0.0260364 4:0.502546 5:0.138676 6:0.822366 7:0.60947 8:0.569312 
256 1:0.126452 2:0.0453819 3:0.042115 4:0.568127 5:0.295653 6:0.762338 7:0.513003 8:0.514813 
126.9257692860958 1:0.0942732 2:0.0593184 3:-0.0841155 4:0.0891227 5:0.325564 6:-0.203859 7:-0.410207 8:-0.137788 
47.54039097017091 1:-0.0274976 2:0.031408 3:-0.358262 4:-0.159627 5:0.157123 6:-0.485956 7:-0.707181 8:-0.477581 
61.70188134238238 1:-0.188769 2:-0.062282 3:-0.578178 4:-0.432172 5:-0.171325 6:-0.623237 7:-0.612363 8:-0.419094 
-72.19111909482707 1:-0.235694 2:-0.151563 3:-0.485648 4:-0.418774 5:-0.345135 6:-0.389691 7:-0.138705 8:-0.123522 
-9.384750555978364 1:-0.216853 2:-0.179491 3:-0.361853 4:-0.313728 5:-0.345726 6:-0.18493 7:0.107505 8:0.0452196 
-21.72409171790949 1:-0.188447 2:-0.212356 3:-0.198528 4:-0.192372 5:-0.296743 6:-0.00767306 7:0.16927 8:0.106609 
-17.16427686439824 1:-0.13305 2:-0.216816 3:-0.0305123 4:0.287509 5:0.0350416 6:0.528382 7:0.335776 8:0.220274 
-173.1825642717669 1:-0.136626 2:-0.213566 3:-0.0488347 4:0.20402 5:0.0949192 6:0.294711 7:-0.108609 8:0.010084 
210.0471149829831 1:-0.10497 2:-0.198099 3:0.0017101 4:0.215244 5:0.186556 6:0.207103 7:0.0719082 8:0.12748 
256 1:-0.048352 2:-0.169049 3:0.0886146 4:0.393366 5:0.292444 6:0.42669 7:0.386529 8:0.315824 
256 1:-0.0400486 2:-0.153692 3:0.0733555 4:0.310338 5:0.304961 6:0.250459 7:0.0757362 8:0.1764 
256 1:-0.0682562 2:-0.147737 3:-0.021495 4:0.0598195 5:0.222729 6:-0.138003 7:-0.310593 8:-0.0478086 
256 1:-0.114035 2:-0.153242 3:-0.137145 4:-0.279761 5:0.0451313 6:-0.58561 7:-0.475432 8:-0.170735 
256 1:-0.14053 2:-0.163589 3:-0.186009 4:-0.456843 5:-0.137292 6:-0.711795 7:-0.346002 8:-0.10633 
240.2023557318849 1:-0.158884 2:-0.175982 3:-0.206669 4:-0.574897 5:-0.30159 6:-0.744957 7:-0.346002 8:-0.10633 
185.5278539562132 1:-0.141457 2:-0.181987 3:-0.1422 4:-0.45638 5:-0.368272 6:-0.435118 7:0.153617 8:0.149468 
107.9171459084282 1:-0.147016 2:-0.194918 3:-0.125298 4:-0.546566 5:-0.509405 6:-0.441804 7:0.0767111 8:0.123192 
211.2850747051053 1:-0.172496 2:-0.204096 3:-0.174236 4:-0.684018 5:-0.589119 6:-0.613636 7:-0.249704 8:-0.068745 
227.5262573815149 1:-0.255763 2:-0.239074 3:-0.321588 4:-0.823594 5:-0.727661 6:-0.719356 7:-0.561367 8:-0.292603 
-9.279910465234188 1:-0.322346 2:-0.273027 3:-0.424318 4:-0.861567 5:-0.798816 6:-0.708164 7:-0.626083 8:-0.350435 
-256 1:-0.332866 2:-0.302548 3:-0.379587 4:-0.692134 5:-0.784994 6:-0.395537 7:-0.142195 8:-0.0713024 
110.9582956627548 1:-0.387096 2:-0.381887 3:-0.332819 4:-0.539227 5:-0.673198 6:-0.231988 7:-0.296022 8:-0.159448 
145.8261527880134 1:-0.335606 2:-0.406042 3:-0.126152 4:-0.049614 5:-0.429377 6:0.427998 7:0.291684 8:0.209321 
43.99222088776538 1:-0.313779 2:-0.404679 3:-0.0678288 4:0.14792 5:-0.234977 6:0.579612 7:0.0783366 8:0.102385 
6.78394751493075 1:-0.220965 2:-0.382774 3:0.139532 4:0.444592 5:0.00188701 6:0.873108 7:0.509777 8:0.42577 
119.5676178693508 1:-0.141216 2:-0.347366 3:0.275846 4:0.642374 5:0.231305 6:0.983394 7:0.526505 8:0.439997 
-56.1907579765173 1:-0.00683146 2:-0.253257 3:0.418621 4:0.845883 5:0.591574 6:0.948576 7:0.586556 8:0.48631 
-25.71668077040383 1:0.176439 2:-0.0817477 3:0.504401 4:0.981032 5:0.901138 6:0.841506 7:0.750999 8:0.613536 
54.7109842628331 1:0.2982 2:0.0831667 3:0.432766 4:0.943386 5:1 6:0.650341 7:0.835214 8:0.680673 
-29.71220239015754 1:0.349289 2:0.20282 3:0.275367 4:0.944784 5:0.997197 6:0.656404 7:0.940652 8:0.752073 
-147.6678874946826 1:0.345285 2:0.230211 3:0.194913 4:0.750069 5:0.933782 6:0.353876 7:0.272214 8:0.543897 
-71.1316656442269 1:0.351954 2:0.271378 3:0.109893 4:0.725546 5:0.841306 6:0.416652 7:0.565068 8:0.656576 
33.75358154491761 1:0.345339 2:0.285069 3:0.0566205 4:0.661459 5:0.797817 6:0.344082 7:0.275933 8:0.545997 
1.240344331146194 1:0.317996 2:0.28989 3:-0.0329201 4:0.384807 5:0.6688 6:-0.0392876 7:-0.191075 8:0.304176 
29.36712186345171 1:0.244339 2:0.277229 3:-0.209401 4:-0.112408 5:0.403019 6:-0.687819 7:-0.630551 8:-0.101729 
-182.325899391715 1:0.222597 2:0.262224 3:-0.233058 4:-0.086422 5:0.235227 6:-0.437005 7:-0.0128257 8:0.227503 
-135.8361228550949 1:0.128624 2:0.20867 3:-0.363825 4:-0.330159 5:-0.114138 6:-0.493351 7:-0.138643 8:0.0901974 
256 1:0.132193 2:0.187103 3:-0.2993 4:-0.0816857 5:-0.107832 6:-0.018211 7:0.176984 8:0.28945 
172.6931641367699 1:0.168464 2:0.177984 3:-0.173647 4:0.0920079 5:-0.040828 6:0.239197 7:0.428448 8:0.469761 
134.6933674883068 1:0.195721 2:0.176801 3:-0.0935289 4:0.207804 5:0.0457074 6:0.360817 7:0.428448 8:0.469761 
-159.5685493755417 1:0.223215 2:0.18202 3:-0.0289016 4:0.318253 5:0.143331 6:0.458812 7:0.488373 8:0.509951 
211.7250794590782 1:0.231559 2:0.188067 3:-0.0205498 4:0.342008 5:0.217002 6:0.416997 7:0.292455 8:0.414748 
256 1:0.241206 2:0.203187 3:-0.0314061 4:0.373944 5:0.33426 6:0.339034 7:0.0355258 8:0.285612 
256 1:0.183207 2:0.195098 3:-0.175116 4:-0.190778 5:0.121108 6:-0.503469 7:-0.166385 8:0.147473 
256 1:0.173974 2:0.185615 3:-0.177314 4:-0.245907 5:-0.0103761 6:-0.453575 7:0.0674201 8:0.257777 
256 1:0.138867 2:0.170156 3:-0.237645 4:-0.362664 5:-0.140246 6:-0.525322 7:-0.228075 8:0.081707 
-256 1:0.102925 2:0.149728 3:-0.2878 4:-0.410543 5:-0.244137 6:-0.494288 7:-0.297528 8:0.0356816 
256 1:0.104818 2:0.133811 3:-0.242271 4:-0.213686 5:-0.242223 6:-0.114171 7:0.157717 8:0.263015 
-180.0082475005254 1:0.0715937 2:0.113626 3:-0.285349 4:-0.316424 5:-0.278092 6:-0.270917 7:-0.193977 8:0.0535744 
-175.9429321527444 1:0.0683605 2:0.0967533 3:-0.251916 4:-0.189936 5:-0.256273 6:-0.0512606 7:0.0814977 8:0.207997 
-50.24862945628523 1:0.0924713 2:0.088662 3:-0.163268 4:0.151267 5:-0.118363 6:0.446884 7:0.329125 8:0.364133 
-3.230900978324544 1:0.10726 2:0.0855055 3:-0.113454 4:0.344691 5:0.0435095 6:0.629351 7:0.277224 8:0.337761 
-35.40300314094131 1:0.149706 2:0.0952085 3:-0.0178287 4:0.697331 5:0.406565 6:0.880899 7:0.353895 8:0.396277 
24.68288225004084 1:0.157553 2:0.102021 3:-0.0128174 4:0.667881 5:0.510313 6:0.699823 7:0.276404 8:0.36369 
-20.57611898907504 1:0.177905 2:0.112036 3:0.0195026 4:0.753605 5:0.610471 6:0.746762 7:0.475159 8:0.467204 
218.7105356090538 1:0.139246 2:0.111377 3:-0.0882325 4:0.283968 5:0.507445 6:-0.0425196 7:-0.252496 8:0.0745051 
182.5765702141305 1:0.157663 2:0.114981 3:-0.0452115 4:0.460036 5:0.502418 6:0.3055 7:0.265302 8:0.375432 
256 1:0.152006 2:0.116595 3:-0.0652935 4:0.358289 5:0.46228 6:0.155775 7:0.0768132 8:0.259005 
-77.17509542935669 1:0.109572 2:0.104829 3:-0.155676 4:-0.0652734 5:0.173953 6:-0.322765 7:-0.0922232 8:0.16187 
256 1:0.0394741 2:0.0646425 3:-0.252621 4:-0.478379 5:-0.236904 6:-0.634698 7:-0.387834 8:-9.76593e-05 
256 1:0.0259008 2:0.0480445 3:-0.249142 4:-0.462099 5:-0.327215 6:-0.495247 7:-0.171237 8:0.077897 
72.75695167583349 1:0.00430016 2:0.0299219 3:-0.264531 4:-0.564129 5:-0.424313 6:-0.577515 7:-0.342642 8:-0.00993696 
38.62441857885339 1:0.00333299 2:0.015207 3:-0.230132 4:-0.387569 5:-0.425208 6:-0.233472 7:0.0450254 8:0.148956 
-68.90139746607251 1:0.0490311 2:0.0136832 3:-0.0969717 4:-0.0367353 5:-0.29896 6:0.297304 7:0.596248 8:0.496691 
16.83779274528895 1:0.134581 2:0.0316494 3:0.0997742 4:0.299824 5:-0.0931102 6:0.705311 7:0.825009 8:0.730365 
241.5069235828981 1:0.170346 2:0.0540429 3:0.144467 4:0.350882 5:0.0625833 6:0.618604 7:0.39647 8:0.485319 
123.1775771721265 1:0.227677 2:0.0848145 3:0.229041 4:0.537846 5:0.233976 6:0.777155 7:0.571922 8:0.618536 
114.3125769733167 1:0.293628 2:0.124222 3:0.316217 4:0.686211 5:0.401881 6:0.864892 7:0.676777 8:0.704695 
256 1:0.312224 2:0.159918 3:0.278754 4:0.638471 5:0.496556 6:0.659116 7:0.297454 8:0.481355 
-79.15197095470124 1:0.412709 2:0.295414 3:0.221155 4:0.862994 5:0.811328 6:0.719441 7:0.540142 8:0.629513 
256 1:0.43019 2:0.323326 3:0.20018 4:0.785132 5:0.822547 6:0.554796 7:0.609877 8:0.667113 
38.71496439793824 1:0.340647 2:0.325576 3:-0.0588817 4:0.154476 5:0.60201 6:-0.40697 7:-0.425053 8:0.0104135 
88.70184925332254 1:0.263561 2:0.310088 3:-0.237933 4:-0.265962 5:0.302974 6:-0.866655 7:-0.44229 8:-0.00631418 
49.1904029020255 1:0.181866 2:0.279377 3:-0.391606 4:-0.474761 5:0.028125 6:-0.944101 7:-0.530301 8:-0.0900093 
89.31920395040177 1:0.131795 2:0.24358 3:-0.442954 4:-0.542468 5:-0.179588 6:-0.827627 7:-0.298596 8:0.0183138 
-70.27243290099543 1:0.0727676 2:0.201705 3:-0.504309 4:-0.676972 5:-0.366693 6:-0.865512 7:-0.421745 8:-0.0715094 
25.08987379348862 1:0.0493226 2:0.162947 3:-0.47284 4:-0.659402 5:-0.485077 6:-0.690038 7:-0.0899954 8:0.0902001 
54.13564636863312 1:0.00520348 2:0.0648473 3:-0.350115 4:-0.418211 5:-0.582314 6:-0.10542 7:0.158299 8:0.200063 
256 1:-0.0319487 2:0.0352351 3:-0.380516 4:-0.488881 5:-0.567172 6:-0.260777 7:-0.277252 8:-0.0353433 
-256 1:-0.0637425 2:0.00441537 3:-0.392706 4:-0.551881 5:-0.579856 6:-0.368014 7:-0.30687 8:-0.054086 
-129.5094672701219 1:-0.0871643 2:-0.0254929 3:-0.383505 4:-0.593882 5:-0.603497 6:-0.421375 7:-0.30687 8:-0.054086 
-213.2929649994806 1:-0.0847016 2:-0.0488673 3:-0.317547 4:-0.362722 5:-0.535681 6:-0.0533064 7:0.0512081 8:0.108611 
-49.59630958314326 1:-0.0772338 2:-0.0658921 3:-0.25345 4:-0.163932 5:-0.418597 6:0.193059 7:0.115142 8:0.140143 
11.60878679680817 1:-0.0463095 2:-0.0919552 3:-0.100166 4:0.105916 5:-0.131973 6:0.375037 7:0.460583 8:0.325929 
55.66306679469008 1:0.0363585 2:-0.0716864 3:0.0826134 4:0.451594 5:0.158276 6:0.699988 7:0.797738 8:0.594708 
256 1:0.0289833 2:-0.0603274 3:0.0330767 4:0.223382 5:0.184076 6:0.225874 7:-0.018744 8:0.166573 
-67.98512468587526 1:0.00076595 2:-0.0575681 3:-0.0537354 4:-0.0876306 5:0.0888282 6:-0.264561 7:-0.210769 8:0.0343388 
-237.1840350104148 1:-0.0777645 2:-0.0729717 3:-0.237085 4:-0.342256 5:-0.0667312 6:-0.573451 7:-0.510263 8:-0.213352 
6.805984303564143 1:-0.171949 2:-0.106416 3:-0.419202 4:-0.502692 5:-0.228444 6:-0.692029 7:-0.618765 8:-0.321647 
-113.6639137580209 1:-0.170596 2:-0.132868 3:-0.348617 4:-0.353356 5:-0.282259 6:-0.337685 7:0.0410732 8:0.114509 
158.4639618302904 1:-0.201137 2:-0.160879 3:-0.364349 4:-0.375201 5:-0.326034 6:-0.327854 7:-0.145579 8:-0.0123741 
256 1:-0.22742 2:-0.232392 3:-0.258251 4:-0.328865 5:-0.385584 6:-0.166745 7:0.0403443 8:0.0958593 
211.5043671285424 1:-0.207564 2:-0.249925 3:-0.157814 4:-0.128816 5:-0.271223 6:0.0853176 7:-0.0464785 8:0.0637278 
117.9756967065218 1:-0.172424 2:-0.248086 3:-0.0630178 4:0.260102 5:-0.0889809 6:0.623218 7:0.281169 8:0.245312 
241.2049519169025 1:-0.176472 2:-0.247522 3:-0.0758953 4:0.197664 5:0.00993946 6:0.383825 7:-0.0708501 8:0.0717311 
133.9318531114606 1:-0.123506 2:-0.235192 3:0.0428705 4:0.477755 5:0.177154 6:0.728267 7:0.361128 8:0.342257 
66.26174537962775 1:-0.0607809 2:-0.211262 3:0.159976 4:0.664482 5:0.356143 6:0.87729 7:0.46991 8:0.422579 
247.5323160939729 1:-0.0254302 2:-0.184191 3:0.191691 4:0.686835 5:0.48355 6:0.768594 7:0.295599 8:0.337535 
256 1:0.103809 2:-0.102861 3:0.352159 4:0.797229 5:0.684167 6:0.743513 7:0.516042 8:0.501797 
79.39948749883671 1:0.146284 2:-0.0589617 3:0.361563 4:0.817888 5:0.749616 6:0.705502 7:0.516042 8:0.501797 
-58.42161246842885 1:0.239461 2:0.03506 3:0.387952 4:0.917796 5:0.876139 6:0.748516 7:0.588816 8:0.569678 
-31.09871978752795 1:0.229096 2:0.0699466 3:0.270581 4:0.695704 5:0.833421 6:0.368095 7:0.0177938 8:0.303905 
199.4171613480167 1:0.219127 2:0.0956201 3:0.177578 4:0.495215 5:0.732455 6:0.0991852 7:0.0177938 8:0.303905 
239.1593734113208 1:0.197531 2:0.12535 3:0.0414367 4:0.099856 5:0.426937 6:-0.304044 7:0.0388364 8:0.303632 
190.8522516069851 1:0.212458 2:0.138448 3:0.0506235 4:0.213959 5:0.359777 6:-0.00220749 7:0.399039 8:0.453637 
256 1:0.218682 2:0.150321 3:0.0382699 4:0.25031 5:0.328146 6:0.106171 7:0.311976 8:0.419684 
255.7947679375668 1:0.195145 2:0.154542 3:-0.0389853 4:-0.00348195 5:0.215299 6:-0.252097 7:-0.150557 8:0.201427 
201.5694155335131 1:0.118065 2:0.140632 3:-0.222 4:-0.321962 5:0.02492 6:-0.643456 7:-0.563116 8:-0.120504 
49.26305817377484 1:-0.0146453 2:0.077851 3:-0.4391 4:-0.758003 5:-0.407326 6:-0.974407 7:-0.627236 8:-0.186856 
27.76185540109203 1:-0.113983 2:-0.004418 3:-0.512582 4:-0.92105 5:-0.717335 6:-0.920997 7:-0.703285 8:-0.25955 
-256 1:-0.142854 2:-0.0450484 3:-0.491742 4:-0.863825 5:-0.792749 6:-0.719795 7:-0.481646 8:-0.175953 
108.7606457963074 1:-0.194504 2:-0.119452 3:-0.450127 4:-0.892917 5:-0.882651 6:-0.668968 7:-0.616406 8:-0.262061 
-142.7733013919606 1:-0.31239 2:-0.210697 3:-0.553447 4:-0.909399 5:-0.947861 6:-0.623129 7:-0.818352 8:-0.467967 
138.4097613743839 1:-0.394333 2:-0.303959 3:-0.549962 4:-0.957382 5:-1 6:-0.654086 7:-0.866811 8:-0.533846 
40.41836839304774 1:-0.401135 2:-0.342603 3:-0.471687 4:-0.802936 5:-0.959177 6:-0.402809 7:-0.32503 8:-0.283268 
-111.8050351696619 1:-0.493306 2:-0.429177 3:-0.514024 4:-0.748127 5:-0.900745 6:-0.366104 7:-0.588928 8:-0.452625 
111.9152235635105 1:-0.590543 2:-0.52123 3:-0.55687 4:-0.852733 5:-0.906145 6:-0.562858 7:-0.752627 8:-0.578303 
68.37296831921584 1:-0.598978 2:-0.560787 3:-0.480908 4:-0.748189 5:-0.876814 6:-0.394799 7:-0.330058 8:-0.334521 
-5.011872780900371 1:-0.633996 2:-0.62953 3:-0.406515 4:-0.740698 5:-0.854664 6:-0.406691 7:-0.49705 8:-0.424874 
-0.8585621656978544 1:-0.624858 2:-0.653231 3:-0.320844 4:-0.638054 5:-0.802673 6:-0.269375 7:-0.265719 8:-0.300048 
-22.32091047061914 1:-0.681674 2:-0.715899 3:-0.323468 4:-0.647854 5:-0.74681 6:-0.355111 7:-0.671097 8:-0.521348 
-5.323401930377476 1:-0.802103 2:-0.789308 3:-0.478994 4:-0.778126 5:-0.793066 6:-0.552942 7:-0.826714 8:-0.657548 
8.651363533635317 1:-0.922265 2:-0.847749 3:-0.671537 4:-0.887696 5:-0.851866 6:-0.695582 7:-0.911496 8:-0.766426 
-9.43802760125107 1:-0.974643 2:-0.906248 3:-0.672122 4:-0.881307 5:-0.888757 6:-0.639126 7:-0.546441 8:-0.522227 
-6.298140447914357 1:-0.946721 2:-0.988774 3:-0.384838 4:-0.698787 5:-0.860335 6:-0.318506 7:0.0804641 8:-0.0809732 
-0.04472757606221268 1:-0.889615 2:-1 3:-0.194912 4:-0.447553 5:-0.737577 6:0.02296 7:0.109286 8:-0.0587283 
-7.949644983282362 1:-0.849222 2:-0.999922 3:-0.0808051 4:-0.283696 5:-0.596496 6:0.172814 7:-0.0203301 8:-0.1153 
2.786279490305568 1:-0.791889 2:-0.987003 3:0.0488301 4:0.00519754 5:-0.397991 6:0.496998 7:0.131329 8:-0.0163651 
-22.78125241205728 1:-0.714313 2:-0.95927 3:0.198363 4:0.154464 5:-0.211686 6:0.564517 7:0.331594 8:0.123601 
-26.57887270308603 1:-0.598891 2:-0.9112 3:0.403666 4:0.448955 5:0.0189914 6:0.861161 7:0.604235 8:0.356382 
14.39129398738886 1:-0.297258 2:-0.695022 3:0.711655 4:0.790693 5:0.56979 6:0.867377 7:0.690086 8:0.469394 
-20.41036705644797 1:-0.226101 2:-0.6162 3:0.714092 4:0.73361 5:0.642894 6:0.66921 7:0.612234 8:0.441944 
-24.65820544680208 1:-0.189884 2:-0.545021 3:0.636945 4:0.590932 5:0.640043 6:0.395454 7:0.198261 8:0.282251 
-5.019978979852129 1:-0.110639 2:-0.374609 3:0.431123 4:0.0694679 5:0.334671 6:-0.252914 7:0.249842 8:0.321183 
-22.85929601391019 1:-0.126742 2:-0.302672 3:0.204011 4:-0.361589 5:-0.0362254 6:-0.647429 7:-0.327505 8:-0.00755856 
-29.80245123698337 1:-0.1553 2:-0.286443 3:0.0822401 4:-0.504869 5:-0.208894 6:-0.7196 7:-0.378084 8:-0.0437735 
-256 1:-0.219633 2:-0.283112 3:-0.108213 4:-0.681715 5:-0.493905 6:-0.722842 7:-0.527883 8:-0.152577 
-117.5639475049304 1:-0.1889 2:-0.27833 3:-0.033316 4:-0.474679 5:-0.503098 6:-0.309689 7:0.216307 8:0.230738 
-113.7780090506755 1:-0.135226 2:-0.262467 3:0.078539 4:-0.214594 5:-0.415192 6:0.0905807 7:0.421344 8:0.374331 
11.2618396454436 1:-0.0756231 2:-0.236411 3:0.181442 4:0.0285442 5:-0.268681 6:0.38796 7:0.520994 8:0.449355 
-220.7506604925966 1:-0.0349263 2:-0.206439 3:0.220966 4:0.24245 5:-0.0936677 6:0.594525 7:0.404133 8:0.396014 
-205.5726824091384 1:0.0438594 2:-0.164793 3:0.338811 4:0.507612 5:0.118878 6:0.855846 7:0.683999 8:0.606652 
-170.7643295136503 1:0.0753537 2:-0.124414 3:0.326028 4:0.544889 5:0.274053 6:0.742988 7:0.290768 8:0.402042 
-58.25268973416392 1:0.0999314 2:-0.0865988 3:0.300144 4:0.569741 5:0.386488 6:0.657022 7:0.290768 8:0.402042 
-256 1:0.126434 2:-0.0504034 3:0.283794 4:0.621183 5:0.480044 6:0.645249 7:0.364236 8:0.442249 
-256 1:0.161765 2:-0.0135236 3:0.290701 4:0.718047 5:0.577436 6:0.71713 7:0.503459 8:0.521553 
-256 1:0.120008 2:0.0261008 3:0.072538 4:0.212613 5:0.425216 6:-0.0829529 7:-0.116764 8:0.188749 
-256 1:0.142787 2:0.0434237 3:0.0932803 4:0.355328 5:0.409741 6:0.212751 7:0.309659 8:0.408281 
-256 1:0.171203 2:0.0636546 3:0.122636 4:0.506265 5:0.453997 6:0.453115 7:0.404743 8:0.465587 
-256 1:0.192278 2:0.0845654 3:0.129499 4:0.60689 5:0.519882 6:0.569919 7:0.404743 8:0.465587 
-256 1:0.192112 2:0.101257 3:0.086906 4:0.571841 5:0.551133 6:0.464523 7:0.141757 8:0.345496 
-256 1:0.16006 2:0.107422 3:-0.0193525 4:0.344211 5:0.489667 6:0.0957298 7:-0.222253 8:0.138234 
-256 1:0.0957679 2:0.0979364 3:-0.177345 4:0.0338433 5:0.336475 6:-0.324269 7:-0.480861 8:-0.0623687 
-210.4620911665153 1:0.0145726 2:0.0721391 3:-0.342005 4:-0.305531 5:0.111645 6:-0.715082 7:-0.610405 8:-0.189362 
-22.09561291960925 1:-0.075129 2:0.0313851 3:-0.49299 4:-0.555195 5:-0.128509 6:-0.913335 7:-0.693939 8:-0.283685 
28.26527881689956 1:-0.193343 2:-0.0277286 3:-0.678325 4:-0.739076 5:-0.355095 6:-1 7:-0.795651 8:-0.422373 
-225.6342923427442 1:-0.26775 2:-0.0917057 3:-0.72742 4:-0.761323 5:-0.514195 6:-0.853258 7:-0.572916 8:-0.305189 
51.96653331988202 1:-0.371785 2:-0.166218 3:-0.833771 4:-0.864963 5:-0.657733 6:-0.883206 7:-0.707559 8:-0.432432 
-89.74217057855969 1:-0.41399 2:-0.235293 3:-0.77888 4:-0.817923 5:-0.736418 6:-0.697883 7:-0.305184 8:-0.198123 
-196.4772690484019 1:-0.414895 2:-0.290756 3:-0.64147 4:-0.671153 5:-0.735809 6:-0.413504 7:-0.0508397 8:-0.0377491 
-212.0112283495478 1:-0.360562 2:-0.322941 3:-0.406493 4:-0.328932 5:-0.611672 6:0.103061 7:0.298089 8:0.211651 
-78.78520936704763 1:-0.28644 2:-0.332067 3:-0.173714 4:0.126691 5:-0.364182 6:0.692637 7:0.438739 8:0.324863 
45.12760965804024 1:0.00359 2:-0.248511 3:0.436134 4:0.558245 5:0.140051 6:0.928922 7:0.565885 8:0.547163 
-42.53988083405429 1:0.172106 2:-0.118722 3:0.58545 4:0.721592 5:0.482273 6:0.837636 7:0.49035 8:0.521442 
-165.8489024751423 1:0.265622 2:-0.0448876 3:0.663745 4:0.82704 5:0.618329 6:0.88003 7:0.654922 8:0.6412 
256 1:0.336624 2:0.0301025 3:0.675414 4:0.851215 5:0.717773 6:0.808259 7:0.654922 8:0.6412 
-25.2626067401929 1:0.409694 2:0.165271 3:0.541063 4:0.780466 5:0.810797 6:0.559762 7:0.276945 8:0.48164 
-37.22501548993676 1:0.320594 2:0.194634 3:0.214826 4:0.255988 5:0.630879 6:-0.244246 7:-0.34561 8:0.0732145 
-6.463144996674678 1:0.228835 2:0.197547 3:-0.0521824 4:-0.198287 5:0.346688 6:-0.787386 7:-0.416705 8:0.011267 
-169.6139979618578 1:0.28851 2:0.21326 3:0.0770288 4:0.0549156 5:0.248774 6:-0.178626 7:0.356405 8:0.461745 
141.5110549691912 1:0.325113 2:0.234039 3:0.128169 4:0.191943 5:0.233041 6:0.10634 7:0.310777 8:0.433543 
-218.4741215856931 1:0.434707 2:0.27524 3:0.334317 4:0.473941 5:0.32451 6:0.544924 7:0.58241 8:0.630386 
110.7084879654036 1:0.535438 2:0.33079 3:0.479171 4:0.606945 5:0.433577 6:0.67307 7:0.630824 8:0.66876 
39.10609545792458 1:0.559464 2:0.380618 3:0.42141 4:0.55263 5:0.486651 6:0.504193 7:0.286213 8:0.473128 
-82.6912418893118 1:0.585556 2:0.466062 3:0.27961 4:0.506945 5:0.541585 6:0.34986 7:0.116924 8:0.376497 
-186.9992202676424 1:0.634457 2:0.505653 3:0.318074 4:0.629781 5:0.58655 6:0.534788 7:0.412003 8:0.545253 
10.65459067640284 1:0.764271 2:0.603644 3:0.438119 4:0.856534 5:0.751289 6:0.778576 7:0.585429 8:0.657712 
-16.55743176965135 1:0.876348 2:0.752082 3:0.380662 4:0.901574 5:0.896741 6:0.692407 7:0.658156 8:0.700952 
1.43881691351383 1:0.915831 2:0.856718 3:0.228322 4:0.983411 5:0.994138 6:0.73509 7:0.797924 8:0.775459 
11.72791495390423 1:0.888765 2:0.875208 3:0.105068 4:0.822855 5:0.958059 6:0.46628 7:0.285633 8:0.589971 
-0.6813710024507531 1:0.914243 2:0.916667 3:0.0725363 4:0.856105 5:0.917988 6:0.578714 7:0.79014 8:0.828309 
2.044729604638318 1:0.906962 2:0.927248 3:0.0252288 4:0.757844 5:0.883787 6:0.42867 7:0.475403 8:0.688557 
-0.7751717415047333 1:0.903119 2:0.934852 3:-0.00483533 4:0.689773 5:0.836376 6:0.353048 7:0.556286 8:0.726213 
-13.41439173474818 1:0.822343 2:0.922017 3:-0.201021 4:0.284023 5:0.59604 6:-0.148192 7:0.0477083 8:0.475891 
-18.61687118396182 1:0.706125 2:0.868409 3:-0.394602 4:-0.0217089 5:0.256486 6:-0.336679 7:-0.139112 8:0.36919 
-1.568674266653121 1:0.642241 2:0.829276 3:-0.476621 4:-0.101211 5:0.132191 6:-0.342715 7:-0.280596 8:0.285466 
-10.8244069102373 1:0.62231 2:0.767874 3:-0.37806 4:0.211814 5:0.157974 6:0.234567 7:0.314368 8:0.511697 
-46.49527140832956 1:0.58766 2:0.736608 3:-0.397208 4:0.204981 5:0.177221 6:0.198313 7:0.0944457 8:0.397402 
5.656418796069442 1:0.501212 2:0.692209 3:-0.529787 4:-0.0430468 5:0.100378 6:-0.191744 7:-0.368114 8:0.0798876 
-4.040852831989127 1:0.3569 2:0.582188 3:-0.660499 4:-0.366847 5:-0.145771 6:-0.526852 7:-0.417566 8:0.040284 
-8.274365243292747 1:0.266152 2:0.515959 3:-0.750152 4:-0.61351 5:-0.321204 6:-0.796548 7:-0.608877 8:-0.128025 
-10.29489522340603 1:0.238524 2:0.45678 3:-0.678985 4:-0.532836 5:-0.408991 6:-0.535021 7:0.0203291 8:0.180013 
-11.80559173913771 1:0.16918 2:0.393886 3:-0.716488 4:-0.724169 5:-0.536693 6:-0.754225 7:-0.292528 8:-0.0286602 
10.04195197426376 1:0.0831896 2:0.324287 3:-0.784174 4:-0.851725 5:-0.667946 6:-0.845299 7:-0.43651 8:-0.141162 
13.2699192981253 1:-0.0110505 2:0.247473 3:-0.857 4:-0.922744 5:-0.781125 6:-0.848126 7:-0.539104 8:-0.228082 
-8.682991845261112 1:-0.034445 2:0.180776 3:-0.754878 4:-0.787855 5:-0.807808 6:-0.55424 7:-0.0314405 8:0.0644438 
141.3665305169801 1:-0.0973611 2:0.113309 3:-0.762651 4:-0.854464 5:-0.849679 6:-0.633639 7:-0.2787 8:-0.0957762 
-93.9440469773468 1:-0.148595 2:0.0478455 3:-0.742423 4:-0.918729 5:-0.900829 6:-0.697407 7:-0.297384 8:-0.108205 
-42.46577441800715 1:-0.16009 2:-0.0523412 3:-0.522111 4:-0.698268 5:-0.861736 6:-0.315826 7:0.0943295 8:0.110227 
35.67501889489376 1:-0.109986 2:-0.0760162 3:-0.320582 4:-0.327092 5:-0.694958 6:0.206075 7:0.405895 8:0.31556 
33.08587556534342 1:-0.0610933 2:-0.0839916 3:-0.162098 4:0.127918 5:-0.419262 6:0.760784 7:0.453082 8:0.34971 
-42.02811807776589 1:-0.0403878 2:-0.0857285 3:-0.0991232 4:0.282315 5:-0.179642 6:0.774613 7:0.217941 8:0.246827 
-54.99368256314109 1:-0.046035 2:-0.0836311 3:-0.120396 4:0.146052 5:0.0908666 6:0.186944 7:-0.223824 8:0.0188365 
-256 1:-0.0328565 2:-0.0837512 3:-0.0828013 4:0.234827 5:0.143274 6:0.296822 7:0.13282 8:0.224497 
-115.5371213012842 1:0.0174541 2:-0.0707285 3:0.0267008 4:0.502093 5:0.313443 6:0.612824 7:0.40076 8:0.377744 
-215.7277246409038 1:-0.00528578 2:-0.0638974 3:-0.0548872 4:0.202914 5:0.27657 6:0.0756803 7:0.0238389 8:0.178323 
-256 1:0.0235723 2:-0.0553097 3:0.00510174 4:0.371266 5:0.316407 6:0.355149 7:0.275656 8:0.322059 
256 1:0.0466748 2:-0.0432586 3:0.0400632 4:0.483501 5:0.383543 6:0.493013 7:0.275656 8:0.322059 
256 1:0.0802517 2:-0.0260878 3:0.0917446 4:0.553003 5:0.45343 6:0.544582 7:0.40666 8:0.395791 
48.77705188019871 1:0.125464 2:-0.00221197 3:0.15943 4:0.714647 5:0.558464 6:0.733178 7:0.548813 8:0.483714 
-92.23259688919141 1:0.20596 2:0.0349405 3:0.293454 4:0.801984 5:0.660064 6:0.781528 7:0.771408 8:0.660203 
194.4037255969432 1:0.275064 2:0.0801596 3:0.374885 4:0.880635 5:0.756233 6:0.81949 7:0.799089 8:0.686145 
256 1:0.292527 2:0.120251 3:0.323122 4:0.743824 5:0.770882 6:0.536239 7:0.293427 8:0.452147 
-137.8765211019676 1:0.341754 2:0.163364 3:0.353621 4:0.841862 5:0.816093 6:0.672701 7:0.539448 8:0.60032 
256 1:0.365754 2:0.203236 3:0.32091 4:0.777234 5:0.822868 6:0.53907 7:0.392804 8:0.525921 
68.23453444863999 1:0.35828 2:0.233458 3:0.22349 4:0.604162 5:0.76481 6:0.27219 7:0.124912 8:0.383039 
-150.5507431649299 1:0.560563 2:0.388238 3:0.40529 4:0.795425 5:0.852416 6:0.539129 7:0.823707 8:0.829394 
115.9707717117056 1:0.630254 2:0.442452 3:0.46568 4:0.806172 5:0.857546 6:0.55388 7:0.854353 8:0.857691 
36.29384591138663 1:0.697776 2:0.544305 3:0.399707 4:0.696975 5:0.822349 6:0.383785 7:0.628906 8:0.760928 
71.28082806193652 1:0.644752 2:0.570556 3:0.183411 4:0.384717 5:0.685122 6:-0.0589494 7:-0.100307 8:0.345589 
-43.25889418231525 1:0.63474 2:0.589312 3:0.107746 4:0.303186 5:0.56416 6:-0.072904 7:0.228768 8:0.503159 
147.999219469925 1:0.618483 2:0.612842 3:0.00236028 4:0.172705 5:0.384175 6:-0.111476 7:0.20691 8:0.48685 
7.231605685000345 1:0.51487 2:0.596259 3:-0.248989 4:-0.253809 5:0.162145 6:-0.674905 7:-0.36142 8:0.0766175 
15.22985634545501 1:0.459081 2:0.570482 3:-0.341806 4:-0.3915 5:-0.0356579 6:-0.706211 7:-0.0914777 8:0.215884 
24.30114457921052 1:0.399466 2:0.53649 3:-0.424721 4:-0.538289 5:-0.220598 6:-0.770544 7:-0.16083 8:0.16711 
16.72908526778722 1:0.322641 2:0.463306 3:-0.457425 4:-0.604731 5:-0.460442 6:-0.61325 7:-0.0783829 8:0.203478 
18.3274001481619 1:0.259646 2:0.419395 3:-0.524867 4:-0.559554 5:-0.511477 6:-0.46456 7:-0.31744 8:0.0572686 
-35.94040283476876 1:0.211193 2:0.305176 3:-0.373725 4:-0.0552685 5:-0.340569 6:0.310981 7:0.331924 8:0.359283 
54.30938524142959 1:0.203438 2:0.280285 3:-0.332853 4:0.0785124 5:-0.200865 6:0.404058 7:0.130306 8:0.267133 
-12.68167785573831 1:0.0585819 2:0.227888 3:-0.610528 4:-0.301393 5:-0.245086 6:-0.281127 7:-0.581824 8:-0.244824 
-111.1759424414864 1:0.0328551 2:0.1802 3:-0.562981 4:-0.204806 5:-0.239645 6:-0.0999995 7:0.0044575 8:0.136305 
256 1:-0.0326553 2:0.127359 3:-0.615006 4:-0.322949 5:-0.278733 6:-0.282828 7:-0.175527 8:0.00628434 
-165.0408655728466 1:-0.0904711 2:0.0721203 3:-0.639207 4:-0.432134 5:-0.344268 6:-0.416679 7:-0.205198 8:-0.014596 
256 1:-0.214793 2:-0.0465277 3:-0.691581 4:-0.712494 5:-0.554326 6:-0.710492 7:-0.351139 8:-0.111346 
-170.096987031976 1:-0.252347 2:-0.103291 3:-0.654597 4:-0.77099 5:-0.650511 6:-0.709283 7:-0.268608 8:-0.071892 
256 1:-0.301003 2:-0.159613 3:-0.650143 4:-0.853151 5:-0.74434 6:-0.756856 7:-0.39228 8:-0.143355 
224.1345338818304 1:-0.296814 2:-0.203731 3:-0.52695 4:-0.651743 5:-0.734073 6:-0.377872 7:0.0146168 8:0.0573799 
188.9736353940132 1:-0.319882 2:-0.244199 3:-0.4901 4:-0.708118 5:-0.747611 6:-0.471219 7:-0.195071 8:-0.048202 
27.53532524565219 1:-0.477395 2:-0.351873 3:-0.66409 4:-0.570213 5:-0.682679 6:-0.280858 7:-0.550607 8:-0.283403 
42.31681727568772 1:-0.487383 2:-0.400276 3:-0.5702 4:-0.35658 5:-0.586248 6:0.0189992 7:-0.116003 8:-0.0491579 
-43.28910432479685 1:-0.519387 2:-0.446175 3:-0.544928 4:-0.320696 5:-0.508987 6:-0.00354012 7:-0.269743 8:-0.134995 
24.57056569888529 1:-0.490394 2:-0.504281 3:-0.316246 4:-0.0854118 5:-0.308182 6:0.213758 7:0.0256047 8:0.0308533 
0.3928953830579455 1:-0.557739 2:-0.574604 3:-0.329343 4:-0.36517 5:-0.318334 6:-0.317564 7:-0.417743 8:-0.19748 
8.904055867557727 1:-0.614452 2:-0.606956 3:-0.408181 4:-0.594061 5:-0.429214 6:-0.629809 7:-0.587527 8:-0.309949 
27.29154056077384 1:-0.609193 2:-0.631659 3:-0.330956 4:-0.532636 5:-0.480925 6:-0.448747 7:-0.118129 8:-0.0707778 
-21.81983651864852 1:-0.578309 2:-0.644495 3:-0.211168 4:-0.40232 5:-0.468283 6:-0.210697 7:0.0515739 8:0.0270813 
53.87451443091164 1:-0.562008 2:-0.651109 3:-0.148349 4:-0.386936 5:-0.454293 6:-0.197515 7:-0.0708644 8:-0.0279684 
-15.10070708157419 1:-0.496329 2:-0.64167 3:0.0136879 4:-0.0460265 5:-0.321709 6:0.306417 7:0.306166 8:0.198359 
51.19663827108562 1:-0.423206 2:-0.617721 3:0.160169 4:0.213162 5:-0.139609 6:0.592484 7:0.403226 8:0.265698 
72.59380190659074 1:-0.352709 2:-0.582753 3:0.271411 4:0.426808 5:0.0590353 6:0.770329 7:0.453535 8:0.300103 
82.04822629099715 1:-0.376553 2:-0.560125 3:0.146831 4:0.119857 5:0.0804856 6:0.148454 7:-0.236004 8:-0.0373775 
-155.0986579896195 1:-0.355876 2:-0.537386 3:0.147956 4:0.099061 5:0.0872669 6:0.0999598 7:0.038421 8:0.121198 
256 1:-0.327236 2:-0.512772 3:0.166883 4:0.12605 5:0.101546 6:0.135339 7:0.0966126 8:0.15533 
49.38685110798573 1:-0.30793 2:-0.488751 3:0.160894 4:-0.0099415 5:0.0618966 6:-0.0814914 7:0.0303606 8:0.123623 
15.67502343428162 1:-0.287477 2:-0.446778 3:0.112846 4:-0.289363 5:-0.111664 6:-0.417057 7:-0.126337 8:0.0539861 
127.8859400297062 1:-0.287249 2:-0.431318 3:0.074475 4:-0.451866 5:-0.240022 6:-0.579472 7:-0.205799 8:0.0180357 
223.5315452375015 1:-0.35927 2:-0.435101 3:-0.119782 4:-0.670189 5:-0.404531 6:-0.807161 7:-0.628342 8:-0.261752 
-80.8286189628447 1:-0.418465 2:-0.451403 3:-0.24615 4:-0.699355 5:-0.524748 6:-0.720285 7:-0.651518 8:-0.283628 
-31.00033900070046 1:-0.452752 2:-0.488527 3:-0.249484 4:-0.593211 5:-0.616617 6:-0.404407 7:-0.208419 8:-0.0901741 
40.41152182782592 1:-0.379051 2:-0.485305 3:-0.0490605 4:-0.219715 5:-0.492723 6:0.173201 7:0.416387 8:0.29164 
36.82203581002999 1:-0.289661 2:-0.452082 3:0.120052 4:0.165417 5:-0.160119 6:0.524224 7:0.25796 8:0.217823 
-121.2000136991059 1:-0.275589 2:-0.421079 3:0.0816298 4:0.146276 5:-0.00292757 6:0.299365 7:0.0551719 8:0.129543 
-240.8621078249151 1:-0.256661 2:-0.403899 3:0.0918356 4:0.19117 5:0.0649605 6:0.305518 7:0.0551719 8:0.129543 
-33.33065645187486 1:-0.237483 2:-0.372905 3:0.0678842 4:0.0817127 5:0.0884335 6:0.0648672 7:-0.0889153 8:0.0673558 
195.4036892301882 1:-0.269454 2:-0.368229 3:-0.0343867 4:-0.219147 5:-0.0224839 6:-0.387136 7:-0.470963 8:-0.139451 
-130.8623670274922 1:-0.308236 2:-0.376051 3:-0.124391 4:-0.439781 5:-0.291074 6:-0.495045 7:-0.24271 8:-0.0617263 
-256 1:-0.316671 2:-0.386879 3:-0.120935 4:-0.330696 5:-0.36802 6:-0.191273 7:-0.0963343 8:-0.00743022 
-19.50520545557243 1:-0.314173 2:-0.389436 3:-0.10741 4:-0.279609 5:-0.348647 6:-0.115165 7:-0.188392 8:-0.0494456 
-90.38451774252191 1:-0.261756 2:-0.382286 3:0.0228724 4:0.0154624 5:-0.229459 6:0.31572 7:0.426434 8:0.31061 
-44.24514988400412 1:-0.131555 2:-0.302254 3:0.189337 4:0.419399 5:0.247935 6:0.5304 7:0.0620926 8:0.182798 
-240.5813515107833 1:-0.183309 2:-0.29239 3:0.0179897 4:1.93678e-05 5:0.163091 6:-0.182963 7:-0.404296 8:-0.125187 
-256 1:-0.22863 2:-0.294662 3:-0.104525 4:-0.32425 5:-0.0107124 6:-0.605357 7:-0.440431 8:-0.153983 
-77.31163449919565 1:-0.268395 2:-0.305397 3:-0.189958 4:-0.585112 5:-0.220897 6:-0.861144 7:-0.47987 8:-0.183834 
-84.07225948182015 1:-0.295729 2:-0.320115 3:-0.230164 4:-0.716966 5:-0.408693 6:-0.893058 7:-0.47987 8:-0.183834 
-96.60968164302868 1:-0.361729 2:-0.374983 3:-0.278457 4:-0.895179 5:-0.788389 6:-0.785905 7:-0.528488 8:-0.247113 
-106.7316044633203 1:-0.497547 2:-0.446611 3:-0.482024 4:-1 5:-0.948402 6:-0.798479 7:-0.810538 8:-0.504126 
-35.72157672362469 1:-0.692845 2:-0.522143 3:-0.844056 4:-0.860386 5:-0.94555 6:-0.530678 7:-0.932377 8:-0.728893 
-4.384576502155053 1:-0.77621 2:-0.601263 3:-0.880287 4:-0.649417 5:-0.867372 6:-0.214203 7:-0.420932 8:-0.361003 
-7.906859325738577 1:-0.800185 2:-0.727832 3:-0.628711 4:-0.295853 5:-0.611881 6:0.167568 7:-0.0411661 8:-0.0877573 
-8.318201071671766 1:-0.643976 2:-0.73616 3:-0.165659 4:0.118321 5:-0.367348 6:0.680159 7:0.49373 8:0.377575 
-22.55751264706642 1:-0.215653 2:-0.557558 3:0.595663 4:0.49199 5:0.244765 6:0.675195 7:0.258652 8:0.329694 
18.58297396075781 1:-0.172965 2:-0.494313 3:0.556851 4:0.474731 5:0.332612 6:0.536785 7:0.154855 8:0.267676 
98.51108104607238 1:-0.136787 2:-0.435604 3:0.511063 4:0.426471 5:0.373727 6:0.39395 7:0.154855 8:0.267676 
-145.706912070993 1:-0.0886187 2:-0.334076 3:0.391143 4:0.26996 5:0.352093 6:0.11575 7:0.0643092 8:0.227212 
-113.3318811588936 1:0.000115392 2:-0.276713 3:0.497474 4:0.338972 5:0.35508 6:0.246243 7:0.476444 8:0.454751 
96.62915168312622 1:0.0589613 2:-0.217626 3:0.514877 4:0.280154 5:0.335804 6:0.155001 7:0.379972 8:0.411511 
32.00040942651942 1:0.124214 2:-0.155722 3:0.543304 4:0.509686 5:0.405943 6:0.517135 7:0.474592 8:0.466481 
256 1:0.182307 2:-0.0931722 3:0.549838 4:0.624491 5:0.494209 6:0.634761 7:0.51388 8:0.489113 
5.626297865530979 1:0.226506 2:-0.0332201 3:0.52361 4:0.701027 5:0.580726 6:0.68014 7:0.51388 8:0.489113 
-228.233818467002 1:0.259315 2:0.0220993 3:0.476844 4:0.752051 5:0.656851 6:0.688366 7:0.51388 8:0.489113 
-217.9349561881026 1:0.340003 2:0.0844496 3:0.547819 4:0.832452 5:0.736671 6:0.749248 7:0.810919 8:0.673651 
-256 1:0.365801 2:0.140115 3:0.480339 4:0.752004 5:0.760798 6:0.564169 7:0.351727 8:0.48631 
14.72372405800129 1:0.344488 2:0.179868 3:0.319705 4:0.386073 5:0.644579 6:-0.00790735 7:-0.000334147 8:0.305852 
-111.9594520318736 1:0.347496 2:0.212345 3:0.246256 4:0.26973 5:0.525035 6:-0.0911808 7:0.190866 8:0.392662 
-80.42373561965175 1:0.327595 2:0.233864 3:0.135636 4:0.126282 5:0.393475 6:-0.212758 7:0.0176372 8:0.302364 
-213.800312313108 1:0.267102 2:0.237513 3:-0.044754 4:-0.200649 5:0.187565 6:-0.60199 7:-0.273131 8:0.124186 
-256 1:0.194555 2:0.224162 3:-0.216356 4:-0.447717 5:-0.0390365 6:-0.81138 7:-0.391647 8:0.0381097 
-256 1:0.174377 2:0.208957 3:-0.23508 4:-0.374955 5:-0.163797 6:-0.521079 7:0.00423839 8:0.215325 
-250.7698732986636 1:0.199273 2:0.202376 3:-0.148024 4:-0.147715 5:-0.164811 6:-0.0784459 7:0.30552 8:0.380026 
-256 1:0.228703 2:0.203711 3:-0.0681111 4:0.0905674 5:-0.079335 6:0.282374 7:0.375509 8:0.421695 
-256 1:0.242293 2:0.207827 3:-0.0400417 4:0.241375 5:0.0321738 6:0.442188 7:0.288541 8:0.382374 
-256 1:0.304306 2:0.225027 3:0.0920336 4:0.506895 5:0.202513 6:0.754597 7:0.602383 8:0.574061 
-47.50731032451192 1:0.460726 2:0.273865 3:0.411416 4:0.683909 5:0.380073 6:0.886457 7:0.874557 8:0.832031 
7.603470516423714 1:0.605471 2:0.345395 3:0.64049 4:0.784481 5:0.534808 6:0.897077 7:0.911876 8:0.877647 
-8.717178862570318 1:0.918093 2:0.553479 3:1 4:0.823788 5:0.733333 6:0.736403 7:0.769842 8:0.868417 
45.96906685459869 1:0.935796 2:0.643165 3:0.823758 4:0.689896 5:0.736117 6:0.472988 7:0.311629 8:0.586723 
-47.07141397556252 1:0.962633 2:0.720931 3:0.703443 4:0.616906 5:0.711584 6:0.360495 7:0.399589 8:0.63576 
14.88329624527527 1:0.946768 2:0.779587 3:0.510522 4:0.501919 5:0.653654 6:0.206293 7:0.217567 8:0.525378 
-26.92106540473609 1:0.985299 2:0.835152 3:0.479326 4:0.552272 5:0.633239 6:0.328479 7:0.475508 8:0.662873 
63.19293452670544 1:0.997397 2:0.882317 3:0.39453 4:0.535429 5:0.61354 6:0.319281 7:0.415585 8:0.629756 
-32.77138065322032 1:0.969587 2:0.913813 3:0.236351 4:0.32053 5:0.522709 6:0.0102777 7:0.202017 8:0.512606 
-14.04502630619033 1:0.907335 2:0.932613 3:0.0127449 4:0.0627 5:0.232514 6:-0.144091 7:0.356695 8:0.55457 
0.2410327052416261 1:0.993129 2:0.974965 3:0.148638 4:0.604498 5:0.41169 6:0.694448 7:0.558742 8:0.677411 
11.49786806690933 1:1 2:0.994751 3:0.118149 4:0.71135 5:0.529445 6:0.761419 7:0.482009 8:0.640971 
-0.3859775178779141 1:0.95282 2:1 3:-0.0286068 4:0.575633 5:0.55888 6:0.46264 7:0.107267 8:0.448653 
-1.739724148676003 1:0.782108 2:0.925371 3:-0.32334 4:0.286373 5:0.310304 6:0.197527 7:0.312621 8:0.481276 
-9.35958853002243 1:0.804056 2:0.911134 3:-0.225305 4:0.41774 5:0.355699 6:0.398514 7:0.444166 8:0.557937 
44.37454053942027 1:0.778544 2:0.894023 3:-0.254317 4:0.37127 5:0.369161 6:0.292171 7:0.187795 8:0.419667 
24.38960289643637 1:0.670397 2:0.856082 3:-0.464594 4:0.0275104 5:0.253848 6:-0.237919 7:-0.217409 8:0.154109 
-20.5471309793212 1:0.552107 2:0.799202 3:-0.655781 4:-0.292244 5:0.0613636 6:-0.62924 7:-0.314804 8:0.0793327 
-6.650996160137676 1:0.35368 2:0.649022 3:-0.838275 4:-0.469951 5:-0.270322 6:-0.578428 7:-0.10454 8:0.140316 
8.997696738221652 1:0.192455 2:0.49781 3:-0.912895 4:-0.600133 5:-0.436318 6:-0.633123 7:-0.375832 8:-0.0496515 
-8.301536792141153 1:0.0346216 2:0.32375 3:-0.920258 4:-0.733881 5:-0.645726 6:-0.64291 7:-0.0936435 8:0.0751595 
-33.2971585278281 1:-0.0391013 2:0.240754 3:-0.919419 4:-0.827777 5:-0.731976 6:-0.72233 7:-0.266171 8:-0.0267664 
18.93214525769113 1:-0.00388419 2:0.133351 3:-0.548712 4:-0.159946 5:-0.492203 6:0.288683 7:0.165989 8:0.220087 
-12.15655707545787 1:0.0480357 2:0.107975 3:-0.337751 4:0.239348 5:-0.243804 6:0.767754 7:0.374548 8:0.348435 
-4.085725615083541 1:0.072225 2:0.0773563 3:-0.192029 4:0.422359 5:0.108675 6:0.702419 7:0.224788 8:0.283195 
-122.1899974891483 1:0.127059 2:0.080901 3:-0.0458064 4:0.573932 5:0.277751 6:0.794989 7:0.423695 8:0.400932 
-104.3394342945987 1:0.108346 2:0.0795401 3:-0.095327 4:0.371138 5:0.317148 6:0.354015 7:0.00188421 8:0.190169 
108.33010593702 1:0.0474696 2:0.0647995 3:-0.230392 4:0.0393377 5:0.223448 6:-0.178649 7:-0.215907 8:0.0575793 
-244.526862708427 1:0.0724188 2:0.0586021 3:-0.144151 4:0.157727 5:0.203786 6:0.0748024 7:0.200896 8:0.288242 
256 1:0.0804668 2:0.055449 3:-0.113419 4:0.183033 5:0.199828 6:0.128688 7:0.133593 8:0.252241 
-256 1:0.105676 2:0.0585797 3:-0.0499852 4:0.28927 5:0.235599 6:0.292348 7:0.241916 8:0.311923 
-256 1:0.0604647 2:0.0495745 3:-0.155195 4:0.0413374 5:0.159695 6:-0.0986456 7:-0.0864186 8:0.14499 
50.35205838060858 1:-0.0211357 2:0.0254418 3:-0.325202 4:-0.324365 5:-0.0130185 6:-0.602828 7:-0.383001 8:-0.0366147 
-35.66224998155816 1:-0.0840653 2:-0.00797683 3:-0.418941 4:-0.551937 5:-0.21044 6:-0.809185 7:-0.383001 8:-0.0366147 
-7.973165284200718 1:-0.294522 2:-0.155736 3:-0.641588 4:-0.709711 5:-0.604456 6:-0.645232 7:-0.625591 8:-0.209451 
14.93135933014279 1:-0.378049 2:-0.218847 3:-0.718679 4:-0.772579 5:-0.684506 6:-0.671783 7:-0.712125 8:-0.287927 
37.98386336449054 1:-0.374635 2:-0.315689 3:-0.464618 4:-0.574337 5:-0.697517 6:-0.271154 7:0.221221 8:0.159953 
208.3520522453175 1:-0.337548 2:-0.337727 3:-0.304054 4:-0.295502 5:-0.574057 6:0.12309 7:0.221221 8:0.159953 
-201.5421035612592 1:-0.31913 2:-0.351227 3:-0.217866 4:-0.0635677 5:-0.407894 6:0.375242 7:0.0691851 8:0.0981043 
-14.25856945191408 1:-0.277431 2:-0.352675 3:-0.0962114 4:0.261546 5:-0.179573 6:0.734186 7:0.277454 8:0.209674 
-216.9388238183311 1:-0.1993 2:-0.332042 3:0.072809 4:0.553294 5:0.217362 6:0.826998 7:0.396111 8:0.289193 
-41.10833174354466 1:-0.169187 2:-0.313053 3:0.110101 4:0.549859 5:0.341506 6:0.672106 7:0.230646 8:0.228396 
-185.2930028958372 1:-0.108598 2:-0.284274 3:0.208925 4:0.671698 5:0.46832 6:0.757375 7:0.519579 8:0.396402 
-27.86930646073439 1:-0.101058 2:-0.259561 3:0.16789 4:0.473294 5:0.481128 6:0.356674 7:0.0336662 8:0.178917 
-22.27818727874089 1:-0.0703676 2:-0.232907 3:0.187472 4:0.488941 5:0.495325 6:0.370118 7:0.23701 8:0.289856 
67.31101561760909 1:0.0886532 2:-0.175922 3:0.493654 4:0.671939 5:0.570953 6:0.635305 7:0.765083 8:0.711292 
104.1565873716014 1:0.0376519 2:-0.141772 3:0.263147 4:0.161505 5:0.436822 6:-0.19609 7:-0.085535 8:0.123164 
-139.2256635829701 1:0.0170849 2:-0.119064 3:0.14764 4:-0.110041 5:0.249223 6:-0.499597 7:-0.00839771 8:0.176646 
116.0535916217962 1:0.00534975 2:-0.10353 3:0.075228 4:-0.277324 5:0.0636747 6:-0.603016 7:0.00942765 8:0.187957 
-51.33589984219503 1:-0.00314396 2:-0.0930068 3:0.0246363 4:-0.292824 5:-0.065628 6:-0.478745 7:0.00942765 8:0.187957 
-256 1:-0.0699896 2:-0.0995791 3:-0.147935 4:-0.484726 5:-0.221212 6:-0.665762 7:-0.267614 8:0.0124058 
-256 1:-0.109367 2:-0.113668 3:-0.223809 4:-0.526316 5:-0.339973 6:-0.604761 7:-0.180748 8:0.0557954 
-206.6819263563808 1:-0.0924694 2:-0.121149 3:-0.157112 4:-0.429709 5:-0.384218 6:-0.364271 7:0.132634 8:0.220954 
164.0430618132899 1:-0.00117969 2:-0.106662 3:0.0646555 4:-0.158079 5:-0.315505 6:0.0813421 7:0.470607 8:0.442816 
56.01462614747311 1:0.0825538 2:-0.0762941 3:0.224964 4:0.240593 5:-0.125556 6:0.62899 7:0.510865 8:0.472323 
73.34305404632029 1:0.159413 2:-0.0347637 3:0.337648 4:0.506374 5:0.0971715 6:0.879356 7:0.555105 8:0.503172 
40.92368874819442 1:0.31498 2:0.108301 3:0.416815 4:0.857637 5:0.626962 6:0.929159 7:0.665346 8:0.566977 
42.61076485149282 1:0.272674 2:0.138312 3:0.221362 4:0.655598 5:0.652802 6:0.505837 7:-0.142343 8:0.196602 
-144.0555791840164 1:0.256242 2:0.158636 3:0.123572 4:0.506823 5:0.616239 6:0.26049 7:0.0231515 8:0.271256 
-85.12496045115944 1:0.302197 2:0.185201 3:0.186574 4:0.660799 5:0.647535 6:0.52223 7:0.407638 8:0.477846 
-138.553798307636 1:0.298978 2:0.224607 3:0.0780147 4:0.401647 5:0.578702 6:0.100998 7:0.0656336 8:0.297657 
-256 1:0.312303 2:0.240244 3:0.0762602 4:0.421264 5:0.535905 6:0.190202 7:0.262441 8:0.395219 
59.50671218399209 1:0.37331 2:0.266435 3:0.1828 4:0.567244 5:0.560153 6:0.444824 7:0.542115 8:0.562789 
256 1:0.398557 2:0.293049 3:0.187075 4:0.550241 5:0.570171 6:0.399834 7:0.355562 8:0.471346 
206.1260532564858 1:0.403121 2:0.315364 3:0.143674 4:0.480939 5:0.551794 6:0.287154 7:0.242803 8:0.416106 
14.63505462942037 1:0.373356 2:0.342828 3:-0.00986275 4:0.205279 5:0.434544 6:-0.108337 7:-0.0957381 8:0.237813 
-124.5976494814259 1:0.356844 2:0.34481 3:-0.0615887 4:0.125369 5:0.332818 6:-0.142109 7:0.0851105 8:0.31805 
-169.6440186596787 1:0.380533 2:0.354164 3:-0.018164 4:0.340232 5:0.315205 6:0.296297 7:0.391105 8:0.469176 
253.1272248957879 1:0.424629 2:0.36908 3:0.0689779 4:0.514833 5:0.394071 6:0.541307 7:0.597485 8:0.591607 
62.11694798559783 1:0.490133 2:0.41345 3:0.142362 4:0.686292 5:0.585719 6:0.645555 7:0.491453 8:0.566874 
-36.28377890904488 1:0.461964 2:0.438259 3:3.8369e-05 4:0.501492 5:0.586501 6:0.285639 7:0.0631988 8:0.371601 
-183.4527693545291 1:0.484712 2:0.44983 3:0.0352114 4:0.629241 5:0.616299 6:0.49822 7:0.477352 8:0.567801 
-44.78010981823782 1:0.528267 2:0.468853 3:0.110451 4:0.765473 5:0.68542 6:0.68033 7:0.641956 8:0.67307 
-3.206523403062424 1:0.688056 2:0.617743 3:0.186869 4:0.685668 5:0.791218 6:0.398988 7:0.7975 8:0.789304 
-20.57836194561228 1:0.618866 2:0.640408 3:-0.0661239 4:0.262745 5:0.594516 6:-0.187705 7:-0.308415 8:0.261364 
-23.03878005295344 1:0.581732 2:0.633306 3:-0.15328 4:0.0445262 5:0.410237 6:-0.391585 7:0.0224454 8:0.393155 
38.46074082686474 1:0.546771 2:0.619784 3:-0.218087 4:-0.100953 5:0.234785 6:-0.464705 7:0.0224454 8:0.393155 
4.757158859328343 1:0.458125 2:0.573171 3:-0.351296 4:-0.394307 5:-0.10109 6:-0.633541 7:-0.234228 8:0.243731 
20.63687638060813 1:0.380298 2:0.505571 3:-0.400931 4:-0.453722 5:-0.349736 6:-0.452086 7:0.193248 8:0.371359 
21.68164021136425 1:0.423902 2:0.490042 3:-0.238352 4:0.0434975 5:-0.219637 6:0.358452 7:0.588864 8:0.634356 
112.4294764170435 1:0.431124 2:0.479238 3:-0.190648 4:0.208161 5:-0.0733691 6:0.503683 7:0.321209 8:0.476565 
-113.1964036861417 1:0.420814 2:0.459588 3:-0.170232 4:0.34346 5:0.147296 6:0.503043 7:0.299024 8:0.458346 
96.32726268616865 1:0.427917 2:0.454156 3:-0.136425 4:0.479629 5:0.269403 6:0.621768 7:0.401229 8:0.514872 
18.53589761623521 1:0.368881 2:0.418125 3:-0.212553 4:0.303942 5:0.340717 6:0.195345 7:0.0781639 8:0.317668 
