svm_type epsilon_svr
kernel_type rbf
gamma 2
nr_class 2
total_sv 504
rho -15.8318
SV
-2.021025902042412 1:0.165013 2:0.175287 3:-0.180146 4:0.268637 5:0.171126 6:0.292827 7:1 8:1 
1.873787515710909 1:0.181413 2:0.18583 3:-0.156951 4:0.264924 5:0.211012 6:0.2415 7:1 8:1 
8.902273034743057 1:0.174576 2:0.186045 3:-0.179297 4:0.106485 5:0.17892 6:-0.0169195 7:0.214007 8:0.213969 
9.147261749305631 1:0.228416 2:0.207254 3:-0.0663008 4:0.494743 5:0.301327 6:0.56759 7:0.745083 8:0.710973 
16 1:0.234521 2:0.221671 3:-0.0865203 4:0.448436 5:0.365781 6:0.409812 7:0.340449 8:0.336978 
16 1:0.216045 2:0.225105 3:-0.154752 4:0.281944 5:0.347086 6:0.121517 7:0.0624417 8:0.0879675 
16 1:0.200558 2:0.222907 3:-0.197987 4:0.153997 5:0.287233 6:-0.0493641 7:0.0287848 8:0.0596201 
16 1:0.189602 2:0.218301 3:-0.220183 4:0.0686991 5:0.215739 6:-0.128092 7:0.0287848 8:0.0596201 
16 1:0.181641 2:0.212809 3:-0.230415 4:0.0118338 5:0.147015 6:-0.157114 7:0.0287848 8:0.0596201 
-4.114465914735321 1:0.185165 2:0.209627 3:-0.21045 4:-0.024836 5:0.0876172 6:-0.15903 7:0.175751 8:0.137671 
11.64279204874949 1:0.153077 2:0.195262 3:-0.273054 4:-0.433661 5:-0.177164 6:-0.623123 7:-0.265677 8:-0.13819 
16 1:0.137386 2:0.184269 3:-0.292753 4:-0.57833 5:-0.333504 6:-0.717566 7:-0.265677 8:-0.13819 
16 1:0.129531 2:0.1738 3:-0.288962 4:-0.637642 5:-0.459698 6:-0.68711 7:-0.173483 8:-0.10132 
16 1:0.105985 2:0.159949 3:-0.325797 4:-0.781159 5:-0.596982 6:-0.800641 7:-0.445683 8:-0.269021 
16 1:0.055609 2:0.137053 3:-0.423132 4:-0.850843 5:-0.714315 6:-0.799315 7:-0.692678 8:-0.48683 
16 1:-0.00407059 2:0.104843 3:-0.524461 4:-0.77821 5:-0.765635 6:-0.60729 7:-0.782542 8:-0.592213 
16 1:-0.0899484 2:0.0591019 3:-0.671943 4:-0.874871 5:-0.835649 6:-0.708763 7:-0.879083 8:-0.732905 
16 1:-0.113768 2:0.0172166 3:-0.632558 4:-0.679372 5:-0.809918 6:-0.37445 7:-0.323051 8:-0.404892 
16 1:-0.0890545 2:-0.0102856 3:-0.478293 4:-0.323759 5:-0.661052 6:0.119973 7:0.0341861 8:-0.160764 
16 1:-0.0790058 2:-0.0298249 3:-0.392588 4:-0.138672 5:-0.493256 6:0.276699 7:-0.0649083 8:-0.217713 
16 1:-0.0887486 2:-0.0476626 3:-0.374539 4:-0.101926 5:-0.367783 6:0.205147 7:-0.222237 8:-0.308222 
16 1:-0.0974349 2:-0.0639072 3:-0.357509 4:-0.0794447 5:-0.275807 6:0.144429 7:-0.253971 8:-0.326118 
16 1:-0.0885201 2:-0.0747953 3:-0.299201 4:0.042446 5:-0.169345 6:0.252142 7:-0.0952793 8:-0.243052 
16 1:-0.0828405 2:-0.0821678 3:-0.260855 4:0.103185 5:-0.0758732 6:0.260789 7:-0.142778 8:-0.264769 
16 1:-0.0969014 2:-0.0913197 3:-0.280431 4:0.0410699 5:-0.0365649 6:0.101673 7:-0.357545 8:-0.369494 
7.742384296196582 1:-0.122068 2:-0.10447 3:-0.32435 4:-0.082426 5:-0.0560994 6:-0.105858 7:-0.489619 8:-0.444692 
16 1:-0.125277 2:-0.115722 3:-0.30362 4:-0.321036 5:-0.157498 6:-0.435922 7:-0.26187 8:-0.343433 
16 1:-0.120014 2:-0.123497 3:-0.265494 4:-0.421551 5:-0.262326 6:-0.50577 7:-0.186298 8:-0.309441 
16 1:-0.112598 2:-0.127994 3:-0.229529 4:-0.472926 5:-0.351239 6:-0.502109 7:-0.186298 8:-0.309441 
16 1:-0.108044 2:-0.130534 3:-0.208053 4:-0.533733 5:-0.433036 6:-0.523887 7:-0.259655 8:-0.336444 
16 1:-0.101327 2:-0.13101 3:-0.185372 4:-0.574272 5:-0.502582 6:-0.52168 7:-0.259655 8:-0.336444 
16 1:-0.0839783 2:-0.127372 3:-0.14017 4:-0.509554 5:-0.524975 6:-0.376574 7:0.00611445 8:-0.243443 
3.330643624223769 1:0.018642 2:-0.100702 3:0.113028 4:0.0840507 5:-0.320047 6:0.49727 7:0.716475 8:0.283131 
16 1:0.0777867 2:-0.0656767 3:0.204913 4:0.13575 5:-0.16428 6:0.419736 7:0.38144 8:0.119619 
16 1:0.10215 2:-0.0320214 3:0.189892 4:0.0555371 5:-0.0901447 6:0.188221 7:0.107538 8:-0.0244096 
16 1:0.112733 2:-0.00265135 3:0.142802 4:-0.0591003 5:-0.08318 6:-0.0323819 7:0.00661048 8:-0.0788037 
16 1:0.177066 2:0.062159 3:0.169291 4:0.0160385 5:-0.0256382 6:0.0430257 7:0.162591 8:0.0262365 
6.432720122376387 1:0.190364 2:0.0906555 3:0.133246 4:-0.0183516 5:-0.0250833 6:-0.0214437 7:0.0982933 8:-0.00443799 
-4.901840164235399 1:0.228494 2:0.122277 3:0.167622 4:0.109654 5:0.022697 6:0.162995 7:0.355835 8:0.139039 
-11.76151121550595 1:0.309124 2:0.166234 3:0.303311 4:0.375009 5:0.152832 6:0.510705 7:0.610667 8:0.333092 
-16 1:0.323646 2:0.20476 3:0.24358 4:0.256 5:0.19551 6:0.2422 7:0.0976365 8:0.0486189 
-16 1:0.342615 2:0.23997 3:0.207116 4:0.232362 5:0.215208 6:0.176369 7:0.162565 8:0.0862741 
-16 1:0.341279 2:0.267828 3:0.126259 4:0.133051 5:0.191557 6:0.0183283 7:0.019184 8:0.00661973 
-11.31226729273766 1:0.418607 2:0.308011 3:0.261821 4:0.425808 5:0.28422 6:0.458657 7:0.467536 8:0.285152 
-16 1:0.447831 2:0.34692 3:0.247818 4:0.447686 5:0.354098 6:0.421434 7:0.213932 8:0.13794 
3.998385259411895 1:0.467483 2:0.382596 3:0.21225 4:0.462271 5:0.406086 6:0.390601 7:0.213932 8:0.13794 
12.43351771361516 1:0.372327 2:0.405349 3:-0.153108 4:-0.263215 5:0.115393 6:-0.632564 7:-0.331041 8:-0.201557 
-4.63309334915544 1:0.299477 2:0.390456 3:-0.343962 4:-0.401571 5:-0.0729986 6:-0.679582 7:-0.446549 8:-0.287354 
-0.2539938177628357 1:0.264764 2:0.370507 3:-0.399562 4:-0.385501 5:-0.19264 6:-0.516464 7:-0.202817 8:-0.175243 
16 1:0.217303 2:0.343565 3:-0.476496 4:-0.461434 5:-0.300525 6:-0.537264 7:-0.324052 8:-0.248934 
-16 1:0.203473 2:0.31881 3:-0.452432 4:-0.403747 5:-0.351083 6:-0.373839 7:-0.0805886 8:-0.135612 
-1.902468909417687 1:0.206582 2:0.299726 3:-0.390059 4:-0.281192 5:-0.339397 6:-0.159313 7:0.0503727 8:-0.0708372 
16 1:0.218141 2:0.287133 3:-0.318653 4:-0.129247 5:-0.275329 6:0.0514284 7:0.137483 8:-0.0274268 
16 1:0.221785 2:0.277903 3:-0.281674 4:0.0376585 5:-0.170799 6:0.244874 7:0.0734419 8:-0.0532728 
16 1:0.300911 2:0.288831 3:-0.0599454 4:0.402987 5:0.0341972 6:0.694808 7:0.555493 8:0.243101 
16 1:0.322854 2:0.302651 3:-0.0281279 4:0.463053 5:0.193108 6:0.629306 7:0.163119 8:0.0478873 
16 1:0.304538 2:0.309469 3:-0.105157 4:0.275321 5:0.229517 6:0.24019 7:-0.0922096 8:-0.0971792 
16 1:0.293415 2:0.312349 3:-0.148468 4:0.177057 5:0.217395 6:0.0712484 7:-0.0524437 8:-0.0773144 
16 1:0.341091 2:0.325687 3:-0.0334388 4:0.430388 5:0.303142 6:0.446083 7:0.319305 8:0.132181 
16 1:0.357136 2:0.34007 3:-0.0219379 4:0.335211 5:0.325055 6:0.244959 7:0.144454 8:0.0426206 
16 1:0.34338 2:0.348393 3:-0.0885969 4:0.127349 5:0.262676 6:-0.0714848 7:-0.053932 8:-0.0635092 
16 1:0.37403 2:0.362145 3:-0.0288826 4:0.216221 5:0.254007 6:0.103179 7:0.233905 8:0.0915568 
16 1:0.443971 2:0.389333 3:0.118907 4:0.314987 5:0.284808 6:0.252244 7:0.444583 8:0.230138 
16 1:0.514916 2:0.427503 3:0.239695 4:0.465135 5:0.360953 6:0.446195 7:0.511722 8:0.279019 
16 1:0.552 2:0.466621 3:0.250126 4:0.448544 5:0.405572 6:0.365687 7:0.353408 8:0.20465 
2.603336937730574 1:0.55729 2:0.499139 3:0.177539 4:0.361404 5:0.403043 6:0.206713 7:0.150784 8:0.10726 
16 1:0.552122 2:0.523958 3:0.0928468 4:0.254259 5:0.361673 6:0.0538651 7:0.0989956 8:0.0825574 
16 1:0.543659 2:0.541855 3:0.0167052 4:0.182829 5:0.307637 6:-0.0185618 7:0.0989956 8:0.0825574 
10.1715800008721 1:0.503661 2:0.546915 3:-0.124484 4:0.0120801 5:0.208371 6:-0.225007 7:-0.23123 8:-0.07494 
9.01334683962199 1:0.41519 2:0.530488 3:-0.360829 4:-0.30802 5:0.0236365 6:-0.613537 7:-0.5549 8:-0.300111 
16 1:0.294583 2:0.489435 3:-0.63171 4:-0.486428 5:-0.165598 6:-0.733978 7:-0.707202 8:-0.451491 
5.484750126986774 1:0.184081 2:0.431018 3:-0.822693 4:-0.491303 5:-0.29356 6:-0.600481 7:-0.742402 8:-0.491245 
16 1:0.116676 2:0.368685 3:-0.865769 4:-0.447291 5:-0.362567 6:-0.441893 7:-0.483648 8:-0.38259 
-7.890463538580556 1:0.0085519 2:0.241535 3:-0.860177 4:-0.34055 5:-0.389049 6:-0.214208 7:-0.408622 8:-0.371286 
12.25396546836646 1:-0.0123424 2:0.18724 3:-0.777359 4:-0.268171 5:-0.359885 6:-0.112313 7:-0.262733 8:-0.311988 
-16 1:-0.03639 2:0.138238 3:-0.719132 4:-0.238514 5:-0.329457 6:-0.0911458 7:-0.352235 8:-0.352739 
3.948113915221555 1:-0.0529345 2:0.0952081 3:-0.653451 4:-0.162299 5:-0.280944 6:-0.00368207 7:-0.352235 8:-0.352739 
14.54454032978212 1:-0.000345865 2:0.0729546 3:-0.42492 4:0.269682 5:-0.0886062 6:0.584105 7:0.375159 8:0.0110741 
16 1:0.00392533 2:0.0561404 3:-0.365092 4:0.374183 5:0.0783239 6:0.592172 7:-0.0400759 8:-0.17718 
16 1:-0.0448217 2:0.0189106 3:-0.417829 4:-0.208045 5:-0.00316535 6:-0.398059 7:-0.390827 8:-0.370304 
-16 1:-0.0635698 2:-0.00271539 3:-0.418018 4:-0.383358 5:-0.145291 6:-0.565232 7:-0.272534 8:-0.313534 
-3.845121759954659 1:-0.0756529 2:-0.0228125 3:-0.401202 4:-0.500234 5:-0.28333 6:-0.628459 7:-0.272534 8:-0.313534 
16 1:-0.0532508 2:-0.0337057 3:-0.299964 4:-0.355346 5:-0.321693 6:-0.316714 7:0.0901922 8:-0.138798 
16 1:-0.0137931 2:-0.0332885 3:-0.175557 4:-0.110217 5:-0.256478 6:0.0657617 7:0.264823 8:-0.0366477 
16 1:0.0385786 2:-0.0208343 3:-0.0431566 4:0.122828 5:-0.126687 6:0.353866 7:0.40708 8:0.0573074 
16 1:0.0519192 2:-0.00778347 3:-0.0365947 4:0.0832377 5:-0.0548225 6:0.200304 7:0.0208784 8:-0.107809 
16 1:0.151062 2:0.0256019 3:0.187073 4:0.428934 5:0.121125 6:0.646147 7:0.510033 8:0.229319 
16 1:0.190048 2:0.0613329 3:0.212874 4:0.458155 5:0.249246 6:0.557676 7:0.17251 8:0.0424664 
16 1:0.225164 2:0.0980445 3:0.22366 4:0.502791 5:0.351192 6:0.526984 7:0.199677 8:0.0595316 
16 1:0.227708 2:0.128003 3:0.149376 4:0.406772 5:0.383593 6:0.312613 7:-0.0119967 8:-0.0540214 
16 1:0.228987 2:0.152265 3:0.0867271 4:0.342759 5:0.381485 6:0.196111 7:-0.0119967 8:-0.0540214 
16 1:0.22926 2:0.171738 3:0.0340471 4:0.215561 5:0.332968 6:0.0139931 7:-0.0119967 8:-0.0540214 
16 1:0.233598 2:0.188321 3:0.00225292 4:0.0605796 5:0.243222 6:-0.173782 7:0.0511108 8:-0.0285981 
16 1:0.231359 2:0.201069 3:-0.0399283 4:-0.0817325 5:0.130682 6:-0.312642 7:-0.0280492 8:-0.0591958 
16 1:0.219133 2:0.208437 3:-0.0990935 4:-0.323906 5:-0.0340402 6:-0.578781 7:-0.183531 8:-0.121786 
16 1:0.218653 2:0.214221 3:-0.116526 4:-0.377047 5:-0.163537 6:-0.533189 7:0.00658777 8:-0.0573773 
16 1:0.241954 2:0.224241 3:-0.0699353 4:-0.139538 5:-0.161901 6:-0.0940358 7:0.338602 8:0.088066 
16 1:0.26419 2:0.237403 3:-0.0353718 4:0.0707884 5:-0.0829095 6:0.208478 7:0.389604 8:0.115114 
6.681800472378633 1:0.265908 2:0.24833 3:-0.0599542 4:0.0550429 5:-0.0360805 6:0.127077 7:0.0681327 8:-0.0032894 
16 1:0.290394 2:0.262739 3:-0.0216605 4:0.173147 5:0.038882 6:0.262851 7:0.364911 8:0.14 
16 1:0.327582 2:0.282872 3:0.0413081 4:0.416056 5:0.178825 6:0.557959 7:0.518316 8:0.236878 
16 1:0.330574 2:0.299671 3:0.00463327 4:0.37278 5:0.256091 6:0.391535 7:0.0903479 8:0.0423623 
-16 1:0.316456 2:0.309843 3:-0.0682609 4:0.195718 5:0.242023 6:0.0784615 7:-0.102955 8:-0.060494 
16 1:0.303669 2:0.315021 3:-0.123188 4:-0.0176342 5:0.153623 6:-0.219188 7:-0.102955 8:-0.060494 
16 1:0.301788 2:0.318728 3:-0.139369 4:-0.127876 5:0.0538588 6:-0.312736 7:0.0633673 8:0.00711363 
14.65173957316799 1:0.298755 2:0.320992 3:-0.155244 4:-0.246361 5:-0.0565346 6:-0.409746 7:0.0633673 8:0.00711363 
-16 1:0.294855 2:0.321901 3:-0.170153 4:-0.32535 5:-0.159386 6:-0.441829 7:0.0633673 8:0.00711363 
-6.838514848300704 1:0.290319 2:0.321578 3:-0.183697 4:-0.0855785 5:-0.139148 6:-0.019196 7:0.0633673 8:0.00711363 
16 1:0.261044 2:0.314544 3:-0.25751 4:-0.0881925 5:-0.126624 6:-0.038001 7:-0.467163 8:-0.228979 
-4.821374032797873 1:0.217578 2:0.298858 3:-0.352684 4:-0.219905 5:-0.167058 6:-0.237505 7:-0.653918 8:-0.372833 
9.416779616633695 1:0.187784 2:0.279414 3:-0.394022 4:-0.275221 5:-0.214501 6:-0.287357 7:-0.501859 8:-0.318619 
14.33099271837931 1:0.144745 2:0.253898 3:-0.460805 4:-0.442067 5:-0.307926 6:-0.493063 7:-0.672461 8:-0.450349 
16 1:0.111257 2:0.225735 3:-0.489922 4:-0.553298 5:-0.411407 6:-0.584307 7:-0.672461 8:-0.450349 
16 1:0.114786 2:0.204021 3:-0.418983 4:-0.432498 5:-0.435653 6:-0.333011 7:0.0377682 8:-0.136194 
16 1:0.108405 2:0.185173 3:-0.387458 4:-0.41695 5:-0.446058 6:-0.292551 7:-0.124803 8:-0.215265 
16 1:0.0991919 2:0.167963 3:-0.369449 4:-0.439076 5:-0.46119 6:-0.316776 7:-0.203718 8:-0.25432 
16 1:0.107301 2:0.156071 3:-0.310946 4:-0.425977 5:-0.466426 6:-0.286622 7:0.0895375 8:-0.107977 
16 1:0.0948756 2:0.143683 3:-0.316416 4:-0.484085 5:-0.491439 6:-0.366646 7:-0.237689 8:-0.269043 
16 1:0.105376 2:0.136202 3:-0.262431 4:-0.210897 5:-0.406931 6:0.0464349 7:0.0905898 8:-0.0904791 
16 1:0.104565 2:0.130029 3:-0.24804 4:-0.184735 5:-0.340903 6:0.0214548 7:-0.0706886 8:-0.170987 
16 1:0.104618 2:0.125103 3:-0.234326 4:-0.167294 5:-0.290425 6:-0.00239481 7:-0.0706886 8:-0.170987 
16 1:-0.00641364 2:0.0954666 3:-0.506132 4:-0.417283 5:-0.349362 6:-0.400887 7:-0.769924 8:-0.693389 
-11.54712090224051 1:-0.0865912 2:0.0532016 3:-0.645035 4:-0.496638 5:-0.418046 6:-0.471711 7:-0.703388 8:-0.652886 
-5.137144970672537 1:-0.131963 2:0.00888899 3:-0.667557 4:-0.480734 5:-0.457944 6:-0.397737 7:-0.492928 8:-0.530838 
16 1:-0.173846 2:-0.0362539 3:-0.67669 4:-0.516003 5:-0.497605 6:-0.419037 7:-0.544332 8:-0.565586 
16 1:-0.207657 2:-0.0801932 3:-0.663451 4:-0.558281 5:-0.539705 6:-0.450635 7:-0.571854 8:-0.583377 
16 1:-0.220181 2:-0.118243 3:-0.598673 4:-0.533297 5:-0.558519 6:-0.383291 7:-0.381463 8:-0.490614 
16 1:-0.245042 2:-0.154437 3:-0.578252 4:-0.614118 5:-0.600995 6:-0.486031 7:-0.535359 8:-0.572433 
16 1:-0.245268 2:-0.183444 3:-0.499207 4:-0.594891 5:-0.622191 6:-0.426721 7:-0.260658 8:-0.434709 
16 1:-0.211614 2:-0.198861 3:-0.349725 4:-0.245777 5:-0.507019 6:0.09317 7:0.128954 8:-0.200959 
16 1:-0.185814 2:-0.205224 3:-0.250133 4:0.103938 5:-0.30071 6:0.512653 7:0.0580256 8:-0.230245 
16 1:-0.161603 2:-0.204711 3:-0.174503 4:0.298091 5:-0.0912615 6:0.639809 7:0.0580256 8:-0.230245 
16 1:-0.158349 2:-0.203548 3:-0.167348 4:0.167587 5:3.53398e-05 6:0.295802 7:-0.244199 8:-0.352891 
16 1:-0.142396 2:-0.198925 3:-0.129297 4:0.210554 5:0.0768138 6:0.290048 7:-0.0620852 8:-0.264151 
16 1:-0.116675 2:-0.189274 3:-0.0739917 4:0.369168 5:0.186746 6:0.462079 7:0.102182 8:-0.178276 
16 1:-0.112751 2:-0.180645 3:-0.0852327 4:0.214972 5:0.202924 6:0.157765 7:-0.217307 8:-0.312399 
16 1:-0.101651 2:-0.171173 3:-0.0759606 4:0.141713 5:0.186576 6:0.0399589 7:-0.119735 8:-0.266266 
12.42128304539206 1:-0.206541 2:-0.18787 3:-0.363806 4:-0.236433 5:0.0356203 6:-0.493974 7:-0.772231 8:-0.718473 
-14.75552033900968 1:-0.289345 2:-0.220392 3:-0.537859 4:-0.466425 5:-0.1502 6:-0.713991 7:-0.781859 8:-0.729043 
16 1:-0.349042 2:-0.260224 3:-0.618281 4:-0.618275 5:-0.330322 6:-0.795275 7:-0.781859 8:-0.729043 
-2.008398630764459 1:-0.399673 2:-0.303808 3:-0.659542 4:-0.722376 5:-0.48896 6:-0.811836 7:-0.807981 8:-0.753258 
4.917425640537626 1:-0.432907 2:-0.346367 3:-0.648262 4:-0.791776 5:-0.620423 6:-0.794242 7:-0.807981 8:-0.753258 
16 1:-0.45213 2:-0.384862 3:-0.603575 4:-0.838043 5:-0.725202 6:-0.763423 7:-0.807981 8:-0.753258 
16 1:-0.469877 2:-0.419766 3:-0.564066 4:-0.91476 5:-0.823468 6:-0.796394 7:-0.846417 8:-0.782698 
-14.00220633524723 1:-0.567648 2:-0.501087 3:-0.651551 4:-1 5:-0.976852 6:-0.78379 7:-0.963203 8:-0.921217 
9.125539118987218 1:-0.663388 2:-0.55753 3:-0.800987 4:-0.938426 5:-1 6:-0.64368 7:-1 8:-1 
3.960863343009266 1:-0.782318 2:-0.72098 3:-0.729961 4:-0.81015 5:-0.94085 6:-0.471405 7:-0.859156 8:-0.923086 
10.95498367753448 1:-0.781029 2:-0.760671 3:-0.616716 4:-0.762481 5:-0.910833 6:-0.416338 7:-0.628139 8:-0.814578 
16 1:-0.764378 2:-0.788569 3:-0.487016 4:-0.708421 5:-0.870799 6:-0.360564 7:-0.510806 8:-0.759426 
16 1:-0.711585 2:-0.798671 3:-0.291251 4:-0.490424 5:-0.763368 6:-0.0754902 7:0.0192692 8:-0.462988 
5.680873103434895 1:-0.660233 2:-0.794867 3:-0.138309 4:-0.242247 5:-0.599829 6:0.203113 7:0.0192692 8:-0.462988 
4.96361523085796 1:-0.605736 2:-0.779212 3:-0.0079484 4:0.05704 5:-0.379954 6:0.513855 7:0.101375 8:-0.413969 
3.841622325499499 1:-0.554256 2:-0.754773 3:0.0886611 4:0.401794 5:-0.105682 6:0.848415 7:0.101375 8:-0.413969 
4.50871746917568 1:-0.46685 2:-0.714994 3:0.257401 4:0.580213 5:0.143249 6:0.902377 7:0.560895 8:-0.0623953 
7.599882219624853 1:-0.405747 2:-0.66903 3:0.325435 4:0.587757 5:0.311997 6:0.728401 7:0.250665 8:-0.169272 
-7.144000705693927 1:-0.322213 2:-0.612926 3:0.436962 4:0.642299 5:0.444696 6:0.681841 7:0.494847 8:0.0325503 
15.27045943129916 1:-0.260933 2:-0.553861 3:0.469536 4:0.612008 5:0.521944 6:0.53955 7:0.310935 8:-0.0415628 
16 1:-0.175868 2:-0.440232 3:0.427752 4:0.428842 5:0.521988 6:0.199421 7:0.115997 8:-0.117884 
0.8383723269189519 1:-0.157527 2:-0.391774 3:0.352863 4:0.248847 5:0.438965 6:-0.0422857 7:-0.151479 8:-0.230016 
16 1:-0.134621 2:-0.347707 3:0.304568 4:0.097135 5:0.327426 6:-0.199713 7:-0.0505133 8:-0.18459 
4.666811292705264 1:-0.147277 2:-0.315382 3:0.175409 4:-0.0813566 5:0.186957 6:-0.374633 7:-0.481648 8:-0.411372 
-3.067576338071522 1:-0.173072 2:-0.295491 3:0.0386358 4:-0.320323 5:0.00480373 6:-0.6154 7:-0.614658 8:-0.509349 
2.67730990911599 1:-0.203063 2:-0.276819 3:-0.108145 4:-0.604927 5:-0.342337 6:-0.757109 7:-0.65096 8:-0.534859 
-2.620722276280492 1:-0.209551 2:-0.273083 3:-0.139061 4:-0.681367 5:-0.481781 6:-0.743694 7:-0.65096 8:-0.534859 
-11.60759602071411 1:-0.18121 2:-0.263536 3:-0.075131 4:-0.498382 5:-0.506971 6:-0.375889 7:0.0794555 8:-0.205465 
16 1:-0.14534 2:-0.247597 3:-0.00482419 4:-0.29841 5:-0.449699 6:-0.0684059 7:0.222737 8:-0.116704 
3.835287501313237 1:-0.137997 2:-0.233146 3:-0.0211973 4:-0.36005 5:-0.434348 6:-0.199952 7:-0.191646 8:-0.300802 
14.81583872920178 1:-0.128792 2:-0.219455 3:-0.0295526 4:-0.401143 5:-0.439333 6:-0.270695 7:-0.191646 8:-0.300802 
16 1:-0.137669 2:-0.210557 3:-0.0822686 4:-0.623493 5:-0.52501 6:-0.588083 7:-0.438962 8:-0.430073 
16 1:-0.146034 2:-0.205374 3:-0.123138 4:-0.734592 5:-0.623277 6:-0.68489 7:-0.48925 8:-0.459644 
-6.849161160897792 1:-0.153902 2:-0.203049 3:-0.15457 4:-0.845792 5:-0.729974 6:-0.772494 7:-0.541454 8:-0.489949 
-4.345964758982356 1:-0.151573 2:-0.20065 3:-0.153756 4:-0.81821 5:-0.790889 6:-0.653424 7:-0.379107 8:-0.425207 
10.35604670198439 1:-0.15586 2:-0.199722 3:-0.169945 4:-0.867632 5:-0.849805 6:-0.679554 7:-0.517599 8:-0.493512 
-0.2786448041277149 1:-0.150702 2:-0.197787 3:-0.158856 4:-0.83051 5:-0.875332 6:-0.582193 7:-0.342694 8:-0.423855 
8.542436394035834 1:-0.133344 2:-0.192221 3:-0.118927 4:-0.669794 5:-0.832825 6:-0.331147 7:-0.0423598 8:-0.29014 
0.8953934943524084 1:-0.106626 2:-0.181585 3:-0.0631566 4:-0.334703 5:-0.680377 6:0.121182 7:0.185402 8:-0.16824 
-14.31356093024429 1:-0.0923156 2:-0.169765 3:-0.050127 4:-0.189291 5:-0.524888 6:0.217953 7:-0.0782589 8:-0.266352 
16 1:-0.0781716 2:-0.157035 3:-0.0401257 4:-0.0923492 5:-0.385323 6:0.242469 7:-0.0782589 8:-0.266352 
16 1:-0.0837565 2:-0.148144 3:-0.0823468 4:-0.330984 5:-0.380665 6:-0.205787 7:-0.465691 8:-0.443928 
6.357250814257482 1:-0.167908 2:-0.160506 3:-0.316122 4:-0.57672 5:-0.468575 6:-0.56411 7:-0.85908 8:-0.801921 
-16 1:-0.196028 2:-0.176904 3:-0.36051 4:-0.522195 5:-0.506986 6:-0.420085 7:-0.376712 8:-0.481385 
16 1:-0.243102 2:-0.200916 3:-0.444269 4:-0.673002 5:-0.588449 6:-0.609335 7:-0.521774 8:-0.585621 
16 1:-0.280192 2:-0.22871 3:-0.48586 4:-0.5123 5:-0.583238 6:-0.31677 7:-0.544396 8:-0.601696 
-2.323773590850789 1:-0.328474 2:-0.262119 3:-0.547626 4:-0.502643 5:-0.576187 6:-0.306695 7:-0.650819 8:-0.677645 
-7.264293245651321 1:-0.331522 2:-0.289552 3:-0.481888 4:-0.371235 5:-0.522815 6:-0.122167 7:-0.25082 8:-0.435107 
16 1:-0.333111 2:-0.311865 3:-0.425584 4:-0.295731 5:-0.45927 6:-0.0527702 7:-0.288916 8:-0.455074 
-11.54284313212992 1:-0.314101 2:-0.325317 3:-0.328104 4:-0.183831 5:-0.375461 6:0.0616299 7:-0.092114 8:-0.338721 
-11.19988718372629 1:-0.343678 2:-0.353162 3:-0.345648 4:-0.257384 5:-0.310163 6:-0.147673 7:-0.483835 8:-0.542406 
-7.784245400259388 1:-0.383313 2:-0.374372 3:-0.413444 4:-0.471952 5:-0.38277 6:-0.465175 7:-0.629226 8:-0.636903 
-16 1:-0.39354 2:-0.393707 3:-0.392817 4:-0.485028 5:-0.436017 6:-0.430136 7:-0.401678 8:-0.516035 
-13.26057075671509 1:-0.351452 2:-0.399434 3:-0.243144 4:-0.159538 5:-0.350961 6:0.0794426 7:0.0801118 8:-0.216594 
-9.119921172148272 1:-0.298013 2:-0.391649 3:-0.0945096 4:0.161431 5:-0.175378 6:0.47978 7:0.195352 8:-0.133662 
-12.98257465189722 1:-0.23629 2:-0.371136 3:0.0454858 4:0.457106 5:0.0511886 6:0.77636 7:0.304296 8:-0.0538425 
0.4340993781036295 1:-0.173639 2:-0.340226 3:0.159843 4:0.72849 5:0.302748 6:1 7:0.374832 8:-0.00160429 
6.799153493704833 1:-0.140132 2:-0.307744 3:0.177141 4:0.732182 5:0.471821 6:0.818509 7:0.0880074 8:-0.120602 
-16 1:-0.110403 2:-0.274877 3:0.181362 4:0.734643 5:0.585448 6:0.6965 7:0.0880074 8:-0.120602 
8.574993371393536 1:-0.0518158 2:-0.208198 3:0.184429 4:0.782277 5:0.7385 6:0.614442 7:0.154772 8:-0.0873037 
16 1:0.056964 2:-0.123679 3:0.298154 4:0.919928 5:0.891985 6:0.699036 7:0.447336 8:0.117839 
9.275153729352729 1:0.065115 2:-0.0870056 3:0.223243 4:0.51716 5:0.785007 6:0.0703995 7:-0.0633968 8:-0.105296 
6.695115327917968 1:0.0532018 2:-0.0604236 3:0.112239 4:-0.0112905 5:0.517962 6:-0.613278 7:-0.28107 8:-0.22732 
15.64514426864216 1:0.0597206 2:-0.0376495 3:0.0703566 4:-0.168637 5:0.281655 6:-0.642176 7:-0.0603181 8:-0.123082 
-11.54632749230448 1:0.056309 2:-0.0202197 3:0.0115715 4:-0.403504 5:0.0371272 6:-0.805848 7:-0.183784 8:-0.186875 
4.536966880685553 1:0.0548749 2:-0.00660774 3:-0.0304227 4:-0.560082 5:-0.183884 6:-0.850359 7:-0.183784 8:-0.186875 
-16 1:0.0550064 2:0.00431225 3:-0.0600325 4:-0.664467 5:-0.369887 6:-0.836964 7:-0.183784 8:-0.186875 
-15.77048005206078 1:0.0612225 2:0.0144868 3:-0.0682313 4:-0.669073 5:-0.495594 6:-0.705479 7:-0.0544791 8:-0.140573 
3.306925931417572 1:0.081743 2:0.0359077 3:-0.0618392 4:-0.456589 5:-0.536907 6:-0.264945 7:0.0722005 8:-0.0931871 
12.88477080986764 1:0.0853602 2:0.0453494 3:-0.0762926 4:-0.465503 5:-0.531543 6:-0.287469 7:-0.104142 8:-0.14723 
-16 1:0.0939613 2:0.0548934 3:-0.0751681 4:-0.373968 5:-0.494065 6:-0.159268 7:0.078003 8:-0.0882374 
-16 1:0.106369 2:0.0654001 3:-0.0645779 4:-0.215467 5:-0.410375 6:0.0417859 7:0.235623 8:-0.0294208 
-16 1:0.126478 2:0.0784592 3:-0.0365031 4:0.0201692 5:-0.267307 6:0.319911 7:0.464492 8:0.0809611 
-16 1:0.142671 2:0.0926543 3:-0.024009 4:0.144768 5:-0.12578 6:0.393591 7:0.464492 8:0.0809611 
-16 1:0.141035 2:0.103632 3:-0.0594019 4:-0.0645979 5:-0.108973 6:-0.0138559 7:-0.157399 8:-0.131405 
-16 1:0.159464 2:0.116678 3:-0.0366378 4:0.0341025 5:-0.0612121 6:0.116193 7:0.314049 8:0.0915617 
-16 1:0.178825 2:0.131597 3:-0.016053 4:0.186549 5:0.0270913 6:0.300869 7:0.391505 8:0.13871 
-16 1:0.213275 2:0.151504 3:0.0388232 4:0.477227 5:0.19362 6:0.655051 7:0.611084 8:0.300145 
-0.9258138081315996 1:0.249434 2:0.175798 3:0.0870766 4:0.681918 5:0.380453 6:0.826968 7:0.682656 8:0.366148 
-16 1:0.257364 2:0.197069 3:0.0538189 4:0.578436 5:0.46668 6:0.538779 7:0.138713 8:0.0946364 
16 1:0.272243 2:0.217529 3:0.0449032 4:0.629419 5:0.543049 6:0.548365 7:0.280426 8:0.174133 
16 1:0.292398 2:0.238562 3:0.051199 4:0.78338 5:0.650984 6:0.713982 7:0.403175 8:0.247544 
16 1:0.316456 2:0.260955 3:0.0661718 4:0.808392 5:0.732205 6:0.669942 7:0.50807 8:0.315182 
16 1:0.319 2:0.279459 3:0.0233857 4:0.602765 5:0.710193 6:0.312682 7:0.123476 8:0.117646 
16 1:0.319239 2:0.294318 3:-0.0167128 4:0.465681 5:0.644745 6:0.131068 7:0.123476 8:0.117646 
16 1:0.322528 2:0.306966 3:-0.041027 4:0.434277 5:0.589482 6:0.134324 7:0.223693 8:0.162549 
-16 1:0.308732 2:0.313891 3:-0.103971 4:0.233384 5:0.478234 6:-0.114741 7:-0.156603 8:-0.0351929 
3.424478104020923 1:0.340019 2:0.326672 3:-0.0395597 4:0.274197 5:0.419185 6:0.0268151 7:0.455802 8:0.302168 
16 1:0.386836 2:0.347732 3:0.0514985 4:0.320618 5:0.397012 6:0.137705 7:0.602107 8:0.419038 
-16 1:0.435565 2:0.375857 3:0.129216 4:0.414694 5:0.417073 6:0.290024 7:0.668873 8:0.477389 
-16 1:0.456082 2:0.403106 3:0.119572 4:0.393859 5:0.422731 6:0.245038 7:0.371963 8:0.308901 
-16 1:0.473699 2:0.428982 3:0.104475 4:0.40782 5:0.431673 6:0.260997 7:0.414278 8:0.333677 
-16 1:0.483984 2:0.452063 3:0.0737313 4:0.417127 5:0.441082 6:0.267796 7:0.414278 8:0.333677 
-15.55914313882336 1:0.502985 2:0.474925 3:0.0713253 4:0.491887 5:0.475044 6:0.368768 7:0.554862 8:0.411779 
16 1:0.51402 2:0.495769 3:0.0491229 4:0.533329 5:0.513035 6:0.403392 7:0.554862 8:0.411779 
16 1:0.518689 2:0.513524 3:0.0151538 4:0.531182 5:0.537567 6:0.372078 7:0.554862 8:0.411779 
-8.945168773955332 1:0.503738 2:0.524269 3:-0.0619655 4:0.290489 5:0.464774 6:0.00627866 7:0.0446933 8:0.1884 
-16 1:0.52704 2:0.538257 3:-0.0262847 4:0.617412 5:0.53733 6:0.532443 7:0.537132 8:0.424567 
-16 1:0.512014 2:0.54597 3:-0.0953073 4:0.501154 5:0.542642 6:0.310672 7:0.0221209 8:0.107335 
16 1:0.486568 2:0.546251 3:-0.17705 4:0.312246 5:0.476216 6:0.0339285 7:-0.10526 8:0.0191463 
16 1:0.511562 2:0.552261 3:-0.114045 4:0.475954 5:0.492565 6:0.319667 7:0.367355 8:0.286394 
16 1:0.522335 2:0.559562 3:-0.0998405 4:0.546101 5:0.529446 6:0.408824 7:0.295766 8:0.242692 
7.143702873004106 1:0.568543 2:0.620537 3:-0.120479 4:0.595275 5:0.727916 6:0.279031 7:0.0366166 8:0.137921 
-11.61454219619034 1:0.57361 2:0.626049 3:-0.119514 4:0.672067 5:0.733001 6:0.415943 7:0.335911 8:0.274655 
16 1:0.568064 2:0.629176 3:-0.145758 4:0.611858 5:0.714092 6:0.325221 7:0.236491 8:0.224418 
5.397781793325529 1:0.598001 2:0.638605 3:-0.0764276 4:0.636704 5:0.710688 6:0.375144 7:0.55628 8:0.404606 
5.895572547454481 1:0.6311 2:0.653809 3:-0.0129142 4:0.501637 5:0.658393 6:0.182625 7:0.6291 8:0.457155 
10.52015210233714 1:0.632283 2:0.666246 3:-0.0433491 4:0.296064 5:0.54739 6:-0.0754023 7:0.269851 8:0.265428 
16 1:0.623026 2:0.674053 3:-0.0942747 4:0.130133 5:0.411931 6:-0.232583 7:0.187242 8:0.219795 
-8.039043692442011 1:0.547788 2:0.661074 3:-0.297994 4:-0.323801 5:0.0303222 6:-0.650285 7:-0.218286 8:-0.0280445 
-16 1:0.493849 2:0.64002 3:-0.411732 4:-0.518151 5:-0.17289 6:-0.784753 7:-0.422814 8:-0.172953 
-14.79329593344079 1:0.447842 2:0.612529 3:-0.48253 4:-0.623516 5:-0.34739 6:-0.785992 7:-0.422814 8:-0.172953 
-6.036454934857267 1:0.349197 2:0.540143 3:-0.597367 4:-0.752404 5:-0.608111 6:-0.734856 7:-0.562523 8:-0.278478 
-2.505952463895326 1:0.297423 2:0.497815 3:-0.645721 4:-0.857667 5:-0.724262 6:-0.800905 7:-0.687677 8:-0.382232 
0.9379503602976191 1:0.260209 2:0.455341 3:-0.647337 4:-0.888851 5:-0.813245 6:-0.759678 7:-0.522622 8:-0.326951 
4.692160431758219 1:0.239687 2:0.416612 3:-0.60614 4:-0.745201 5:-0.819363 6:-0.486151 7:-0.22348 8:-0.218644 
5.640034844966373 1:0.213038 2:0.379462 3:-0.588778 4:-0.63006 5:-0.780796 6:-0.315335 7:-0.385173 8:-0.300317 
-16 1:0.149118 2:0.308105 3:-0.595951 4:-0.613528 5:-0.693823 6:-0.381526 7:-0.630114 8:-0.487794 
-16 1:0.0976202 2:0.265944 3:-0.643883 4:-0.673339 5:-0.713132 6:-0.471067 7:-0.716052 8:-0.565179 
16 1:0.0629003 2:0.224181 3:-0.639519 4:-0.658741 5:-0.720598 6:-0.435646 7:-0.579281 8:-0.504701 
-7.876826783819292 1:0.0368618 2:0.184744 3:-0.613928 4:-0.578609 5:-0.695896 6:-0.314384 7:-0.579281 8:-0.504701 
13.11380545353448 1:0.0227812 2:0.149936 3:-0.563015 4:-0.481864 5:-0.643596 6:-0.193022 7:-0.40439 8:-0.436191 
-16 1:0.032808 2:0.124409 3:-0.460917 4:-0.244075 5:-0.520658 6:0.111524 7:0.0961037 8:-0.194476 
12.11535472897633 1:0.0227325 2:0.101657 3:-0.430411 4:-0.258842 5:-0.444169 6:-0.00110098 7:-0.25513 8:-0.353028 
-16 1:0.0213196 2:0.0831277 3:-0.383955 4:-0.164711 5:-0.358311 6:0.0780266 7:-0.14487 8:-0.2963 
-3.407887649908665 1:0.0253754 2:0.0461392 3:-0.269336 4:0.139286 5:-0.0836253 6:0.336453 7:0.0575987 8:-0.204215 
-16 1:0.0251527 2:0.0396007 3:-0.252065 4:0.0967088 5:-0.0211256 6:0.187777 7:-0.193393 8:-0.303004 
-5.234964641611919 1:0.036291 2:0.0369477 3:-0.209327 4:0.00083991 5:-0.0149668 6:0.00291899 7:0.071226 8:-0.173738 
-15.61835481922164 1:0.0270467 2:0.0326858 3:-0.227023 4:-0.11556 5:-0.0539728 6:-0.169746 7:-0.32636 8:-0.359278 
15.54132068017545 1:0.0262358 2:0.0290887 3:-0.219712 4:-0.133175 5:-0.0865008 6:-0.166215 7:-0.19336 8:-0.294333 
-5.270640093112834 1:0.017463 2:0.0241806 3:-0.234131 4:-0.264889 5:-0.15697 6:-0.332264 7:-0.363777 8:-0.381349 
-16 1:0.031709 2:0.0235512 3:-0.187069 4:-0.112755 5:-0.147603 6:-0.0602358 7:0.09148 8:-0.138505 
7.425536873655859 1:0.0686868 2:0.0316055 3:-0.0915537 4:0.192619 5:-0.0282542 6:0.373793 7:0.402916 8:0.0849271 
-16 1:0.0744584 2:0.0393846 3:-0.0945796 4:0.136264 5:0.0304386 6:0.203776 7:-0.0309781 8:-0.145259 
-8.470596679092981 1:0.0945907 2:0.0502672 3:-0.060444 4:0.254657 5:0.113417 6:0.331156 7:0.158366 8:-0.0231498 
16 1:0.116026 2:0.063934 3:-0.029819 4:0.385573 5:0.217225 6:0.458585 7:0.218192 8:0.0157189 
-16 1:0.123659 2:0.076634 3:-0.040453 4:0.368875 5:0.280245 6:0.357379 7:0.0277988 8:-0.0789923 
-16 1:0.13497 2:0.0894118 3:-0.0395977 4:0.344746 5:0.313322 6:0.275732 7:0.111584 8:-0.0342612 
10.42075911369245 1:0.119877 2:0.0961411 3:-0.106128 4:0.00373606 5:0.209071 6:-0.241278 7:-0.292806 8:-0.252652 
-16 1:0.113426 2:0.100032 3:-0.137353 4:-0.0416465 5:0.122762 6:-0.229392 7:-0.188768 8:-0.202623 
-16 1:0.211008 2:0.125727 3:0.102494 4:0.395989 5:0.227312 6:0.466687 7:0.618062 8:0.37749 
16 1:0.296656 2:0.166106 3:0.263991 4:0.433852 5:0.311036 6:0.443719 7:0.646615 8:0.407722 
16 1:0.371978 2:0.21584 3:0.366903 4:0.495364 5:0.389635 6:0.47037 7:0.676816 8:0.438046 
-15.4234903570106 1:0.5597 2:0.339593 3:0.623936 4:0.742158 5:0.569543 6:0.72817 7:0.789768 8:0.607828 
16 1:0.684943 2:0.42706 3:0.781939 4:0.830481 5:0.686092 6:0.762324 7:0.81389 8:0.636933 
2.172170802447861 1:0.733408 2:0.50825 3:0.712894 4:0.776164 5:0.743674 6:0.597329 7:0.36072 8:0.349311 
-4.760746173364495 1:0.789198 2:0.586113 3:0.676308 4:0.802841 5:0.791942 6:0.59309 7:0.453338 8:0.406634 
16 1:0.845234 2:0.661373 3:0.647661 4:0.819014 5:0.830111 6:0.580597 7:0.522515 8:0.449724 
9.717447734455703 1:0.82793 2:0.717576 3:0.438052 4:0.609847 5:0.778086 6:0.250197 7:0.0477764 8:0.149974 
-8.440881502658332 1:0.806819 2:0.757652 3:0.260671 4:0.470402 5:0.691756 6:0.0874639 7:0.0477764 8:0.149974 
-6.14543647944566 1:0.8267 2:0.794314 3:0.223116 4:0.547669 5:0.662821 6:0.263158 7:0.313728 8:0.281729 
-3.969099979705852 1:0.810438 2:0.81988 3:0.101068 4:0.4938 5:0.623578 6:0.206856 7:0.0932363 8:0.15226 
-0.4910981344130939 1:0.785482 2:0.834558 3:-0.0187018 4:0.103105 5:0.452713 6:-0.328195 7:0.0488698 8:0.126502 
16 1:0.744281 2:0.836765 3:-0.155872 4:-0.287327 5:0.194195 6:-0.765117 7:-0.0905999 8:0.0472997 
9.364750776971871 1:0.651946 2:0.817161 3:-0.395776 4:-0.547615 5:-0.0745549 6:-0.949004 7:-0.442384 8:-0.196787 
0.4085781715169518 1:0.574054 2:0.783451 3:-0.550932 4:-0.721141 5:-0.317991 6:-1 7:-0.442384 8:-0.196787 
13.62319312124484 1:0.513226 2:0.742406 3:-0.631619 4:-0.807943 5:-0.512432 6:-0.944559 7:-0.370521 8:-0.171084 
0.05677135630655211 1:0.463045 2:0.664828 3:-0.577969 4:-0.64445 5:-0.660816 6:-0.475707 7:0.0852356 8:0.00556909 
2.07326316869593 1:0.493093 2:0.642848 3:-0.421913 4:-0.294701 5:-0.550889 6:0.0512046 7:0.422697 8:0.188315 
6.030591736263119 1:0.503178 2:0.627598 3:-0.347888 4:0.0323314 5:-0.356479 6:0.441828 7:0.286408 8:0.128016 
3.421621661226718 1:0.487787 2:0.611836 3:-0.353518 4:0.116963 5:-0.195526 6:0.419663 7:0.0356295 8:0.0111102 
-1.576980079118104 1:0.447754 2:0.589961 3:-0.420753 4:-0.0318305 5:-0.143334 6:0.08526 7:-0.209969 8:-0.120851 
16 1:0.422885 2:0.566706 3:-0.435937 4:-0.0489403 5:-0.114877 6:0.0217914 7:-0.0863568 8:-0.0691158 
16 1:0.376165 2:0.53729 3:-0.503709 4:-0.265562 5:-0.176136 6:-0.312162 7:-0.318002 8:-0.197735 
-16 1:0.327436 2:0.502479 3:-0.563042 4:-0.39132 5:-0.263554 6:-0.448272 7:-0.39632 8:-0.245966 
16 1:0.243672 2:0.455245 3:-0.699692 4:-0.589094 5:-0.395084 6:-0.668951 7:-0.640843 8:-0.431037 
-1.878428911790303 1:0.143132 2:0.394189 3:-0.851717 4:-0.648817 5:-0.50489 6:-0.657515 7:-0.749028 8:-0.54148 
0.08745477581174951 1:0.0597521 2:0.326048 3:-0.929657 4:-0.706522 5:-0.599467 6:-0.659298 7:-0.762511 8:-0.556162 
16 1:-0.0043749 2:0.256694 3:-0.942996 4:-0.740433 5:-0.675078 6:-0.638029 7:-0.762511 8:-0.556162 
-8.155882558661336 1:-0.0867026 2:0.182158 3:-1 4:-0.707901 5:-0.713436 6:-0.534898 7:-0.856281 8:-0.660196 
-13.37686730532849 1:-0.148336 2:0.108265 3:-0.992923 4:-0.672035 5:-0.725724 6:-0.454617 7:-0.856281 8:-0.660196 
16 1:-0.197912 2:0.0376771 3:-0.95657 4:-0.66412 5:-0.730985 6:-0.434061 7:-0.869263 8:-0.675158 
-16 1:-0.21804 2:-0.0234515 3:-0.852523 4:-0.582195 5:-0.704149 6:-0.311848 7:-0.483657 8:-0.533693 
3.656746614130173 1:-0.214866 2:-0.0716199 3:-0.709968 4:-0.446029 5:-0.635825 6:-0.135143 7:-0.179509 8:-0.402129 
-8.814284194537336 1:-0.203191 2:-0.107453 3:-0.574283 4:-0.263508 5:-0.522675 6:0.0776907 7:-0.0866885 8:-0.358953 
4.529992059390964 1:-0.209286 2:-0.137529 3:-0.510969 4:-0.192685 5:-0.42101 6:0.0959326 7:-0.356884 8:-0.460307 
-16 1:-0.209795 2:-0.161708 3:-0.446101 4:-0.113179 5:-0.323786 6:0.135243 7:-0.356884 8:-0.460307 
-12.53019065528766 1:-0.205923 2:-0.180155 3:-0.383053 4:0.125495 5:-0.170571 6:0.407705 7:-0.356884 8:-0.460307 
-16 1:-0.188943 2:-0.190983 3:-0.299247 4:0.396014 5:0.0317663 6:0.684569 7:-0.0635975 8:-0.34893 
9.414299613634636 1:-0.166746 2:-0.194509 3:-0.218924 4:0.601116 5:0.242623 6:0.830486 7:0.0629857 8:-0.294097 
6.346765703255342 1:-0.145575 2:-0.19243 3:-0.157275 4:0.512571 5:0.350399 6:0.546024 7:0.0629857 8:-0.294097 
-16 1:-0.135168 2:-0.188358 3:-0.135355 4:0.180604 5:0.299297 6:-0.0134025 7:-0.236998 8:-0.376809 
-16 1:-0.138171 2:-0.185795 3:-0.151959 4:-0.15768 5:0.139936 6:-0.46396 7:-0.508819 8:-0.485556 
16 1:-0.137069 2:-0.18349 3:-0.154791 4:-0.383202 5:-0.0498326 6:-0.671282 7:-0.508819 8:-0.485556 
-0.5444528674954187 1:-0.195936 2:-0.195269 3:-0.309713 4:-0.611532 5:-0.260913 6:-0.860076 7:-0.880633 8:-0.781577 
0.07277573450019391 1:-0.228224 2:-0.212165 3:-0.365993 4:-0.69286 5:-0.431756 6:-0.820759 7:-0.658832 8:-0.663876 
-13.59817348137652 1:-0.234462 2:-0.227126 3:-0.344702 4:-0.640739 5:-0.526346 6:-0.618616 7:-0.358432 8:-0.49884 
-16 1:-0.297969 2:-0.253792 3:-0.473455 4:-0.783224 5:-0.64218 6:-0.754126 7:-0.697706 8:-0.725751 
-16 1:-0.264698 2:-0.267425 3:-0.330099 4:-0.462311 5:-0.600543 6:-0.204678 7:0.0363896 8:-0.196775 
16 1:-0.253172 2:-0.275664 3:-0.270768 4:-0.304356 5:-0.514282 6:-0.00749947 7:-0.092171 8:-0.275561 
16 1:-0.249095 2:-0.281311 3:-0.242264 4:-0.247041 5:-0.435547 6:0.0112055 7:-0.158055 8:-0.314212 
-9.264768249059708 1:-0.207841 2:-0.27776 3:-0.120757 4:0.00522169 5:-0.192266 6:0.208563 7:-0.0875685 8:-0.264904 
16 1:-0.166332 2:-0.263835 3:-0.0269704 4:0.271271 5:-0.0288989 6:0.520541 7:0.183485 8:-0.108642 
16 1:-0.0863001 2:-0.234172 3:0.146124 4:0.474631 5:0.155332 6:0.692884 7:0.476849 8:0.111005 
-2.374802643987949 1:-0.064468 2:-0.205389 3:0.136446 4:0.376259 5:0.241718 6:0.414007 7:0.00563505 8:-0.125686 
5.532429804326864 1:0.0731059 2:-0.114957 3:0.325532 4:0.488055 5:0.419575 6:0.423445 7:0.159715 8:0.0203022 
12.60369964403262 1:0.133677 2:-0.06416 3:0.378587 4:0.587781 5:0.496223 6:0.52322 7:0.282319 8:0.103447 
-16 1:0.142615 2:-0.0214541 3:0.289592 4:0.439144 5:0.49227 6:0.251653 7:-0.0171957 8:-0.0675468 
8.50362453822143 1:0.159483 2:0.0461896 3:0.157258 4:0.1762 5:0.358851 6:-0.0879214 7:-0.0258868 8:-0.0709084 
-9.506055514153239 1:0.172988 2:0.0738547 3:0.124154 4:0.0733297 5:0.2652 6:-0.174592 7:0.0692248 8:-0.026469 
-16 1:0.183477 2:0.0984144 3:0.0899962 4:0.00474929 5:0.177365 6:-0.204077 7:0.0692248 8:-0.026469 
-1.972133490015766 1:0.197457 2:0.138498 3:0.024256 4:-0.387091 5:-0.126161 6:-0.593475 7:0.0692248 8:-0.026469 
6.736469568532142 1:0.153172 2:0.143116 3:-0.129357 4:-0.614125 5:-0.312759 6:-0.807135 7:-0.521562 8:-0.308635 
-14.58029173091899 1:0.108892 2:0.136562 3:-0.252234 4:-0.570526 5:-0.42101 6:-0.605596 7:-0.582728 8:-0.353858 
-16 1:0.0991364 2:0.129061 3:-0.262651 4:-0.378999 5:-0.42224 6:-0.248622 7:-0.158519 8:-0.186771 
-16 1:0.0922438 2:0.121465 3:-0.263696 4:-0.251314 5:-0.375768 6:-0.0633209 7:-0.158519 8:-0.186771 
-16 1:0.0876729 2:0.114331 3:-0.258621 4:-0.0947071 5:-0.286784 6:0.128319 7:-0.158519 8:-0.186771 
-16 1:0.0801136 2:0.106874 3:-0.262169 4:-0.0292935 5:-0.203233 6:0.156697 7:-0.2424 8:-0.219983 
-16 1:0.0751586 2:0.0997611 3:-0.258378 4:0.0143155 5:-0.13138 6:0.157622 7:-0.2424 8:-0.219983 
-16 1:0.023706 2:0.0821634 3:-0.373709 4:-0.34652 5:-0.217124 6:-0.416816 7:-0.720635 8:-0.502398 
-16 1:-0.0149955 2:0.0591285 3:-0.433515 4:-0.587078 5:-0.363384 6:-0.700522 7:-0.720635 8:-0.502398 
2.60778635868329 1:-0.0529847 2:0.0319087 3:-0.479547 4:-0.747449 5:-0.520288 6:-0.82349 7:-0.771406 8:-0.548757 
-15.62649841265242 1:-0.0802641 2:0.00381955 3:-0.489109 4:-0.815373 5:-0.650048 6:-0.805051 7:-0.771406 8:-0.548757 
16 1:-0.0891227 2:-0.0207019 3:-0.449867 4:-0.694431 5:-0.69176 6:-0.534034 7:-0.422084 8:-0.431464 
-16 1:-0.185496 2:-0.0626231 3:-0.641252 4:-0.819018 5:-0.765713 6:-0.68297 7:-0.857602 8:-0.773291 
-12.03904252213059 1:-0.232711 2:-0.107087 3:-0.669222 4:-0.764461 5:-0.794808 6:-0.549264 7:-0.509617 8:-0.56942 
0.9032135720040025 1:-0.310426 2:-0.198709 3:-0.664562 4:-0.810876 5:-0.858 6:-0.565048 7:-0.450801 8:-0.54822 
-8.233134371168598 1:-0.315516 2:-0.235119 3:-0.580637 4:-0.735307 5:-0.845535 6:-0.438626 7:-0.304446 8:-0.468301 
10.7965488445379 1:-0.304309 2:-0.261654 3:-0.47201 4:-0.631147 5:-0.798646 6:-0.297467 7:-0.158376 8:-0.388654 
4.688644907744765 1:-0.417062 2:-0.321543 3:-0.666106 4:-0.599194 5:-0.704287 6:-0.343255 7:-0.752726 8:-0.764501 
-16 1:-0.532031 2:-0.383495 3:-0.861578 4:-0.707783 5:-0.732865 6:-0.513034 7:-0.774636 8:-0.785894 
-16 1:-0.614162 2:-0.452064 3:-0.934366 4:-0.711776 5:-0.753396 6:-0.497577 7:-0.774636 8:-0.785894 
7.053354688580964 1:-0.659912 2:-0.517508 3:-0.899983 4:-0.681255 5:-0.755779 6:-0.438255 7:-0.645514 8:-0.716634 
16 1:-0.700933 2:-0.579356 3:-0.860439 4:-0.710683 5:-0.768268 6:-0.478981 7:-0.693301 8:-0.746034 
-3.557085377524062 1:-0.728064 2:-0.635114 3:-0.793443 4:-0.746893 5:-0.790005 6:-0.521998 7:-0.709987 8:-0.756036 
-16 1:-0.725155 2:-0.714983 3:-0.564559 4:-0.748413 5:-0.812487 6:-0.499775 7:-0.560166 8:-0.687507 
-16 1:-0.740823 2:-0.746568 3:-0.527561 4:-0.855006 5:-0.859526 6:-0.645282 7:-0.714218 8:-0.761429 
-14.82697621562053 1:-0.713619 2:-0.76554 3:-0.388827 4:-0.458178 5:-0.74391 6:-0.0372954 7:-0.225892 8:-0.518486 
-16 1:-0.688934 2:-0.787645 3:-0.249495 4:-0.513505 5:-0.686147 6:-0.204367 7:-0.211832 8:-0.479511 
11.56064419793768 1:-0.70635 2:-0.796719 3:-0.279959 4:-0.49497 5:-0.641951 6:-0.219187 7:-0.504044 8:-0.621004 
1.854919713174267 1:-0.826692 2:-0.83183 3:-0.566339 4:-0.686044 5:-0.683256 6:-0.527936 7:-0.7809 8:-0.820149 
-9.624832519130576 1:-0.943691 2:-0.886995 3:-0.786934 4:-0.641603 5:-0.694333 6:-0.433084 7:-0.822298 8:-0.858279 
-4.164169134144577 1:-0.993565 2:-0.94267 3:-0.792537 4:-0.528342 5:-0.659769 6:-0.2613 7:-0.559046 8:-0.696471 
0.847889159506285 1:-1 2:-0.9887 3:-0.686439 4:-0.393629 5:-0.586831 6:-0.0924331 7:-0.391528 8:-0.593679 
-7.659523422549341 1:-0.889717 2:-1 3:-0.304442 4:-0.0165191 5:-0.398533 6:0.397976 7:0.18392 8:-0.177495 
4.324629375897313 1:-0.825309 2:-0.994134 3:-0.115626 4:0.13912 5:-0.215356 6:0.482891 7:0.00350052 8:-0.267749 
-6.887068514488428 1:-0.748982 2:-0.971777 3:0.0657667 4:0.293695 5:-0.0359868 6:0.570072 7:0.0762375 8:-0.216655 
-4.750093838428529 1:-0.659329 2:-0.933143 3:0.244806 4:0.512516 5:0.164639 6:0.752857 7:0.176428 8:-0.148103 
-9.399064341956127 1:-0.560256 2:-0.879307 3:0.412017 4:0.734238 5:0.38051 6:0.924046 7:0.274753 8:-0.0804612 
8.698716344691096 1:-0.498666 2:-0.821985 3:0.450367 4:0.804071 5:0.550288 6:0.864572 7:0.0674892 8:-0.165209 
-16 1:-0.442849 2:-0.763209 3:0.466353 4:0.819833 5:0.669312 6:0.761247 7:0.0674892 8:-0.165209 
8.558493713998523 1:-0.387331 2:-0.70334 3:0.47838 4:0.819376 5:0.748492 6:0.672193 7:0.111158 8:-0.143846 
7.584378587007452 1:-0.318102 2:-0.639422 3:0.522905 4:0.872527 5:0.820964 6:0.690143 7:0.279793 8:-0.0576638 
-3.90832182668904 1:-0.277795 2:-0.57896 3:0.484902 4:0.713006 5:0.810196 6:0.405961 7:0.0261101 8:-0.145977 
-16 1:-0.216871 2:-0.516491 3:0.506979 4:0.807347 5:0.83796 6:0.550194 7:0.250578 8:-0.0349379 
-6.693947414709879 1:-0.164788 2:-0.454461 3:0.502139 4:0.76703 5:0.841536 6:0.471354 7:0.250578 8:-0.0349379 
-10.95105300066079 1:-0.139661 2:-0.399023 3:0.429646 4:0.350244 5:0.689552 6:-0.133175 7:-0.0388831 8:-0.136772 
-13.68428801133528 1:-0.111643 2:-0.348188 3:0.37901 4:0.137371 5:0.509386 6:-0.327709 7:0.0289869 8:-0.109846 
16 1:-0.0768196 2:-0.29946 3:0.355825 4:0.125425 5:0.384851 6:-0.211158 7:0.165312 8:-0.0543486 
-10.84865645697098 1:-0.0370618 2:-0.251277 3:0.349838 4:0.2238 5:0.338264 6:0.0233898 7:0.289925 8:0.00114817 
-16 1:0.00124981 2:-0.203864 3:0.341368 4:0.339008 5:0.349876 6:0.224358 7:0.350526 8:0.029527 
5.086450681195606 1:0.0428511 2:-0.156306 3:0.342966 4:0.337832 5:0.357181 6:0.214035 7:0.464732 8:0.0871605 
-16 1:0.0525397 2:-0.116017 3:0.263007 4:0.0771083 5:0.265486 6:-0.167896 7:-0.0701693 8:-0.0952327 
-16 1:0.119726 2:-0.0682374 3:0.345405 4:0.42642 5:0.333733 6:0.404637 7:0.481484 8:0.204977 
-16 1:0.211756 2:-0.00871479 3:0.474567 4:0.708033 5:0.483534 6:0.760625 7:0.637292 8:0.339156 
7.020880326195785 1:0.351358 2:0.0712118 3:0.698998 4:0.895775 5:0.652936 6:0.920489 7:0.781147 8:0.50244 
-1.41807489849833 1:0.429454 2:0.153227 3:0.721969 4:0.816699 5:0.736583 6:0.680488 7:0.461384 8:0.323126 
-10.27161052108735 1:0.65673 2:0.341895 3:0.926354 4:1 5:0.920738 6:0.815673 7:0.707224 8:0.521946 
3.088385387770401 1:0.861307 2:0.555552 3:0.989799 4:0.950216 5:1 6:0.634943 7:0.748212 8:0.560159 
1.053060087357589 1:0.903439 2:0.650394 3:0.86306 4:0.875273 5:0.989653 6:0.507325 7:0.492244 8:0.4339 
-16 1:0.94747 2:0.736458 3:0.766506 4:0.865484 5:0.97913 6:0.500872 7:0.569176 8:0.475669 
-1.255668360254295 1:0.98763 2:0.814603 3:0.679405 4:0.884599 5:0.979194 6:0.536292 7:0.622761 8:0.506041 
8.613538889887115 1:1 2:0.879982 3:0.538985 4:0.812962 5:0.952704 6:0.432794 7:0.466268 8:0.435815 
-11.66092971850914 1:0.995317 2:0.931202 3:0.383238 4:0.742923 5:0.909103 6:0.351325 7:0.382559 8:0.399241 
14.05769964009349 1:0.977326 2:0.968014 3:0.224764 4:0.529126 5:0.800851 6:0.074966 7:0.29013 8:0.360474 
-16 1:0.958833 2:0.993183 3:0.096706 4:0.422042 5:0.689021 6:0.000721626 7:0.343329 8:0.377238 
-3.833329913112123 1:0.901282 2:1 3:-0.105167 4:-0.074703 5:0.430485 6:-0.633566 7:-0.205946 8:0.109975 
-12.43921413491142 1:0.85752 2:0.995325 3:-0.231563 4:-0.294464 5:0.176733 6:-0.758915 7:-0.0565096 8:0.155385 
5.898313626792401 1:0.80072 2:0.970339 3:-0.343593 4:-0.260136 5:-0.087413 6:-0.400924 7:0.142682 8:0.221577 
-3.381486914825374 1:0.775456 2:0.952604 3:-0.375214 4:-0.169572 5:-0.122275 6:-0.193941 7:0.219341 8:0.245898 
-11.57313438795585 1:0.738987 2:0.929977 3:-0.429036 4:-0.229169 5:-0.16759 6:-0.254112 7:-0.0113952 8:0.151969 
9.943160099091809 1:0.703874 2:0.903748 3:-0.468642 4:-0.268899 5:-0.212515 6:-0.277834 7:-0.0113952 8:0.151969 
0.02496150507213474 1:0.582753 2:0.854734 3:-0.71927 4:-0.53533 5:-0.341145 6:-0.629218 7:-0.754391 8:-0.414963 
-9.19638254670423 1:0.473378 2:0.79021 3:-0.889871 4:-0.615474 5:-0.456581 6:-0.649423 7:-0.780675 8:-0.453623 
4.159874714157041 1:0.403609 2:0.722444 3:-0.92553 4:-0.571426 5:-0.517224 6:-0.500084 7:-0.450979 8:-0.310381 
-5.081155537590941 1:0.385103 2:0.663948 3:-0.823562 4:-0.347106 5:-0.47457 6:-0.131112 7:0.00813554 8:-0.0749798 
-2.201302142586362 1:0.397252 2:0.619964 3:-0.663951 4:-0.0828804 5:-0.348271 6:0.218774 7:0.235051 8:0.0649932 
-7.084829324466071 1:0.413843 2:0.588616 3:-0.524955 4:0.139142 5:-0.18184 6:0.445595 7:0.301623 8:0.10801 
-0.8201548288755791 1:0.404569 2:0.561391 3:-0.479603 4:0.195413 5:-0.0500444 6:0.403254 7:0.061246 8:-0.0133967 
-5.626901721178566 1:0.365416 2:0.530549 3:-0.51938 4:0.0953125 5:0.000744477 6:0.160822 7:-0.216024 8:-0.172393 
-5.97904583289524 1:0.332456 2:0.498249 3:-0.535434 4:0.0285788 5:0.00988713 6:0.0267342 7:-0.216024 8:-0.172393 
-16 1:0.275569 2:0.459242 3:-0.60919 4:-0.153525 5:-0.0514649 6:-0.243028 7:-0.449127 8:-0.318287 
-16 1:0.205442 2:0.411808 3:-0.701897 4:-0.411153 5:-0.187785 6:-0.5695 7:-0.58398 8:-0.420753 
-16 1:0.13546 2:0.357664 3:-0.775694 4:-0.630166 5:-0.359783 6:-0.784533 7:-0.650806 8:-0.476796 
-15.84672908245907 1:0.0955454 2:0.305112 3:-0.75819 4:-0.707367 5:-0.503042 6:-0.768283 7:-0.396916 8:-0.367633 
-16 1:0.0699248 2:0.25714 3:-0.707801 4:-0.712114 5:-0.600306 6:-0.668745 7:-0.31279 8:-0.331188 
4.922475507362546 1:0.0363569 2:0.210995 3:-0.68772 4:-0.798314 5:-0.697075 6:-0.720992 7:-0.447424 8:-0.402138 
-16 1:0.0181135 2:0.135725 3:-0.538791 4:-0.588045 5:-0.739303 6:-0.283549 7:0.0218571 8:-0.200605 
-16 1:0.0249506 2:0.111223 3:-0.449657 4:-0.322739 5:-0.613598 6:0.0690038 7:0.0218571 8:-0.200605 
-16 1:0.0076063 2:0.0876066 3:-0.439907 4:-0.5279 5:-0.605781 6:-0.320621 7:-0.336396 8:-0.351353 
-16 1:0.00553014 2:0.0682333 3:-0.393239 4:-0.578028 5:-0.619137 6:-0.398814 7:-0.144053 8:-0.266521 
-16 1:-0.00885734 2:0.049405 3:-0.387246 4:-0.741416 5:-0.688555 6:-0.624841 7:-0.335215 8:-0.355021 
-16 1:-0.0686117 2:0.00404394 3:-0.452648 4:-0.922958 5:-0.859822 6:-0.771118 7:-0.628939 8:-0.530177 
11.13272123741324 1:-0.0852198 2:-0.0374881 3:-0.391289 4:-0.84768 5:-0.914837 6:-0.570065 7:-0.310533 8:-0.38726 
-16 1:-0.0863828 2:-0.0648034 3:-0.319876 4:-0.824621 5:-0.910654 6:-0.531912 7:-0.349722 8:-0.401651 
-2.071712504285608 1:-0.0675132 2:-0.0705991 3:-0.243896 4:-0.480457 5:-0.786247 6:-0.0314977 7:0.0812775 8:-0.19913 
8.095541978140563 1:-0.0695173 2:-0.0756996 3:-0.236247 4:-0.503076 5:-0.711686 6:-0.156553 7:-0.239626 8:-0.337706 
16 1:-0.10729 2:-0.0885218 3:-0.321182 4:-0.561478 5:-0.68361 6:-0.296264 7:-0.574312 8:-0.540665 
-16 1:-0.124062 2:-0.102661 3:-0.33567 4:-0.501025 5:-0.642502 6:-0.229816 7:-0.393081 8:-0.446208 
-16 1:-0.133909 2:-0.116251 3:-0.32963 4:-0.460723 5:-0.60017 6:-0.202145 7:-0.393081 8:-0.446208 
-16 1:-0.19167 2:-0.140491 3:-0.446771 4:-0.573234 5:-0.61362 6:-0.396058 7:-0.716581 8:-0.668033 
-16 1:-0.223142 2:-0.167167 3:-0.47356 4:-0.588255 5:-0.62815 6:-0.407761 7:-0.542267 8:-0.574536 
-16 1:-0.219078 2:-0.187567 3:-0.404532 4:-0.448304 5:-0.586002 6:-0.194871 7:-0.170747 8:-0.362409 
-16 1:-0.192079 2:-0.197638 3:-0.290927 4:-0.235032 5:-0.478913 6:0.0818106 7:0.0565277 8:-0.216704 
-16 1:-0.171716 2:-0.200983 3:-0.216935 4:-0.0903511 5:-0.353933 6:0.211211 7:-0.00639332 8:-0.245098 
-16 1:-0.156785 2:-0.200203 3:-0.171567 4:0.076218 5:-0.20892 6:0.358933 7:-0.0755984 8:-0.274785 
-16 1:-0.141419 2:-0.196023 3:-0.134167 4:0.162638 5:-0.0802368 6:0.376036 7:-0.0755984 8:-0.274785 
-16 1:-0.130748 2:-0.190209 3:-0.116198 4:0.181261 5:0.0124495 6:0.307361 7:-0.166988 8:-0.308986 
-16 1:-0.0995785 2:-0.178345 3:-0.0496434 4:0.349639 5:0.136604 6:0.481679 7:0.207243 8:-0.12443 
-16 1:-0.072143 2:-0.162504 3:-0.00590391 4:0.413153 5:0.242898 6:0.481194 7:0.207243 8:-0.12443 
-16 1:-0.0528048 2:-0.145356 3:0.00847522 4:0.339273 5:0.286397 6:0.295565 7:0.0679997 8:-0.16932 
-16 1:-0.0448904 2:-0.129805 3:-0.00910202 4:0.0260814 5:0.199397 6:-0.189014 7:-0.174006 8:-0.256807 
-3.297742522770239 1:-0.0265787 2:-0.113127 3:0.00330357 4:-0.0267496 5:0.12183 6:-0.200695 7:0.0771418 8:-0.148573 
-5.531580199369144 1:-0.0100486 2:-0.0959591 3:0.00869294 4:-0.0619702 5:0.0570733 6:-0.193951 7:0.0771418 8:-0.148573 
-16 1:0.00975681 2:-0.077641 3:0.021342 4:-0.0974479 5:0.000762341 6:-0.197091 7:0.209291 8:-0.0905973 
-16 1:0.0124648 2:-0.0623598 3:-0.012062 4:-0.356045 5:-0.132557 6:-0.528706 7:-0.228432 8:-0.250503 
-16 1:0.0260438 2:-0.0469923 3:-0.0111119 4:-0.353483 5:-0.220487 6:-0.425997 7:0.0485727 8:-0.129956 
-16 1:0.00425024 2:-0.039742 3:-0.100397 4:-0.505073 5:-0.335253 6:-0.579603 7:-0.493804 8:-0.421963 
-16 1:0.0230236 2:-0.029597 3:-0.0685567 4:-0.302871 5:-0.336873 6:-0.202375 7:0.0783338 8:-0.0913309 
-16 1:-0.00438473 2:-0.0278241 3:-0.160645 4:-0.446576 5:-0.391177 6:-0.408693 7:-0.349133 8:-0.367992 
-16 1:-0.0190686 2:-0.0298041 3:-0.201925 4:-0.505245 5:-0.44911 6:-0.453086 7:-0.281326 8:-0.327139 
-16 1:-0.0236159 2:-0.0324406 3:-0.209144 4:-0.507223 5:-0.488464 6:-0.412919 7:-0.205587 8:-0.284516 
-16 1:-0.0444667 2:-0.0393752 3:-0.256423 4:-0.514255 5:-0.517305 6:-0.393847 7:-0.396757 8:-0.39898 
-16 1:-0.0827127 2:-0.0537743 3:-0.338527 4:-0.666408 5:-0.592886 6:-0.59215 7:-0.56673 8:-0.517533 
-16 1:-0.0758384 2:-0.0637026 3:-0.289351 4:-0.471992 5:-0.571267 6:-0.255266 7:-0.0732003 8:-0.233796 
-16 1:-0.00939455 2:-0.0562681 3:-0.0983701 4:0.109092 5:-0.341634 6:0.567809 7:0.359289 8:0.0902139 
-16 1:0.0154935 2:-0.0445605 3:-0.05137 4:0.236542 5:-0.14134 6:0.581319 7:0.0770393 8:-0.0741693 
-16 1:0.051275 2:-0.0269136 3:0.0139604 4:0.432911 5:0.0649194 6:0.716143 7:0.180134 8:-0.00320895 
-16 1:0.0854645 2:-0.00488345 3:0.0621722 4:0.600958 5:0.264667 6:0.805636 7:0.216595 8:0.0207503 
-1.64472923389878 1:0.122877 2:0.021399 3:0.108945 4:0.787258 5:0.466832 6:0.926324 7:0.29498 8:0.0701022 
4.114993466699127 1:0.152668 2:0.0493196 3:0.126965 4:0.911458 5:0.64761 6:0.955539 7:0.29498 8:0.0701022 
-16 1:0.181009 2:0.0782152 3:0.137688 4:0.875428 5:0.754784 6:0.769253 7:0.346095 8:0.0981582 
-8.631406714469865 1:0.237048 2:0.114301 3:0.216773 4:0.979521 5:0.864788 6:0.839979 7:0.599908 8:0.269565 
-6.662772002326928 1:0.265553 2:0.149766 3:0.209953 4:0.926802 5:0.918597 6:0.682154 7:0.316993 8:0.147525 
1.369196800884627 1:0.337506 2:0.224111 3:0.234473 4:0.91869 5:0.985394 6:0.592682 7:0.510212 8:0.26544 
-3.53557331557942 1:0.354174 2:0.258124 3:0.193977 4:0.776274 5:0.943249 6:0.37521 7:0.295047 8:0.175429 
-16 1:0.355357 2:0.285608 3:0.122166 4:0.590352 5:0.846291 6:0.138022 7:0.0975258 8:0.0875502 
-2.949265433797883 1:0.295802 2:0.293813 3:-0.0898997 4:0.0375037 5:0.576891 6:-0.588329 7:-0.501916 8:-0.297147 
-16 1:0.286528 2:0.29823 3:-0.131559 4:-0.0339884 5:0.370811 6:-0.491497 7:-0.0446198 8:-0.0622186 
-16 1:0.282736 2:0.300886 3:-0.150929 4:-0.0445156 5:0.229526 6:-0.353652 7:0.00282027 8:-0.0361547 
-16 1:0.254126 2:0.29639 3:-0.229601 4:-0.237205 5:0.063968 6:-0.526984 7:-0.228523 8:-0.175881 
-16 1:0.235555 2:0.288495 3:-0.266985 4:-0.32853 5:-0.0802286 6:-0.535912 7:-0.164177 8:-0.145348 
-16 1:0.22506 2:0.27975 3:-0.276332 4:-0.352279 5:-0.185156 6:-0.46312 7:-0.0926418 8:-0.113229 
-16 1:0.235592 2:0.275192 3:-0.230286 4:-0.157685 5:-0.183034 6:-0.104185 7:0.164159 8:0.0101408 
-16 1:0.23332 2:0.271019 3:-0.226042 4:-0.0452848 5:-0.139989 6:0.0565537 7:0.00947338 8:-0.0600951 
-16 1:0.245339 2:0.270463 3:-0.186265 4:0.185612 5:-0.0257739 6:0.35802 7:0.201283 8:0.0333434 
-16 1:0.248982 2:0.270861 3:-0.175769 4:0.193032 5:0.0531179 6:0.283912 7:0.10834 8:-0.00567437 
-16 1:0.270316 2:0.276116 3:-0.122335 4:0.422472 5:0.190692 6:0.556652 7:0.35072 8:0.118218 
-16 1:0.29555 2:0.286161 3:-0.0696618 4:0.549438 5:0.329433 6:0.637831 7:0.445009 8:0.174702 
-16 1:0.299254 2:0.295054 3:-0.0823291 4:0.478118 5:0.395511 6:0.431802 7:0.126427 8:0.042009 
-16 1:0.305486 2:0.30361 3:-0.0860287 4:0.463992 5:0.434332 6:0.36233 7:0.197949 8:0.0750545 
-16 1:0.303908 2:0.310091 3:-0.108869 4:0.398874 5:0.436094 6:0.239463 7:0.082686 8:0.0279563 
-0.4862812501847335 1:0.344824 2:0.324744 3:-0.0189681 4:0.597926 5:0.510993 6:0.525602 7:0.551313 8:0.290026 
-5.606993285414839 1:0.379691 2:0.344536 3:0.037554 4:0.676155 5:0.5899 6:0.582946 7:0.58104 8:0.312896 
-16 1:0.394843 2:0.363876 3:0.0325852 4:0.63083 5:0.625718 6:0.458893 7:0.350186 8:0.211773 
-14.79803798837912 1:0.408955 2:0.382614 3:0.0259615 4:0.584367 5:0.632387 6:0.365197 7:0.403189 8:0.239978 
-16 1:0.401403 2:0.409381 3:-0.0716745 4:0.324791 5:0.536008 6:-0.00938722 7:-0.0853224 8:0.0235983 
-16 1:0.386308 2:0.413777 3:-0.131794 4:0.17239 5:0.419994 6:-0.163108 7:-0.0853224 8:0.0235983 
-11.4575510185443 1:0.401117 2:0.420721 3:-0.103768 4:0.371576 5:0.416425 6:0.210692 7:0.394143 8:0.236052 
-16 1:0.405169 2:0.427214 3:-0.108729 4:0.431527 5:0.43625 6:0.299916 7:0.272973 8:0.180394 
-16 1:0.434763 2:0.439257 3:-0.0476763 4:0.46518 5:0.461931 6:0.33379 7:0.554543 8:0.3486 
-16 1:0.430578 2:0.447923 3:-0.0848229 4:0.2824 5:0.411354 6:0.0507687 7:0.0951484 8:0.101175 
-16 1:0.424273 2:0.453397 3:-0.119938 4:0.160547 5:0.332505 6:-0.087636 7:0.0951484 8:0.101175 
-16 1:0.41152 2:0.454825 3:-0.164445 4:0.0382681 5:0.234649 6:-0.205658 7:0.00128705 8:0.0517847 
-16 1:0.408437 2:0.455253 3:-0.175433 4:0.0388351 5:0.169622 6:-0.132166 7:0.171925 8:0.1255 
-16 1:0.412967 2:0.456644 3:-0.164844 4:0.103058 5:0.150058 6:0.00886947 7:0.317655 8:0.195031 
-16 1:0.40883 2:0.4568 3:-0.178434 4:0.10255 5:0.136826 6:0.0226657 7:0.182767 8:0.135979 
