svm_type epsilon_svr
kernel_type rbf
gamma 0.000976562
nr_class 2
total_sv 529
rho -71.5061
SV
32 1:0.066821 2:0.0275356 3:-0.0815894 4:-0.23304 5:-0.115786 6:-0.302727 7:-1 8:-1 
32 1:0.0636048 2:0.0255321 3:-0.0856343 4:-0.285998 5:-0.1828 6:-0.325587 7:-1 8:-1 
32 1:0.0553141 2:0.0210653 3:-0.0978222 4:-0.332135 5:-0.244157 6:-0.341953 7:-1 8:-1 
32 1:0.0414742 2:0.0136294 3:-0.11822 4:-0.557872 5:-0.366679 6:-0.634174 7:-1 8:-1 
32 1:0.0268818 2:0.00444415 3:-0.136333 4:-0.74086 5:-0.514519 6:-0.813122 7:-1 8:-1 
32 1:0.0352064 2:0.00109456 3:-0.104323 4:-0.634077 5:-0.574472 6:-0.53411 7:-0.0781456 8:-0.106555 
32 1:0.0410896 2:0.000484341 3:-0.0861345 4:-0.562888 5:-0.588701 6:-0.378833 7:-0.0781456 8:-0.106555 
32 1:0.0499933 2:0.00245078 3:-0.0659017 4:-0.458234 5:-0.56035 6:-0.209389 7:0.0994748 8:0.0515702 
32 1:0.0469322 2:0.00309385 3:-0.0761868 4:-0.502853 5:-0.557581 6:-0.299369 7:-0.189095 8:-0.140573 
32 1:0.0548953 2:0.00557408 3:-0.0599126 4:-0.346719 5:-0.499284 6:-0.0656752 7:0.146564 8:0.130411 
32 1:0.0659081 2:0.0101552 3:-0.0403101 4:-0.0954389 5:-0.369569 6:0.267573 7:0.283401 8:0.244824 
32 1:0.0608706 2:0.0124549 3:-0.0603686 4:-0.138191 5:-0.298549 6:0.0997312 7:-0.0948923 8:0.00542445 
32 1:0.0653113 2:0.0152882 3:-0.0549531 4:-0.0405291 5:-0.215892 6:0.190756 7:0.134052 8:0.17131 
32 1:0.0825014 2:0.0215286 3:-0.0220577 4:0.234851 5:-0.0612228 6:0.541026 7:0.417686 8:0.396256 
32 1:0.109443 2:0.0326807 3:0.0260364 4:0.502546 5:0.138676 6:0.822366 7:0.60947 8:0.569312 
32 1:0.126452 2:0.0453819 3:0.042115 4:0.568127 5:0.295653 6:0.762338 7:0.513003 8:0.514813 
32 1:0.144598 2:0.0595744 3:0.0576469 4:0.687102 5:0.443321 6:0.817146 7:0.598578 8:0.5829 
32 1:0.0942732 2:0.0593184 3:-0.0841155 4:0.0891227 5:0.325564 6:-0.203859 7:-0.410207 8:-0.137788 
32 1:-0.0274976 2:0.031408 3:-0.358262 4:-0.159627 5:0.157123 6:-0.485956 7:-0.707181 8:-0.477581 
32 1:-0.123329 2:-0.0125154 3:-0.518593 4:-0.336991 5:-0.0192981 6:-0.619857 7:-0.713851 8:-0.485919 
32 1:-0.188769 2:-0.062282 3:-0.578178 4:-0.432172 5:-0.171325 6:-0.623237 7:-0.612363 8:-0.419094 
32 1:-0.229977 2:-0.111239 3:-0.571237 4:-0.472564 5:-0.28728 6:-0.563256 7:-0.499913 8:-0.350017 
32 1:-0.235694 2:-0.151563 3:-0.485648 4:-0.418774 5:-0.345135 6:-0.389691 7:-0.138705 8:-0.123522 
32 1:-0.216853 2:-0.179491 3:-0.361853 4:-0.313728 5:-0.345726 6:-0.18493 7:0.107505 8:0.0452196 
32 1:-0.212152 2:-0.200728 3:-0.294954 4:-0.289822 5:-0.337476 6:-0.148341 7:-0.0426262 8:-0.0310175 
32 1:-0.188447 2:-0.212356 3:-0.198528 4:-0.192372 5:-0.296743 6:-0.00767306 7:0.16927 8:0.106609 
32 1:-0.177155 2:-0.219107 3:-0.149537 4:0.0107793 5:-0.196137 6:0.266838 7:0.0337539 8:0.0426688 
32 1:-0.165507 2:-0.221885 3:-0.109565 4:0.0910261 5:-0.100053 6:0.308002 7:0.0337539 8:0.0426688 
32 1:-0.13305 2:-0.216816 3:-0.0305123 4:0.287509 5:0.0350416 6:0.528382 7:0.335776 8:0.220274 
32 1:-0.136626 2:-0.213566 3:-0.0488347 4:0.20402 5:0.0949192 6:0.294711 7:-0.108609 8:0.010084 
32 1:-0.116094 2:-0.206359 3:-0.00892267 4:0.291346 5:0.166411 6:0.378987 7:0.168852 8:0.174731 
32 1:-0.10497 2:-0.198099 3:0.0017101 4:0.215244 5:0.186556 6:0.207103 7:0.0719082 8:0.12748 
32 1:-0.0801373 2:-0.185921 3:0.0412478 4:0.294495 5:0.228641 6:0.310806 7:0.260438 8:0.237237 
32 1:-0.048352 2:-0.169049 3:0.0886146 4:0.393366 5:0.292444 6:0.42669 7:0.386529 8:0.315824 
32 1:-0.0400486 2:-0.153692 3:0.0733555 4:0.310338 5:0.304961 6:0.250459 7:0.0757362 8:0.1764 
32 1:-0.0682562 2:-0.147737 3:-0.021495 4:0.0598195 5:0.222729 6:-0.138003 7:-0.310593 8:-0.0478086 
32 1:-0.114035 2:-0.153242 3:-0.137145 4:-0.279761 5:0.0451313 6:-0.58561 7:-0.475432 8:-0.170735 
32 1:-0.14053 2:-0.163589 3:-0.186009 4:-0.456843 5:-0.137292 6:-0.711795 7:-0.346002 8:-0.10633 
32 1:-0.158884 2:-0.175982 3:-0.206669 4:-0.574897 5:-0.30159 6:-0.744957 7:-0.346002 8:-0.10633 
32 1:-0.141457 2:-0.181987 3:-0.1422 4:-0.45638 5:-0.368272 6:-0.435118 7:0.153617 8:0.149468 
32 1:-0.158384 2:-0.190587 3:-0.168396 4:-0.599241 5:-0.464379 6:-0.597886 7:-0.211767 8:-0.04487 
32 1:-0.147016 2:-0.194918 3:-0.125298 4:-0.546566 5:-0.509405 6:-0.441804 7:0.0767111 8:0.123192 
32 1:-0.172496 2:-0.204096 3:-0.174236 4:-0.684018 5:-0.589119 6:-0.613636 7:-0.249704 8:-0.068745 
32 1:-0.189705 2:-0.215298 3:-0.194664 4:-0.681973 5:-0.641522 6:-0.547096 7:-0.249704 8:-0.068745 
32 1:-0.255763 2:-0.239074 3:-0.321588 4:-0.823594 5:-0.727661 6:-0.719356 7:-0.561367 8:-0.292603 
32 1:-0.322346 2:-0.273027 3:-0.424318 4:-0.861567 5:-0.798816 6:-0.708164 7:-0.626083 8:-0.350435 
-32 1:-0.332866 2:-0.302548 3:-0.379587 4:-0.692134 5:-0.784994 6:-0.395537 7:-0.142195 8:-0.0713024 
32 1:-0.362601 2:-0.332833 3:-0.387299 4:-0.714435 5:-0.783842 6:-0.440232 7:-0.305859 8:-0.170492 
32 1:-0.387096 2:-0.381887 3:-0.332819 4:-0.539227 5:-0.673198 6:-0.231988 7:-0.296022 8:-0.159448 
32 1:-0.313779 2:-0.404679 3:-0.0678288 4:0.14792 5:-0.234977 6:0.579612 7:0.0783366 8:0.102385 
32 1:-0.141216 2:-0.347366 3:0.275846 4:0.642374 5:0.231305 6:0.983394 7:0.526505 8:0.439997 
32 1:-0.0688417 2:-0.302809 3:0.3682 4:0.774228 5:0.431922 6:1 7:0.564836 8:0.470257 
32 1:-0.00683146 2:-0.253257 3:0.418621 4:0.845883 5:0.591574 6:0.948576 7:0.586556 8:0.48631 
32 1:0.0614401 2:-0.198305 3:0.473133 4:0.909901 5:0.721155 6:0.918221 7:0.693442 8:0.566832 
32 1:0.126305 2:-0.139797 3:0.50903 4:0.952579 5:0.822972 6:0.879562 7:0.750999 8:0.613536 
32 1:0.176439 2:-0.0817477 3:0.504401 4:0.981032 5:0.901138 6:0.841506 7:0.750999 8:0.613536 
32 1:0.22958 2:-0.023391 3:0.507504 4:1 5:0.960106 6:0.807948 7:0.835214 8:0.680673 
32 1:0.269353 2:0.0322137 3:0.479724 4:0.978602 5:0.991682 6:0.728681 7:0.835214 8:0.680673 
32 1:0.2982 2:0.0831667 3:0.432766 4:0.943386 5:1 6:0.650341 7:0.835214 8:0.680673 
32 1:0.31816 2:0.128405 3:0.375079 4:0.917709 5:0.996262 6:0.604926 7:0.835214 8:0.680673 
32 1:0.330929 2:0.167459 3:0.312652 4:0.898208 5:0.986719 6:0.578438 7:0.835214 8:0.680673 
32 1:0.349289 2:0.20282 3:0.275367 4:0.944784 5:0.997197 6:0.656404 7:0.940652 8:0.752073 
32 1:0.345285 2:0.230211 3:0.194913 4:0.750069 5:0.933782 6:0.353876 7:0.272214 8:0.543897 
32 1:0.346559 2:0.252409 3:0.142495 4:0.695515 5:0.871781 6:0.321927 7:0.431191 8:0.600943 
32 1:0.351954 2:0.271378 3:0.109893 4:0.725546 5:0.841306 6:0.416652 7:0.565068 8:0.656576 
32 1:0.345339 2:0.285069 3:0.0566205 4:0.661459 5:0.797817 6:0.344082 7:0.275933 8:0.545997 
32 1:0.317996 2:0.28989 3:-0.0329201 4:0.384807 5:0.6688 6:-0.0392876 7:-0.191075 8:0.304176 
32 1:0.244339 2:0.277229 3:-0.209401 4:-0.112408 5:0.403019 6:-0.687819 7:-0.630551 8:-0.101729 
-23.07104808623433 1:0.222597 2:0.262224 3:-0.233058 4:-0.086422 5:0.235227 6:-0.437005 7:-0.0128257 8:0.227503 
32 1:0.161989 2:0.236629 3:-0.339969 4:-0.396772 5:0.0111578 6:-0.772346 7:-0.32928 8:-0.0233193 
32 1:0.128624 2:0.20867 3:-0.363825 4:-0.330159 5:-0.114138 6:-0.493351 7:-0.138643 8:0.0901974 
32 1:0.132193 2:0.187103 3:-0.2993 4:-0.0816857 5:-0.107832 6:-0.018211 7:0.176984 8:0.28945 
32 1:0.168464 2:0.177984 3:-0.173647 4:0.0920079 5:-0.040828 6:0.239197 7:0.428448 8:0.469761 
32 1:0.195721 2:0.176801 3:-0.0935289 4:0.207804 5:0.0457074 6:0.360817 7:0.428448 8:0.469761 
32 1:0.223215 2:0.18202 3:-0.0289016 4:0.318253 5:0.143331 6:0.458812 7:0.488373 8:0.509951 
32 1:0.231559 2:0.188067 3:-0.0205498 4:0.342008 5:0.217002 6:0.416997 7:0.292455 8:0.414748 
32 1:0.255242 2:0.198216 3:0.0208571 4:0.440975 5:0.301898 6:0.507883 7:0.481246 8:0.524571 
32 1:0.241206 2:0.203187 3:-0.0314061 4:0.373944 5:0.33426 6:0.339034 7:0.0355258 8:0.285612 
32 1:0.243446 2:0.207666 3:-0.0363738 4:0.395761 5:0.363723 6:0.346238 7:0.215059 8:0.380096 
32 1:0.212737 2:0.204362 3:-0.114936 4:0.133203 5:0.288436 6:-0.0739029 7:-0.129454 8:0.171555 
32 1:0.183207 2:0.195098 3:-0.175116 4:-0.190778 5:0.121108 6:-0.503469 7:-0.166385 8:0.147473 
32 1:0.173974 2:0.185615 3:-0.177314 4:-0.245907 5:-0.0103761 6:-0.453575 7:0.0674201 8:0.257777 
32 1:0.138867 2:0.170156 3:-0.237645 4:-0.362664 5:-0.140246 6:-0.525322 7:-0.228075 8:0.081707 
32 1:0.102925 2:0.149728 3:-0.2878 4:-0.410543 5:-0.244137 6:-0.494288 7:-0.297528 8:0.0356816 
32 1:0.104818 2:0.133811 3:-0.242271 4:-0.213686 5:-0.242223 6:-0.114171 7:0.157717 8:0.263015 
32 1:0.0715937 2:0.113626 3:-0.285349 4:-0.316424 5:-0.278092 6:-0.270917 7:-0.193977 8:0.0535744 
32 1:0.0683605 2:0.0967533 3:-0.251916 4:-0.189936 5:-0.256273 6:-0.0512606 7:0.0814977 8:0.207997 
32 1:0.0924713 2:0.088662 3:-0.163268 4:0.151267 5:-0.118363 6:0.446884 7:0.329125 8:0.364133 
32 1:0.10726 2:0.0855055 3:-0.113454 4:0.344691 5:0.0435095 6:0.629351 7:0.277224 8:0.337761 
32 1:0.133623 2:0.0888923 3:-0.047401 4:0.575773 5:0.234973 6:0.84964 7:0.423008 8:0.426966 
32 1:0.149706 2:0.0952085 3:-0.0178287 4:0.697331 5:0.406565 6:0.880899 7:0.353895 8:0.396277 
32 1:0.157553 2:0.102021 3:-0.0128174 4:0.667881 5:0.510313 6:0.699823 7:0.276404 8:0.36369 
32 1:0.177905 2:0.112036 3:0.0195026 4:0.753605 5:0.610471 6:0.746762 7:0.475159 8:0.467204 
32 1:0.139246 2:0.111377 3:-0.0882325 4:0.283968 5:0.507445 6:-0.0425196 7:-0.252496 8:0.0745051 
32 1:0.157663 2:0.114981 3:-0.0452115 4:0.460036 5:0.502418 6:0.3055 7:0.265302 8:0.375432 
32 1:0.152006 2:0.116595 3:-0.0652935 4:0.358289 5:0.46228 6:0.155775 7:0.0768132 8:0.259005 
32 1:0.146603 2:0.116675 3:-0.080784 4:0.290457 5:0.410997 6:0.0852393 7:0.0768132 8:0.259005 
32 1:0.126219 2:0.112168 3:-0.12709 4:0.0770189 5:0.299638 6:-0.196418 7:-0.0922232 8:0.16187 
32 1:0.109572 2:0.104829 3:-0.155676 4:-0.0652734 5:0.173953 6:-0.322765 7:-0.0922232 8:0.16187 
32 1:0.0922317 2:0.0950685 3:-0.180114 4:-0.202189 5:0.0406602 6:-0.429586 7:-0.144672 8:0.134846 
32 1:0.0669244 2:0.0815851 3:-0.2177 4:-0.325007 5:-0.0926069 6:-0.509051 7:-0.296988 8:0.0531937 
32 1:0.0394741 2:0.0646425 3:-0.252621 4:-0.478379 5:-0.236904 6:-0.634698 7:-0.387834 8:-9.76593e-05 
32 1:0.0259008 2:0.0480445 3:-0.249142 4:-0.462099 5:-0.327215 6:-0.495247 7:-0.171237 8:0.077897 
32 1:0.00430016 2:0.0299219 3:-0.264531 4:-0.564129 5:-0.424313 6:-0.577515 7:-0.342642 8:-0.00993696 
32 1:0.00333299 2:0.015207 3:-0.230132 4:-0.387569 5:-0.425208 6:-0.233472 7:0.0450254 8:0.148956 
32 1:0.0490311 2:0.0136832 3:-0.0969717 4:-0.0367353 5:-0.29896 6:0.297304 7:0.596248 8:0.496691 
32 1:0.134581 2:0.0316494 3:0.0997742 4:0.299824 5:-0.0931102 6:0.705311 7:0.825009 8:0.730365 
32 1:0.170346 2:0.0540429 3:0.144467 4:0.350882 5:0.0625833 6:0.618604 7:0.39647 8:0.485319 
32 1:0.227677 2:0.0848145 3:0.229041 4:0.537846 5:0.233976 6:0.777155 7:0.571922 8:0.618536 
32 1:0.293628 2:0.124222 3:0.316217 4:0.686211 5:0.401881 6:0.864892 7:0.676777 8:0.704695 
32 1:0.312224 2:0.159918 3:0.278754 4:0.638471 5:0.496556 6:0.659116 7:0.297454 8:0.481355 
32 1:0.350676 2:0.197098 3:0.293734 4:0.734963 5:0.59456 6:0.729545 7:0.470461 8:0.592509 
32 1:0.377568 2:0.232873 3:0.279546 4:0.796236 5:0.682049 6:0.744113 7:0.470461 8:0.592509 
32 1:0.395095 2:0.265423 3:0.246998 4:0.829141 5:0.752273 6:0.72419 7:0.470461 8:0.592509 
32 1:0.412709 2:0.295414 3:0.221155 4:0.862994 5:0.811328 6:0.719441 7:0.540142 8:0.629513 
32 1:0.43019 2:0.323326 3:0.20018 4:0.785132 5:0.822547 6:0.554796 7:0.609877 8:0.667113 
32 1:0.340647 2:0.325576 3:-0.0588817 4:0.154476 5:0.60201 6:-0.40697 7:-0.425053 8:0.0104135 
32 1:0.263561 2:0.310088 3:-0.237933 4:-0.265962 5:0.302974 6:-0.866655 7:-0.44229 8:-0.00631418 
32 1:0.181866 2:0.279377 3:-0.391606 4:-0.474761 5:0.028125 6:-0.944101 7:-0.530301 8:-0.0900093 
32 1:0.131795 2:0.24358 3:-0.442954 4:-0.542468 5:-0.179588 6:-0.827627 7:-0.298596 8:0.0183138 
32 1:0.0727676 2:0.201705 3:-0.504309 4:-0.676972 5:-0.366693 6:-0.865512 7:-0.421745 8:-0.0715094 
32 1:0.0493226 2:0.162947 3:-0.47284 4:-0.659402 5:-0.485077 6:-0.690038 7:-0.0899954 8:0.0902001 
32 1:0.0235303 2:0.126156 3:-0.452979 4:-0.683435 5:-0.57269 6:-0.632119 7:-0.162721 8:0.049303 
32 1:4.38553e-06 2:0.0914479 3:-0.431959 4:-0.71733 5:-0.643353 6:-0.613594 7:-0.202552 8:0.0278812 
32 1:0.00520348 2:0.0648473 3:-0.350115 4:-0.418211 5:-0.582314 6:-0.10542 7:0.158299 8:0.200063 
32 1:-0.0319487 2:0.0352351 3:-0.380516 4:-0.488881 5:-0.567172 6:-0.260777 7:-0.277252 8:-0.0353433 
32 1:-0.0637425 2:0.00441537 3:-0.392706 4:-0.551881 5:-0.579856 6:-0.368014 7:-0.30687 8:-0.054086 
32 1:-0.0871643 2:-0.0254929 3:-0.383505 4:-0.593882 5:-0.603497 6:-0.421375 7:-0.30687 8:-0.054086 
32 1:-0.0847016 2:-0.0488673 3:-0.317547 4:-0.362722 5:-0.535681 6:-0.0533064 7:0.0512081 8:0.108611 
32 1:-0.0772338 2:-0.0658921 3:-0.25345 4:-0.163932 5:-0.418597 6:0.193059 7:0.115142 8:0.140143 
32 1:-0.0773646 2:-0.0795412 3:-0.219374 4:-0.120772 5:-0.324936 6:0.165074 7:-0.0242917 8:0.0841421 
32 1:-0.0758239 2:-0.090115 3:-0.188329 4:-0.0919978 5:-0.252092 6:0.133997 7:-0.0242917 8:0.0841421 
32 1:-0.0463095 2:-0.0919552 3:-0.100166 4:0.105916 5:-0.131973 6:0.375037 7:0.460583 8:0.325929 
32 1:-0.0218964 2:-0.0879526 3:-0.0411839 4:0.237858 5:-0.00418962 6:0.478774 7:0.460583 8:0.325929 
32 1:0.0363585 2:-0.0716864 3:0.0826134 4:0.451594 5:0.158276 6:0.699988 7:0.797738 8:0.594708 
32 1:0.0289833 2:-0.0603274 3:0.0330767 4:0.223382 5:0.184076 6:0.225874 7:-0.018744 8:0.166573 
32 1:0.00076595 2:-0.0575681 3:-0.0537354 4:-0.0876306 5:0.0888282 6:-0.264561 7:-0.210769 8:0.0343388 
32 1:-0.0777645 2:-0.0729717 3:-0.237085 4:-0.342256 5:-0.0667312 6:-0.573451 7:-0.510263 8:-0.213352 
32 1:-0.171949 2:-0.106416 3:-0.419202 4:-0.502692 5:-0.228444 6:-0.692029 7:-0.618765 8:-0.321647 
32 1:-0.201137 2:-0.160879 3:-0.364349 4:-0.375201 5:-0.326034 6:-0.327854 7:-0.145579 8:-0.0123741 
32 1:-0.233446 2:-0.190533 3:-0.380939 4:-0.430232 5:-0.375114 6:-0.376155 7:-0.204971 8:-0.0523328 
32 1:-0.236279 2:-0.214892 3:-0.327482 4:-0.399473 5:-0.396713 6:-0.290617 7:-0.0310836 8:0.05344 
32 1:-0.22742 2:-0.232392 3:-0.258251 4:-0.328865 5:-0.385584 6:-0.166745 7:0.0403443 8:0.0958593 
32 1:-0.209504 2:-0.242374 3:-0.182358 4:-0.205787 5:-0.333665 6:0.0103495 7:0.118506 8:0.140099 
32 1:-0.207564 2:-0.249925 3:-0.157814 4:-0.128816 5:-0.271223 6:0.0853176 7:-0.0464785 8:0.0637278 
32 1:-0.172424 2:-0.248086 3:-0.0630178 4:0.260102 5:-0.0889809 6:0.623218 7:0.281169 8:0.245312 
32 1:-0.176472 2:-0.247522 3:-0.0758953 4:0.197664 5:0.00993946 6:0.383825 7:-0.0708501 8:0.0717311 
32 1:-0.123506 2:-0.235192 3:0.0428705 4:0.477755 5:0.177154 6:0.728267 7:0.361128 8:0.342257 
32 1:-0.0607809 2:-0.211262 3:0.159976 4:0.664482 5:0.356143 6:0.87729 7:0.46991 8:0.422579 
32 1:-0.0254302 2:-0.184191 3:0.191691 4:0.686835 5:0.48355 6:0.768594 7:0.295599 8:0.337535 
32 1:0.0490585 2:-0.145829 3:0.305663 4:0.766241 5:0.597198 6:0.787154 7:0.564652 8:0.524902 
32 1:0.103809 2:-0.102861 3:0.352159 4:0.797229 5:0.684167 6:0.743513 7:0.516042 8:0.501797 
32 1:0.146284 2:-0.0589617 3:0.361563 4:0.817888 5:0.749616 6:0.705502 7:0.516042 8:0.501797 
32 1:0.201526 2:-0.0114536 3:0.397992 4:0.891238 5:0.819768 6:0.764228 7:0.663478 8:0.599011 
32 1:0.239461 2:0.03506 3:0.387952 4:0.917796 5:0.876139 6:0.748516 7:0.588816 8:0.569678 
32 1:0.229096 2:0.0699466 3:0.270581 4:0.695704 5:0.833421 6:0.368095 7:0.0177938 8:0.303905 
32 1:0.219127 2:0.0956201 3:0.177578 4:0.495215 5:0.732455 6:0.0991852 7:0.0177938 8:0.303905 
32 1:0.205769 2:0.113163 3:0.0955036 4:0.286163 5:0.58956 6:-0.136298 7:-0.0363228 8:0.277207 
32 1:0.197531 2:0.12535 3:0.0414367 4:0.099856 5:0.426937 6:-0.304044 7:0.0388364 8:0.303632 
32 1:0.212458 2:0.138448 3:0.0506235 4:0.213959 5:0.359777 6:-0.00220749 7:0.399039 8:0.453637 
32 1:0.218682 2:0.150321 3:0.0382699 4:0.25031 5:0.328146 6:0.106171 7:0.311976 8:0.419684 
32 1:0.195145 2:0.154542 3:-0.0389853 4:-0.00348195 5:0.215299 6:-0.252097 7:-0.150557 8:0.201427 
32 1:0.118065 2:0.140632 3:-0.222 4:-0.321962 5:0.02492 6:-0.643456 7:-0.563116 8:-0.120504 
32 1:0.0456561 2:0.113267 3:-0.357839 4:-0.583587 5:-0.196591 6:-0.887201 7:-0.610419 8:-0.169931 
32 1:-0.0146453 2:0.077851 3:-0.4391 4:-0.758003 5:-0.407326 6:-0.974407 7:-0.627236 8:-0.186856 
32 1:-0.0647733 2:0.0382769 3:-0.481078 4:-0.828157 5:-0.57318 6:-0.912662 7:-0.64632 8:-0.204871 
32 1:-0.113983 2:-0.004418 3:-0.512582 4:-0.92105 5:-0.717335 6:-0.920997 7:-0.703285 8:-0.25955 
32 1:-0.142854 2:-0.0450484 3:-0.491742 4:-0.863825 5:-0.792749 6:-0.719795 7:-0.481646 8:-0.175953 
32 1:-0.166895 2:-0.0829442 3:-0.464137 4:-0.845534 5:-0.836411 6:-0.632133 7:-0.517343 8:-0.197561 
32 1:-0.194504 2:-0.119452 3:-0.450127 4:-0.892917 5:-0.882651 6:-0.668968 7:-0.616406 8:-0.262061 
32 1:-0.262709 2:-0.163954 3:-0.530823 4:-0.925579 5:-0.925287 6:-0.681511 7:-0.818352 8:-0.467967 
32 1:-0.31239 2:-0.210697 3:-0.553447 4:-0.909399 5:-0.947861 6:-0.623129 7:-0.818352 8:-0.467967 
32 1:-0.354617 2:-0.257561 3:-0.554668 4:-0.949679 5:-0.977473 6:-0.666018 7:-0.838758 8:-0.494744 
32 1:-0.394333 2:-0.303959 3:-0.549962 4:-0.957382 5:-1 6:-0.654086 7:-0.866811 8:-0.533846 
32 1:-0.458308 2:-0.386339 3:-0.523097 4:-0.830911 5:-0.942077 6:-0.477568 7:-0.662116 8:-0.494489 
-32 1:-0.493306 2:-0.429177 3:-0.514024 4:-0.748127 5:-0.900745 6:-0.366104 7:-0.588928 8:-0.452625 
-32 1:-0.541025 2:-0.474148 3:-0.535564 4:-0.804148 5:-0.893446 6:-0.483643 7:-0.695412 8:-0.530617 
-32 1:-0.590543 2:-0.52123 3:-0.55687 4:-0.852733 5:-0.906145 6:-0.562858 7:-0.752627 8:-0.578303 
-32 1:-0.598978 2:-0.560787 3:-0.480908 4:-0.748189 5:-0.876814 6:-0.394799 7:-0.330058 8:-0.334521 
-32 1:-0.62087 2:-0.597343 3:-0.450602 4:-0.802745 5:-0.876984 6:-0.500573 7:-0.474465 8:-0.412409 
-32 1:-0.633996 2:-0.62953 3:-0.406515 4:-0.740698 5:-0.854664 6:-0.406691 7:-0.49705 8:-0.424874 
-32 1:-0.624858 2:-0.653231 3:-0.320844 4:-0.638054 5:-0.802673 6:-0.269375 7:-0.265719 8:-0.300048 
-32 1:-0.613628 2:-0.669674 3:-0.247571 4:-0.563694 5:-0.741127 6:-0.198411 7:-0.305862 8:-0.316761 
-32 1:-0.654252 2:-0.691938 3:-0.306339 4:-0.744742 5:-0.765555 6:-0.520938 7:-0.657224 8:-0.511255 
-32 1:-0.681674 2:-0.715899 3:-0.323468 4:-0.647854 5:-0.74681 6:-0.355111 7:-0.671097 8:-0.521348 
-32 1:-0.747994 2:-0.74994 3:-0.425228 4:-0.730758 5:-0.764288 6:-0.495287 7:-0.807469 8:-0.637723 
-32 1:-0.802103 2:-0.789308 3:-0.478994 4:-0.778126 5:-0.793066 6:-0.552942 7:-0.826714 8:-0.657548 
-32 1:-0.922265 2:-0.847749 3:-0.671537 4:-0.887696 5:-0.851866 6:-0.695582 7:-0.911496 8:-0.766426 
-32 1:-0.974643 2:-0.906248 3:-0.672122 4:-0.881307 5:-0.888757 6:-0.639126 7:-0.546441 8:-0.522227 
-32 1:-1 2:-0.958734 3:-0.611418 4:-0.867118 5:-0.908221 6:-0.588325 7:-0.500661 8:-0.492474 
-32 1:-0.946721 2:-0.988774 3:-0.384838 4:-0.698787 5:-0.860335 6:-0.318506 7:0.0804641 8:-0.0809732 
-32 1:-0.889615 2:-1 3:-0.194912 4:-0.447553 5:-0.737577 6:0.02296 7:0.109286 8:-0.0587283 
-32 1:-0.849222 2:-0.999922 3:-0.0808051 4:-0.283696 5:-0.596496 6:0.172814 7:-0.0203301 8:-0.1153 
-32 1:-0.791889 2:-0.987003 3:0.0488301 4:0.00519754 5:-0.397991 6:0.496998 7:0.131329 8:-0.0163651 
-32 1:-0.714313 2:-0.95927 3:0.198363 4:0.154464 5:-0.211686 6:0.564517 7:0.331594 8:0.123601 
-32 1:-0.598891 2:-0.9112 3:0.403666 4:0.448955 5:0.0189914 6:0.861161 7:0.604235 8:0.356382 
-32 1:-0.481816 2:-0.846489 3:0.571652 4:0.645282 5:0.243759 6:0.974174 7:0.68616 8:0.438828 
-32 1:-0.387649 2:-0.773602 3:0.654179 4:0.743671 5:0.429177 6:0.943918 7:0.627219 8:0.415439 
-32 1:-0.297258 2:-0.695022 3:0.711655 4:0.790693 5:0.56979 6:0.867377 7:0.690086 8:0.469394 
-32 1:-0.226101 2:-0.6162 3:0.714092 4:0.73361 5:0.642894 6:0.66921 7:0.612234 8:0.441944 
-32 1:-0.189884 2:-0.545021 3:0.636945 4:0.590932 5:0.640043 6:0.395454 7:0.198261 8:0.282251 
-32 1:-0.15096 2:-0.479349 3:0.581355 4:0.519957 5:0.612482 6:0.290489 7:0.292146 8:0.32886 
-32 1:-0.144664 2:-0.425399 3:0.463018 4:0.170172 5:0.467641 6:-0.216051 7:-0.0918497 8:0.152295 
-32 1:-0.110639 2:-0.374609 3:0.431123 4:0.0694679 5:0.334671 6:-0.252914 7:0.249842 8:0.321183 
-32 1:-0.0972062 2:-0.330964 3:0.35899 4:-0.209751 5:0.145072 6:-0.568936 7:0.047235 8:0.221421 
-32 1:-0.126742 2:-0.302672 3:0.204011 4:-0.361589 5:-0.0362254 6:-0.647429 7:-0.327505 8:-0.00755856 
-32 1:-0.1553 2:-0.286443 3:0.0822401 4:-0.504869 5:-0.208894 6:-0.7196 7:-0.378084 8:-0.0437735 
-32 1:-0.186579 2:-0.280474 3:-0.0213351 4:-0.626089 5:-0.367833 6:-0.765309 7:-0.454947 8:-0.098595 
-32 1:-0.219633 2:-0.283112 3:-0.108213 4:-0.681715 5:-0.493905 6:-0.722842 7:-0.527883 8:-0.152577 
-32 1:-0.1889 2:-0.27833 3:-0.033316 4:-0.474679 5:-0.503098 6:-0.309689 7:0.216307 8:0.230738 
-32 1:-0.135226 2:-0.262467 3:0.078539 4:-0.214594 5:-0.415192 6:0.0905807 7:0.421344 8:0.374331 
-32 1:-0.0756231 2:-0.236411 3:0.181442 4:0.0285442 5:-0.268681 6:0.38796 7:0.520994 8:0.449355 
-32 1:-0.0349263 2:-0.206439 3:0.220966 4:0.24245 5:-0.0936677 6:0.594525 7:0.404133 8:0.396014 
-32 1:0.0438594 2:-0.164793 3:0.338811 4:0.507612 5:0.118878 6:0.855846 7:0.683999 8:0.606652 
-32 1:0.0753537 2:-0.124414 3:0.326028 4:0.544889 5:0.274053 6:0.742988 7:0.290768 8:0.402042 
-32 1:0.0999314 2:-0.0865988 3:0.300144 4:0.569741 5:0.386488 6:0.657022 7:0.290768 8:0.402042 
-32 1:0.126434 2:-0.0504034 3:0.283794 4:0.621183 5:0.480044 6:0.645249 7:0.364236 8:0.442249 
-32 1:0.161765 2:-0.0135236 3:0.290701 4:0.718047 5:0.577436 6:0.71713 7:0.503459 8:0.521553 
-32 1:0.138812 2:0.0108327 3:0.164281 4:0.395722 5:0.525826 6:0.15262 7:-0.116764 8:0.188749 
-32 1:0.120008 2:0.0261008 3:0.072538 4:0.212613 5:0.425216 6:-0.0829529 7:-0.116764 8:0.188749 
-32 1:0.142787 2:0.0434237 3:0.0932803 4:0.355328 5:0.409741 6:0.212751 7:0.309659 8:0.408281 
-32 1:0.171203 2:0.0636546 3:0.122636 4:0.506265 5:0.453997 6:0.453115 7:0.404743 8:0.465587 
-32 1:0.192278 2:0.0845654 3:0.129499 4:0.60689 5:0.519882 6:0.569919 7:0.404743 8:0.465587 
-32 1:0.192112 2:0.101257 3:0.086906 4:0.571841 5:0.551133 6:0.464523 7:0.141757 8:0.345496 
-32 1:0.16006 2:0.107422 3:-0.0193525 4:0.344211 5:0.489667 6:0.0957298 7:-0.222253 8:0.138234 
-32 1:0.0957679 2:0.0979364 3:-0.177345 4:0.0338433 5:0.336475 6:-0.324269 7:-0.480861 8:-0.0623687 
-32 1:0.0145726 2:0.0721391 3:-0.342005 4:-0.305531 5:0.111645 6:-0.715082 7:-0.610405 8:-0.189362 
-32 1:-0.075129 2:0.0313851 3:-0.49299 4:-0.555195 5:-0.128509 6:-0.913335 7:-0.693939 8:-0.283685 
-32 1:-0.193343 2:-0.0277286 3:-0.678325 4:-0.739076 5:-0.355095 6:-1 7:-0.795651 8:-0.422373 
-32 1:-0.26775 2:-0.0917057 3:-0.72742 4:-0.761323 5:-0.514195 6:-0.853258 7:-0.572916 8:-0.305189 
-32 1:-0.371785 2:-0.166218 3:-0.833771 4:-0.864963 5:-0.657733 6:-0.883206 7:-0.707559 8:-0.432432 
-32 1:-0.41399 2:-0.235293 3:-0.77888 4:-0.817923 5:-0.736418 6:-0.697883 7:-0.305184 8:-0.198123 
-32 1:-0.414895 2:-0.290756 3:-0.64147 4:-0.671153 5:-0.735809 6:-0.413504 7:-0.0508397 8:-0.0377491 
-32 1:-0.360562 2:-0.322941 3:-0.406493 4:-0.328932 5:-0.611672 6:0.103061 7:0.298089 8:0.211651 
-32 1:-0.28644 2:-0.332067 3:-0.173714 4:0.126691 5:-0.364182 6:0.692637 7:0.438739 8:0.324863 
-32 1:-0.109988 2:-0.299797 3:0.244165 4:0.430439 5:-0.0893672 6:0.954568 7:0.777646 8:0.667793 
-32 1:0.00359 2:-0.248511 3:0.436134 4:0.558245 5:0.140051 6:0.928922 7:0.565885 8:0.547163 
-32 1:0.104732 2:-0.1848 3:0.561555 4:0.67546 5:0.335377 6:0.923409 7:0.602105 8:0.577728 
-32 1:0.172106 2:-0.118722 3:0.58545 4:0.721592 5:0.482273 6:0.837636 7:0.49035 8:0.521442 
-32 1:0.265622 2:-0.0448876 3:0.663745 4:0.82704 5:0.618329 6:0.88003 7:0.654922 8:0.6412 
-32 1:0.336624 2:0.0301025 3:0.675414 4:0.851215 5:0.717773 6:0.808259 7:0.654922 8:0.6412 
-32 1:0.396802 2:0.10359 3:0.660243 4:0.884858 5:0.796233 6:0.779936 7:0.688068 8:0.66402 
-32 1:0.409694 2:0.165271 3:0.541063 4:0.780466 5:0.810797 6:0.559762 7:0.276945 8:0.48164 
-32 1:0.320594 2:0.194634 3:0.214826 4:0.255988 5:0.630879 6:-0.244246 7:-0.34561 8:0.0732145 
-32 1:0.228835 2:0.197547 3:-0.0521824 4:-0.198287 5:0.346688 6:-0.787386 7:-0.416705 8:0.011267 
-32 1:0.28851 2:0.21326 3:0.0770288 4:0.0549156 5:0.248774 6:-0.178626 7:0.356405 8:0.461745 
-32 1:0.325113 2:0.234039 3:0.128169 4:0.191943 5:0.233041 6:0.10634 7:0.310777 8:0.433543 
-32 1:0.434707 2:0.27524 3:0.334317 4:0.473941 5:0.32451 6:0.544924 7:0.58241 8:0.630386 
-32 1:0.535438 2:0.33079 3:0.479171 4:0.606945 5:0.433577 6:0.67307 7:0.630824 8:0.66876 
-32 1:0.559464 2:0.380618 3:0.42141 4:0.55263 5:0.486651 6:0.504193 7:0.286213 8:0.473128 
-32 1:0.603168 2:0.430281 3:0.419749 4:0.60441 5:0.540755 6:0.540182 7:0.409739 8:0.546747 
-32 1:0.585556 2:0.466062 3:0.27961 4:0.506945 5:0.541585 6:0.34986 7:0.116924 8:0.376497 
-32 1:0.634457 2:0.505653 3:0.318074 4:0.629781 5:0.58655 6:0.534788 7:0.412003 8:0.545253 
-32 1:0.700608 2:0.552161 3:0.387893 4:0.765833 5:0.665717 6:0.704553 7:0.524948 8:0.618192 
-32 1:0.764271 2:0.603644 3:0.438119 4:0.856534 5:0.751289 6:0.778576 7:0.585429 8:0.657712 
-32 1:0.813825 2:0.655944 3:0.446359 4:0.874106 5:0.814689 6:0.737014 7:0.611605 8:0.674117 
-32 1:0.85176 2:0.706291 3:0.426647 4:0.881055 5:0.859469 6:0.697047 7:0.641202 8:0.69158 
-32 1:0.876348 2:0.752082 3:0.380662 4:0.901574 5:0.896741 6:0.692407 7:0.658156 8:0.700952 
-32 1:0.886387 2:0.790966 3:0.310937 4:0.915254 5:0.926535 6:0.683408 7:0.658156 8:0.700952 
-32 1:0.903971 2:0.826017 3:0.272239 4:0.956148 5:0.961183 6:0.721478 7:0.760672 8:0.754129 
-32 1:0.915831 2:0.856718 3:0.228322 4:0.983411 5:0.994138 6:0.73509 7:0.797924 8:0.775459 
-32 1:0.888765 2:0.875208 3:0.105068 4:0.822855 5:0.958059 6:0.46628 7:0.285633 8:0.589971 
-32 1:0.888687 2:0.889983 3:0.0675603 4:0.841592 5:0.940781 6:0.523306 7:0.541381 8:0.692478 
-32 1:0.886884 2:0.901399 3:0.0336474 4:0.804908 5:0.915999 6:0.481635 7:0.593472 8:0.716825 
-32 1:0.914243 2:0.916667 3:0.0725363 4:0.856105 5:0.917988 6:0.578714 7:0.79014 8:0.828309 
-32 1:0.906962 2:0.927248 3:0.0252288 4:0.757844 5:0.883787 6:0.42867 7:0.475403 8:0.688557 
-32 1:0.903119 2:0.934852 3:-0.00483533 4:0.689773 5:0.836376 6:0.353048 7:0.556286 8:0.726213 
-32 1:0.871518 2:0.933848 3:-0.0917237 4:0.519858 5:0.743334 6:0.134066 7:0.252333 8:0.583983 
-32 1:0.822343 2:0.922017 3:-0.201021 4:0.284023 5:0.59604 6:-0.148192 7:0.0477083 8:0.475891 
-32 1:0.76377 2:0.899416 3:-0.309734 4:0.0128825 5:0.399811 6:-0.440607 7:-0.0914636 8:0.396477 
-32 1:0.706125 2:0.868409 3:-0.394602 4:-0.0217089 5:0.256486 6:-0.336679 7:-0.139112 8:0.36919 
-32 1:0.642241 2:0.829276 3:-0.476621 4:-0.101211 5:0.132191 6:-0.342715 7:-0.280596 8:0.285466 
-32 1:0.638996 2:0.797243 3:-0.40496 4:0.109181 5:0.125396 6:0.0740932 7:0.429247 8:0.569462 
32 1:0.62231 2:0.767874 3:-0.37806 4:0.211814 5:0.157974 6:0.234567 7:0.314368 8:0.511697 
32 1:0.58766 2:0.736608 3:-0.397208 4:0.204981 5:0.177221 6:0.198313 7:0.0944457 8:0.397402 
32 1:0.501212 2:0.692209 3:-0.529787 4:-0.0430468 5:0.100378 6:-0.191744 7:-0.368114 8:0.0798876 
-32 1:0.42472 2:0.639536 3:-0.613311 4:-0.224328 5:-0.0163944 6:-0.404472 7:-0.391092 8:0.0607588 
-32 1:0.3569 2:0.582188 3:-0.660499 4:-0.366847 5:-0.145771 6:-0.526852 7:-0.417566 8:0.040284 
-32 1:0.266152 2:0.515959 3:-0.750152 4:-0.61351 5:-0.321204 6:-0.796548 7:-0.608877 8:-0.128025 
-32 1:0.238524 2:0.45678 3:-0.678985 4:-0.532836 5:-0.408991 6:-0.535021 7:0.0203291 8:0.180013 
32 1:0.16918 2:0.393886 3:-0.716488 4:-0.724169 5:-0.536693 6:-0.754225 7:-0.292528 8:-0.0286602 
-32 1:0.0831896 2:0.324287 3:-0.784174 4:-0.851725 5:-0.667946 6:-0.845299 7:-0.43651 8:-0.141162 
-32 1:-0.0110505 2:0.247473 3:-0.857 4:-0.922744 5:-0.781125 6:-0.848126 7:-0.539104 8:-0.228082 
-32 1:-0.034445 2:0.180776 3:-0.754878 4:-0.787855 5:-0.807808 6:-0.55424 7:-0.0314405 8:0.0644438 
32 1:-0.0973611 2:0.113309 3:-0.762651 4:-0.854464 5:-0.849679 6:-0.633639 7:-0.2787 8:-0.0957762 
-32 1:-0.148595 2:0.0478455 3:-0.742423 4:-0.918729 5:-0.900829 6:-0.697407 7:-0.297384 8:-0.108205 
-32 1:-0.167222 2:-0.00870236 3:-0.652424 4:-0.851446 5:-0.910602 6:-0.555036 7:-0.0929667 8:0.00341876 
32 1:-0.109986 2:-0.0760162 3:-0.320582 4:-0.327092 5:-0.694958 6:0.206075 7:0.405895 8:0.31556 
32 1:-0.0610933 2:-0.0839916 3:-0.162098 4:0.127918 5:-0.419262 6:0.760784 7:0.453082 8:0.34971 
32 1:-0.0403878 2:-0.0857285 3:-0.0991232 4:0.282315 5:-0.179642 6:0.774613 7:0.217941 8:0.246827 
32 1:-0.00769674 2:-0.0797868 3:-0.0216099 4:0.5044 5:0.0604003 6:0.919425 7:0.350502 8:0.324138 
32 1:-0.046035 2:-0.0836311 3:-0.120396 4:0.146052 5:0.0908666 6:0.186944 7:-0.223824 8:0.0188365 
-32 1:-0.0328565 2:-0.0837512 3:-0.0828013 4:0.234827 5:0.143274 6:0.296822 7:0.13282 8:0.224497 
13.05549716395589 1:-0.029019 2:-0.0829867 3:-0.0738717 4:0.234434 5:0.178071 6:0.254512 7:0.0705498 8:0.190304 
-32 1:0.0174541 2:-0.0707285 3:0.0267008 4:0.502093 5:0.313443 6:0.612824 7:0.40076 8:0.377744 
32 1:-0.00214871 2:-0.0665426 3:-0.0393344 4:0.28035 5:0.308118 6:0.188437 7:-0.0819215 8:0.121292 
-32 1:-0.00528578 2:-0.0638974 3:-0.0548872 4:0.202914 5:0.27657 6:0.0756803 7:0.0238389 8:0.178323 
-32 1:0.0235723 2:-0.0553097 3:0.00510174 4:0.371266 5:0.316407 6:0.355149 7:0.275656 8:0.322059 
32 1:0.0466748 2:-0.0432586 3:0.0400632 4:0.483501 5:0.383543 6:0.493013 7:0.275656 8:0.322059 
32 1:0.125464 2:-0.00221197 3:0.15943 4:0.714647 5:0.558464 6:0.733178 7:0.548813 8:0.483714 
32 1:0.20596 2:0.0349405 3:0.293454 4:0.801984 5:0.660064 6:0.781528 7:0.771408 8:0.660203 
32 1:0.275064 2:0.0801596 3:0.374885 4:0.880635 5:0.756233 6:0.81949 7:0.799089 8:0.686145 
32 1:0.292527 2:0.120251 3:0.323122 4:0.743824 5:0.770882 6:0.536239 7:0.293427 8:0.452147 
32 1:0.341754 2:0.163364 3:0.353621 4:0.841862 5:0.816093 6:0.672701 7:0.539448 8:0.60032 
32 1:0.365754 2:0.203236 3:0.32091 4:0.777234 5:0.822868 6:0.53907 7:0.392804 8:0.525921 
32 1:0.35828 2:0.233458 3:0.22349 4:0.604162 5:0.76481 6:0.27219 7:0.124912 8:0.383039 
32 1:0.402467 2:0.267544 3:0.262507 4:0.748754 5:0.778382 6:0.53686 7:0.500381 8:0.594421 
32 1:0.437074 2:0.302575 3:0.272031 4:0.845148 5:0.822282 6:0.671696 7:0.521189 8:0.607714 
32 1:0.479027 2:0.340007 3:0.29628 4:0.842387 5:0.85055 6:0.632582 7:0.626697 8:0.674752 
32 1:0.560563 2:0.388238 3:0.40529 4:0.795425 5:0.852416 6:0.539129 7:0.823707 8:0.829394 
32 1:0.630254 2:0.442452 3:0.46568 4:0.806172 5:0.857546 6:0.55388 7:0.854353 8:0.857691 
32 1:0.678434 2:0.496627 3:0.465296 4:0.800296 5:0.858841 6:0.540919 7:0.854353 8:0.857691 
32 1:0.697776 2:0.544305 3:0.399707 4:0.696975 5:0.822349 6:0.383785 7:0.628906 8:0.760928 
32 1:0.644752 2:0.570556 3:0.183411 4:0.384717 5:0.685122 6:-0.0589494 7:-0.100307 8:0.345589 
32 1:0.63474 2:0.589312 3:0.107746 4:0.303186 5:0.56416 6:-0.072904 7:0.228768 8:0.503159 
32 1:0.635671 2:0.604526 3:0.0719869 4:0.309795 5:0.485908 6:0.0333624 7:0.336689 8:0.559792 
32 1:0.618483 2:0.612842 3:0.00236028 4:0.172705 5:0.384175 6:-0.111476 7:0.20691 8:0.48685 
32 1:0.51487 2:0.596259 3:-0.248989 4:-0.253809 5:0.162145 6:-0.674905 7:-0.36142 8:0.0766175 
32 1:0.459081 2:0.570482 3:-0.341806 4:-0.3915 5:-0.0356579 6:-0.706211 7:-0.0914777 8:0.215884 
32 1:0.399466 2:0.53649 3:-0.424721 4:-0.538289 5:-0.220598 6:-0.770544 7:-0.16083 8:0.16711 
32 1:0.360403 2:0.500537 3:-0.444525 4:-0.581154 5:-0.35939 6:-0.688101 7:-0.0449331 8:0.222497 
32 1:0.322641 2:0.463306 3:-0.457425 4:-0.604731 5:-0.460442 6:-0.61325 7:-0.0783829 8:0.203478 
32 1:0.259646 2:0.419395 3:-0.524867 4:-0.559554 5:-0.511477 6:-0.46456 7:-0.31744 8:0.0572686 
32 1:0.211905 2:0.373559 3:-0.544288 4:-0.510114 5:-0.527624 6:-0.349242 7:-0.259515 8:0.0806304 
32 1:0.19953 2:0.334115 3:-0.479762 4:-0.341899 5:-0.47757 6:-0.0822371 7:0.103767 8:0.238893 
32 1:0.211193 2:0.305176 3:-0.373725 4:-0.0552685 5:-0.340569 6:0.310981 7:0.331924 8:0.359283 
32 1:0.203438 2:0.280285 3:-0.332853 4:0.0785124 5:-0.200865 6:0.404058 7:0.130306 8:0.267133 
32 1:0.0585819 2:0.227888 3:-0.610528 4:-0.301393 5:-0.245086 6:-0.281127 7:-0.581824 8:-0.244824 
-32 1:0.0328551 2:0.1802 3:-0.562981 4:-0.204806 5:-0.239645 6:-0.0999995 7:0.0044575 8:0.136305 
32 1:-0.0326553 2:0.127359 3:-0.615006 4:-0.322949 5:-0.278733 6:-0.282828 7:-0.175527 8:0.00628434 
32 1:-0.0904711 2:0.0721203 3:-0.639207 4:-0.432134 5:-0.344268 6:-0.416679 7:-0.205198 8:-0.014596 
32 1:-0.153035 2:0.0138991 3:-0.669316 4:-0.580979 5:-0.441773 6:-0.589401 7:-0.285545 8:-0.0682981 
32 1:-0.214793 2:-0.0465277 3:-0.691581 4:-0.712494 5:-0.554326 6:-0.710492 7:-0.351139 8:-0.111346 
32 1:-0.252347 2:-0.103291 3:-0.654597 4:-0.77099 5:-0.650511 6:-0.709283 7:-0.268608 8:-0.071892 
32 1:-0.301003 2:-0.159613 3:-0.650143 4:-0.853151 5:-0.74434 6:-0.756856 7:-0.39228 8:-0.143355 
32 1:-0.296814 2:-0.203731 3:-0.52695 4:-0.651743 5:-0.734073 6:-0.377872 7:0.0146168 8:0.0573799 
32 1:-0.319882 2:-0.244199 3:-0.4901 4:-0.708118 5:-0.747611 6:-0.471219 7:-0.195071 8:-0.048202 
32 1:-0.398349 2:-0.29417 3:-0.586032 4:-0.583182 5:-0.711465 6:-0.271683 7:-0.480342 8:-0.229789 
-32 1:-0.487383 2:-0.400276 3:-0.5702 4:-0.35658 5:-0.586248 6:0.0189992 7:-0.116003 8:-0.0491579 
32 1:-0.519387 2:-0.446175 3:-0.544928 4:-0.320696 5:-0.508987 6:-0.00354012 7:-0.269743 8:-0.134995 
-32 1:-0.511098 2:-0.481035 3:-0.433496 4:-0.196684 5:-0.412642 6:0.122329 7:-0.0396968 8:-0.00588561 
32 1:-0.490394 2:-0.504281 3:-0.316246 4:-0.0854118 5:-0.308182 6:0.213758 7:0.0256047 8:0.0308533 
32 1:-0.509753 2:-0.527218 3:-0.313139 4:-0.168514 5:-0.268588 6:0.00505537 7:-0.252052 8:-0.105646 
-32 1:-0.557739 2:-0.574604 3:-0.329343 4:-0.36517 5:-0.318334 6:-0.317564 7:-0.417743 8:-0.19748 
-32 1:-0.614452 2:-0.606956 3:-0.408181 4:-0.594061 5:-0.429214 6:-0.629809 7:-0.587527 8:-0.309949 
-32 1:-0.609193 2:-0.631659 3:-0.330956 4:-0.532636 5:-0.480925 6:-0.448747 7:-0.118129 8:-0.0707778 
-32 1:-0.578309 2:-0.644495 3:-0.211168 4:-0.40232 5:-0.468283 6:-0.210697 7:0.0515739 8:0.0270813 
-32 1:-0.496329 2:-0.64167 3:0.0136879 4:-0.0460265 5:-0.321709 6:0.306417 7:0.306166 8:0.198359 
32 1:-0.423206 2:-0.617721 3:0.160169 4:0.213162 5:-0.139609 6:0.592484 7:0.403226 8:0.265698 
32 1:-0.352709 2:-0.582753 3:0.271411 4:0.426808 5:0.0590353 6:0.770329 7:0.453535 8:0.300103 
32 1:-0.376553 2:-0.560125 3:0.146831 4:0.119857 5:0.0804856 6:0.148454 7:-0.236004 8:-0.0373775 
-32 1:-0.355876 2:-0.537386 3:0.147956 4:0.099061 5:0.0872669 6:0.0999598 7:0.038421 8:0.121198 
-32 1:-0.327236 2:-0.512772 3:0.166883 4:0.12605 5:0.101546 6:0.135339 7:0.0966126 8:0.15533 
-32 1:-0.30793 2:-0.488751 3:0.160894 4:-0.0099415 5:0.0618966 6:-0.0814914 7:0.0303606 8:0.123623 
-32 1:-0.292345 2:-0.466039 3:0.147679 4:-0.128099 5:-0.00725649 6:-0.228453 7:-0.00712963 8:0.106748 
-32 1:-0.287477 2:-0.446778 3:0.112846 4:-0.289363 5:-0.111664 6:-0.417057 7:-0.126337 8:0.0539861 
-32 1:-0.287249 2:-0.431318 3:0.074475 4:-0.451866 5:-0.240022 6:-0.579472 7:-0.205799 8:0.0180357 
-32 1:-0.35927 2:-0.435101 3:-0.119782 4:-0.670189 5:-0.404531 6:-0.807161 7:-0.628342 8:-0.261752 
-32 1:-0.418465 2:-0.451403 3:-0.24615 4:-0.699355 5:-0.524748 6:-0.720285 7:-0.651518 8:-0.283628 
-32 1:-0.45169 2:-0.471895 3:-0.288451 4:-0.685547 5:-0.5999 6:-0.603734 7:-0.519826 8:-0.227886 
-32 1:-0.452752 2:-0.488527 3:-0.249484 4:-0.593211 5:-0.616617 6:-0.404407 7:-0.208419 8:-0.0901741 
-32 1:-0.379051 2:-0.485305 3:-0.0490605 4:-0.219715 5:-0.492723 6:0.173201 7:0.416387 8:0.29164 
-32 1:-0.331475 2:-0.472057 3:0.0521385 4:0.011364 5:-0.326579 6:0.423715 7:0.25796 8:0.217823 
-32 1:-0.289661 2:-0.452082 3:0.120052 4:0.165417 5:-0.160119 6:0.524224 7:0.25796 8:0.217823 
-32 1:-0.294767 2:-0.437248 3:0.0681636 4:0.0789355 5:-0.0804124 6:0.261065 7:-0.150382 8:0.0199286 
-32 1:-0.275589 2:-0.421079 3:0.0816298 4:0.146276 5:-0.00292757 6:0.299365 7:0.0551719 8:0.129543 
-32 1:-0.256661 2:-0.403899 3:0.0918356 4:0.19117 5:0.0649605 6:0.305518 7:0.0551719 8:0.129543 
-32 1:-0.245768 2:-0.387713 3:0.0818093 4:0.139794 5:0.091644 6:0.17386 7:-0.0384123 8:0.0887635 
-32 1:-0.237483 2:-0.372905 3:0.0678842 4:0.0817127 5:0.0884335 6:0.0648672 7:-0.0889153 8:0.0673558 
-32 1:-0.269454 2:-0.368229 3:-0.0343867 4:-0.219147 5:-0.0224839 6:-0.387136 7:-0.470963 8:-0.139451 
-32 1:-0.302106 2:-0.371811 3:-0.117744 4:-0.491213 5:-0.194795 6:-0.709905 7:-0.537132 8:-0.187175 
-32 1:-0.308236 2:-0.376051 3:-0.124391 4:-0.439781 5:-0.291074 6:-0.495045 7:-0.24271 8:-0.0617263 
-32 1:-0.324012 2:-0.382981 3:-0.151544 4:-0.478819 5:-0.369374 6:-0.477391 7:-0.377035 8:-0.134719 
-32 1:-0.316671 2:-0.386879 3:-0.120935 4:-0.330696 5:-0.36802 6:-0.191273 7:-0.0963343 8:-0.00743022 
-32 1:-0.314173 2:-0.389436 3:-0.10741 4:-0.279609 5:-0.348647 6:-0.115165 7:-0.188392 8:-0.0494456 
-32 1:-0.319309 2:-0.392634 3:-0.113873 4:-0.317044 5:-0.349265 6:-0.187144 7:-0.318555 8:-0.112088 
-32 1:-0.261756 2:-0.382286 3:0.0228724 4:0.0154624 5:-0.229459 6:0.31572 7:0.426434 8:0.31061 
-32 1:-0.193862 2:-0.358782 3:0.155681 4:0.333225 5:-0.0347001 6:0.700455 7:0.554704 8:0.414861 
-32 1:-0.145321 2:-0.329093 3:0.218114 4:0.478763 5:0.147759 6:0.765323 7:0.431204 8:0.360271 
-32 1:-0.131555 2:-0.302254 3:0.189337 4:0.419399 5:0.247935 6:0.5304 7:0.0620926 8:0.182798 
-32 1:-0.183309 2:-0.29239 3:0.0179897 4:1.93678e-05 5:0.163091 6:-0.182963 7:-0.404296 8:-0.125187 
-32 1:-0.22863 2:-0.294662 3:-0.104525 4:-0.32425 5:-0.0107124 6:-0.605357 7:-0.440431 8:-0.153983 
-32 1:-0.268395 2:-0.305397 3:-0.189958 4:-0.585112 5:-0.220897 6:-0.861144 7:-0.47987 8:-0.183834 
-32 1:-0.295729 2:-0.320115 3:-0.230164 4:-0.716966 5:-0.408693 6:-0.893058 7:-0.47987 8:-0.183834 
-32 1:-0.313014 2:-0.335766 3:-0.239578 4:-0.804869 5:-0.565671 6:-0.876388 7:-0.47987 8:-0.183834 
-32 1:-0.345098 2:-0.355481 3:-0.280612 4:-0.869778 5:-0.693792 6:-0.849509 7:-0.631889 8:-0.287317 
-32 1:-0.361729 2:-0.374983 3:-0.278457 4:-0.895179 5:-0.788389 6:-0.785905 7:-0.528488 8:-0.247113 
-32 1:-0.434675 2:-0.406944 3:-0.40422 4:-0.965731 5:-0.876963 6:-0.817205 7:-0.787573 8:-0.474731 
-32 1:-0.497547 2:-0.446611 3:-0.482024 4:-1 5:-0.948402 6:-0.798479 7:-0.810538 8:-0.504126 
-32 1:-0.692845 2:-0.522143 3:-0.844056 4:-0.860386 5:-0.94555 6:-0.530678 7:-0.932377 8:-0.728893 
-32 1:-0.77621 2:-0.601263 3:-0.880287 4:-0.649417 5:-0.867372 6:-0.214203 7:-0.420932 8:-0.361003 
-32 1:-0.816671 2:-0.673633 3:-0.812143 4:-0.480174 5:-0.754063 6:-0.0207264 7:-0.308539 8:-0.279732 
-32 1:-0.800185 2:-0.727832 3:-0.628711 4:-0.295853 5:-0.611881 6:0.167568 7:-0.0411661 8:-0.0877573 
-32 1:-0.643976 2:-0.73616 3:-0.165659 4:0.118321 5:-0.367348 6:0.680159 7:0.49373 8:0.377575 
-32 1:-0.391514 2:-0.686206 3:0.422684 4:0.42486 5:-0.0934949 6:0.948657 7:0.720502 8:0.631383 
-32 1:-0.295222 2:-0.624648 3:0.539817 4:0.465138 5:0.103636 6:0.791535 7:0.258652 8:0.329694 
-32 1:-0.215653 2:-0.557558 3:0.595663 4:0.49199 5:0.244765 6:0.675195 7:0.258652 8:0.329694 
-32 1:-0.172965 2:-0.494313 3:0.556851 4:0.474731 5:0.332612 6:0.536785 7:0.154855 8:0.267676 
-32 1:-0.136787 2:-0.435604 3:0.511063 4:0.426471 5:0.373727 6:0.39395 7:0.154855 8:0.267676 
-32 1:-0.102311 2:-0.380905 3:0.470581 4:0.381951 5:0.385041 6:0.293959 7:0.176191 8:0.279059 
-32 1:-0.0886187 2:-0.334076 3:0.391143 4:0.26996 5:0.352093 6:0.11575 7:0.0643092 8:0.227212 
-32 1:0.000115392 2:-0.276713 3:0.497474 4:0.338972 5:0.35508 6:0.246243 7:0.476444 8:0.454751 
-32 1:0.0589613 2:-0.217626 3:0.514877 4:0.280154 5:0.335804 6:0.155001 7:0.379972 8:0.411511 
-32 1:0.124214 2:-0.155722 3:0.543304 4:0.509686 5:0.405943 6:0.517135 7:0.474592 8:0.466481 
-32 1:0.182307 2:-0.0931722 3:0.549838 4:0.624491 5:0.494209 6:0.634761 7:0.51388 8:0.489113 
-32 1:0.226506 2:-0.0332201 3:0.52361 4:0.701027 5:0.580726 6:0.68014 7:0.51388 8:0.489113 
-32 1:0.259315 2:0.0220993 3:0.476844 4:0.752051 5:0.656851 6:0.688366 7:0.51388 8:0.489113 
-32 1:0.340003 2:0.0844496 3:0.547819 4:0.832452 5:0.736671 6:0.749248 7:0.810919 8:0.673651 
-32 1:0.365801 2:0.140115 3:0.480339 4:0.752004 5:0.760798 6:0.564169 7:0.351727 8:0.48631 
-32 1:0.344488 2:0.179868 3:0.319705 4:0.386073 5:0.644579 6:-0.00790735 7:-0.000334147 8:0.305852 
-32 1:0.347496 2:0.212345 3:0.246256 4:0.26973 5:0.525035 6:-0.0911808 7:0.190866 8:0.392662 
-32 1:0.327595 2:0.233864 3:0.135636 4:0.126282 5:0.393475 6:-0.212758 7:0.0176372 8:0.302364 
-32 1:0.267102 2:0.237513 3:-0.044754 4:-0.200649 5:0.187565 6:-0.60199 7:-0.273131 8:0.124186 
-32 1:0.194555 2:0.224162 3:-0.216356 4:-0.447717 5:-0.0390365 6:-0.81138 7:-0.391647 8:0.0381097 
-32 1:0.174377 2:0.208957 3:-0.23508 4:-0.374955 5:-0.163797 6:-0.521079 7:0.00423839 8:0.215325 
-32 1:0.199273 2:0.202376 3:-0.148024 4:-0.147715 5:-0.164811 6:-0.0784459 7:0.30552 8:0.380026 
-32 1:0.228703 2:0.203711 3:-0.0681111 4:0.0905674 5:-0.079335 6:0.282374 7:0.375509 8:0.421695 
-32 1:0.242293 2:0.207827 3:-0.0400417 4:0.241375 5:0.0321738 6:0.442188 7:0.288541 8:0.382374 
-32 1:0.304306 2:0.225027 3:0.0920336 4:0.506895 5:0.202513 6:0.754597 7:0.602383 8:0.574061 
-32 1:0.460726 2:0.273865 3:0.411416 4:0.683909 5:0.380073 6:0.886457 7:0.874557 8:0.832031 
-32 1:0.605471 2:0.345395 3:0.64049 4:0.784481 5:0.534808 6:0.897077 7:0.911876 8:0.877647 
-32 1:0.800407 2:0.446335 3:0.937374 4:0.835868 5:0.656544 6:0.851552 7:1 8:1 
32 1:0.918093 2:0.553479 3:1 4:0.823788 5:0.733333 6:0.736403 7:0.769842 8:0.868417 
-32 1:0.935796 2:0.643165 3:0.823758 4:0.689896 5:0.736117 6:0.472988 7:0.311629 8:0.586723 
-32 1:0.962633 2:0.720931 3:0.703443 4:0.616906 5:0.711584 6:0.360495 7:0.399589 8:0.63576 
-32 1:0.946768 2:0.779587 3:0.510522 4:0.501919 5:0.653654 6:0.206293 7:0.217567 8:0.525378 
-32 1:0.985299 2:0.835152 3:0.479326 4:0.552272 5:0.633239 6:0.328479 7:0.475508 8:0.662873 
-32 1:0.997397 2:0.882317 3:0.39453 4:0.535429 5:0.61354 6:0.319281 7:0.415585 8:0.629756 
-32 1:0.969587 2:0.913813 3:0.236351 4:0.32053 5:0.522709 6:0.0102777 7:0.202017 8:0.512606 
-32 1:0.899394 2:0.923268 3:0.0138579 4:-0.0779697 5:0.318077 6:-0.519504 7:-0.0530895 8:0.357695 
-32 1:0.907335 2:0.932613 3:0.0127449 4:0.0627 5:0.232514 6:-0.144091 7:0.356695 8:0.55457 
-32 1:0.961154 2:0.952158 3:0.115715 4:0.387779 5:0.293006 6:0.415164 7:0.558742 8:0.677411 
-32 1:0.993129 2:0.974965 3:0.148638 4:0.604498 5:0.41169 6:0.694448 7:0.558742 8:0.677411 
-32 1:1 2:0.994751 3:0.118149 4:0.71135 5:0.529445 6:0.761419 7:0.482009 8:0.640971 
-32 1:0.95282 2:1 3:-0.0286068 4:0.575633 5:0.55888 6:0.46264 7:0.107267 8:0.448653 
-32 1:0.840958 2:0.979113 3:-0.292437 4:0.16532 5:0.430153 6:-0.180716 7:-0.25611 8:0.205956 
-32 1:0.782613 2:0.949319 3:-0.382351 4:0.0799161 5:0.313456 6:-0.207288 7:0.0210571 8:0.330229 
-32 1:0.782108 2:0.925371 3:-0.32334 4:0.286373 5:0.310304 6:0.197527 7:0.312621 8:0.481276 
-32 1:0.804056 2:0.911134 3:-0.225305 4:0.41774 5:0.355699 6:0.398514 7:0.444166 8:0.557937 
32 1:0.778544 2:0.894023 3:-0.254317 4:0.37127 5:0.369161 6:0.292171 7:0.187795 8:0.419667 
-32 1:0.670397 2:0.856082 3:-0.464594 4:0.0275104 5:0.253848 6:-0.237919 7:-0.217409 8:0.154109 
-32 1:0.552107 2:0.799202 3:-0.655781 4:-0.292244 5:0.0613636 6:-0.62924 7:-0.314804 8:0.0793327 
-32 1:0.419593 2:0.72398 3:-0.84093 4:-0.51447 5:-0.147306 6:-0.811783 7:-0.429009 8:-0.012106 
-32 1:0.35368 2:0.649022 3:-0.838275 4:-0.469951 5:-0.270322 6:-0.578428 7:-0.10454 8:0.140316 
-32 1:0.314018 2:0.58016 3:-0.776727 4:-0.396277 5:-0.325696 6:-0.369198 7:0.00308382 8:0.193336 
-32 1:0.192455 2:0.49781 3:-0.912895 4:-0.600133 5:-0.436318 6:-0.633123 7:-0.375832 8:-0.0496515 
-32 1:0.0805351 2:0.40683 3:-1 4:-0.758364 5:-0.567274 6:-0.784138 7:-0.423199 8:-0.0856291 
-32 1:0.0346216 2:0.32375 3:-0.920258 4:-0.733881 5:-0.645726 6:-0.64291 7:-0.0936435 8:0.0751595 
-32 1:-0.0391013 2:0.240754 3:-0.919419 4:-0.827777 5:-0.731976 6:-0.72233 7:-0.266171 8:-0.0267664 
-32 1:-0.0156071 2:0.179625 3:-0.698666 4:-0.437172 5:-0.648251 6:-0.0635252 7:0.212238 8:0.243473 
-32 1:-0.00388419 2:0.133351 3:-0.548712 4:-0.159946 5:-0.492203 6:0.288683 7:0.165989 8:0.220087 
-32 1:0.0480357 2:0.107975 3:-0.337751 4:0.239348 5:-0.243804 6:0.767754 7:0.374548 8:0.348435 
32 1:0.05081 2:0.0882966 3:-0.280238 4:0.28213 5:-0.0627368 6:0.634676 7:0.111979 8:0.221269 
-32 1:0.072225 2:0.0773563 3:-0.192029 4:0.422359 5:0.108675 6:0.702419 7:0.224788 8:0.283195 
-32 1:0.127059 2:0.080901 3:-0.0458064 4:0.573932 5:0.277751 6:0.794989 7:0.423695 8:0.400932 
32 1:0.108346 2:0.0795401 3:-0.095327 4:0.371138 5:0.317148 6:0.354015 7:0.00188421 8:0.190169 
-32 1:0.0474696 2:0.0647995 3:-0.230392 4:0.0393377 5:0.223448 6:-0.178649 7:-0.215907 8:0.0575793 
-32 1:0.0724188 2:0.0586021 3:-0.144151 4:0.157727 5:0.203786 6:0.0748024 7:0.200896 8:0.288242 
32 1:0.0804668 2:0.055449 3:-0.113419 4:0.183033 5:0.199828 6:0.128688 7:0.133593 8:0.252241 
-32 1:0.105676 2:0.0585797 3:-0.0499852 4:0.28927 5:0.235599 6:0.292348 7:0.241916 8:0.311923 
32 1:0.0868656 2:0.0568661 3:-0.0988885 4:0.181363 5:0.220433 6:0.100843 7:-0.015428 8:0.18261 
-32 1:0.0604647 2:0.0495745 3:-0.155195 4:0.0413374 5:0.159695 6:-0.0986456 7:-0.0864186 8:0.14499 
-32 1:-0.0211357 2:0.0254418 3:-0.325202 4:-0.324365 5:-0.0130185 6:-0.602828 7:-0.383001 8:-0.0366147 
-32 1:-0.0840653 2:-0.00797683 3:-0.418941 4:-0.551937 5:-0.21044 6:-0.809185 7:-0.383001 8:-0.0366147 
-32 1:-0.158332 2:-0.0513666 3:-0.519597 4:-0.645913 5:-0.376032 6:-0.79403 7:-0.495058 8:-0.112634 
-32 1:-0.221576 2:-0.100261 3:-0.575167 4:-0.734561 5:-0.518477 6:-0.79616 7:-0.525815 8:-0.134319 
-32 1:-0.294522 2:-0.155736 3:-0.641588 4:-0.709711 5:-0.604456 6:-0.645232 7:-0.625591 8:-0.209451 
-32 1:-0.378049 2:-0.218847 3:-0.718679 4:-0.772579 5:-0.684506 6:-0.671783 7:-0.712125 8:-0.287927 
-32 1:-0.415551 2:-0.277746 3:-0.676158 4:-0.754915 5:-0.731486 6:-0.581377 7:-0.376998 8:-0.153986 
-32 1:-0.374635 2:-0.315689 3:-0.464618 4:-0.574337 5:-0.697517 6:-0.271154 7:0.221221 8:0.159953 
-32 1:-0.337548 2:-0.337727 3:-0.304054 4:-0.295502 5:-0.574057 6:0.12309 7:0.221221 8:0.159953 
-32 1:-0.31913 2:-0.351227 3:-0.217866 4:-0.0635677 5:-0.407894 6:0.375242 7:0.0691851 8:0.0981043 
-32 1:-0.277431 2:-0.352675 3:-0.0962114 4:0.261546 5:-0.179573 6:0.734186 7:0.277454 8:0.209674 
-32 1:-0.248461 2:-0.347337 3:-0.0277048 4:0.418211 5:0.0292846 6:0.789149 7:0.184084 8:0.174182 
-32 1:-0.1993 2:-0.332042 3:0.072809 4:0.553294 5:0.217362 6:0.826998 7:0.396111 8:0.289193 
-32 1:-0.169187 2:-0.313053 3:0.110101 4:0.549859 5:0.341506 6:0.672106 7:0.230646 8:0.228396 
-32 1:-0.108598 2:-0.284274 3:0.208925 4:0.671698 5:0.46832 6:0.757375 7:0.519579 8:0.396402 
-32 1:-0.101058 2:-0.259561 3:0.16789 4:0.473294 5:0.481128 6:0.356674 7:0.0336662 8:0.178917 
-32 1:-0.0703676 2:-0.232907 3:0.187472 4:0.488941 5:0.495325 6:0.370118 7:0.23701 8:0.289856 
-32 1:0.0886532 2:-0.175922 3:0.493654 4:0.671939 5:0.570953 6:0.635305 7:0.765083 8:0.711292 
32 1:0.0376519 2:-0.141772 3:0.263147 4:0.161505 5:0.436822 6:-0.19609 7:-0.085535 8:0.123164 
-32 1:0.0170849 2:-0.119064 3:0.14764 4:-0.110041 5:0.249223 6:-0.499597 7:-0.00839771 8:0.176646 
-32 1:0.00534975 2:-0.10353 3:0.075228 4:-0.277324 5:0.0636747 6:-0.603016 7:0.00942765 8:0.187957 
-32 1:-0.00314396 2:-0.0930068 3:0.0246363 4:-0.292824 5:-0.065628 6:-0.478745 7:0.00942765 8:0.187957 
-32 1:-0.0699896 2:-0.0995791 3:-0.147935 4:-0.484726 5:-0.221212 6:-0.665762 7:-0.267614 8:0.0124058 
-32 1:-0.109367 2:-0.113668 3:-0.223809 4:-0.526316 5:-0.339973 6:-0.604761 7:-0.180748 8:0.0557954 
-32 1:-0.0924694 2:-0.121149 3:-0.157112 4:-0.429709 5:-0.384218 6:-0.364271 7:0.132634 8:0.220954 
-32 1:-0.00117969 2:-0.106662 3:0.0646555 4:-0.158079 5:-0.315505 6:0.0813421 7:0.470607 8:0.442816 
-32 1:0.263198 2:0.0589286 3:0.394886 4:0.767488 5:0.478628 6:0.931142 7:0.555105 8:0.503172 
-32 1:0.31498 2:0.108301 3:0.416815 4:0.857637 5:0.626962 6:0.929159 7:0.665346 8:0.566977 
-32 1:0.256242 2:0.158636 3:0.123572 4:0.506823 5:0.616239 6:0.26049 7:0.0231515 8:0.271256 
-32 1:0.302197 2:0.185201 3:0.186574 4:0.660799 5:0.647535 6:0.52223 7:0.407638 8:0.477846 
-32 1:0.312649 2:0.208796 3:0.156603 4:0.619696 5:0.653537 6:0.435218 7:0.216422 8:0.378461 
-32 1:0.298978 2:0.224607 3:0.0780147 4:0.401647 5:0.578702 6:0.100998 7:0.0656336 8:0.297657 
-32 1:0.312303 2:0.240244 3:0.0762602 4:0.421264 5:0.535905 6:0.190202 7:0.262441 8:0.395219 
-32 1:0.37331 2:0.266435 3:0.1828 4:0.567244 5:0.560153 6:0.444824 7:0.542115 8:0.562789 
32 1:0.398557 2:0.293049 3:0.187075 4:0.550241 5:0.570171 6:0.399834 7:0.355562 8:0.471346 
-32 1:0.414299 2:0.335723 3:0.123928 4:0.492704 5:0.543795 6:0.319558 7:0.3301 8:0.458115 
10.01555092227844 1:0.373356 2:0.342828 3:-0.00986275 4:0.205279 5:0.434544 6:-0.108337 7:-0.0957381 8:0.237813 
-32 1:0.356844 2:0.34481 3:-0.0615887 4:0.125369 5:0.332818 6:-0.142109 7:0.0851105 8:0.31805 
-32 1:0.363473 2:0.347881 3:-0.0505829 4:0.198938 5:0.291599 6:0.0500128 7:0.27657 8:0.410023 
-32 1:0.380533 2:0.354164 3:-0.018164 4:0.340232 5:0.315205 6:0.296297 7:0.391105 8:0.469176 
32 1:0.470348 2:0.391265 3:0.142362 4:0.689201 5:0.509691 6:0.741979 7:0.670933 8:0.641601 
32 1:0.490133 2:0.41345 3:0.142362 4:0.686292 5:0.585719 6:0.645555 7:0.491453 8:0.566874 
32 1:0.485563 2:0.430173 3:0.0872263 4:0.616265 5:0.611086 6:0.479237 7:0.264992 8:0.467883 
32 1:0.461964 2:0.438259 3:3.8369e-05 4:0.501492 5:0.586501 6:0.285639 7:0.0631988 8:0.371601 
-32 1:0.484712 2:0.44983 3:0.0352114 4:0.629241 5:0.616299 6:0.49822 7:0.477352 8:0.567801 
32 1:0.528267 2:0.468853 3:0.110451 4:0.765473 5:0.68542 6:0.68033 7:0.641956 8:0.67307 
32 1:0.576191 2:0.49482 3:0.180535 4:0.836972 5:0.757351 6:0.733338 7:0.724623 8:0.732736 
32 1:0.626993 2:0.526986 3:0.243116 4:0.809891 5:0.795514 6:0.635168 7:0.7975 8:0.789304 
32 1:0.660411 2:0.560213 3:0.253827 4:0.786611 5:0.812539 6:0.569619 7:0.7975 8:0.789304 
32 1:0.679829 2:0.591149 3:0.230702 4:0.771091 5:0.818277 6:0.532619 7:0.7975 8:0.789304 
32 1:0.688056 2:0.617743 3:0.186869 4:0.685668 5:0.791218 6:0.398988 7:0.7975 8:0.789304 
32 1:0.687423 2:0.638876 3:0.131743 4:0.628719 5:0.752588 6:0.334484 7:0.7975 8:0.789304 
32 1:0.618866 2:0.640408 3:-0.0661239 4:0.262745 5:0.594516 6:-0.187705 7:-0.308415 8:0.261364 
32 1:0.581732 2:0.633306 3:-0.15328 4:0.0445262 5:0.410237 6:-0.391585 7:0.0224454 8:0.393155 
32 1:0.546771 2:0.619784 3:-0.218087 4:-0.100953 5:0.234785 6:-0.464705 7:0.0224454 8:0.393155 
32 1:0.506287 2:0.599888 3:-0.282436 4:-0.245601 5:0.0655191 6:-0.543595 7:-0.0843103 8:0.333095 
32 1:0.458125 2:0.573171 3:-0.351296 4:-0.394307 5:-0.10109 6:-0.633541 7:-0.234228 8:0.243731 
32 1:0.393062 2:0.537206 3:-0.444647 4:-0.568736 5:-0.275228 6:-0.764464 7:-0.45663 8:0.0824774 
32 1:0.380298 2:0.505571 3:-0.400931 4:-0.453722 5:-0.349736 6:-0.452086 7:0.193248 8:0.371359 
32 1:0.423902 2:0.490042 3:-0.238352 4:0.0434975 5:-0.219637 6:0.358452 7:0.588864 8:0.634356 
32 1:0.431124 2:0.479238 3:-0.190648 4:0.208161 5:-0.0733691 6:0.503683 7:0.321209 8:0.476565 
32 1:0.421196 2:0.468369 3:-0.191312 4:0.246445 5:0.0379844 6:0.4451 7:0.195355 8:0.401398 
32 1:0.420814 2:0.459588 3:-0.170232 4:0.34346 5:0.147296 6:0.503043 7:0.299024 8:0.458346 
32 1:0.427917 2:0.454156 3:-0.136425 4:0.479629 5:0.269403 6:0.621768 7:0.401229 8:0.514872 
32 1:0.391248 2:0.441587 3:-0.208468 4:0.3321 5:0.297468 6:0.301679 7:-0.0590216 8:0.254097 
32 1:0.389316 2:0.431099 3:-0.187466 4:0.424394 5:0.349547 6:0.418784 7:0.244774 8:0.414817 
32 1:0.368881 2:0.418125 3:-0.212553 4:0.303942 5:0.340717 6:0.195345 7:0.0781639 8:0.317668 
