svm_type epsilon_svr
kernel_type rbf
gamma 1
nr_class 2
total_sv 497
rho -22.9147
SV
5.350498748486882 1:0.336227 2:0.319932 3:0.0352801 4:0.583378 5:0.330514 6:0.742493 7:1 8:1 
-32 1:0.346273 2:0.326425 3:0.0484713 4:0.523818 5:0.412601 6:0.536803 7:1 8:1 
11.73190183267798 1:0.357725 2:0.334115 3:0.0627752 4:0.531375 5:0.47005 6:0.484793 7:1 8:1 
21.96418067022132 1:0.395613 2:0.351724 3:0.129898 4:0.550314 5:0.515178 6:0.468217 7:1 8:1 
11.45226451693697 1:0.399776 2:0.364311 3:0.110363 4:0.490654 5:0.523754 6:0.346949 7:0.429058 8:0.488718 
32 1:0.392025 2:0.37059 3:0.0716696 4:0.414739 5:0.502102 6:0.230117 7:0.209517 8:0.296911 
32 1:0.421612 2:0.391161 3:0.106855 4:0.483994 5:0.516909 6:0.342391 7:0.336499 8:0.373756 
32 1:0.406842 2:0.394576 3:0.0547239 4:0.307895 5:0.45902 6:0.0802001 7:0.0215869 8:0.132026 
32 1:0.354543 2:0.38382 3:-0.0721567 4:-0.151917 5:0.254654 6:-0.543164 7:-0.384625 8:-0.221058 
32 1:0.318628 2:0.366579 3:-0.134394 4:-0.360678 5:0.043148 6:-0.689536 7:-0.342396 8:-0.196925 
5.646126595249147 1:0.312171 2:0.351644 3:-0.115684 4:-0.400292 5:-0.112138 6:-0.584779 7:-0.0596214 8:-0.0374456 
32 1:0.295792 2:0.33601 3:-0.124437 4:-0.460291 5:-0.237293 6:-0.552765 7:-0.189734 8:-0.125404 
32 1:0.250752 2:0.312872 3:-0.198656 4:-0.680042 5:-0.399955 6:-0.775877 7:-0.457928 8:-0.32551 
32 1:0.220626 2:0.287434 3:-0.223136 4:-0.806332 5:-0.553926 6:-0.834476 7:-0.408295 8:-0.300233 
32 1:0.186434 2:0.25919 3:-0.252503 4:-0.760142 5:-0.639921 6:-0.649254 7:-0.502287 8:-0.36781 
32 1:0.139609 2:0.225707 3:-0.30585 4:-0.770224 5:-0.700886 6:-0.597913 7:-0.635578 8:-0.472966 
32 1:0.157966 2:0.203485 3:-0.195643 4:-0.479139 5:-0.636587 6:-0.128393 7:0.032013 8:-0.103386 
32 1:0.174169 2:0.189646 3:-0.112958 4:-0.205564 5:-0.495091 6:0.21958 7:0.032013 8:-0.103386 
32 1:0.208665 2:0.186753 3:-0.00404092 4:0.0892132 5:-0.294487 6:0.539114 7:0.218837 8:0.0114464 
32 1:0.216388 2:0.186263 3:0.0199469 4:0.173337 5:-0.130422 6:0.507364 7:-0.0286479 8:-0.110506 
32 1:0.220259 2:0.18678 3:0.0300425 4:0.234703 5:0.00107809 6:0.470599 7:-0.0685695 8:-0.130368 
32 1:0.228027 2:0.189013 3:0.0472818 4:0.295307 5:0.110594 6:0.457714 7:-0.0189998 8:-0.107199 
32 1:0.214098 2:0.187535 3:0.00998748 4:0.217551 5:0.155572 6:0.260758 7:-0.286272 8:-0.234381 
32 1:0.168986 2:0.175802 3:-0.0932537 4:-0.031217 5:0.0958706 6:-0.135037 7:-0.554909 8:-0.403859 
32 1:0.164454 2:0.165369 3:-0.0802475 4:-0.0395177 5:0.0530774 6:-0.101283 7:-0.152046 8:-0.208291 
32 1:0.155578 2:0.154957 3:-0.0800931 4:-0.183518 5:-0.0273669 6:-0.277579 7:-0.219639 8:-0.243938 
32 1:0.22377 2:0.162563 3:0.10156 4:0.200499 5:0.0574505 6:0.341851 7:0.370109 8:0.120236 
32 1:0.285585 2:0.183078 3:0.231818 4:0.256504 5:0.134186 6:0.358106 7:0.406011 8:0.147952 
32 1:0.323232 2:0.208268 3:0.279075 4:0.245838 5:0.181498 6:0.283737 7:0.264998 8:0.0824457 
32 1:0.326576 2:0.229192 3:0.236069 4:0.126723 5:0.170096 6:0.0744457 7:-0.0249332 8:-0.0604328 
32 1:0.325454 2:0.245664 3:0.191156 4:0.031313 5:0.128097 6:-0.0553692 7:-0.063805 8:-0.0801561 
32 1:0.343489 2:0.263046 3:0.200372 4:0.0477091 5:0.106009 6:0.000668386 7:0.1393 8:0.0173152 
32 1:0.372599 2:0.283739 3:0.233845 4:0.102375 5:0.110991 6:0.0970072 7:0.277284 8:0.090285 
32 1:0.356725 2:0.296588 3:0.15463 4:-0.0318545 5:0.0659207 6:-0.101756 7:-0.16722 8:-0.124385 
32 1:0.317167 2:0.297638 3:0.035457 4:-0.254776 5:-0.0444946 6:-0.390921 7:-0.367773 8:-0.246552 
32 1:0.290187 2:0.292184 3:-0.0302398 4:-0.385935 5:-0.165391 6:-0.496681 7:-0.314706 8:-0.223751 
32 1:0.277229 2:0.284799 3:-0.0497518 4:-0.413848 5:-0.256051 6:-0.444456 7:-0.198463 8:-0.175951 
32 1:0.236683 2:0.269434 3:-0.130371 4:-0.590001 5:-0.379998 6:-0.630718 7:-0.460885 8:-0.322272 
32 1:0.163244 2:0.240014 3:-0.272372 4:-0.766515 5:-0.526267 6:-0.791964 7:-0.665722 8:-0.47764 
32 1:0.154419 2:0.214422 3:-0.233718 4:-0.688099 5:-0.595509 6:-0.565849 7:-0.13271 8:-0.20778 
32 1:0.145593 2:0.19189 3:-0.202798 4:-0.652163 5:-0.628714 6:-0.46053 7:-0.162444 8:-0.223699 
32 1:0.136856 2:0.171827 3:-0.177853 4:-0.560205 5:-0.617698 6:-0.301503 7:-0.197017 8:-0.240778 
32 1:0.136134 2:0.155609 3:-0.13901 4:-0.444926 5:-0.568794 6:-0.142536 7:-0.141704 8:-0.216262 
32 1:0.232247 2:0.16505 3:0.120248 4:0.0567155 5:-0.355338 6:0.54847 7:0.521554 8:0.203445 
32 1:0.277057 2:0.183054 3:0.206761 4:0.0878287 5:-0.201817 6:0.429872 7:0.214411 8:0.0483528 
32 1:0.285073 2:0.199325 3:0.189266 4:-0.00114766 5:-0.131548 6:0.182856 7:-0.00853663 8:-0.0720754 
32 1:0.26809 2:0.208382 3:0.116365 4:-0.15451 5:-0.139992 6:-0.0937878 7:-0.174243 8:-0.166465 
32 1:0.251512 2:0.211761 3:0.0589976 4:-0.296436 5:-0.196789 6:-0.293428 7:-0.202368 8:-0.182184 
32 1:0.235434 2:0.210715 3:0.0142808 4:-0.371118 5:-0.261578 6:-0.358307 7:-0.235094 8:-0.199079 
32 1:0.223901 2:0.207188 3:-0.0107812 4:-0.420906 5:-0.322721 6:-0.380901 7:-0.235094 8:-0.199079 
32 1:0.199843 2:0.191322 3:-0.0415668 4:-0.512067 5:-0.449959 6:-0.404676 7:-0.0579502 8:-0.145269 
32 1:0.186578 2:0.175108 3:-0.039683 4:-0.445555 5:-0.497137 6:-0.226182 7:-0.0374743 8:-0.141156 
32 1:0.217138 2:0.177125 3:0.0452385 4:-0.129753 5:-0.374793 6:0.222682 7:0.203932 8:-0.0142048 
32 1:0.23034 2:0.181818 3:0.072272 4:-0.00455485 5:-0.248094 6:0.310631 7:0.0441584 8:-0.0811966 
32 1:0.2418 2:0.188245 3:0.089793 4:0.0789104 5:-0.133536 6:0.334631 7:0.0441584 8:-0.0811966 
32 1:0.243748 2:0.193841 3:0.0813952 4:0.0133513 5:-0.0808001 6:0.151521 7:-0.0841699 8:-0.130751 
32 1:0.214151 2:0.191415 3:0.000343906 4:-0.364281 5:-0.181787 6:-0.437375 7:-0.441923 8:-0.305429 
32 1:0.208321 2:0.188115 3:-0.00849201 4:-0.469744 5:-0.287134 6:-0.513052 7:-0.171878 8:-0.193461 
32 1:0.18906 2:0.180983 3:-0.0472123 4:-0.422334 5:-0.340273 6:-0.363367 7:-0.339302 8:-0.278005 
32 1:0.13136 2:0.161821 3:-0.168764 4:-0.588906 5:-0.435751 6:-0.564505 7:-0.621582 8:-0.464324 
32 1:-0.0120948 2:0.113036 3:-0.468086 4:-0.765786 5:-0.563173 6:-0.748125 7:-0.850408 8:-0.707196 
7.482578522417118 1:-0.120597 2:0.048704 3:-0.625179 4:-0.845304 5:-0.676788 6:-0.765839 7:-0.850408 8:-0.707196 
32 1:-0.176339 2:-0.0157612 3:-0.626525 4:-0.81545 5:-0.741769 6:-0.635305 7:-0.544294 8:-0.548218 
32 1:-0.222304 2:-0.0780528 3:-0.604563 4:-0.807096 5:-0.782078 6:-0.573314 7:-0.577193 8:-0.568786 
32 1:-0.268141 2:-0.138576 3:-0.586694 4:-0.861157 5:-0.82844 6:-0.620897 7:-0.643455 8:-0.609921 
32 1:-0.313363 2:-0.197541 3:-0.570947 4:-0.930945 5:-0.884509 6:-0.686676 7:-0.704235 8:-0.649444 
32 1:-0.333416 2:-0.249389 3:-0.499041 4:-0.940228 5:-0.925235 6:-0.657136 7:-0.560052 8:-0.586694 
32 1:-0.361734 2:-0.297472 3:-0.460991 4:-1 5:-0.973934 6:-0.712694 7:-0.663437 8:-0.641979 
32 1:-0.400241 2:-0.344918 3:-0.454563 4:-0.982246 5:-1 6:-0.649543 7:-0.756803 8:-0.701111 
32 1:-0.486625 2:-0.403021 3:-0.562239 4:-0.911138 5:-0.991741 6:-0.526273 7:-0.888724 8:-0.817526 
-20.57036944143072 1:-0.524843 2:-0.458416 3:-0.534881 4:-0.756598 5:-0.93052 6:-0.308173 7:-0.61001 8:-0.671884 
32 1:-0.541025 2:-0.506506 3:-0.461065 4:-0.637571 5:-0.846795 6:-0.182286 7:-0.552727 8:-0.642634 
32 1:-0.515545 2:-0.539036 3:-0.30384 4:-0.395928 5:-0.70386 6:0.104409 7:-0.184097 8:-0.445883 
32 1:-0.473856 2:-0.555338 3:-0.139862 4:-0.179973 5:-0.530713 6:0.308365 7:-0.0504917 8:-0.367864 
32 1:-0.440123 2:-0.560512 3:-0.0274297 4:-0.0402232 5:-0.3649 6:0.378468 7:-0.13678 8:-0.398506 
4.148353643637628 1:-0.392824 2:-0.553621 3:0.0944853 4:0.125497 5:-0.194612 6:0.491913 7:0.0209865 8:-0.314316 
4.819739290589589 1:-0.363699 2:-0.541316 3:0.149191 4:0.238503 5:-0.0403448 6:0.52537 7:-0.181045 8:-0.383983 
18.85234060016557 1:-0.324916 2:-0.522427 3:0.215714 4:0.444131 5:0.136633 6:0.705634 7:-0.0569491 8:-0.323765 
10.31591903402058 1:-0.30728 2:-0.503203 3:0.2191 4:0.463371 5:0.261555 6:0.597781 7:-0.303526 8:-0.41449 
-30.02105954575741 1:-0.217361 2:-0.433249 3:0.307253 4:0.195806 5:0.249141 6:0.112462 7:0.120895 8:-0.232224 
24.7067198169653 1:-0.183691 2:-0.403038 3:0.330115 4:0.0645674 5:0.192783 6:-0.0677251 7:-0.0436628 8:-0.282757 
15.44034505991426 1:-0.179764 2:-0.377954 3:0.278319 4:-0.149424 5:0.0780618 6:-0.335259 7:-0.427624 8:-0.436288 
19.41753146424708 1:-0.154731 2:-0.352048 3:0.286615 4:-0.111372 5:0.0152999 6:-0.191972 7:-0.122943 8:-0.2934 
32 1:-0.0373752 2:-0.253705 3:0.38387 4:0.378905 5:0.215677 6:0.492867 7:0.178422 8:-0.130285 
20.43690906794474 1:0.0857672 2:-0.162999 3:0.517462 4:0.76888 5:0.525123 6:0.864885 7:0.598902 8:0.160258 
32 1:0.139557 2:-0.111453 3:0.545694 4:0.845992 5:0.658491 6:0.855372 7:0.598902 8:0.160258 
13.32766031568795 1:0.171722 2:-0.0627149 3:0.51732 4:0.805237 5:0.73271 6:0.69385 7:0.244717 8:0.038366 
32 1:0.202749 2:-0.0164886 3:0.491941 4:0.785381 5:0.775031 6:0.608066 7:0.306608 8:0.0700421 
32 1:0.224445 2:0.0255522 3:0.44965 4:0.705094 5:0.774299 6:0.458993 7:0.180146 8:0.0264311 
32 1:0.24667 2:0.064368 3:0.417063 4:0.645473 5:0.752317 6:0.372968 7:0.265456 8:0.063183 
32 1:0.256925 2:0.0978122 3:0.362787 4:0.470688 5:0.674649 6:0.135996 7:-0.00702677 8:-0.0318833 
32 1:0.314297 2:0.137947 3:0.430395 4:0.631837 5:0.680968 6:0.429625 7:0.60482 8:0.319325 
32 1:0.351318 2:0.178689 3:0.436524 4:0.573537 5:0.664162 6:0.340108 7:0.418387 8:0.231309 
32 1:0.38006 2:0.217986 3:0.42192 4:0.506137 5:0.628658 6:0.255119 7:0.418387 8:0.231309 
32 1:0.406032 2:0.25548 3:0.403709 4:0.506381 5:0.605078 6:0.282715 7:0.46532 8:0.25845 
-22.17156725579119 1:0.42145 2:0.289071 3:0.36427 4:0.461366 5:0.573128 6:0.235434 7:0.326066 8:0.20471 
0.9922773462795803 1:0.480998 2:0.329831 3:0.436709 4:0.613806 5:0.606787 6:0.481336 7:0.716167 8:0.470981 
32 1:0.529956 2:0.373856 3:0.469704 4:0.74261 5:0.675662 6:0.64257 7:0.732308 8:0.486888 
32 1:0.582192 2:0.421259 3:0.503825 4:0.813118 5:0.746999 6:0.692121 7:0.791571 8:0.547377 
32 1:0.600001 2:0.463334 3:0.449998 4:0.732119 5:0.765355 6:0.51975 7:0.317113 8:0.306438 
32 1:0.622991 2:0.502356 3:0.419144 4:0.708375 5:0.769032 6:0.471183 7:0.427473 8:0.365912 
32 1:0.629555 2:0.535104 3:0.355754 4:0.622725 5:0.740604 6:0.343972 7:0.251582 8:0.274468 
32 1:0.631264 2:0.561701 3:0.293601 4:0.565625 5:0.701067 6:0.282858 7:0.251582 8:0.274468 
32 1:0.617016 2:0.579656 3:0.206278 4:0.387916 5:0.610641 6:0.0551109 7:-0.0326639 8:0.131099 
32 1:0.614697 2:0.593479 3:0.164527 4:0.384648 5:0.549179 6:0.119749 7:0.188186 8:0.217668 
32 1:0.621749 2:0.606182 3:0.153211 4:0.497674 5:0.548952 6:0.331055 7:0.35943 8:0.295641 
32 1:0.640109 2:0.620627 3:0.170804 4:0.726631 5:0.631345 6:0.66374 7:0.526053 8:0.386263 
15.64638534668507 1:0.460835 2:0.590373 3:-0.280838 4:0.111239 5:0.464411 6:-0.293208 7:-0.7266 8:-0.586189 
-10.38970191723999 1:0.322912 2:0.534005 3:-0.544708 4:-0.267021 5:0.216751 6:-0.714465 7:-0.690957 8:-0.563028 
32 1:0.214914 2:0.463725 3:-0.685288 4:-0.519194 5:-0.0392694 6:-0.890665 7:-0.690957 8:-0.563028 
-4.588509528429557 1:0.099233 2:0.380522 3:-0.815857 4:-0.719311 5:-0.282096 6:-0.984849 7:-0.76552 8:-0.638918 
4.215986323957578 1:0.0192997 2:0.295318 3:-0.836074 4:-0.824276 5:-0.481823 6:-0.95097 7:-0.659171 8:-0.583478 
-32 1:-0.0980975 2:0.13422 3:-0.774925 4:-0.955876 5:-0.768006 6:-0.867317 7:-0.721795 8:-0.628315 
32 1:-0.130819 2:0.0632672 3:-0.692077 4:-0.97001 5:-0.858303 6:-0.789781 7:-0.566675 8:-0.561445 
-32 1:-0.167404 2:-0.00202691 3:-0.634902 4:-0.977186 5:-0.921088 6:-0.730919 7:-0.656346 8:-0.61193 
-10.2601787598918 1:-0.182329 2:-0.0577428 3:-0.53812 4:-0.880633 5:-0.928136 6:-0.542521 7:-0.485657 8:-0.540365 
-32 1:-0.224609 2:-0.112176 3:-0.525155 4:-0.96027 5:-0.961545 6:-0.652769 7:-0.694389 8:-0.65386 
-32 1:-0.247388 2:-0.161034 3:-0.468832 4:-0.978451 5:-0.990372 6:-0.653538 7:-0.61222 8:-0.617582 
-32 1:-0.258675 2:-0.202753 3:-0.396692 4:-0.948679 5:-0.998857 6:-0.588182 7:-0.61222 8:-0.617582 
-32 1:-0.277009 2:-0.240405 3:-0.355587 4:-0.928831 5:-0.997358 6:-0.552846 7:-0.715087 8:-0.671097 
-22.62681153254707 1:-0.284476 2:-0.272267 3:-0.297094 4:-0.915599 5:-0.991588 6:-0.53478 7:-0.715087 8:-0.671097 
12.51428431425216 1:-0.267163 2:-0.293719 3:-0.191907 4:-0.727571 5:-0.919954 6:-0.266135 7:-0.257923 8:-0.491172 
9.379054533625807 1:-0.241776 2:-0.317157 3:-0.0579202 4:-0.674265 5:-0.819969 6:-0.281676 7:-0.308201 8:-0.500894 
9.962022425087266 1:-0.221825 2:-0.319058 3:0.00564771 4:-0.603254 5:-0.760722 6:-0.217273 7:-0.308201 8:-0.500894 
10.09944702079927 1:-0.191835 2:-0.313585 3:0.0801592 4:-0.263332 5:-0.598674 6:0.230934 7:-0.054737 8:-0.398694 
32 1:-0.154321 2:-0.300457 3:0.157498 4:0.00983087 5:-0.392161 6:0.503307 7:0.150903 8:-0.300314 
13.79164229504246 1:-0.107576 2:-0.267161 3:0.211082 4:-0.0473963 5:-0.20669 6:0.182983 7:-0.0326069 8:-0.318221 
32 1:-0.0692197 2:-0.228161 3:0.225544 4:-0.0522424 5:-0.117103 6:0.0708247 7:-0.211692 8:-0.379218 
32 1:-0.0574915 2:-0.209537 3:0.213043 4:-0.171693 5:-0.136557 6:-0.129827 7:-0.392863 8:-0.443393 
32 1:-0.0560422 2:-0.194299 3:0.17882 4:-0.428564 5:-0.242134 6:-0.487952 7:-0.582928 8:-0.529852 
32 1:-0.090979 2:-0.190257 3:0.0657 4:-0.625498 5:-0.383518 6:-0.692949 7:-0.839842 8:-0.725088 
3.187401262971992 1:-0.101438 2:-0.189462 3:0.0328849 4:-0.65661 5:-0.48899 6:-0.629649 7:-0.527714 8:-0.564789 
23.14022735184959 1:-0.124961 2:-0.194312 3:-0.024153 4:-0.7802 5:-0.603862 6:-0.728209 7:-0.665273 8:-0.652928 
-32 1:-0.10182 2:-0.192795 3:0.0401809 4:-0.573303 5:-0.605852 6:-0.339593 7:-0.0489481 8:-0.277746 
-24.40070476633481 1:-0.0626065 2:-0.182437 3:0.129519 4:-0.307366 5:-0.511303 6:0.0481517 7:0.129947 8:-0.14896 
-21.23692970429221 1:0.004932 2:-0.158399 3:0.267738 4:0.0717786 5:-0.31158 6:0.526234 7:0.390021 8:0.0612926 
-32 1:0.0493958 2:-0.1288 3:0.323938 4:0.235923 5:-0.119254 6:0.611373 7:0.212496 8:-0.0255942 
-32 1:0.0752745 2:-0.099085 3:0.325103 4:0.256734 5:0.016466 6:0.494025 7:0.043779 8:-0.10875 
-32 1:0.0741616 2:-0.0755728 3:0.262431 4:0.0933704 5:0.04805 6:0.152636 7:-0.230525 8:-0.256152 
-32 1:0.0842758 2:-0.0544042 3:0.238749 4:0.0435405 5:0.0511413 6:0.056034 7:-0.114538 8:-0.194425 
-32 1:0.0909353 2:-0.0359163 3:0.211663 4:-0.019219 5:0.0305759 6:-0.037483 7:-0.166831 8:-0.220221 
-32 1:0.0907671 2:-0.0211652 3:0.173905 4:-0.211442 5:-0.0524349 6:-0.300867 7:-0.275215 8:-0.272911 
-32 1:0.105477 2:-0.00593366 3:0.178759 4:-0.31203 5:-0.14404 6:-0.383256 7:-0.037652 8:-0.164671 
18.60914233649773 1:0.131677 2:0.0123616 3:0.209716 4:-0.257821 5:-0.185566 6:-0.234241 7:0.158341 8:-0.06413 
-5.554378214219041 1:0.16658 2:0.0351376 3:0.254991 4:0.0181596 5:-0.113753 6:0.198426 7:0.319102 8:0.0290051 
-32 1:0.203858 2:0.0620521 3:0.296809 4:0.352095 5:0.0545132 6:0.628296 7:0.4126 8:0.0881232 
-32 1:0.210212 2:0.0850654 3:0.257389 4:0.245563 5:0.128284 6:0.344471 7:-0.086065 8:-0.123311 
-32 1:0.232715 2:0.108724 3:0.263911 4:0.381319 5:0.226407 6:0.485024 7:0.153662 8:0.00147373 
-32 1:0.263571 2:0.134847 3:0.28881 4:0.505055 5:0.336432 6:0.589435 7:0.298771 8:0.0860775 
-32 1:0.276347 2:0.158725 3:0.266125 4:0.44354 5:0.387604 6:0.415676 7:0.0599322 8:-0.0215798 
-32 1:0.319311 2:0.187847 3:0.319112 4:0.575337 5:0.469235 6:0.567819 7:0.408133 8:0.185954 
-32 1:0.344983 2:0.217131 3:0.320756 4:0.552515 5:0.515428 6:0.47204 7:0.256399 8:0.113784 
-32 1:0.35277 2:0.242375 3:0.279926 4:0.401765 5:0.491874 6:0.217664 7:0.0429348 8:0.00923386 
-32 1:0.362638 2:0.264871 3:0.252163 4:0.346444 5:0.456227 6:0.155394 7:0.103746 8:0.0383502 
-32 1:0.353796 2:0.280806 3:0.185866 4:0.12885 5:0.354016 6:-0.133264 7:-0.175501 8:-0.10068 
-32 1:0.459844 2:0.318286 3:0.403561 4:0.297884 5:0.346815 6:0.190649 7:0.621979 8:0.420241 
-32 1:0.513114 2:0.360692 3:0.453348 4:0.267025 5:0.330889 6:0.151357 7:0.328731 8:0.236037 
-32 1:0.556788 2:0.404803 3:0.470566 4:0.265653 5:0.319777 6:0.161585 7:0.349064 8:0.249872 
32 1:0.572221 2:0.443691 3:0.41779 4:0.187935 5:0.28435 6:0.057242 7:0.164457 8:0.14447 
32 1:0.585577 2:0.477916 3:0.370676 4:0.155324 5:0.248975 6:0.0370642 7:0.197444 8:0.161813 
29.14732896271944 1:0.589064 2:0.506109 3:0.309728 4:0.114382 5:0.210631 6:0.00474837 7:0.138568 8:0.132583 
-32 1:0.563595 2:0.542232 3:0.143459 4:-0.0399122 5:0.11507 6:-0.17337 7:-0.248036 8:-0.0801099 
-14.36585762958483 1:0.534809 2:0.54491 3:0.051905 4:-0.346822 5:-0.0449129 6:-0.562311 7:-0.248036 8:-0.0801099 
-32 1:0.435706 2:0.515496 3:-0.165708 4:-0.651909 5:-0.456147 6:-0.658671 7:-0.533476 8:-0.284355 
-32 1:0.398751 2:0.49179 3:-0.214678 4:-0.66556 5:-0.540636 6:-0.586918 7:-0.444921 8:-0.251581 
-31.20328185515742 1:0.389221 2:0.470603 3:-0.18923 4:-0.487732 5:-0.532852 6:-0.263833 7:-0.0617207 8:-0.0961806 
32 1:0.372969 2:0.449863 3:-0.18471 4:-0.42404 5:-0.5047 6:-0.177306 7:-0.177951 8:-0.152084 
-32 1:0.355681 2:0.429239 3:-0.183535 4:-0.355342 5:-0.461164 6:-0.0991369 7:-0.237716 8:-0.180687 
-32 1:0.394412 2:0.421773 3:-0.0505889 4:0.157953 5:-0.247087 6:0.612913 7:0.412847 8:0.161339 
-32 1:0.484682 2:0.436851 3:0.177216 4:0.392983 5:-0.0196348 6:0.789984 7:0.66603 8:0.388459 
32 1:0.533398 2:0.460276 3:0.261539 4:0.460364 5:0.156292 6:0.713318 7:0.403989 8:0.246837 
-8.907078271739866 1:0.549001 2:0.482654 3:0.250971 4:0.415979 5:0.257575 6:0.51387 7:0.170733 8:0.116977 
-32 1:0.570846 2:0.505651 3:0.257224 4:0.439972 5:0.333747 6:0.471001 7:0.25955 8:0.167991 
-32 1:0.577106 2:0.525508 3:0.225502 4:0.420245 5:0.377416 6:0.383906 7:0.15188 8:0.113283 
-32 1:0.643899 2:0.556971 3:0.342766 4:0.499005 5:0.434923 6:0.46478 7:0.533843 8:0.350286 
32 1:0.664316 2:0.586903 3:0.327295 4:0.439507 5:0.451811 6:0.334246 7:0.219958 8:0.176031 
32 1:0.660301 2:0.609912 3:0.257347 4:0.401468 5:0.449356 6:0.266045 7:0.0623144 8:0.0847768 
32 1:0.596738 2:0.613496 3:0.0610658 4:0.193865 5:0.372874 6:-0.0335711 7:-0.32984 8:-0.176752 
32 1:0.56006 2:0.607809 3:-0.0326075 4:0.107533 5:0.290761 6:-0.100266 7:-0.181651 8:-0.103455 
2.378273588229658 1:0.46377 2:0.566027 3:-0.210691 4:-0.101209 5:0.0885346 6:-0.257286 7:-0.224183 8:-0.158549 
-32 1:0.421419 2:0.537501 3:-0.263381 4:-0.180305 5:-0.00257037 6:-0.30012 7:-0.312329 8:-0.210448 
-32 1:0.379086 2:0.504808 3:-0.30549 4:-0.259071 5:-0.0917038 6:-0.344606 7:-0.37265 8:-0.245568 
-32 1:0.304887 2:0.461349 3:-0.414267 4:-0.434182 5:-0.214257 6:-0.530526 7:-0.602334 8:-0.401611 
32 1:0.267246 2:0.417804 3:-0.415141 4:-0.413027 5:-0.288333 6:-0.405768 7:-0.323652 8:-0.28086 
-11.29108561183622 1:0.262723 2:0.381913 3:-0.337801 4:-0.290119 5:-0.293405 6:-0.170432 7:-0.0497808 8:-0.148888 
23.36767814356541 1:0.259926 2:0.352548 3:-0.271861 4:-0.182579 5:-0.258017 6:-0.0103607 7:-0.0497808 8:-0.148888 
-32 1:0.282785 2:0.334387 3:-0.158653 4:0.0536912 5:-0.149244 6:0.30562 7:0.206689 8:-0.0192386 
18.89415369230611 1:0.349755 2:0.335477 3:0.0358616 4:0.345305 5:0.0284049 6:0.645668 7:0.507495 8:0.185113 
32 1:0.377709 2:0.342867 3:0.0995309 4:0.41171 5:0.170778 6:0.605797 7:0.208246 8:0.0497882 
32 1:0.399046 2:0.353756 3:0.134876 4:0.45598 5:0.281653 6:0.560848 7:0.208246 8:0.0497882 
32 1:0.39473 2:0.36146 3:0.102702 4:0.378822 5:0.327753 6:0.363718 7:-0.0438604 8:-0.0637723 
30.3872036685364 1:0.406865 2:0.374612 3:0.105222 4:0.338807 5:0.352186 6:0.260881 7:0.204349 8:0.0462837 
32 1:0.430855 2:0.38657 3:0.14568 4:0.384403 5:0.376787 6:0.317703 7:0.324767 8:0.107819 
32 1:0.448481 2:0.400247 3:0.16305 4:0.405347 5:0.400738 6:0.329244 7:0.324767 8:0.107819 
9.814596644573705 1:0.440695 2:0.409372 3:0.117062 4:0.230976 5:0.353841 6:0.0576282 7:-0.0651536 8:-0.0413723 
-32 1:0.421177 2:0.412121 3:0.0526286 4:0.0145503 5:0.24455 6:-0.220701 7:-0.238224 8:-0.122813 
-32 1:0.392691 2:0.407677 3:-0.0200525 4:-0.229911 5:0.0835563 6:-0.491871 7:-0.384688 8:-0.20049 
-32 1:0.353458 2:0.394972 3:-0.103523 4:-0.494454 5:-0.119147 6:-0.752535 7:-0.538881 8:-0.296402 
-32 1:0.330523 2:0.379459 3:-0.131893 4:-0.606814 5:-0.29479 6:-0.760181 7:-0.345315 8:-0.22854 
-32 1:0.320618 2:0.364739 3:-0.123882 4:-0.617718 5:-0.415817 6:-0.641247 7:-0.16253 8:-0.161013 
-32 1:0.321036 2:0.353061 3:-0.0931505 4:-0.560985 5:-0.476048 6:-0.46599 7:0.0062438 8:-0.0941883 
-32 1:0.325491 2:0.344757 3:-0.0590517 4:-0.454589 5:-0.477844 6:-0.265257 7:0.0889125 8:-0.0602843 
-32 1:0.324968 2:0.337991 3:-0.0435037 4:-0.340228 5:-0.437812 6:-0.0977933 7:-0.0187843 8:-0.0970564 
-20.19819950963915 1:0.340776 2:0.336266 3:0.00741997 4:-0.0719799 5:-0.314414 6:0.261064 7:0.307399 8:0.0443113 
-32 1:0.340884 2:0.334911 3:0.0111596 4:0.0908514 5:-0.173445 6:0.402861 7:-0.00700823 8:-0.0729695 
-32 1:0.312507 2:0.327209 3:-0.0529695 4:-0.248611 5:-0.201849 6:-0.198304 7:-0.428507 8:-0.292384 
32 1:0.258093 2:0.308357 3:-0.165631 4:-0.292056 5:-0.236448 6:-0.239603 7:-0.656999 8:-0.469776 
1.772219377274164 1:0.212214 2:0.282576 3:-0.235643 4:-0.348448 5:-0.279845 6:-0.294954 7:-0.678446 8:-0.488867 
32 1:0.205909 2:0.260481 3:-0.198402 4:-0.194036 5:-0.253107 6:-0.0374044 7:-0.140153 8:-0.22688 
-32 1:0.214499 2:0.244809 3:-0.133509 4:-0.00880578 5:-0.168502 6:0.211088 7:0.0270142 8:-0.132025 
-32 1:0.218864 2:0.21469 3:-0.0445683 4:0.145218 5:0.0379951 6:0.26102 7:0.0061617 8:-0.142369 
11.9941496251893 1:0.205882 2:0.201549 3:-0.0496122 4:0.201458 5:0.144148 6:0.243858 7:-0.344439 8:-0.298845 
-23.85322408051725 1:0.193985 2:0.192878 3:-0.0627525 4:0.10247 5:0.136452 6:0.067882 7:-0.402961 8:-0.328476 
-32 1:0.18215 2:0.183182 3:-0.0731213 4:-0.0648587 5:0.0709956 6:-0.169224 7:-0.463816 8:-0.359108 
22.72593119847906 1:0.186678 2:0.176481 3:-0.0428565 4:-0.0324059 5:0.039058 6:-0.0718685 7:-0.0840959 8:-0.21128 
4.204000851230145 1:0.171612 2:0.167607 3:-0.0648148 4:-0.25078 5:-0.0609624 6:-0.364506 7:-0.424534 8:-0.371197 
-32 1:0.16564 2:0.159114 3:-0.0609557 4:-0.348361 5:-0.162823 6:-0.429476 7:-0.309667 8:-0.321946 
-32 1:0.162813 2:0.151661 3:-0.0504537 4:-0.400614 5:-0.249568 6:-0.427207 7:-0.309667 8:-0.321946 
-32 1:0.158439 2:0.144679 3:-0.0456995 4:-0.486652 5:-0.338417 6:-0.485599 7:-0.393007 8:-0.357748 
-15.58280894277735 1:0.165038 2:0.140632 3:-0.0160391 4:-0.377604 5:-0.358335 6:-0.259056 7:-0.0885115 8:-0.240681 
32 1:0.188249 2:0.142807 3:0.0468354 4:-0.0488953 5:-0.253107 6:0.233608 7:0.296132 8:-0.0411868 
32 1:0.212075 2:0.150104 3:0.0985845 4:0.234246 5:-0.0808767 6:0.564071 7:0.366129 8:0.00332961 
32 1:0.244202 2:0.163434 3:0.159544 4:0.551012 5:0.148145 6:0.891956 7:0.538305 8:0.127655 
32 1:0.270331 2:0.180191 3:0.194177 4:0.570182 5:0.307737 6:0.744069 7:0.538305 8:0.127655 
32 1:0.307643 2:0.202299 3:0.248238 4:0.684613 5:0.455386 6:0.787801 7:0.705154 8:0.276262 
-32 1:0.361681 2:0.262966 3:0.254158 4:0.303371 5:0.431186 6:0.103788 7:0.457295 8:0.252159 
-1.793606948171082 1:0.381421 2:0.314383 3:0.18242 4:-0.160635 5:0.0601957 6:-0.335631 7:0.152388 8:0.0698229 
32 1:0.397186 2:0.330535 3:0.188055 4:-0.138925 5:-0.00654452 6:-0.218279 7:0.270246 8:0.134833 
32 1:0.412796 2:0.347097 3:0.192201 4:-0.0960065 5:-0.0355648 6:-0.104739 7:0.328595 8:0.16717 
-32 1:0.448335 2:0.368634 3:0.242477 4:0.103279 5:0.0169351 6:0.20695 7:0.580285 8:0.333298 
-32 1:0.462675 2:0.389208 3:0.232743 4:0.1508 5:0.0690673 6:0.23568 7:0.269973 8:0.18381 
-32 1:0.464288 2:0.406044 3:0.194965 4:0.0415456 5:0.0644336 6:0.0370102 7:0.0890807 8:0.0909848 
-32 1:0.451865 2:0.416615 3:0.13167 4:-0.102949 5:0.00925102 6:-0.169282 7:-0.144064 8:-0.0382554 
-32 1:0.440724 2:0.422474 3:0.0840531 4:-0.199278 5:-0.0622663 6:-0.26684 7:-0.144064 8:-0.0382554 
-32 1:0.430713 2:0.424826 3:0.048624 4:-0.40363 5:-0.183618 6:-0.508743 7:-0.144064 8:-0.0382554 
-29.94555289576699 1:0.514743 2:0.446305 3:0.241883 4:0.0434724 5:-0.103328 6:0.233693 7:0.717713 8:0.50133 
32 1:0.562273 2:0.474572 3:0.310478 4:0.159819 5:-0.00785663 6:0.341057 7:0.468347 8:0.349247 
-32 1:0.598908 2:0.548995 3:0.230392 4:0.118226 5:0.116558 6:0.120198 7:0.147834 8:0.165218 
-32 1:0.588098 2:0.562747 3:0.163813 4:0.0416485 5:0.0961309 6:0.000720578 7:0.00425538 8:0.0886187 
-27.66769411958589 1:0.572623 2:0.57014 3:0.099554 4:-0.0481141 5:0.0501517 6:-0.113968 7:-0.0692769 8:0.0497567 
32 1:0.594877 2:0.590741 3:0.113063 4:0.0848524 5:0.0903783 6:0.0880132 7:0.0940465 8:0.111497 
32 1:0.601397 2:0.599245 3:0.110786 4:0.029 5:0.0741179 6:0.00243855 7:0.22489 8:0.179636 
32 1:0.601821 2:0.611963 3:0.0799086 4:0.321417 5:0.197253 6:0.406728 7:0.22489 8:0.179636 
-32 1:0.5732 2:0.609647 3:0.00145502 4:0.0331037 5:0.146847 6:-0.073606 7:-0.236554 8:-0.0541179 
32 1:0.556076 2:0.603801 3:-0.0342176 4:-0.0311001 5:0.0900964 6:-0.128173 7:-0.0749991 8:0.00964092 
-6.945901229562059 1:0.531973 2:0.593503 3:-0.079201 4:-0.119619 5:0.0203497 6:-0.213183 7:-0.212503 8:-0.064339 
32 1:0.47436 2:0.571828 3:-0.194152 4:-0.412505 5:-0.13174 6:-0.585023 7:-0.584014 8:-0.327944 
0.1670562093051873 1:0.427557 2:0.543574 3:-0.26064 4:-0.538466 5:-0.278545 6:-0.651258 7:-0.584014 8:-0.327944 
32 1:0.393802 2:0.513098 3:-0.283085 4:-0.585868 5:-0.393504 6:-0.607456 7:-0.471306 8:-0.28571 
0.6800252551876496 1:0.354472 2:0.479545 3:-0.314175 4:-0.725358 5:-0.520433 6:-0.721829 7:-0.594136 8:-0.370004 
32 1:0.347632 2:0.451108 3:-0.262489 4:-0.587943 5:-0.555511 6:-0.42487 7:-0.0442668 8:-0.12943 
32 1:0.338006 2:0.426113 3:-0.227702 4:-0.509134 5:-0.550484 6:-0.283501 7:-0.111995 8:-0.162049 
32 1:0.334399 2:0.405276 3:-0.185691 4:-0.413926 5:-0.512808 6:-0.149088 7:-0.0260109 8:-0.122759 
32 1:0.319367 2:0.385101 3:-0.179004 4:-0.478459 5:-0.510956 6:-0.271717 7:-0.257195 8:-0.228338 
32 1:0.319827 2:0.369068 3:-0.137148 4:-0.094798 5:-0.371404 6:0.28405 7:0.0185688 8:-0.104083 
32 1:0.312193 2:0.354462 3:-0.122736 4:-0.00969721 5:-0.247688 6:0.300563 7:-0.147262 8:-0.178047 
-32 1:0.346848 2:0.350858 3:-0.0115563 4:0.0811713 5:-0.132451 6:0.337604 7:0.416415 8:0.150814 
-32 1:0.369742 2:0.353314 3:0.0496744 4:0.0969486 5:-0.0499378 6:0.272096 7:0.331306 8:0.111224 
-32 1:0.375071 2:0.356522 3:0.0572667 4:-0.00801587 5:-0.0327711 6:0.0563447 7:0.0842277 8:-0.00510441 
-32 1:0.374667 2:0.358994 3:0.0498323 4:-0.134152 5:-0.0668017 6:-0.140014 7:0.00548352 8:-0.0429837 
-32 1:0.373821 2:0.360775 3:0.0428447 4:-0.218243 5:-0.119805 6:-0.236028 7:0.00548352 8:-0.0429837 
-32 1:0.352414 2:0.357207 3:-0.0111996 4:-0.448856 5:-0.238282 6:-0.530275 7:-0.366304 8:-0.231228 
-32 1:0.347502 2:0.353207 3:-0.0155635 4:-0.42665 5:-0.309261 6:-0.407118 7:-0.0817355 8:-0.107383 
-32 1:0.36366 2:0.353775 3:0.0305971 4:-0.258239 5:-0.295864 6:-0.108075 7:0.245604 8:0.0665009 
-32 1:0.395268 2:0.365761 3:0.0934228 4:0.0592155 5:-0.124777 6:0.287775 7:0.238541 8:0.0821927 
32 1:0.458043 2:0.397714 3:0.197615 4:0.423782 5:0.199374 6:0.595426 7:0.374432 8:0.209312 
-32 1:0.465988 2:0.413245 3:0.181783 4:0.386048 5:0.275505 6:0.437345 7:0.189645 8:0.120991 
-32 1:0.466597 2:0.425812 3:0.151834 4:0.334408 5:0.307642 6:0.303933 7:0.0966085 8:0.0766597 
-18.53501476665875 1:0.485725 2:0.440326 3:0.171511 4:0.4324 5:0.364395 6:0.421588 7:0.384351 8:0.225057 
-32 1:0.490826 2:0.453127 3:0.154199 4:0.251098 5:0.336867 6:0.114738 7:0.186687 8:0.132376 
32 1:0.472743 2:0.45915 3:0.0857198 4:-0.109779 5:0.188411 6:-0.388239 7:-0.18611 8:-0.0703634 
32 1:0.45693 2:0.460282 3:0.0362826 4:-0.350364 5:0.0027039 6:-0.623729 7:-0.18611 8:-0.0703634 
20.44342634065076 1:0.443074 2:0.457955 3:0.00134618 4:-0.555555 5:-0.195077 6:-0.779235 7:-0.18611 8:-0.0703634 
-16.28685456748694 1:0.439 2:0.455144 3:-0.00355158 4:-0.589946 5:-0.339329 6:-0.677423 7:0.0393199 8:0.0141582 
29.56404024462168 1:0.458818 2:0.457517 3:0.0488296 4:-0.234766 5:-0.307447 6:-0.0509142 7:0.43909 8:0.219579 
32 1:0.526141 2:0.483027 3:0.182694 4:0.161191 5:-0.0278684 6:0.36665 7:0.660097 8:0.389669 
32 1:0.545742 2:0.500095 3:0.197313 4:0.118294 5:0.0274792 6:0.222849 7:0.530031 8:0.333824 
10.58416875230603 1:0.586936 2:0.523356 3:0.259894 4:0.268903 5:0.118675 6:0.399109 7:0.717528 8:0.47929 
32 1:0.612218 2:0.547861 3:0.272461 4:0.335762 5:0.203577 6:0.426235 7:0.599682 8:0.424203 
-32 1:0.612609 2:0.567556 3:0.223861 4:0.2744 5:0.238056 6:0.271975 7:0.186898 8:0.21824 
32 1:0.585403 2:0.576967 3:0.11995 4:0.0745898 5:0.189006 6:-0.0446643 7:-0.208792 8:-0.027476 
32 1:0.565203 2:0.579785 3:0.0533302 4:-0.0674452 5:0.105099 6:-0.213305 7:-0.133519 8:0.00524428 
32 1:0.52645 2:0.573002 3:-0.0436841 4:-0.329526 5:-0.0453247 6:-0.529541 7:-0.391534 8:-0.170691 
32 1:0.49383 2:0.559969 3:-0.106845 4:-0.504247 5:-0.208598 6:-0.667867 7:-0.391534 8:-0.170691 
32 1:0.470431 2:0.544085 3:-0.135643 4:-0.591188 5:-0.348791 6:-0.668852 7:-0.279513 8:-0.128793 
32 1:0.454523 2:0.527668 3:-0.141029 4:-0.619609 5:-0.452499 6:-0.602558 7:-0.162531 8:-0.0856235 
32 1:0.448712 2:0.513179 3:-0.121546 4:-0.541881 5:-0.493615 6:-0.4101 7:0.0537511 8:-0.00058639 
32 1:0.442786 2:0.500206 3:-0.10623 4:-0.451477 5:-0.488434 6:-0.247259 7:0.0537511 8:-0.00058639 
32 1:0.444929 2:0.490327 3:-0.0749639 4:-0.24215 5:-0.409512 6:0.0527701 7:0.266868 8:0.0876422 
32 1:0.445278 2:0.482506 3:-0.0541773 4:-0.0408816 5:-0.284336 6:0.284514 7:0.266868 8:0.0876422 
32 1:0.456354 2:0.478832 3:-0.0122713 4:0.213988 5:-0.109 6:0.558612 7:0.52016 8:0.215709 
-2.583375612858335 1:0.439301 2:0.471915 3:-0.0450321 4:0.0437731 5:-0.0534747 6:0.176875 7:-0.209594 8:-0.112607 
32 1:0.400403 2:0.457311 3:-0.122716 4:-0.343999 5:-0.156258 6:-0.428888 7:-0.519505 8:-0.332559 
32 1:0.369105 2:0.438328 3:-0.166953 4:-0.474509 5:-0.271833 6:-0.539561 7:-0.519505 8:-0.332559 
32 1:0.327938 2:0.413541 3:-0.225601 4:-0.616375 5:-0.400028 6:-0.656912 7:-0.667404 8:-0.454744 
32 1:0.299733 2:0.387134 3:-0.241973 4:-0.67438 5:-0.506403 6:-0.642788 7:-0.534806 8:-0.397763 
32 1:0.245599 2:0.353384 3:-0.316173 4:-0.698892 5:-0.586158 6:-0.596766 7:-0.765005 8:-0.595937 
32 1:0.200082 2:0.315768 3:-0.355225 4:-0.740009 5:-0.654151 6:-0.595284 7:-0.783744 8:-0.615646 
5.671259500616227 1:0.157792 2:0.275813 3:-0.378865 4:-0.816971 5:-0.727226 6:-0.654884 7:-0.821455 8:-0.654907 
32 1:0.138736 2:0.239406 3:-0.343024 4:-0.78068 5:-0.762859 6:-0.54611 7:-0.444256 8:-0.478807 
32 1:0.125967 2:0.207301 3:-0.299539 4:-0.726672 5:-0.767143 6:-0.440333 7:-0.444256 8:-0.478807 
32 1:0.106132 2:0.176992 3:-0.281401 4:-0.780827 5:-0.789523 6:-0.515693 7:-0.593437 8:-0.558501 
32 1:0.109304 2:0.153485 3:-0.212675 4:-0.605722 5:-0.741314 6:-0.244217 7:-0.132145 8:-0.32975 
32 1:0.106194 2:0.133953 3:-0.172497 4:-0.572188 5:-0.697085 6:-0.232508 7:-0.273459 8:-0.392733 
32 1:0.102243 2:0.117407 3:-0.142338 4:-0.577403 5:-0.669479 6:-0.274018 7:-0.341712 8:-0.423785 
32 1:0.101723 2:0.104048 3:-0.110124 4:-0.502107 5:-0.623929 6:-0.185848 7:-0.341712 8:-0.423785 
-17.62271804682618 1:0.168622 2:0.108963 3:0.0745141 4:0.06011 5:-0.390871 6:0.595705 7:0.578706 8:0.206412 
-7.009765594597695 1:0.36506 2:0.184046 3:0.463472 4:0.420128 5:0.0828339 6:0.722734 7:0.542769 8:0.331023 
32 1:0.40512 2:0.228115 3:0.470147 4:0.341007 5:0.181574 6:0.461353 7:0.279905 8:0.174888 
16.23795845863514 1:0.487906 2:0.318838 3:0.484825 4:0.36997 5:0.301087 6:0.377879 7:0.412785 8:0.26402 
0.5466993510008423 1:0.49731 2:0.357449 3:0.41499 4:0.307568 5:0.315021 6:0.245325 7:0.108062 8:0.102197 
32 1:0.416952 2:0.394568 3:0.0845237 4:-0.16526 5:0.142195 6:-0.438643 7:-0.559765 8:-0.365213 
32 1:0.343799 2:0.382232 3:-0.0997924 4:-0.350426 5:-0.028129 6:-0.588359 7:-0.591716 8:-0.395398 
-32 1:0.282263 2:0.358013 3:-0.21987 4:-0.488641 5:-0.191508 6:-0.658397 7:-0.609671 8:-0.411203 
12.73123673764141 1:0.16176 2:0.310534 3:-0.454883 4:-0.672458 5:-0.366697 6:-0.799994 7:-0.816994 8:-0.630684 
-25.46561432342985 1:0.1097 2:0.260411 3:-0.481614 4:-0.662584 5:-0.47993 6:-0.651232 7:-0.372686 8:-0.382285 
-32 1:0.0430855 2:0.204776 3:-0.537294 4:-0.748695 5:-0.586464 6:-0.689406 7:-0.492853 8:-0.46521 
-32 1:-0.00990043 2:0.147912 3:-0.549723 4:-0.816455 5:-0.681915 6:-0.70607 7:-0.50999 8:-0.476784 
-13.83118518591326 1:-0.0232885 2:0.0992986 3:-0.466356 4:-0.777843 5:-0.731629 6:-0.576755 7:-0.228784 8:-0.33015 
-32 1:-0.0459524 2:0.0551222 3:-0.421521 4:-0.787012 5:-0.768077 6:-0.551927 7:-0.339711 8:-0.387355 
-32 1:-0.0553992 2:0.0175779 3:-0.354507 4:-0.705849 5:-0.763115 6:-0.406087 7:-0.285733 8:-0.361446 
-32 1:-0.0422474 2:-0.00939029 3:-0.247643 4:-0.491734 5:-0.682613 6:-0.0989373 7:-0.0701478 8:-0.257104 
20.70024484575554 1:-0.00749464 2:-0.0228601 3:-0.11125 4:-0.0865807 5:-0.482879 6:0.427695 7:0.152017 8:-0.136164 
32 1:0.0195143 2:-0.0273372 3:-0.020384 4:0.0699867 5:-0.293277 6:0.501822 7:0.0924887 8:-0.157702 
32 1:0.0482389 2:-0.02422 3:0.0563518 4:0.207758 5:-0.117206 6:0.556424 7:0.145208 8:-0.131389 
32 1:0.0698899 2:-0.0166769 3:0.101072 4:0.266212 5:0.0212484 6:0.506219 7:0.0639903 8:-0.156852 
32 1:0.101933 2:-0.00316964 3:0.161336 4:0.40536 5:0.163717 6:0.602066 7:0.253504 8:-0.0690741 
32 1:0.105346 2:0.00843208 3:0.142082 4:0.262787 5:0.207296 6:0.285692 7:-0.186065 8:-0.227219 
-32 1:0.118651 2:0.0208163 3:0.149989 4:0.206236 5:0.21596 6:0.170126 7:-0.0403825 8:-0.164965 
32 1:0.139699 2:0.0459487 3:0.148502 4:0.0268889 5:0.141581 6:-0.0791493 7:-0.129174 8:-0.195333 
4.572462400914715 1:0.156391 2:0.0596311 3:0.163106 4:0.0513482 5:0.11631 6:-0.00439274 7:0.0736074 8:-0.119778 
-9.021836229677341 1:0.155247 2:0.0703101 3:0.132759 4:-0.0829396 5:0.051049 6:-0.180028 7:-0.27593 8:-0.248527 
-32 1:0.156322 2:0.079104 3:0.113711 4:-0.172465 5:-0.024734 6:-0.25997 7:-0.27593 8:-0.248527 
14.89923224150267 1:0.130807 2:0.0801887 3:0.0358144 4:-0.407313 5:-0.159924 6:-0.54289 7:-0.633014 8:-0.441168 
32 1:0.0968854 2:0.0731457 3:-0.0463115 4:-0.491117 5:-0.280264 6:-0.560868 7:-0.737017 8:-0.526401 
-32 1:0.133624 2:0.0760792 3:0.0544955 4:-0.0861697 5:-0.214498 6:0.119571 7:0.194602 8:-0.0240566 
-32 1:0.168672 2:0.0865995 3:0.131155 4:0.189703 5:-0.0711958 6:0.469757 7:0.229058 8:0.000313793 
15.29422600740437 1:0.210085 2:0.104674 3:0.207483 4:0.462238 5:0.122593 6:0.755601 7:0.335643 8:0.0737869 
32 1:0.235788 2:0.125127 3:0.231524 4:0.584848 5:0.29599 6:0.784974 7:0.192032 8:0.00982061 
32 1:0.252934 2:0.145489 3:0.230594 4:0.637048 5:0.430407 6:0.727738 7:0.116429 8:-0.0229417 
32 1:0.279361 2:0.167941 3:0.251722 4:0.665941 5:0.530435 6:0.66656 7:0.280154 8:0.0640514 
32 1:0.300624 2:0.190862 3:0.256453 4:0.685203 5:0.604064 6:0.617783 7:0.280154 8:0.0640514 
32 1:0.309507 2:0.21127 3:0.231066 4:0.646842 5:0.639321 6:0.505576 7:0.0642223 8:-0.0163554 
4.62114569726926 1:0.150826 2:0.19059 3:-0.184102 4:0.12916 5:0.476189 6:-0.273301 7:-0.837082 8:-0.703777 
5.838424410139478 1:-0.0200181 2:0.134204 3:-0.544897 4:-0.287075 5:0.217374 6:-0.752626 7:-0.886573 8:-0.778931 
6.769158311829115 1:-0.190354 2:0.0493703 3:-0.832335 4:-0.543523 5:-0.0476254 6:-0.926475 7:-0.918758 8:-0.829548 
-29.22981091332922 1:-0.309807 2:-0.0463543 3:-0.942383 4:-0.674088 5:-0.271363 6:-0.91276 7:-0.831014 8:-0.77777 
17.39542247898433 1:-0.41635 2:-0.147781 3:-1 4:-0.812333 5:-0.470362 6:-0.94186 7:-0.858955 8:-0.806003 
5.231569330213596 1:-0.467067 2:-0.24075 3:-0.914542 4:-0.843054 5:-0.614103 6:-0.833785 7:-0.565363 8:-0.646042 
-32 1:-0.561257 2:-0.405334 3:-0.776232 4:-0.944604 5:-0.824887 6:-0.780803 7:-0.688718 8:-0.716376 
-32 1:-0.592253 2:-0.475987 3:-0.689054 4:-0.95903 5:-0.892265 6:-0.730191 7:-0.702259 8:-0.724097 
32 1:-0.602001 2:-0.534783 3:-0.569245 4:-0.93821 5:-0.929678 6:-0.648253 7:-0.626967 8:-0.691757 
-28.68603596536224 1:-0.590948 2:-0.579242 3:-0.424378 4:-0.785313 5:-0.899497 6:-0.397496 7:-0.464977 8:-0.624059 
-32 1:-0.555631 2:-0.606573 3:-0.251309 4:-0.365011 5:-0.727849 6:0.189748 7:-0.172999 8:-0.491435 
-29.01746054636934 1:-0.505752 2:-0.616806 3:-0.0785403 4:0.092428 5:-0.448499 6:0.722377 7:0.0116689 8:-0.396406 
-32 1:-0.481441 2:-0.619322 3:-0.000572476 4:-0.00435107 5:-0.297158 6:0.367482 7:-0.289437 8:-0.491751 
-29.79124400155644 1:-0.461257 2:-0.616628 3:0.0520764 4:-0.171274 5:-0.256443 6:0.00893666 7:-0.369986 8:-0.521326 
-11.24835410854483 1:-0.403324 2:-0.595364 3:0.169004 4:-0.321391 5:-0.304377 6:-0.216197 7:-0.146742 8:-0.423631 
-18.1398101382498 1:-0.420523 2:-0.579391 3:0.0779937 4:-0.734088 5:-0.53544 6:-0.720858 7:-0.65511 8:-0.644332 
23.32895925724978 1:-0.508068 2:-0.5956 3:-0.138928 4:-0.799877 5:-0.641922 6:-0.721146 7:-0.867057 8:-0.81702 
-32 1:-0.591397 2:-0.628001 3:-0.302534 4:-0.906433 5:-0.751327 6:-0.794192 7:-0.89692 8:-0.850173 
-0.6280554620495544 1:-0.67452 2:-0.673306 3:-0.432932 4:-0.951869 5:-0.840643 6:-0.776233 7:-0.926628 8:-0.884784 
5.777406459344905 1:-0.890027 2:-0.75981 3:-0.849207 4:-0.968576 5:-0.906211 6:-0.731963 7:-1 8:-1 
-4.950266029393728 1:-0.996445 2:-0.85383 3:-0.925163 4:-0.830656 5:-0.9002 6:-0.481354 7:-0.645808 8:-0.759028 
-2.224011501676566 1:-0.776765 2:-0.994751 3:0.0778954 4:0.0407697 5:-0.329536 6:0.488998 7:0.109693 8:-0.215065 
4.472929344037274 1:-0.670787 2:-0.965836 3:0.317019 4:0.37814 5:-0.0799521 6:0.831691 7:0.20637 8:-0.147665 
-14.93495505202525 1:-0.600643 2:-0.926346 3:0.423879 4:0.566699 5:0.154417 6:0.914029 7:0.0297648 8:-0.217734 
11.32210187107255 1:-0.514874 2:-0.874751 3:0.546185 4:0.749721 5:0.376646 6:1 7:0.153302 8:-0.14474 
9.930423002666046 1:-0.474475 2:-0.824054 3:0.537117 4:0.768568 5:0.531593 6:0.856855 7:-0.115657 8:-0.253975 
-20.30974795738056 1:-0.42963 2:-0.773038 3:0.540339 4:0.728615 5:0.620488 6:0.679941 7:-0.0821863 8:-0.237618 
-32 1:-0.186653 2:-0.580694 3:0.770165 4:0.83154 5:0.771792 6:0.697984 7:0.427614 8:0.0451406 
0.2910475771506624 1:-0.0533431 2:-0.490595 3:0.935242 4:0.780616 5:0.799368 6:0.571159 7:0.609262 8:0.193575 
32 1:0.0514056 2:-0.394088 3:1 4:0.727934 5:0.798759 6:0.47349 7:0.556023 8:0.174296 
12.24031502556896 1:0.116403 2:-0.301724 3:0.958133 4:0.599151 5:0.751924 6:0.286927 7:0.287608 8:0.0764237 
-32 1:0.194012 2:-0.209733 3:0.95436 4:0.62569 5:0.730268 6:0.361406 7:0.430085 8:0.158416 
-32 1:0.272528 2:-0.11783 3:0.953478 4:0.718312 5:0.749223 6:0.512537 7:0.511501 8:0.210345 
-32 1:0.354905 2:-0.0250964 3:0.961871 4:0.873723 5:0.817889 6:0.723694 7:0.600643 8:0.272676 
28.7246126839703 1:0.447458 2:0.0706751 3:0.992565 4:0.810367 5:0.840825 6:0.578995 7:0.697306 8:0.352215 
-6.447870481760117 1:0.506477 2:0.161056 3:0.938099 4:0.708175 5:0.819273 6:0.412984 7:0.496229 8:0.27711 
-24.91751682465226 1:0.518324 2:0.236124 3:0.783367 4:0.406147 5:0.696017 6:-0.00911243 7:0.0670991 8:0.0926431 
2.338211903388839 1:0.513305 2:0.295008 3:0.619836 4:0.138964 5:0.517521 6:-0.302567 7:-0.0616842 8:0.0290043 
25.54964083528575 1:0.491082 2:0.336932 3:0.448473 4:-0.126933 5:0.302663 6:-0.551767 7:-0.221159 8:-0.0542637 
-32 1:0.471816 2:0.365978 3:0.318349 4:-0.322269 5:0.0890008 6:-0.670592 7:-0.221159 8:-0.0542637 
-3.705597862600122 1:0.491492 2:0.393804 3:0.306017 4:-0.249191 5:-0.0270943 6:-0.400519 7:0.219568 8:0.116808 
-31.83914556170195 1:0.505048 2:0.419226 3:0.281729 4:-0.200472 5:-0.0869269 6:-0.240686 7:0.219568 8:0.116808 
-32 1:0.521745 2:0.443458 3:0.269699 4:-0.122815 5:-0.0988182 6:-0.0819956 7:0.306477 8:0.154449 
-32 1:0.536667 2:0.466323 3:0.255892 4:0.0569613 5:-0.0419324 6:0.188216 7:0.351605 8:0.174007 
-32 1:0.554073 2:0.488675 3:0.250702 4:0.279216 5:0.0761192 6:0.467347 7:0.442327 8:0.214388 
-32 1:0.565137 2:0.509136 3:0.231604 4:0.427386 5:0.208239 6:0.591953 7:0.442327 8:0.214388 
-32 1:0.579197 2:0.528784 3:0.223385 4:0.587608 5:0.354082 6:0.723267 7:0.542373 8:0.259104 
-32 1:0.579262 2:0.544518 3:0.183832 4:0.632981 5:0.467669 6:0.677256 7:0.249873 8:0.174388 
-32 1:0.576452 2:0.556449 3:0.145416 4:0.642283 5:0.546747 6:0.603611 7:0.249873 8:0.174388 
-32 1:0.571423 2:0.564822 3:0.109452 4:0.583027 5:0.578103 6:0.456878 7:0.249873 8:0.174388 
-32 1:0.568757 2:0.570898 3:0.0862499 4:0.527523 5:0.578996 6:0.352211 7:0.363695 8:0.20675 
32 1:0.576063 2:0.577463 3:0.0911873 4:0.661193 5:0.627782 6:0.545653 7:0.594456 8:0.298419 
28.41299992046731 1:0.591099 2:0.586221 3:0.113352 4:0.717485 5:0.680601 6:0.589972 7:0.720953 8:0.378251 
-32 1:0.563477 2:0.586786 3:0.0305622 4:0.419336 5:0.608324 6:0.116444 7:-0.236195 8:-0.0461702 
-32 1:0.531065 2:0.579679 3:-0.0469575 4:0.150749 5:0.463308 6:-0.218165 7:-0.342775 8:-0.117317 
-32 1:0.527631 2:0.573193 3:-0.040687 4:0.181153 5:0.377592 6:-0.0627386 7:0.0978568 8:0.0780774 
-32 1:0.559075 2:0.575337 3:0.0465195 4:0.423453 5:0.407803 6:0.354921 7:0.441495 8:0.286141 
-32 1:0.581081 2:0.582184 3:0.0940424 4:0.584986 5:0.48618 6:0.566334 7:0.441495 8:0.286141 
-32 1:0.607577 2:0.593841 3:0.142641 4:0.727948 5:0.589971 6:0.713818 7:0.533954 8:0.346806 
23.61060301235748 1:0.613017 2:0.604436 3:0.131902 4:0.737919 5:0.662761 6:0.64866 7:0.261609 8:0.21636 
10.34600573016684 1:0.609989 2:0.612205 3:0.103357 4:0.71612 5:0.703428 6:0.561151 7:0.173857 8:0.173582 
32 1:0.620587 2:0.620892 3:0.11263 4:0.789973 5:0.757165 6:0.637202 7:0.380415 8:0.273557 
30.33686642706232 1:0.676245 2:0.652592 3:0.196499 4:0.754272 5:0.801002 6:0.520088 7:0.599476 8:0.411895 
-32 1:0.681716 2:0.667457 3:0.175061 4:0.605113 5:0.755568 6:0.293865 7:0.374005 8:0.312631 
-32 1:0.677928 2:0.678466 3:0.136095 4:0.434453 5:0.663753 6:0.0808774 7:0.261852 8:0.262702 
-21.23664566479591 1:0.646705 2:0.679992 3:0.0402697 4:0.0781445 5:0.474085 6:-0.366137 7:-0.225994 8:0.000209875 
-32 1:0.606477 2:0.671831 3:-0.0576079 4:-0.280662 5:0.218283 6:-0.741699 7:-0.381806 8:-0.10778 
-32 1:0.539427 2:0.649665 3:-0.199115 4:-0.480838 5:-0.0244205 6:-0.836136 7:-0.641009 8:-0.335559 
-32 1:0.50067 2:0.622894 3:-0.245652 4:-0.508354 5:-0.196142 6:-0.689872 7:-0.322506 8:-0.192804 
-32 1:0.464295 2:0.592994 3:-0.277268 4:-0.553182 5:-0.326785 6:-0.623213 7:-0.364364 8:-0.220841 
-32 1:0.434245 2:0.562066 3:-0.287654 4:-0.557642 5:-0.415488 6:-0.529449 7:-0.364364 8:-0.220841 
-32 1:0.42163 2:0.534382 3:-0.254879 4:-0.456932 5:-0.438315 6:-0.315127 7:-0.0759516 8:-0.103041 
-32 1:0.37832 2:0.502134 3:-0.300989 4:-0.64441 5:-0.521124 6:-0.569885 7:-0.480438 8:-0.33918 
-32 1:0.355954 2:0.47112 3:-0.288527 4:-0.641098 5:-0.575135 6:-0.501536 7:-0.240143 8:-0.225638 
-32 1:0.34216 2:0.443091 3:-0.258356 4:-0.480568 5:-0.553268 6:-0.226957 7:-0.161585 8:-0.188322 
-32 1:0.319058 2:0.415281 3:-0.256152 4:-0.539954 5:-0.5601 6:-0.329982 7:-0.332977 8:-0.278321 
-32 1:0.297018 2:0.387893 3:-0.251886 4:-0.656348 5:-0.606617 6:-0.493777 7:-0.386409 8:-0.307584 
-32 1:0.272016 2:0.360151 3:-0.255454 4:-0.810747 5:-0.693293 6:-0.682317 7:-0.490774 8:-0.366171 
-32 1:0.265204 2:0.33637 3:-0.215444 4:-0.704217 5:-0.71267 6:-0.461099 7:-0.153037 8:-0.226513 
-32 1:0.260586 2:0.316267 3:-0.178267 4:-0.633197 5:-0.699984 6:-0.343089 7:-0.153037 8:-0.226513 
-32 1:0.249649 2:0.297635 3:-0.163417 4:-0.667308 5:-0.703824 6:-0.402362 7:-0.325152 8:-0.299357 
-32 1:0.246021 2:0.281883 3:-0.134312 4:-0.562044 5:-0.668435 6:-0.246541 7:-0.183876 8:-0.24565 
-32 1:0.256251 2:0.271667 3:-0.0783716 4:-0.235858 5:-0.527244 6:0.200022 7:0.154247 8:-0.0948116 
-32 1:0.261042 2:0.264611 3:-0.0464374 4:-0.103737 5:-0.385485 6:0.283565 7:0.0257025 8:-0.140754 
-32 1:0.269606 2:0.260964 3:-0.0119969 4:0.133683 5:-0.205384 6:0.519596 7:0.140023 8:-0.0888244 
-32 1:0.276985 2:0.259767 3:0.0127608 4:0.291962 5:-0.0282533 6:0.611274 7:0.140023 8:-0.0888244 
-32 1:0.263124 2:0.255577 3:-0.017483 4:-0.0825363 5:-0.0451811 6:-0.0685192 7:-0.431268 8:-0.324924 
-32 1:0.232781 2:0.245149 3:-0.0805188 4:-0.428206 5:-0.181088 6:-0.557544 7:-0.664444 8:-0.489579 
-32 1:0.193914 2:0.227742 3:-0.151031 4:-0.573315 5:-0.324007 6:-0.664005 7:-0.770642 8:-0.589799 
-32 1:0.124542 2:0.197638 3:-0.279326 4:-0.726946 5:-0.474674 6:-0.77746 7:-0.901126 8:-0.757699 
-32 1:0.068467 2:0.160478 3:-0.350629 4:-0.699689 5:-0.565292 6:-0.622268 7:-0.909459 8:-0.770495 
-32 1:0.0355847 2:0.123081 3:-0.353018 4:-0.636339 5:-0.602865 6:-0.460734 7:-0.681078 8:-0.654987 
-32 1:0.037429 2:0.0935936 3:-0.273097 4:-0.458571 5:-0.563824 6:-0.173734 7:-0.16055 8:-0.359368 
-32 1:0.0502788 2:0.0730004 3:-0.183227 4:-0.294881 5:-0.478783 6:0.0340362 7:-0.0279297 8:-0.275017 
-32 1:0.0675595 2:0.0605559 3:-0.10089 4:-0.108951 5:-0.355057 6:0.238809 7:0.0405921 8:-0.232528 
-32 1:0.0881147 2:0.055394 3:-0.0273036 4:0.0753473 5:-0.20613 6:0.411529 7:0.114386 8:-0.188521 
-32 1:0.106956 2:0.0556585 3:0.0275265 4:0.340348 5:-0.0113064 6:0.682117 7:0.114386 8:-0.188521 
-32 1:0.148511 2:0.0655612 3:0.124915 4:0.621746 5:0.220026 6:0.941302 7:0.485433 8:0.0600726 
-2.210584859884682 1:0.175026 2:0.0796671 3:0.167385 4:0.720727 5:0.409932 6:0.90755 7:0.256563 8:-0.0280166 
-11.53201049194851 1:0.197547 2:0.0962038 3:0.191947 4:0.747327 5:0.546127 6:0.800467 7:0.256563 8:-0.0280166 
-32 1:0.2005 2:0.110122 3:0.165487 4:0.557053 5:0.568325 6:0.419632 7:-0.159237 8:-0.199449 
-0.9311734859527241 1:0.188088 2:0.118362 3:0.108113 4:0.238197 5:0.468169 6:-0.0604737 7:-0.41339 8:-0.338004 
-32 1:0.175917 2:0.122115 3:0.062779 4:-0.0223764 5:0.307456 6:-0.362052 7:-0.465631 8:-0.369705 
-32 1:0.172162 2:0.124242 3:0.0463455 4:-0.269941 5:0.111062 6:-0.598274 7:-0.330144 8:-0.313758 
-32 1:0.154818 2:0.121899 3:0.0011769 4:-0.462786 5:-0.0893925 6:-0.727648 7:-0.55911 8:-0.444569 
-32 1:0.147251 2:0.11826 3:-0.0119184 4:-0.511032 5:-0.240423 6:-0.643908 7:-0.418943 8:-0.385439 
-32 1:0.127204 2:0.110673 3:-0.0518027 4:-0.673447 5:-0.399663 6:-0.763897 7:-0.61603 8:-0.50545 
-32 1:0.11379 2:0.101475 3:-0.0680825 4:-0.566136 5:-0.467136 6:-0.485866 7:-0.61603 8:-0.50545 
-32 1:0.117859 2:0.0950664 3:-0.039905 4:-0.398592 5:-0.451715 6:-0.190771 7:-0.185283 8:-0.317658 
-32 1:0.11131 2:0.0884118 3:-0.0423865 4:-0.315529 5:-0.411488 6:-0.081972 7:-0.402508 8:-0.420821 
-32 1:0.0843795 2:0.0768076 3:-0.0923986 4:-0.498197 5:-0.450525 6:-0.378126 7:-0.653214 8:-0.579296 
-32 1:0.0660596 2:0.0632519 3:-0.112118 4:-0.619976 5:-0.520455 6:-0.525031 7:-0.653214 8:-0.579296 
-32 1:0.0466039 2:0.04787 3:-0.13057 4:-0.665231 5:-0.58339 6:-0.537098 7:-0.720169 8:-0.626491 
-32 1:0.0345706 2:0.0327582 3:-0.127841 4:-0.681134 5:-0.63108 6:-0.511904 7:-0.720169 8:-0.626491 
-32 1:0.0608517 2:0.0267978 3:-0.035372 4:-0.22382 5:-0.498001 6:0.188843 7:0.157967 8:-0.163582 
-32 1:0.0844897 2:0.0275422 3:0.0323752 4:0.0810571 5:-0.299367 6:0.529502 7:0.157967 8:-0.163582 
-32 1:0.0855614 2:0.0283876 3:0.0333962 4:0.010012 5:-0.192558 6:0.273913 7:-0.245388 8:-0.343922 
-32 1:0.0932121 2:0.0308481 3:0.0497163 4:0.0175079 5:-0.118649 6:0.202845 7:-0.149763 8:-0.292216 
-32 1:0.114021 2:0.0376693 3:0.0937781 4:0.278515 5:0.0247217 6:0.525193 7:0.107285 8:-0.145331 
-32 1:0.13681 2:0.0484411 3:0.133696 4:0.580524 5:0.229183 6:0.853791 7:0.183357 8:-0.0990608 
-32 1:0.160893 2:0.0626748 3:0.168676 4:0.628258 5:0.3827 6:0.766232 7:0.26197 8:-0.0518458 
-32 1:0.193803 2:0.081737 3:0.217465 4:0.59425 5:0.472784 6:0.599049 7:0.457726 8:0.0799093 
-32 1:0.225166 2:0.104301 3:0.252847 4:0.60815 5:0.537851 6:0.550115 7:0.511693 8:0.120702 
-32 1:0.263048 2:0.131186 3:0.296517 4:0.723478 5:0.622808 6:0.66768 7:0.6444 8:0.233919 
-27.86940820517954 1:0.309652 2:0.163564 3:0.352004 4:0.877167 5:0.734854 6:0.825693 7:0.755257 8:0.356641 
-32 1:0.326151 2:0.193313 3:0.325454 4:0.766284 5:0.769575 6:0.578687 7:0.162475 8:0.0796796 
-32 1:0.335057 2:0.219189 3:0.286319 4:0.649694 5:0.75069 6:0.382723 7:0.0703641 8:0.0312911 
-32 1:0.341957 2:0.2415 3:0.250285 4:0.539966 5:0.69854 6:0.237856 7:0.0703641 8:0.0312911 
-32 1:0.367432 2:0.265289 3:0.265232 4:0.706823 5:0.723929 6:0.520196 7:0.415811 8:0.218753 
-32 1:0.403127 2:0.292645 3:0.301268 4:0.722058 5:0.746348 6:0.52284 7:0.57408 8:0.333415 
-32 1:0.426194 2:0.319909 3:0.300343 4:0.671412 5:0.743034 6:0.432086 7:0.446964 8:0.274714 
-32 1:0.459332 2:0.349449 3:0.323332 4:0.680765 5:0.744198 6:0.448212 7:0.60221 8:0.382261 
-32 1:0.491891 2:0.380674 3:0.340361 4:0.767846 5:0.776368 6:0.573786 7:0.661584 8:0.429277 
-32 1:0.531717 2:0.414941 3:0.371107 4:0.871835 5:0.835305 6:0.700124 7:0.753548 8:0.51184 
21.33287057614084 1:0.612945 2:0.488619 3:0.424254 4:0.978777 5:0.94032 6:0.778942 7:0.866726 8:0.640317 
-3.995909075840427 1:0.63453 2:0.525275 3:0.395238 4:0.905138 5:0.956613 6:0.62269 7:0.438278 8:0.410008 
-32 1:0.647951 2:0.557729 3:0.352788 4:0.815409 5:0.935125 6:0.479876 7:0.438278 8:0.410008 
-32 1:0.735728 2:0.604164 3:0.494043 4:0.938454 5:0.96516 6:0.67506 7:0.795161 8:0.669921 
-8.88906586753124 1:0.855938 2:0.711782 3:0.576274 4:0.895386 5:0.981625 6:0.575692 7:0.811962 8:0.686138 
8.140520725985935 1:0.906875 2:0.767319 3:0.586021 4:0.949103 5:1 6:0.654847 7:0.846852 8:0.71849 
4.629510819963904 1:0.992035 2:0.876387 3:0.561351 4:0.814989 5:0.950798 6:0.461052 7:0.882593 8:0.754428 
-6.169666321265803 1:1 2:0.955486 3:0.385003 4:0.651893 5:0.830241 6:0.295268 7:0.525861 8:0.569895 
-20.41903968648706 1:0.983161 2:0.980073 3:0.273292 4:0.445428 5:0.717491 6:0.0395201 7:0.236321 8:0.418179 
15.58874758241867 1:0.966549 2:0.995868 3:0.18446 4:0.192581 5:0.551168 6:-0.241176 7:0.290485 8:0.436431 
10.65207712565185 1:0.93008 2:1 3:0.0666006 4:-0.0985028 5:0.335343 6:-0.536295 7:-0.0616096 8:0.240458 
-12.25577993505725 1:0.906784 2:0.997872 3:0.00335657 4:-0.18284 5:0.161055 6:-0.493176 7:0.147593 8:0.310741 
11.86964012099257 1:0.87385 2:0.98849 3:-0.0699532 4:-0.312211 5:-0.00177822 6:-0.547329 7:-0.0219645 8:0.216069 
-2.661664841224951 1:0.849919 2:0.975403 3:-0.107383 4:-0.245309 5:-0.0862142 6:-0.325227 7:0.131218 8:0.268225 
-22.73568922104682 1:0.853542 2:0.965778 3:-0.0723987 4:0.180106 5:0.0108668 6:0.357388 7:0.475299 8:0.418643 
32 1:0.842304 2:0.955457 3:-0.0794303 4:0.207707 5:0.085538 6:0.322982 7:0.285731 8:0.321625 
-5.033725126865064 1:0.795203 2:0.92612 3:-0.144062 4:0.097569 5:0.123992 6:0.073071 7:-8.5529e-05 8:0.174701 
-6.58918667567814 1:0.771682 2:0.907261 3:-0.165705 4:0.0758792 5:0.113428 6:0.0447294 7:0.0868521 8:0.20481 
-5.629424110104309 1:0.744156 2:0.885755 3:-0.192458 4:0.000785429 5:0.0793124 6:-0.0562231 7:-0.0250125 8:0.151442 
32 1:0.697623 2:0.857697 3:-0.258646 4:-0.372658 5:-0.0780658 6:-0.572395 7:-0.416081 8:-0.082798 
