svm_type epsilon_svr
kernel_type rbf
gamma 1
nr_class 2
total_sv 283
rho -178.944
SV
-47.00772868616698 1:-0.0253681 2:0.0148019 3:-0.142183 4:-0.487213 5:-0.364568 6:-0.595958 7:-1 8:-1 
250.2773087120007 1:-0.0225767 2:0.0117526 3:-0.126637 4:-0.480408 5:-0.471848 6:-0.461073 7:-0.582426 8:-0.623203 
-539.1403970477222 1:-0.0320437 2:0.00244298 3:-0.131168 4:-0.385572 5:-0.51731 6:-0.231221 7:0.093819 8:0.102827 
-551.3070890909974 1:-0.011874 2:0.00743212 3:-0.0851089 4:-0.0638218 5:-0.335352 6:0.165936 7:0.176543 8:0.189722 
-1024 1:0.0236507 2:0.0197428 3:-0.0126262 4:0.100046 5:-0.196223 6:0.315331 7:0.502965 8:0.51143 
136.0485083744428 1:0.113051 2:0.0752959 3:0.109518 4:0.540975 5:0.213624 6:0.676931 7:0.55208 8:0.622513 
-220.3434884634329 1:-0.210497 2:0.0087612 3:-0.662427 4:-0.692389 5:-0.357907 6:-0.988869 7:-0.631298 8:-0.346514 
-496.537744952861 1:-0.26895 2:-0.0496493 3:-0.688119 4:-0.797801 5:-0.540475 6:-0.979039 7:-0.554055 8:-0.303499 
-924.4039351356698 1:-0.294736 2:-0.102336 3:-0.633439 4:-0.807823 5:-0.665862 6:-0.855147 7:-0.317654 8:-0.174324 
-634.8920009710512 1:-0.21722 2:-0.126015 3:-0.351334 4:-0.373306 5:-0.590128 6:-0.125304 7:0.388108 8:0.333352 
872.0479365316459 1:-0.0081786 2:-0.0874338 3:0.15822 4:0.49254 5:0.13139 6:0.679565 7:0.503138 8:0.43693 
-79.81690725073189 1:0.00345299 2:-0.0619366 3:0.129309 4:0.469863 5:0.250539 6:0.501362 7:0.102462 8:0.24223 
1024 1:-0.0106045 2:-0.0126864 3:-0.032101 4:-0.0289793 5:0.080887 6:-0.242389 7:0.167307 8:0.258006 
1024 1:0.0382225 2:0.00603269 3:0.0631115 4:0.319796 5:0.161845 6:0.32048 7:0.427401 8:0.420886 
-1024 1:0.460712 2:0.266032 3:0.646566 4:0.809619 5:0.603885 6:0.737262 7:0.757918 8:0.805251 
-135.3283503423389 1:0.60259 2:0.488848 3:0.510186 4:0.503008 5:0.615356 6:0.148377 7:0.234811 8:0.454305 
-1024 1:0.610527 2:0.542148 3:0.402413 4:0.431414 5:0.559085 6:0.0779679 7:0.234811 8:0.454305 
-402.5338443834369 1:0.497417 2:0.58497 3:-0.0295129 4:0.0611259 5:0.322469 6:-0.348134 7:-0.212775 8:0.185543 
-1024 1:0.477421 2:0.58767 3:-0.0939281 4:-0.0438172 5:0.189573 6:-0.393961 7:0.0794449 8:0.320532 
-1024 1:0.568183 2:0.618487 3:0.0928166 4:0.284071 5:0.176635 6:0.236555 7:0.481851 8:0.555 
-1024 1:0.637513 2:0.675369 3:0.153694 4:0.63532 5:0.418148 6:0.621327 7:0.518857 8:0.598218 
-547.8259173382162 1:0.743501 2:0.746562 3:0.285427 4:0.840778 5:0.652585 6:0.74035 7:0.522677 8:0.618189 
-428.1319556197396 1:0.723209 2:0.774877 3:0.157339 4:0.692936 5:0.679797 6:0.431724 7:0.108327 8:0.375408 
-867.3786711549124 1:0.649453 2:0.791302 3:-0.0961091 4:0.346789 5:0.534143 6:-0.0525727 7:0.0437749 8:0.334947 
-97.32059735140098 1:0.471805 2:0.728238 3:-0.454888 4:-0.246789 5:0.08803 6:-0.659575 7:-0.366022 8:0.110397 
-1024 1:0.346216 2:0.576433 3:-0.445577 4:-0.0936583 5:-0.24385 6:0.00575454 7:0.198297 8:0.328533 
-290.4048466036855 1:0.338612 2:0.548123 3:-0.398125 4:0.160835 5:-0.112933 6:0.334695 7:0.198297 8:0.328533 
-409.8706367427766 1:0.305566 2:0.483341 3:-0.334763 4:0.428962 5:0.276772 6:0.39469 7:0.0374446 8:0.272824 
-188.4081858631955 1:0.272364 2:0.458035 3:-0.368663 4:0.26184 5:0.271184 6:0.087188 7:-0.136663 8:0.198576 
-685.0539775763226 1:0.320063 2:0.449033 3:-0.208728 4:0.48869 5:0.350639 6:0.422787 7:0.538277 8:0.532497 
-433.3761514629419 1:0.170921 2:0.366241 3:-0.436737 4:-0.117428 5:0.240094 6:-0.589708 7:-0.458418 8:-0.0668396 
-1024 1:0.0519788 2:0.273867 3:-0.553966 4:-0.358722 5:-0.14342 6:-0.606356 7:-0.0448001 8:0.124467 
461.1261781474885 1:0.215283 2:0.244508 3:-0.00998582 4:0.720412 5:0.373949 6:0.83144 7:0.447093 8:0.454141 
-232.736036538812 1:0.219168 2:0.26573 3:-0.0508036 4:0.699878 5:0.60367 6:0.531408 7:-0.014164 8:0.240935 
299.7412947151048 1:0.521664 2:0.519891 3:0.200165 4:0.668936 5:0.811977 6:0.236204 7:0.0742427 8:0.351179 
66.34896751173596 1:0.469756 2:0.533801 3:0.0160274 4:0.363116 5:0.665123 6:-0.17099 7:-0.0937273 8:0.23139 
239.8766081052891 1:0.408385 2:0.530677 3:-0.153685 4:-0.0218703 5:0.290076 6:-0.467135 7:0.0972742 8:0.324764 
612.9635043158002 1:0.430229 2:0.533113 3:-0.0965262 4:0.143277 5:0.23658 6:-0.0960925 7:0.326561 8:0.450928 
1024 1:0.435963 2:0.536413 3:-0.0880472 4:0.215216 5:0.227294 6:0.049581 7:0.264739 8:0.419821 
1024 1:0.403319 2:0.531359 3:-0.17 4:0.0723776 5:0.168729 6:-0.152017 7:-0.0205452 8:0.268707 
125.4417742190766 1:0.360247 2:0.517164 3:-0.259673 4:-0.0991671 5:0.0667845 6:-0.358153 7:-0.119816 8:0.211404 
127.2614785154338 1:0.294917 2:0.442945 3:-0.266476 4:0.05113 5:-0.103549 6:0.117983 7:0.399315 8:0.455103 
1024 1:0.364234 2:0.447372 3:-0.0769933 4:0.196433 5:-0.00634537 6:0.280233 7:0.543163 8:0.563259 
703.8579668930508 1:0.539876 2:0.514284 3:0.266552 4:0.657172 5:0.338174 6:0.753391 7:0.682394 8:0.684263 
258.5364602662621 1:0.591766 2:0.558073 3:0.309135 4:0.643217 5:0.451959 6:0.597674 7:0.682394 8:0.684263 
34.88106080977389 1:0.979493 2:0.860699 3:0.687582 4:0.97081 5:0.897826 6:0.705425 7:0.970328 8:1 
-48.69158164325385 1:0.903629 2:0.998107 3:0.131339 4:0.27401 5:0.584744 6:-0.246848 7:0.13276 8:0.469957 
-36.0050441306093 1:0.77884 2:0.99074 3:-0.211258 4:-0.0943729 5:0.210511 6:-0.512738 7:0.0445122 8:0.368389 
439.4469682080419 1:0.230026 2:0.599045 3:-0.836841 4:-0.834057 5:-0.788312 6:-0.765044 7:-0.565314 8:-0.115477 
663.9657925500842 1:0.188981 2:0.530944 3:-0.788458 4:-0.611071 5:-0.758943 6:-0.379693 7:-0.0752974 8:0.124143 
142.3030732449866 1:0.20601 2:0.480478 3:-0.615478 4:-0.14107 5:-0.567028 6:0.284553 7:0.23739 8:0.314418 
208.8668261827453 1:0.229798 2:0.445711 3:-0.461466 4:0.0579402 5:-0.366113 6:0.429622 7:0.302959 8:0.357536 
786.0917760324476 1:0.200792 2:0.411061 3:-0.460323 4:-0.0148609 5:-0.258864 6:0.170829 7:-0.029585 8:0.174612 
374.1348358867886 1:0.114973 2:0.302287 3:-0.441599 4:-0.192336 5:-0.241339 6:-0.182424 7:-0.0190421 8:0.163722 
1024 1:0.110256 2:0.274982 3:-0.38827 4:-0.152358 5:-0.226098 6:-0.124692 7:0.0839569 8:0.216641 
1024 1:0.0474301 2:0.23833 3:-0.479962 4:-0.389888 5:-0.303032 6:-0.483216 7:-0.291442 8:0.000882334 
1024 1:0.036159 2:0.206352 3:-0.434114 4:-0.37212 5:-0.347807 6:-0.398885 7:0.014483 8:0.162307 
1024 1:-0.00525969 2:0.171007 3:-0.467142 4:-0.507042 5:-0.427128 6:-0.561991 7:-0.177422 8:0.0494781 
1024 1:-0.044129 2:0.133569 3:-0.48767 4:-0.5939 5:-0.511858 6:-0.628676 7:-0.214566 8:0.027317 
1024 1:0.00938308 2:0.116232 3:-0.290492 4:-0.129623 5:-0.398107 6:0.113787 7:0.331003 8:0.346079 
1024 1:0.0511472 2:0.112206 3:-0.159913 4:0.179896 5:-0.208782 6:0.479586 7:0.331003 8:0.346079 
1024 1:0.0768068 2:0.115034 3:-0.0926861 4:0.346073 5:-0.0216321 6:0.578663 7:0.266574 8:0.31685 
755.388942778991 1:0.0767078 2:0.117272 3:-0.0984622 4:0.393062 5:0.120364 6:0.505291 7:0.0719843 8:0.227969 
416.2914570353291 1:0.117185 2:0.139867 3:-0.0368855 4:0.723568 5:0.533157 6:0.656157 7:0.233495 8:0.309116 
897.3758959811679 1:0.122875 2:0.148021 3:-0.040438 4:0.767435 5:0.627495 6:0.631166 7:0.233495 8:0.309116 
1023.03428499041 1:0.114226 2:0.169297 3:-0.117614 4:0.371767 5:0.606472 6:-0.087988 7:-0.065595 8:0.242021 
1024 1:0.105379 2:0.167441 3:-0.13863 4:0.210664 5:0.47222 6:-0.23774 7:-0.065595 8:0.242021 
448.6442508719052 1:0.12289 2:0.170084 3:-0.0944999 4:0.374619 5:0.442836 6:0.103619 7:0.621268 8:0.474119 
416.1803307811271 1:0.148004 2:0.178117 3:-0.0416177 4:0.636561 5:0.519293 6:0.508534 7:0.745247 8:0.566637 
-59.41030200653409 1:0.280836 2:0.224376 3:0.228846 4:0.758009 5:0.629277 6:0.611435 7:1 8:0.978158 
1024 1:0.329054 2:0.264225 3:0.270479 4:0.701356 5:0.667346 6:0.461709 7:0.467696 8:0.637601 
360.9342709831952 1:0.388725 2:0.310168 3:0.330267 4:0.533042 5:0.631009 6:0.186966 7:0.577851 8:0.722829 
1024 1:0.334625 2:0.334172 3:0.115042 4:0.119573 5:0.455177 6:-0.389416 7:-0.147534 8:0.170991 
1024 1:0.256249 2:0.334901 3:-0.113267 4:-0.187633 5:0.225312 6:-0.704732 7:-0.284577 8:0.0468053 
1024 1:0.166171 2:0.314253 3:-0.322971 4:-0.465122 5:-0.0296785 6:-0.93564 7:-0.383659 8:-0.0433742 
1024 1:0.0936494 2:0.280641 3:-0.450142 4:-0.586911 5:-0.244329 6:-0.920051 7:-0.383659 8:-0.0433742 
1024 1:-0.0285354 2:0.224952 3:-0.666708 4:-0.738296 5:-0.442938 6:-0.978304 7:-0.600038 8:-0.244304 
140.9826145339169 1:-0.213935 2:0.136701 3:-0.986123 4:-0.81327 5:-0.602834 6:-0.937114 7:-0.752249 8:-0.430406 
1024 1:-0.329015 2:-0.0238507 3:-0.924988 4:-0.682733 5:-0.698887 6:-0.582633 7:-0.262172 8:-0.107105 
606.2815660114975 1:-0.395537 2:-0.105145 3:-0.917883 4:-0.644627 5:-0.71163 6:-0.496565 7:-0.281632 8:-0.120989 
-354.0173045894118 1:-0.630709 2:-0.365773 3:-0.958412 4:-0.83859 5:-0.849887 6:-0.703473 7:-0.473612 8:-0.25549 
332.3094808793761 1:-0.804395 2:-0.708945 3:-0.618803 4:-0.548328 5:-0.812066 6:-0.201395 7:-0.408504 8:-0.260562 
528.5345073415303 1:-0.759044 2:-0.7389 3:-0.414268 4:-0.292993 5:-0.658149 6:0.102949 7:0.0724665 8:0.0156892 
1024 1:-0.72134 2:-0.753977 3:-0.268323 4:-0.11856 5:-0.491578 6:0.240951 7:0.02624 8:-0.00485873 
28.9574700312015 1:-0.690059 2:-0.758666 3:-0.166416 4:0.0729467 5:-0.310311 6:0.394292 7:-0.0262258 8:-0.0267361 
120.134460194576 1:-0.664166 2:-0.756314 3:-0.0973486 4:0.171264 5:-0.153416 6:0.400359 7:-0.0847172 8:-0.0499431 
1024 1:-0.58497 2:-0.735765 3:0.0811513 4:0.471637 5:0.0613192 6:0.720063 7:0.350293 8:0.202081 
683.6592897623078 1:-0.471338 2:-0.692543 3:0.30357 4:0.678112 5:0.280184 6:0.858721 7:0.561041 8:0.374875 
1024 1:-0.479784 2:-0.659956 3:0.199243 4:0.445731 5:0.340887 6:0.353207 7:-0.14764 8:0.00424592 
1024 1:-0.487413 2:-0.635684 3:0.117672 4:0.155606 5:0.274974 6:-0.116639 7:-0.176836 8:-0.0142084 
303.3426397902953 1:-0.552134 2:-0.631522 3:-0.0795915 4:-0.0306515 5:0.162738 6:-0.338691 7:-0.423617 8:-0.18136 
820.1447836954005 1:-0.545208 2:-0.62656 3:-0.0717436 4:-0.00590786 5:0.096986 6:-0.217384 7:-0.0780773 8:0.0246066 
1024 1:-0.567553 2:-0.629765 3:-0.128466 4:-0.108716 5:-0.0370372 6:-0.257917 7:-0.110328 8:-0.00015842 
674.9579102700091 1:-0.588904 2:-0.638933 3:-0.167692 4:-0.241275 5:-0.166513 6:-0.359501 7:-0.237431 8:-0.0714659 
1024 1:-0.539066 2:-0.621375 3:-0.0667084 4:-0.529462 5:-0.380025 6:-0.65771 7:-0.385895 8:-0.130036 
1024 1:-0.458367 2:-0.597973 3:0.109136 4:-0.0248669 5:-0.271807 6:0.166769 7:0.457518 8:0.288138 
762.2558731208458 1:-0.537735 2:-0.597959 3:-0.120285 4:-0.308155 5:-0.303536 6:-0.329145 7:-0.419184 8:-0.213905 
1024 1:-0.567175 2:-0.604556 3:-0.189197 4:-0.368523 5:-0.344905 6:-0.395433 7:-0.226211 8:-0.0800716 
1024 1:-0.649417 2:-0.629549 3:-0.365597 4:-0.622058 5:-0.467367 6:-0.732197 7:-0.418995 8:-0.220069 
158.3557419165827 1:-0.757901 2:-0.675114 3:-0.567392 4:-0.753852 5:-0.597333 6:-0.831786 7:-0.534877 8:-0.313001 
32.30697708330072 1:-0.825149 2:-0.809291 3:-0.432699 4:-0.63141 5:-0.744516 6:-0.434311 7:-0.0444835 8:-0.0359966 
-327.1954580546584 1:-0.696224 2:-0.818082 3:-0.0385219 4:-0.186042 5:-0.450067 6:0.0669682 7:0.0428383 8:0.0162797 
-191.0399702113726 1:-0.732435 2:-0.819938 3:-0.138626 4:-0.378294 5:-0.448093 6:-0.296334 7:-0.455291 8:-0.219136 
39.33989076700853 1:-0.645765 2:-0.810917 3:0.0897432 4:-0.104504 5:-0.368379 6:0.127125 7:0.372807 8:0.198609 
287.6334525116536 1:-0.476461 2:-0.753872 3:0.439167 4:0.275892 5:-0.153764 6:0.597251 7:0.709627 8:0.531111 
524.633534746636 1:-0.376987 2:-0.68479 3:0.557249 4:0.405728 5:0.03692 6:0.624054 7:0.378728 8:0.362297 
-48.99748682443235 1:-0.114408 2:-0.505502 3:0.876465 4:0.694808 5:0.386032 6:0.769602 7:0.684998 8:0.633776 
470.3967897698207 1:0.196785 2:0.0409859 3:0.435669 4:0.28937 5:0.382736 6:0.011922 7:0.310799 8:0.422917 
242.4631427826919 1:0.189197 2:0.0845481 3:0.306905 4:0.107277 5:0.285153 6:-0.218989 7:0.0146921 8:0.277757 
1024 1:0.200315 2:0.122018 3:0.247146 4:0.114897 5:0.222892 6:-0.133813 7:0.168236 8:0.348657 
1024 1:0.168142 2:0.144411 3:0.0992428 4:-0.108981 5:0.0992949 6:-0.413587 7:-0.142387 8:0.181467 
378.8254106747867 1:0.128115 2:0.152891 3:-0.037237 4:-0.334551 5:-0.0658133 6:-0.649293 7:-0.227924 8:0.129603 
173.4359689091952 1:0.0438457 2:0.139813 3:-0.248718 4:-0.59941 5:-0.273002 6:-0.910889 7:-0.484832 8:-0.0548078 
-100.2401391073048 1:0.0136208 2:0.102638 3:-0.244907 4:-0.426069 5:-0.454993 6:-0.378206 7:0.0961032 8:0.233106 
-585.3388501090996 1:0.149136 2:0.135513 3:0.0661354 4:0.276547 5:-0.04945 6:0.479751 7:0.294891 8:0.368918 
1024 1:0.240385 2:0.240461 3:0.0724878 4:0.40677 5:0.345558 6:0.274721 7:0.146325 8:0.314811 
709.9293824112739 1:0.28884 2:0.267614 3:0.145941 4:0.594395 5:0.43898 6:0.520757 7:0.368487 8:0.440591 
1024 1:0.317033 2:0.295982 3:0.157855 4:0.603504 5:0.504602 6:0.463173 7:0.312394 8:0.414356 
1024 1:0.322605 2:0.31999 3:0.115084 4:0.502954 5:0.51148 6:0.266507 7:0.190408 8:0.359344 
1024 1:0.238514 2:0.338494 3:-0.173336 4:0.00963677 5:0.356832 6:-0.483945 7:-0.37456 8:0.0115937 
517.8754035710749 1:-0.0246742 2:0.194007 3:-0.57966 4:-0.698949 5:-0.462425 6:-0.882226 7:-0.374893 8:-0.050395 
888.0555471210936 1:-0.107469 2:-0.0236013 3:-0.28529 4:-0.015477 5:-0.399203 6:0.329404 7:0.216091 8:0.246294 
499.3476702340541 1:0.00138028 2:-0.0134237 3:0.00434525 4:0.637812 5:0.132912 6:0.950661 7:0.453276 8:0.397197 
1024 1:0.299428 2:0.106181 3:0.572441 4:0.837307 5:0.54902 6:0.851709 7:0.769808 8:0.690073 
542.5631316011813 1:0.546891 2:0.294969 3:0.824672 4:0.939402 5:0.799847 6:0.757959 7:0.652935 8:0.689683 
250.3482068387769 1:0.557203 2:0.374475 3:0.659496 4:0.776857 5:0.808743 6:0.442566 7:0.187971 8:0.439293 
1024 1:0.521571 2:0.518279 3:0.20385 4:0.388887 5:0.599742 6:-0.0481757 7:0.0157109 8:0.334363 
44.78585432741897 1:0.569591 2:0.586365 3:0.175663 4:0.284709 5:0.471854 6:-0.0982638 7:0.185244 8:0.41555 
1024 1:0.549164 2:0.624904 3:0.0221107 4:0.0589173 5:0.263424 6:-0.285077 7:0.10983 8:0.376649 
1024 1:0.495181 2:0.623804 3:-0.131211 4:-0.222619 5:0.0846481 6:-0.610334 7:-0.135712 8:0.239492 
180.4634602342827 1:0.530708 2:0.631298 3:-0.046911 4:0.0857637 5:0.0785396 6:-0.0242249 7:0.370498 8:0.496883 
689.4413304776489 1:0.578137 2:0.648472 3:0.048051 4:0.374609 5:0.180379 6:0.402327 7:0.468061 8:0.560363 
160.2658312967256 1:0.647201 2:0.67849 3:0.174042 4:0.636554 5:0.344319 6:0.707675 7:0.593139 8:0.648254 
407.1802114442726 1:0.668183 2:0.70745 3:0.163663 4:0.487406 5:0.398924 6:0.365417 7:0.35948 8:0.528476 
434.5425696523149 1:0.745498 2:0.785989 3:0.194509 4:0.537538 5:0.53282 6:0.307169 7:0.101022 8:0.380567 
468.1365567692612 1:0.831633 2:0.859862 3:0.262288 4:0.821925 5:0.682162 6:0.671279 7:0.398277 8:0.566494 
8.658419204333535 1:0.863293 2:0.945131 3:0.144681 4:0.861524 5:0.80865 6:0.601681 7:0.426947 8:0.576592 
179.8587374375005 1:0.829104 2:0.958692 3:0.0126088 4:0.562978 5:0.736188 6:0.123473 7:0.0935562 8:0.386492 
14.77978432108654 1:0.779965 2:0.957959 3:-0.127613 4:0.297582 5:0.590567 6:-0.209207 7:0.019146 8:0.341559 
-3.540205131654123 1:0.687553 2:0.935591 3:-0.339846 4:-0.111623 5:0.343443 6:-0.696438 7:-0.214648 8:0.191405 
61.71189635316077 1:0.480455 2:0.833369 3:-0.687711 4:-0.507306 5:-0.134259 6:-0.895829 7:-0.34816 8:0.0942072 
75.2106392703471 1:0.387895 2:0.765289 3:-0.788266 4:-0.6637 5:-0.342206 6:-0.952861 7:-0.410767 8:0.0518314 
-235.8689214019374 1:0.240232 2:0.676019 3:-0.996115 4:-0.799763 5:-0.530727 6:-0.99382 7:-0.645109 8:-0.149463 
206.633343810964 1:0.247407 2:0.425046 3:-0.359894 4:0.414141 5:-0.010728 6:0.694086 7:0.27293 8:0.332274 
571.2651464127669 1:-0.0333023 2:0.272676 3:-0.797524 4:-0.43317 5:-0.15901 6:-0.728427 7:-0.535019 8:-0.161939 
-147.9282470503564 1:-0.0635048 2:0.210338 3:-0.731936 4:-0.401987 5:-0.262743 6:-0.551795 7:-0.071232 8:0.0812597 
1024 1:-0.147089 2:0.0953221 3:-0.691446 4:-0.542785 5:-0.43098 6:-0.624734 7:-0.263547 8:-0.0294415 
1024 1:-0.18657 2:0.000553379 3:-0.573144 4:-0.579045 5:-0.541993 6:-0.566478 7:-0.170732 8:0.0160553 
1024 1:-0.240742 2:-0.0491359 3:-0.607853 4:-0.703699 5:-0.628695 6:-0.701901 7:-0.331809 8:-0.0768872 
1024 1:-0.293344 2:-0.101286 3:-0.631991 4:-0.781909 5:-0.715173 6:-0.750354 7:-0.390959 8:-0.11295 
1024 1:-0.307446 2:-0.216043 3:-0.391317 4:-0.46836 5:-0.683194 6:-0.197894 7:0.109557 8:0.114366 
1024 1:-0.350938 2:-0.248387 3:-0.437699 4:-0.650457 5:-0.703306 6:-0.516987 7:-0.326759 8:-0.103771 
1024 1:-0.323248 2:-0.267735 3:-0.310221 4:-0.361078 5:-0.610607 6:-0.0790308 7:0.103017 8:0.140955 
1024 1:-0.336471 2:-0.28633 3:-0.302834 4:-0.413577 5:-0.568058 6:-0.226056 7:-0.121514 8:0.0175625 
287.0535475975377 1:-0.347949 2:-0.353829 3:-0.170473 4:-0.421516 5:-0.684335 6:-0.10862 7:0.214889 8:0.182514 
1024 1:-0.212762 2:-0.316027 3:0.127537 4:0.0832375 5:-0.307227 6:0.410108 7:0.439785 8:0.334247 
1024 1:-0.191798 2:-0.290864 3:0.126418 4:0.00619735 5:-0.211885 6:0.156906 7:0.0849682 8:0.184094 
1024 1:-0.224637 2:-0.278474 3:0.0011207 4:-0.335902 5:-0.273762 6:-0.415144 7:-0.273236 8:-0.0133103 
1024 1:-0.318529 2:-0.290692 3:-0.24028 4:-0.600311 5:-0.411964 6:-0.754414 7:-0.536339 8:-0.213606 
704.9164749632532 1:-0.391405 2:-0.330181 3:-0.354063 4:-0.70766 5:-0.605847 6:-0.735344 7:-0.31327 8:-0.101669 
362.6699116075587 1:-0.594967 2:-0.469545 3:-0.60062 4:-0.897477 5:-0.88284 6:-0.776557 7:-0.687291 8:-0.36886 
475.1986363393849 1:-0.894968 2:-0.791705 3:-0.677615 4:-0.65409 5:-0.811534 6:-0.400626 7:-0.409242 8:-0.294483 
57.3692860058457 1:-0.904706 2:-0.839441 3:-0.588693 4:-0.621638 5:-0.778299 6:-0.377508 7:-0.295007 8:-0.228652 
13.9973938400466 1:-0.927777 2:-0.883068 3:-0.548383 4:-0.689043 5:-0.780858 6:-0.501184 7:-0.408799 8:-0.290249 
70.89681611752737 1:-0.969765 2:-0.962058 3:-0.476021 4:-0.853199 5:-0.879751 6:-0.696916 7:-0.429165 8:-0.30959 
376.2398409018061 1:-0.914322 2:-0.999195 3:-0.224705 4:-0.520826 5:-0.777704 6:-0.188855 7:-0.0199699 8:-0.108732 
465.4808191139779 1:-0.794675 2:-0.980142 3:0.0743735 4:-0.0632032 5:-0.493428 6:0.347018 7:0.324128 8:0.130741 
78.06238759274902 1:-0.72395 2:-0.947586 3:0.198942 4:0.184007 5:-0.270821 6:0.557921 7:0.249365 8:0.10252 
-36.85790016435826 1:-0.711738 2:-0.918663 3:0.163304 4:0.0274711 5:-0.179814 6:0.160356 7:-0.201491 8:-0.0976673 
-373.2603212159644 1:-0.713387 2:-0.895913 3:0.102746 4:-0.19739 5:-0.201593 6:-0.237155 7:-0.317022 8:-0.161132 
630.5467244801041 1:-0.679077 2:-0.845874 3:0.0791918 4:-0.272854 5:-0.354845 6:-0.204449 7:0.101488 8:0.0753036 
1024 1:-0.639619 2:-0.841337 3:0.182109 4:0.460181 5:0.175849 6:0.568191 7:0.135941 8:0.132506 
1024 1:-0.513782 2:-0.754646 3:0.333202 4:0.630396 5:0.441966 6:0.58497 7:0.210809 8:0.181978 
471.6015315494519 1:-0.564619 2:-0.729635 3:0.124935 4:0.0802308 5:0.314723 6:-0.303438 7:-0.393717 8:-0.148554 
-945.9422484989387 1:-0.620715 2:-0.705086 3:-0.0973964 4:-0.308346 5:-0.165991 6:-0.486057 7:-0.275151 8:-0.103554 
-208.8651594790209 1:-0.646406 2:-0.709264 3:-0.161404 4:-0.476672 5:-0.294782 6:-0.655592 7:-0.363529 8:-0.157112 
-190.3397547401895 1:-0.694629 2:-0.734141 3:-0.239768 4:-0.748054 5:-0.642894 6:-0.76904 7:-0.498556 8:-0.239457 
-1024 1:-0.699877 2:-0.745111 3:-0.228035 4:-0.714407 5:-0.699888 6:-0.640979 7:-0.399685 8:-0.198491 
-205.6224064312295 1:-0.702493 2:-0.754503 3:-0.212559 4:-0.732144 5:-0.744388 6:-0.62364 7:-0.443414 8:-0.220258 
-1024 1:-0.632346 2:-0.745484 3:-0.031942 4:-0.342289 5:-0.631106 6:-0.0204122 7:0.280007 8:0.153262 
-1024 1:-0.544538 2:-0.717571 3:0.153387 4:-0.0148303 5:-0.435514 6:0.371948 7:0.432898 8:0.26888 
-811.2071227056418 1:-0.450318 2:-0.673033 3:0.316476 4:0.307547 5:-0.186914 6:0.694431 7:0.530959 8:0.349921 
557.8572597991172 1:-0.219669 2:-0.447145 3:0.429128 4:0.333897 5:0.251397 6:0.245036 7:0.287695 8:0.292849 
-142.0009876620247 1:-0.222643 2:-0.403029 3:0.31234 4:0.139757 5:0.209504 6:-0.0718851 7:-0.178142 8:0.0772284 
610.2906913227455 1:-0.179852 2:-0.293478 3:0.167354 4:-0.273669 5:-0.0379495 6:-0.566669 7:-0.186502 8:0.0479381 
-1024 1:-0.215249 2:-0.260138 3:-0.0167118 4:-0.43303 5:-0.260653 6:-0.612474 7:-0.273433 8:-0.0170208 
-963.2946210864663 1:-0.283224 2:-0.267702 3:-0.194622 4:-0.636796 5:-0.416603 6:-0.817655 7:-0.470074 8:-0.166289 
-1024 1:-0.307609 2:-0.279501 3:-0.236165 4:-0.366936 5:-0.42162 6:-0.305136 7:-0.219853 8:-0.0293336 
-866.5649800324613 1:-0.30399 2:-0.288087 3:-0.204649 4:-0.142135 5:-0.342536 6:0.0270373 7:-0.0491916 8:0.0676527 
-546.9705165122651 1:-0.290943 2:-0.29983 3:-0.138141 4:0.16055 5:-0.0408635 6:0.252131 7:0.00747114 8:0.0980519 
256.9150978344882 1:-0.213343 2:-0.282985 3:0.0448244 4:0.427484 5:0.120164 6:0.570163 7:0.437871 8:0.382267 
-1024 1:-0.19514 2:-0.265218 3:0.0538637 4:0.489301 5:0.250183 6:0.538274 7:0.0627747 8:0.180466 
167.4804958868224 1:-0.037158 2:-0.187184 3:0.319092 4:0.819947 5:0.566517 6:0.799191 7:0.4351 8:0.447685 
175.1674567715448 1:-0.0276167 2:-0.149092 3:0.25325 4:0.660878 5:0.610663 6:0.450205 7:0.0490435 8:0.228562 
708.0656923791867 1:-0.0584275 2:-0.12588 3:0.107277 4:0.391291 5:0.541244 6:0.0229209 7:-0.162238 8:0.0909552 
247.8277165422274 1:-0.120502 2:-0.121942 3:-0.0817889 4:0.00189857 5:0.352186 6:-0.49319 7:-0.330729 8:-0.0297891 
1024 1:-0.206364 2:-0.139029 3:-0.288041 4:-0.279711 5:0.122889 6:-0.761081 7:-0.465183 8:-0.136035 
-21.27315698444728 1:-0.522096 2:-0.268476 3:-0.883108 4:-0.481766 5:-0.266894 6:-0.696899 7:-0.716936 8:-0.390223 
-944.2403659520851 1:-0.572918 2:-0.342654 3:-0.84808 4:-0.342831 5:-0.312975 6:-0.383524 7:-0.25631 8:-0.122717 
548.3114928436972 1:-0.61911 2:-0.412885 3:-0.809352 4:-0.271706 5:-0.317616 6:-0.244666 7:-0.301228 8:-0.151048 
-88.96724259505623 1:-0.57479 2:-0.503017 3:-0.460219 4:0.0142492 5:-0.187545 6:0.144324 7:0.108861 8:0.0945023 
221.2394419412891 1:-0.270494 2:-0.439916 3:0.264504 4:0.496174 5:0.179891 6:0.631185 7:0.218446 8:0.292751 
206.4226971229902 1:-0.00464011 2:-0.213728 3:0.47817 4:0.638015 5:0.563898 6:0.460495 7:0.292026 8:0.361419 
1024 1:0.0504633 2:-0.151923 3:0.485859 4:0.65952 5:0.60842 6:0.450208 7:0.292026 8:0.361419 
-259.7525727477025 1:0.27289 2:-0.050052 3:0.878887 4:0.796565 5:0.688351 6:0.616608 7:0.712346 8:0.6899 
-230.0887747094764 1:0.590577 2:0.286679 3:0.971264 4:0.806557 5:0.799239 6:0.50916 7:0.513056 8:0.58476 
41.2965050653135 1:0.482951 2:0.350341 3:0.50408 4:0.298311 5:0.632869 6:-0.255985 7:-0.228993 8:0.133026 
-897.2927274591984 1:0.418769 2:0.386143 3:0.23078 4:0.0377572 5:0.426418 6:-0.510336 7:-0.116651 8:0.191482 
-527.3770324738875 1:0.389354 2:0.407852 3:0.0925294 4:-0.0576697 5:0.253793 6:-0.493071 7:-0.000805911 8:0.250374 
-119.5501126669263 1:0.33612 2:0.412671 3:-0.0731471 4:-0.280142 5:0.0571359 6:-0.68705 7:-0.109109 8:0.1857 
-1024 1:0.264829 2:0.399723 3:-0.247436 4:-0.518243 5:-0.161274 6:-0.885622 7:-0.215412 8:0.121261 
-17.79201830894447 1:0.184167 2:0.360645 3:-0.384732 4:-0.688026 5:-0.453796 6:-0.871535 7:-0.204592 8:0.0943212 
-334.011965564158 1:0.0797459 2:0.314477 3:-0.573307 4:-0.793806 5:-0.602936 6:-0.900444 7:-0.35393 8:-0.00629313 
-87.5673547371304 1:-0.00945288 2:0.256519 3:-0.688971 4:-0.800312 5:-0.704749 6:-0.796781 7:-0.374887 8:-0.0205867 
-1024 1:-0.0664356 2:0.196721 3:-0.707014 4:-0.678648 5:-0.728013 6:-0.54181 7:-0.266162 8:0.0231413 
-1024 1:-0.0525576 2:0.152154 3:-0.557607 4:-0.389395 5:-0.637461 6:-0.101646 7:0.131672 8:0.206597 
-1024 1:-0.0347153 2:0.120706 3:-0.428916 4:-0.0908366 5:-0.467621 6:0.265749 7:0.168992 8:0.225889 
-1024 1:-0.0139707 2:0.100437 3:-0.319252 4:0.135459 5:-0.271418 6:0.467425 7:0.211684 8:0.2466 
-1024 1:0.0345093 2:0.0956483 3:-0.167393 4:0.422607 5:-0.0353268 6:0.737984 7:0.40806 8:0.349463 
-1024 1:0.0977424 2:0.106722 3:-0.0117946 4:0.668553 5:0.212248 6:0.918092 7:0.53162 8:0.426524 
-26.59515038448522 1:0.191087 2:0.137582 3:0.182306 4:0.812432 5:0.430055 6:0.940398 7:0.688265 8:0.54783 
-244.2320870897258 1:0.251717 2:0.20847 3:0.183695 4:0.725935 5:0.650047 6:0.527559 7:0.0775388 8:0.292668 
-1024 1:0.25863 2:0.234901 3:0.138854 4:0.624581 5:0.653041 6:0.333803 7:0.170448 8:0.336095 
-966.7408649545642 1:0.209648 2:0.244501 3:-0.0262532 4:0.312579 5:0.540635 6:-0.124209 7:-0.201583 8:0.136418 
-1024 1:0.226649 2:0.256188 3:-0.00577868 4:0.282987 5:0.454847 6:-0.0821424 7:0.192609 8:0.33392 
-683.1038652270222 1:0.237332 2:0.268055 3:-0.00400791 4:0.193877 5:0.364981 6:-0.147209 7:0.192609 8:0.33392 
-1024 1:0.219876 2:0.287402 3:-0.101904 4:-0.0775791 5:0.0912643 6:-0.345473 7:-0.0294285 8:0.236091 
-891.6283472996123 1:0.266143 2:0.299818 3:0.00136896 4:0.182457 5:0.118405 6:0.111995 7:0.448486 8:0.476721 
-1024 1:0.312154 2:0.320595 3:0.0833943 4:0.432134 5:0.228048 6:0.456103 7:0.509623 8:0.517181 
-1024 1:0.29962 2:0.334262 3:0.0136495 4:0.276717 5:0.244157 6:0.14589 7:0.0577051 8:0.294447 
-1024 1:0.34415 2:0.355692 3:0.0897968 4:0.471746 5:0.326408 6:0.418545 7:0.387994 8:0.484579 
-480.4002948145348 1:0.292366 2:0.378443 3:-0.115661 4:-0.110296 5:0.0880309 6:-0.403237 7:0.00326161 8:0.262416 
-608.4496934802144 1:0.304099 2:0.390437 3:-0.111167 4:-0.0757222 5:-0.0123269 6:-0.224079 7:-0.0320454 8:0.253961 
-677.2343423759486 1:0.318628 2:0.394616 3:-0.0794241 4:0.0819363 5:0.0124862 6:0.0437687 7:0.280767 8:0.411036 
-1024 1:0.255657 2:0.383117 3:-0.233222 4:-0.169114 5:-0.0630246 6:-0.341768 7:-0.222757 8:0.101196 
-1024 1:0.12626 2:0.343419 3:-0.509848 4:-0.489118 5:-0.230702 6:-0.751902 7:-0.494017 8:-0.130288 
-1024 1:0.0298116 2:0.288927 3:-0.654966 4:-0.57936 5:-0.375575 6:-0.756485 7:-0.438994 8:-0.10124 
-1024 1:-0.039723 2:0.228944 3:-0.708832 4:-0.614901 5:-0.48519 6:-0.698471 7:-0.375417 8:-0.0702387 
-1024 1:-0.0873789 2:0.169724 3:-0.701337 4:-0.613977 5:-0.557927 6:-0.613946 7:-0.303081 8:-0.037269 
-1024 1:-0.11735 2:0.115285 3:-0.654452 4:-0.588741 5:-0.597166 6:-0.521892 7:-0.222216 8:-0.00233798 
-171.5937391490912 1:-0.18452 2:0.0559009 3:-0.702953 4:-0.744251 5:-0.680346 6:-0.719271 7:-0.486147 8:-0.161769 
-1024 1:-0.2094 2:0.00252954 3:-0.643973 4:-0.731212 5:-0.731018 6:-0.637108 7:-0.18167 8:-0.0187189 
-1024 1:-0.226561 2:-0.0442124 3:-0.578941 4:-0.631575 5:-0.728265 6:-0.453118 7:-0.18167 8:-0.0187189 
431.1812288055847 1:-0.254985 2:-0.189945 3:-0.303697 4:-0.138996 5:-0.269686 6:-0.0499856 7:-0.305318 8:-0.078838 
-874.5743998012696 1:-0.273489 2:-0.237212 3:-0.241259 4:-0.49711 5:-0.286344 6:-0.703579 7:-0.198888 8:-0.0190737 
-1002.959754720804 1:-0.191666 2:-0.227244 3:-0.0292222 4:-0.039911 5:-0.246846 6:0.110104 7:0.148008 8:0.189242 
-461.2513392562029 1:-0.196692 2:-0.208912 3:-0.0887044 4:-0.201902 5:-0.178802 6:-0.271569 7:-0.214672 8:0.00907011 
-1024 1:-0.212125 2:-0.19918 3:-0.157177 4:-0.254357 5:-0.223974 6:-0.318667 7:-0.249416 8:-0.0166315 
-1024 1:-0.387892 2:-0.281594 3:-0.463062 4:-0.659794 5:-0.514993 6:-0.74886 7:-0.563316 8:-0.269971 
-410.7613029843057 1:-0.423099 2:-0.317836 3:-0.47594 4:-0.581411 5:-0.565855 6:-0.543762 7:-0.563316 8:-0.269971 
-1024 1:-0.51487 2:-0.435265 3:-0.453194 4:-0.505805 5:-0.635605 6:-0.322382 7:-0.175179 8:-0.132784 
-848.4307978700223 1:-0.500844 2:-0.459097 3:-0.354209 4:-0.374384 5:-0.570352 6:-0.149837 7:-0.0867657 8:-0.0841736 
-1024 1:-0.560272 2:-0.516399 3:-0.385439 4:-0.500151 5:-0.591112 6:-0.362406 7:-0.277429 8:-0.186235 
-143.279302013926 1:-0.983082 2:-0.764092 3:-1 4:-0.797683 5:-0.795584 6:-0.688455 7:-0.818602 8:-0.626587 
-420.0395473894305 1:-1 2:-0.839811 3:-0.863202 4:-0.606069 5:-0.761957 6:-0.366868 7:-0.223371 8:-0.223841 
-324.0492524540891 1:-0.92482 2:-0.882667 3:-0.540819 4:-0.287528 5:-0.622739 6:0.0729085 7:0.142809 8:0.0693173 
-404.9508224939656 1:-0.89398 2:-0.909683 3:-0.385433 4:-0.13443 5:-0.473791 6:0.1909 7:-0.0285014 8:-0.0286404 
-719.8381468245772 1:-0.857226 2:-0.937089 3:-0.211994 4:0.0523654 5:-0.220745 6:0.253695 7:-0.111723 8:-0.0756819 
-369.5654474639879 1:-0.772665 2:-0.924626 3:0.00183865 4:0.397875 5:-0.0106133 6:0.663407 7:0.228135 8:0.147403 
-1024 1:-0.671964 2:-0.89092 3:0.210221 4:0.630865 5:0.214905 6:0.844289 7:0.344352 8:0.234288 
-400.2947509118019 1:-0.630436 2:-0.854166 3:0.240113 4:0.637793 5:0.367791 6:0.683287 7:0.0338219 8:0.08668 
-1003.76485253342 1:-0.616467 2:-0.821471 3:0.200304 4:0.430415 5:0.393675 6:0.26436 7:-0.112593 8:0.00999132 
-1024 1:-0.631743 2:-0.783093 3:0.0620332 4:-0.0816593 5:0.107597 6:-0.371726 7:-0.120581 8:-0.0049222 
-815.7346420733319 1:-0.47328 2:-0.700123 3:0.316547 4:0.337041 5:0.212212 6:0.29554 7:0.156918 8:0.196835 
-1024 1:-0.346501 2:-0.595225 3:0.425708 4:0.57401 5:0.395175 6:0.532331 7:0.300103 8:0.283902 
-175.5781629792229 1:-0.307722 2:-0.541546 3:0.406145 4:0.59141 5:0.470963 6:0.478747 7:0.126614 8:0.208596 
-183.3530427057153 1:-0.312434 2:-0.499713 3:0.289938 4:0.450372 5:0.469775 6:0.215224 7:-0.155212 8:0.0692299 
-1024 1:-0.35759 2:-0.476891 3:0.103457 4:0.178269 5:0.36921 6:-0.181335 7:-0.38102 8:-0.0698135 
-953.4101061579837 1:-0.421071 2:-0.473595 3:-0.0880945 4:-0.130332 5:0.189011 6:-0.555799 7:-0.500281 8:-0.156834 
-594.8725962581545 1:-0.404978 2:-0.463849 3:-0.0654838 4:-0.256947 5:-0.0793204 6:-0.488175 7:-0.0622392 8:0.0639059 
-1024 1:-0.360704 2:-0.448933 3:0.0258968 4:-0.0966976 5:-0.0976761 6:-0.166328 7:0.180585 8:0.195466 
-1024 1:-0.270564 2:-0.415754 3:0.205049 4:0.287659 5:0.0310194 6:0.409031 7:0.448173 8:0.374602 
-1024 1:-0.196913 2:-0.371851 3:0.310247 4:0.543897 5:0.210771 6:0.685664 7:0.448173 8:0.374602 
-505.5435594187277 1:0.0463123 2:-0.0369849 3:0.191989 4:0.367648 5:0.481145 6:0.0469233 7:0.234732 8:0.346841 
-1024 1:0.0560879 2:-0.00920278 3:0.152109 4:0.173999 5:0.375224 6:-0.1962 7:0.109165 8:0.282107 
-1024 1:0.0951755 2:0.022236 3:0.187979 4:0.426495 5:0.397194 6:0.252993 7:0.341966 8:0.412736 
-1024 1:0.150358 2:0.0603938 3:0.25389 4:0.671144 5:0.501546 6:0.593683 7:0.484299 8:0.505465 
-1024 1:0.19825 2:0.102208 3:0.28976 4:0.834244 5:0.630918 6:0.752741 7:0.518084 8:0.528184 
-1024 1:0.220609 2:0.14093 3:0.259421 4:0.790339 5:0.701067 6:0.590442 7:0.328032 8:0.445771 
-1024 1:0.20986 2:0.169374 3:0.158601 4:0.557552 5:0.662477 6:0.19718 7:0.0114633 8:0.291051 
-1024 1:0.160447 2:0.180482 3:-0.0114554 4:0.097084 5:0.46791 6:-0.446143 7:-0.30097 8:0.0956344 
-1024 1:0.107001 2:0.176771 3:-0.156824 4:-0.221866 5:0.221248 6:-0.764397 7:-0.380679 8:0.0374734 
-1024 1:0.0381557 2:0.157575 3:-0.308724 4:-0.486127 5:-0.0400897 6:-0.963238 7:-0.518065 8:-0.0719983 
