svm_type epsilon_svr
kernel_type rbf
gamma 1
nr_class 2
total_sv 273
rho -62.6384
SV
7.372470461119093 1:0.133101 2:0.141838 3:-0.0477877 4:-0.297813 5:-0.151873 6:-0.3905 7:-1 8:-1 
6.165040528721843 1:0.114264 2:0.126192 3:-0.066703 4:-0.800717 5:-0.744416 6:-0.659432 7:-1 8:-1 
59.78253526855342 1:0.105755 2:0.121853 3:-0.083029 4:-0.639552 5:-0.697027 6:-0.408953 7:-0.554471 8:-0.535328 
41.22043156827663 1:0.110815 2:0.118181 3:-0.0554946 4:-0.37203 5:-0.591955 6:-0.0236263 7:0.0295295 8:-0.022048 
474.6589124295264 1:0.0959212 2:0.113817 3:-0.093279 4:-0.556598 5:-0.605983 6:-0.356874 7:-0.348994 8:-0.29135 
-340.2969329857117 1:0.0580402 2:0.0935944 3:-0.16337 4:-0.683977 5:-0.695678 6:-0.494614 7:-0.38248 8:-0.327922 
-444.991747145188 1:0.103056 2:0.0902036 3:-0.00189427 4:0.216394 5:-0.258364 6:0.705759 7:0.316613 8:0.204387 
-212.6894408120046 1:-0.0334074 2:0.0491108 3:-0.344935 4:-0.477403 5:-0.302754 6:-0.55654 7:-0.617816 8:-0.450226 
-324.7157379223579 1:-0.0676378 2:0.0198992 3:-0.377086 4:-0.590945 5:-0.425716 6:-0.629731 7:-0.486324 8:-0.368699 
151.2521494125401 1:-0.0697157 2:-0.0712196 3:-0.124306 4:-0.430549 5:-0.580788 6:-0.147289 7:0.125949 8:0.0122289 
123.0780779465795 1:-0.0736827 2:-0.077541 3:-0.119661 4:-0.407265 5:-0.544046 6:-0.145569 7:-0.175803 8:-0.136983 
-248.176253660072 1:0.0437116 2:-0.0114052 3:0.0876726 4:0.122572 5:0.022895 6:0.20387 7:-0.0407345 8:0.0417678 
-7.672454076380766 1:0.0489583 2:0.0144331 3:0.031699 4:-0.0123703 5:0.0152531 6:-0.0427889 7:-0.135174 8:0.00106256 
-512 1:0.098047 2:0.0563928 3:0.0776114 4:0.443467 5:0.320233 6:0.468573 7:-0.00653787 8:0.0978811 
-512 1:0.0341059 2:0.0499026 3:-0.119515 4:-0.219729 5:-0.0346357 6:-0.377838 7:-0.0801877 8:0.00311133 
-505.4269529963397 1:0.0473293 2:0.0479992 3:-0.0694944 4:-0.0241287 5:-0.0401356 6:-0.00119119 7:0.117034 8:0.129803 
-512 1:0.0529663 2:0.0484292 3:-0.0517109 4:0.0154031 5:0.00285702 6:0.0240825 7:-0.0906977 8:0.022761 
-197.4903817359152 1:0.0685648 2:0.0518441 3:-0.00884351 4:0.233036 5:0.0787004 6:0.348659 7:0.203365 8:0.173677 
-512 1:0.0842768 2:0.0582929 3:0.0257564 4:0.473911 5:0.217159 6:0.645045 7:0.246594 8:0.197646 
-319.2394107254561 1:0.0805799 2:0.0625774 3:0.00107359 4:0.416498 5:0.288515 6:0.454086 7:-0.0970911 8:0.0429836 
-512 1:0.105919 2:0.0719994 3:0.0596637 4:0.632552 5:0.414924 6:0.717372 7:0.323273 8:0.276171 
-247.3412996680544 1:0.126079 2:0.084306 3:0.0925601 4:0.668935 5:0.512474 6:0.673786 7:0.323273 8:0.276171 
-325.8157601133742 1:0.133642 2:0.0959405 3:0.0848956 4:0.612451 5:0.556895 6:0.515639 7:0.130024 8:0.191037 
-33.39710358472701 1:0.290204 2:0.217761 3:0.265551 4:0.88027 5:0.689717 6:0.869533 7:0.882903 8:0.709134 
-70.63235020314073 1:0.321264 2:0.247089 3:0.286679 4:0.800439 5:0.743655 6:0.656213 7:0.893942 8:0.724898 
-176.5120553415632 1:0.350947 2:0.33956 3:0.123139 4:0.486154 5:0.65848 6:0.159418 7:0.0143472 8:0.336155 
19.88044171160026 1:0.326452 2:0.350609 3:0.00903131 4:0.112728 5:0.35796 6:-0.201069 7:0.207279 8:0.369347 
-145.7519758182414 1:0.299513 2:0.348222 3:-0.0750091 4:-0.197525 5:0.158322 6:-0.558264 7:-0.199649 8:0.0922104 
-367.9689795357336 1:0.189962 2:0.28438 3:-0.262432 4:-0.531923 5:-0.372289 6:-0.579589 7:-0.510654 8:-0.15891 
-512 1:0.152269 2:0.260406 3:-0.321194 4:-0.626153 5:-0.48492 6:-0.628129 7:-0.559336 8:-0.201546 
-512 1:0.153315 2:0.241474 3:-0.26369 4:-0.413347 5:-0.482353 6:-0.228209 7:0.0963966 8:0.142063 
-70.03867095458693 1:0.146612 2:0.214328 3:-0.2089 4:-0.252066 5:-0.367848 6:-0.0548905 7:-0.136905 8:0.0150958 
-512 1:0.139765 2:0.201407 3:-0.195151 4:-0.239126 5:-0.340731 6:-0.0616571 7:-0.0383345 8:0.0693909 
-147.2063844947511 1:0.145528 2:0.192433 3:-0.15013 4:-0.115953 5:-0.277706 6:0.0988679 7:0.14899 8:0.174489 
-125.1146918016584 1:0.147533 2:0.180812 3:-0.110236 4:0.150288 5:-0.0685907 6:0.361816 7:0.0133643 8:0.113374 
-512 1:0.118328 2:0.163515 3:-0.15941 4:-0.0926625 5:-0.05992 6:-0.108128 7:-0.315079 8:-0.0563651 
-10.23148279714782 1:0.150982 2:0.15852 3:-0.0350495 4:0.356519 5:0.0903268 6:0.56903 7:0.439892 8:0.347586 
-46.88449911598506 1:0.333863 2:0.285119 3:0.220743 4:0.815163 5:0.811989 6:0.605305 7:0.640038 8:0.595528 
-322.8381712021303 1:0.450374 2:0.460547 3:0.113497 4:0.785457 5:0.714882 6:0.661023 7:0.660016 8:0.656771 
116.7202463770507 1:0.721386 2:0.65409 3:0.47563 4:0.958311 5:0.921236 6:0.750357 7:0.944397 8:0.975751 
512 1:0.748155 2:0.697139 3:0.443165 4:0.866277 5:0.922026 6:0.57521 7:0.492766 8:0.690625 
512 1:0.748098 2:0.731565 3:0.344821 4:0.722793 5:0.870195 6:0.363327 7:0.303531 8:0.565142 
231.7983163896294 1:0.721416 2:0.752794 3:0.194313 4:0.464973 5:0.741561 6:0.023533 7:0.0668562 8:0.403139 
192.7683893542883 1:0.668569 2:0.757276 3:0.00331937 4:0.12853 5:0.533035 6:-0.372999 7:-0.174132 8:0.222388 
61.11618345882439 1:0.593021 2:0.742989 3:-0.210721 4:-0.221487 5:0.266294 6:-0.728113 7:-0.371357 8:0.0546588 
151.9291965935011 1:0.531393 2:0.71698 3:-0.344396 4:-0.438685 5:0.00921068 6:-0.842909 7:-0.330009 8:0.0726282 
512 1:0.520634 2:0.693628 3:-0.314102 4:-0.341266 5:-0.12663 6:-0.501866 7:0.157723 8:0.308569 
512 1:0.493767 2:0.668591 3:-0.333323 4:-0.357059 5:-0.222953 6:-0.420712 7:0.00959969 8:0.218246 
512 1:0.453092 2:0.620807 3:-0.334255 4:-0.326413 5:-0.301716 6:-0.271889 7:-0.0439677 8:0.17978 
319.0201571565192 1:0.212887 2:0.364921 3:-0.414752 4:-0.422713 5:-0.322488 6:-0.430251 7:-0.606222 8:-0.227596 
85.85957029214487 1:0.136753 2:0.321168 3:-0.546757 4:-0.599075 5:-0.441838 6:-0.626535 7:-0.725948 8:-0.361997 
22.92950327173704 1:0.0293898 2:0.260768 3:-0.736616 4:-0.693293 5:-0.555785 6:-0.673534 7:-0.833513 8:-0.51982 
260.3516633682136 1:-0.0782696 2:0.128912 3:-0.723747 4:-0.569037 5:-0.668224 6:-0.308664 7:-0.0214293 8:-0.0307322 
81.66691371975605 1:-0.0982955 2:0.0385239 3:-0.533575 4:-0.37943 5:-0.546675 6:-0.0898401 7:-0.173771 8:-0.117437 
512 1:-0.0584842 2:-0.0103257 3:-0.260044 4:-0.0762827 5:-0.341812 6:0.24788 7:0.16607 8:0.100438 
440.3677931385076 1:-0.00697834 2:-0.0130306 3:-0.0786363 4:0.304031 5:-0.125173 6:0.718112 7:0.394452 8:0.260992 
250.5600868138623 1:0.0490788 2:0.0021515 3:0.0671213 4:0.587781 5:0.264689 6:0.805823 7:0.248656 8:0.193704 
512 1:0.0530515 2:0.011152 3:0.0548573 4:0.539125 5:0.364948 6:0.598118 7:0.00289606 8:0.0863544 
512 1:0.0907281 2:0.0272653 3:0.135975 4:0.690081 5:0.486873 6:0.743335 7:0.349905 8:0.280379 
512 1:0.115121 2:0.0459265 3:0.165031 4:0.742275 5:0.587201 6:0.726476 7:0.263123 8:0.242069 
512 1:0.126024 2:0.0634348 3:0.151883 4:0.675339 5:0.629662 6:0.550803 7:0.127246 8:0.18307 
512 1:0.171104 2:0.0881055 3:0.233567 4:0.805112 5:0.705324 6:0.709253 7:0.46886 8:0.381897 
-49.6781444829174 1:0.23249 2:0.144755 3:0.279069 4:0.949304 5:0.863056 6:0.800382 7:0.46886 8:0.381897 
53.89620246217837 1:0.2428 2:0.216046 3:0.110582 4:0.374186 5:0.745813 6:-0.153245 7:-0.330744 8:0.0144609 
380.1961411781176 1:0.218657 2:0.229084 3:-0.00801073 4:0.0197564 5:0.387115 6:-0.410693 7:-0.127213 8:0.0938271 
512 1:0.206733 2:0.229054 3:-0.0481357 4:-0.15098 5:0.194743 6:-0.512138 7:-0.0805551 8:0.114508 
71.81439693587673 1:0.153449 2:0.206118 3:-0.162434 4:-0.422772 5:-0.244324 6:-0.52048 7:-0.200636 8:0.0367824 
512 1:0.0946647 2:0.184169 3:-0.298097 4:-0.577124 5:-0.381719 6:-0.65429 7:-0.639059 8:-0.264887 
65.35355407207493 1:-0.112548 2:-0.0321235 3:-0.380217 4:-0.71427 5:-0.838994 6:-0.386731 7:-0.0811969 8:-0.0897673 
512 1:-0.116865 2:-0.0564642 3:-0.325378 4:-0.69834 5:-0.822398 6:-0.375708 7:-0.194666 8:-0.141835 
59.22634171990791 1:-0.151051 2:-0.0840238 3:-0.362088 4:-0.749247 5:-0.82991 6:-0.463422 7:-0.502106 8:-0.315787 
-9.64297824551711 1:-0.264019 2:-0.190939 3:-0.43823 4:-0.743206 5:-0.868853 6:-0.407088 7:-0.418857 8:-0.32358 
352.118911592758 1:-0.209853 2:-0.222723 3:-0.164944 4:-0.236521 5:-0.606821 6:0.250054 7:0.161184 8:0.0184087 
512 1:-0.213822 2:-0.23188 3:-0.15222 4:-0.268597 5:-0.5108 6:0.0786249 7:-0.208168 8:-0.156497 
512 1:-0.218586 2:-0.240333 3:-0.144188 4:-0.327245 5:-0.468187 6:-0.0815351 7:-0.261552 8:-0.184781 
512 1:-0.171779 2:-0.239258 3:0.0105959 4:0.0946803 5:-0.236501 6:0.450128 7:0.226982 8:0.0932624 
318.3378650439635 1:-0.174288 2:-0.235756 3:-0.00784943 4:-0.00796187 5:-0.168813 6:0.17777 7:-0.180328 8:-0.105752 
512 1:-0.234334 2:-0.247811 3:-0.175974 4:-0.463976 5:-0.318234 6:-0.513275 7:-0.536748 8:-0.334933 
512 1:-0.251191 2:-0.260791 3:-0.195816 4:-0.517586 5:-0.409266 6:-0.509815 7:-0.325892 8:-0.221009 
512 1:-0.296476 2:-0.281888 3:-0.288382 4:-0.617086 5:-0.506263 6:-0.586358 7:-0.528755 8:-0.354866 
-22.88341910931649 1:-0.622991 2:-0.473964 3:-0.841872 4:-0.903585 5:-0.844538 6:-0.738747 7:-0.853853 8:-0.661234 
-46.09235609122039 1:-0.684235 2:-0.544156 3:-0.848283 4:-0.926349 5:-0.909295 6:-0.707183 7:-0.665379 8:-0.555072 
-120.0897883554702 1:-0.656574 2:-0.709155 3:-0.284574 4:-0.571076 5:-0.794606 6:-0.166815 7:-0.204051 8:-0.286107 
264.7363761766832 1:-0.501102 2:-0.692179 3:0.191329 4:0.23224 5:-0.263791 6:0.742014 7:0.376409 8:0.0526541 
12.86821547082743 1:-0.341553 2:-0.608874 3:0.491871 4:0.601207 5:0.207755 6:0.89688 7:0.586264 8:0.226532 
106.9446928430123 1:-0.192945 2:-0.490284 3:0.654917 4:0.731042 5:0.512756 6:0.79104 7:0.67229 8:0.308252 
46.31158433279064 1:-0.142142 2:-0.345774 3:0.414228 4:0.115017 5:0.36794 6:-0.208241 7:-0.210269 8:-0.0396277 
24.90220525619573 1:-0.0753039 2:-0.297553 3:0.502146 4:0.37966 5:0.375593 6:0.283951 7:0.396166 8:0.323866 
-87.17450675187445 1:-0.0414089 2:-0.185523 3:0.297045 4:-0.0614207 5:0.129144 6:-0.266956 7:0.00638512 8:0.0974697 
512 1:-0.0381354 2:-0.1149 3:0.10673 4:-0.361406 5:-0.287085 6:-0.355004 7:-0.0306968 8:0.0616044 
296.9145873799251 1:-0.00261296 2:-0.0956572 3:0.171661 4:-0.135838 5:-0.249198 6:0.0283558 7:0.281386 8:0.226229 
280.7770671958749 1:0.0976362 2:-0.0354885 3:0.338188 4:0.372985 5:0.053109 6:0.64311 7:0.534096 8:0.39332 
-512 1:0.120753 2:-0.00294418 3:0.32336 4:0.374073 5:0.163667 6:0.517707 7:0.213099 8:0.25387 
-98.64374437762915 1:0.158636 2:0.032053 3:0.351333 4:0.508656 5:0.286482 6:0.6309 7:0.387675 8:0.353685 
-112.6614997113113 1:0.220766 2:0.136368 3:0.263442 4:0.517082 5:0.561407 6:0.329887 7:-0.129051 8:0.114529 
-201.1737797521164 1:0.19729 2:0.152647 3:0.137861 4:0.180571 5:0.431922 6:-0.157902 7:-0.205012 8:0.0664461 
-512 1:0.227915 2:0.282591 3:-0.129342 4:-0.166069 5:0.250456 6:-0.604937 7:-0.40162 8:-0.0641057 
-9.557534884137109 1:0.0669986 2:0.222847 3:-0.501669 4:-0.693417 5:-0.272824 6:-1 7:-0.67577 8:-0.311841 
-113.6224752129323 1:-0.0830926 2:0.118413 3:-0.710076 4:-0.877681 5:-0.639871 6:-0.925668 7:-0.609431 8:-0.332225 
-511.1967821519124 1:-0.15686 2:0.00889577 3:-0.646602 4:-0.83909 5:-0.815984 6:-0.649566 7:-0.306295 8:-0.175731 
-307.5062366397358 1:-0.134342 2:-0.0277833 3:-0.466089 4:-0.630475 5:-0.782293 6:-0.293465 7:0.123562 8:0.0629648 
-512 1:-0.0912178 2:-0.0469248 3:-0.266084 4:-0.307648 5:-0.642032 6:0.155993 7:0.285554 8:0.170131 
164.8189941613994 1:0.00962556 2:-0.0383821 3:0.0496368 4:0.124291 5:-0.390907 6:0.684203 7:0.581523 8:0.411932 
-85.28908081677025 1:0.193046 2:0.0582876 3:0.392578 4:0.692543 5:0.319901 6:0.940501 7:0.409826 8:0.353204 
-512 1:0.153196 2:0.205413 3:-0.161278 4:-0.303703 5:-0.0299207 6:-0.54225 7:0.0327106 8:0.128412 
-57.27288323060433 1:0.179606 2:0.2037 3:-0.0673315 4:-0.114516 5:-0.0699749 6:-0.137907 7:0.196928 8:0.229441 
-105.182982518493 1:0.236793 2:0.24128 3:0.0183781 4:0.365866 5:0.241247 6:0.412726 7:0.268763 8:0.275255 
-512 1:0.270984 2:0.25401 3:0.0973868 4:0.574575 5:0.362256 6:0.668335 7:0.359081 8:0.327882 
-407.1908037881778 1:0.35138 2:0.314177 3:0.196969 4:0.713351 5:0.613909 6:0.640927 7:0.403665 8:0.364376 
-512 1:0.360828 2:0.348591 3:0.130712 4:0.685427 5:0.678691 6:0.513373 7:0.284586 8:0.324026 
-65.55819610240421 1:0.363163 2:0.361665 3:0.10131 4:0.656126 5:0.683644 6:0.452191 7:0.332482 8:0.340649 
43.28238805042908 1:0.300674 2:0.357342 3:-0.0970946 4:0.065652 5:0.471479 6:-0.42107 7:-0.508186 8:-0.0678582 
-222.2250592451499 1:0.314306 2:0.357108 3:-0.0504555 4:0.268895 5:0.4042 6:0.041271 7:0.198276 8:0.276989 
445.7755509776239 1:0.520312 2:0.461636 3:0.346242 4:0.638928 5:0.573346 6:0.546797 7:0.521638 8:0.515166 
197.432976596358 1:0.519342 2:0.564729 3:0.0490429 4:0.500471 5:0.50536 6:0.363057 7:0.0662525 8:0.272615 
-512 1:0.325994 2:0.464462 3:-0.317118 4:-0.372826 5:-0.182303 6:-0.497429 7:-0.00467555 8:0.15141 
63.72681475096314 1:0.290008 2:0.437056 3:-0.360337 4:-0.587286 5:-0.344079 6:-0.716924 7:-0.203778 8:0.0397026 
169.7539717553578 1:0.248809 2:0.405385 3:-0.408978 4:-0.76329 5:-0.516155 6:-0.85174 7:-0.303323 8:-0.0206255 
50.4465712581701 1:0.237646 2:0.377407 3:-0.366855 4:-0.638408 5:-0.585302 6:-0.535597 7:0.0201613 8:0.124644 
109.2410075665615 1:0.252948 2:0.358645 3:-0.261759 4:-0.282659 5:-0.501586 6:0.0413788 7:0.279795 8:0.265395 
147.8030601573731 1:0.257063 2:0.319438 3:-0.136101 4:0.198806 5:0.112452 6:0.244943 7:-0.0406088 8:0.133289 
341.0090002438948 1:0.277793 2:0.316754 3:-0.0585385 4:0.466684 5:0.310974 6:0.523202 7:0.152689 8:0.235128 
3.622417313524505 1:0.291658 2:0.319279 3:-0.018982 4:0.636942 5:0.431499 6:0.706576 7:0.308149 8:0.316094 
512 1:0.332048 2:0.354251 3:0.0175212 4:0.484901 5:0.52034 6:0.316309 7:0.291998 8:0.337144 
512 1:0.434746 2:0.396804 3:0.242529 4:0.694215 5:0.608629 6:0.610786 7:0.598783 8:0.549995 
24.70525865140738 1:0.478734 2:0.427575 3:0.303141 4:0.765792 5:0.676954 6:0.667521 7:0.638078 8:0.579777 
512 1:0.577058 2:0.505168 3:0.413494 4:0.901551 5:0.826645 6:0.751957 7:0.761757 8:0.681368 
101.8664988515717 1:0.607539 2:0.544737 3:0.403474 4:0.911431 5:0.875442 6:0.714402 7:0.761757 8:0.681368 
52.56707917110917 1:0.723436 2:0.640591 3:0.521028 4:0.886458 5:0.932974 6:0.600794 7:0.911849 8:0.837218 
512 1:0.802145 2:0.699113 3:0.61961 4:0.945858 5:0.958891 6:0.683368 7:0.963536 8:0.919062 
481.8192829165276 1:0.977181 2:0.846694 3:0.789123 4:0.87385 5:0.960767 6:0.544882 7:0.693565 8:0.820759 
302.65559675591 1:0.985564 2:0.95867 3:0.498138 4:0.588847 5:0.812008 6:0.176827 7:0.24609 8:0.552385 
131.4962911752673 1:0.874661 2:1 3:0.00630221 4:0.0809581 5:0.351733 6:-0.254035 7:0.193666 8:0.444151 
484.0291871831051 1:0.845856 2:0.99698 3:-0.0822282 4:-0.0432806 5:0.210455 6:-0.326359 7:0.160108 8:0.425552 
197.0810169672559 1:0.745057 2:0.970719 3:-0.347283 4:-0.400619 5:-0.014125 6:-0.743941 7:-0.38244 8:0.0499398 
225.8844261385679 1:0.560347 2:0.813496 3:-0.521931 4:-0.538294 5:-0.495716 6:-0.44935 7:-0.0669748 8:0.155571 
209.9494281222417 1:0.466968 2:0.758146 3:-0.679025 4:-0.711506 5:-0.59835 6:-0.658941 7:-0.361186 8:-0.0514465 
512 1:0.370373 2:0.691014 3:-0.813378 4:-0.829955 5:-0.709995 6:-0.754468 7:-0.44219 8:-0.116256 
-322.6615158489168 1:0.317229 2:0.624737 3:-0.803637 4:-0.693159 5:-0.734508 6:-0.467228 7:-0.188705 8:0.00535253 
-81.8844797696306 1:0.290319 2:0.56535 3:-0.725067 4:-0.509197 5:-0.683721 6:-0.17751 7:-0.0349234 8:0.0823504 
410.929660434626 1:0.222574 2:0.501814 3:-0.772376 4:-0.633927 5:-0.695378 6:-0.400205 7:-0.316574 8:-0.0851675 
364.246847537177 1:0.0823316 2:0.223243 3:-0.451092 4:-0.10389 5:-0.288079 6:0.133664 7:-0.269334 8:-0.0690126 
512 1:0.0456046 2:0.111846 3:-0.257343 4:-0.00270457 5:-0.150653 6:0.166786 7:0.110896 8:0.0958764 
512 1:0.014589 2:0.0898084 3:-0.299108 4:-0.186045 5:-0.176565 6:-0.150436 7:-0.295603 8:-0.0999169 
512 1:-0.013969 2:0.0654229 3:-0.325889 4:-0.355153 5:-0.255548 6:-0.379526 7:-0.338808 8:-0.124739 
512 1:-0.00101545 2:0.0489788 3:-0.235322 4:-0.186608 5:-0.2467 6:-0.0706412 7:0.100389 8:0.0889497 
512 1:-0.020186 2:0.0312885 3:-0.249535 4:-0.332088 5:-0.293887 6:-0.291657 7:-0.191498 8:-0.0597694 
512 1:-0.0110241 2:0.0193036 3:-0.184468 4:-0.241552 5:-0.292309 6:-0.122076 7:0.0507128 8:0.0705357 
512 1:-0.0162252 2:0.00848527 3:-0.171164 4:-0.298396 5:-0.311999 6:-0.206991 7:-0.0877571 8:0.00141603 
512 1:-0.0270114 2:-0.00272102 3:-0.175588 4:-0.406614 5:-0.364615 6:-0.351203 7:-0.169813 8:-0.0399098 
512 1:-0.0504636 2:-0.017234 3:-0.213299 4:-0.619401 5:-0.47734 6:-0.624084 7:-0.322226 8:-0.120559 
512 1:-0.0667459 2:-0.0326962 3:-0.224124 4:-0.656467 5:-0.566015 6:-0.592021 7:-0.322226 8:-0.120559 
512 1:-0.108073 2:-0.0548425 3:-0.300352 4:-0.773963 5:-0.668007 6:-0.696875 7:-0.555822 8:-0.261053 
-37.66974649266208 1:-0.151725 2:-0.082886 3:-0.367606 4:-0.887741 5:-0.77752 6:-0.786016 7:-0.628559 8:-0.316223 
512 1:-0.106962 2:-0.0947315 3:-0.182879 4:-0.433334 5:-0.684713 6:-0.0327436 7:0.255419 8:0.168714 
512 1:-0.0971994 2:-0.101898 3:-0.129522 4:-0.326788 5:-0.583962 6:0.0528093 7:0.00993738 8:0.036724 
512 1:-0.0532738 2:-0.0972407 3:0.00533064 4:0.0489485 5:-0.379687 6:0.528631 7:0.246976 8:0.195675 
512 1:9.08441e-05 2:-0.0808904 3:0.138678 4:0.296687 5:-0.153102 6:0.736409 7:0.347306 8:0.267222 
512 1:0.0378078 2:-0.0588876 3:0.20314 4:0.425513 5:0.0449634 6:0.751947 7:0.281041 8:0.236189 
512 1:0.0319877 2:-0.0426622 3:0.137252 4:0.275236 5:0.12217 6:0.378433 7:-0.0847183 8:0.0504098 
512 1:0.0538192 2:-0.0245174 3:0.159143 4:0.338547 5:0.196744 6:0.412315 7:0.141119 8:0.174846 
512 1:0.0830444 2:-0.00308785 3:0.196602 4:0.45342 5:0.288378 6:0.524143 7:0.231751 8:0.227247 
512 1:0.0728601 2:0.0116465 3:0.120248 4:0.225717 5:0.266377 6:0.118427 7:-0.102117 8:0.0559051 
512 1:0.0375239 2:0.0150747 3:-0.00869093 4:-0.197066 5:0.0974337 6:-0.487197 7:-0.299812 8:-0.0649693 
512 1:0.0109281 2:0.0115257 3:-0.0882622 4:-0.396282 5:-0.08789 6:-0.650685 7:-0.299812 8:-0.0649693 
512 1:-0.00851674 2:0.00408653 3:-0.132627 4:-0.47884 5:-0.241565 6:-0.629807 7:-0.299812 8:-0.0649693 
512 1:-0.0978547 2:-0.022999 3:-0.356681 4:-0.690992 5:-0.42143 6:-0.824078 7:-0.676003 8:-0.343368 
36.64595271325634 1:-0.229717 2:-0.0758612 3:-0.650648 4:-0.804832 5:-0.582881 6:-0.853458 7:-0.793908 8:-0.487732 
512 1:-0.303654 2:-0.135642 3:-0.729548 4:-0.797943 5:-0.688001 6:-0.71922 7:-0.514514 8:-0.336007 
201.3662311399415 1:-0.30893 2:-0.184715 3:-0.607432 4:-0.636982 5:-0.699346 6:-0.401414 7:-0.101767 8:-0.0903388 
220.0350733649132 1:-0.279984 2:-0.217125 3:-0.417409 4:-0.433094 5:-0.632509 6:-0.0924764 7:0.0856773 8:0.032909 
235.2941003703112 1:-0.286249 2:-0.244536 3:-0.360388 4:-0.363228 5:-0.562457 6:-0.0409725 7:-0.12659 8:-0.0798045 
267.4883665556833 1:-0.299805 2:-0.286177 3:-0.28738 4:-0.304683 5:-0.438803 6:-0.0726995 7:-0.261088 8:-0.147275 
512 1:-0.290154 2:-0.300701 3:-0.213425 4:-0.237514 5:-0.387446 6:-0.00474645 7:-0.0679495 8:-0.0471621 
227.2853280138858 1:-0.339845 2:-0.337396 3:-0.276379 4:-0.476616 5:-0.431258 6:-0.406898 7:-0.383139 8:-0.213896 
512 1:-0.345507 2:-0.35477 3:-0.245935 4:-0.555653 5:-0.498506 6:-0.478996 7:-0.242493 8:-0.149071 
512 1:-0.361314 2:-0.37241 3:-0.248952 4:-0.655694 5:-0.579844 6:-0.574616 7:-0.359864 8:-0.20751 
154.1738816870102 1:-0.410346 2:-0.434614 3:-0.236951 4:-0.664236 5:-0.749043 6:-0.395713 7:-0.215467 8:-0.171508 
-232.9320383558026 1:-0.373104 2:-0.466454 3:-0.0205814 4:-0.180702 5:-0.253151 6:-0.0520231 7:-0.345159 8:-0.207887 
75.61814023621048 1:-0.530807 2:-0.526358 3:-0.381619 4:-0.7257 5:-0.550335 6:-0.74117 7:-0.755343 8:-0.497672 
-260.4291336419491 1:-0.573011 2:-0.584408 3:-0.358439 4:-0.739633 5:-0.710275 6:-0.583149 7:-0.506934 8:-0.384974 
7.805956148173892 1:-0.656629 2:-0.672252 3:-0.389974 4:-0.963724 5:-0.940282 6:-0.742215 7:-0.667135 8:-0.505363 
43.61960232282602 1:-0.792462 2:-0.728389 3:-0.687996 4:-1 5:-1 6:-0.742041 7:-0.857833 8:-0.689926 
8.989934207658742 1:-0.995506 2:-0.883364 3:-0.930878 4:-0.692654 5:-0.918491 6:-0.254155 7:-0.581276 8:-0.541519 
-16.5222295427896 1:-0.962565 2:-0.987928 3:-0.52167 4:-0.276959 5:-0.640106 6:0.211872 7:-0.0828368 8:-0.215835 
3.412470757168381 1:-0.873075 2:-1 3:-0.185463 4:-0.0328353 5:-0.446959 6:0.451359 7:0.199668 8:-0.00807844 
-90.87705645166695 1:-0.757844 2:-0.982398 3:0.152951 4:0.257231 5:-0.212348 6:0.730019 7:0.353385 8:0.117811 
49.32492268786839 1:-0.640287 2:-0.902408 3:0.321335 4:0.446186 5:0.218061 6:0.591518 7:0.040286 8:-0.0195222 
6.807143896307218 1:-0.530856 2:-0.792959 3:0.378322 4:0.108135 5:0.227968 6:-0.0598951 7:-0.0975475 8:-0.0768063 
-73.35076365481812 1:-0.324329 2:-0.631668 3:0.614945 4:0.439448 5:0.319271 6:0.462075 7:0.28011 8:0.175833 
15.07802236676473 1:-0.168726 2:-0.452609 3:0.629175 4:0.734657 5:0.586617 6:0.712728 7:0.315316 8:0.203707 
50.57835258961344 1:0.0309189 2:-0.236934 3:0.687535 4:0.557533 5:0.716634 6:0.227503 7:-0.0278775 8:0.133628 
-145.5007929369118 1:0.0402074 2:-0.13623 3:0.431742 4:0.124728 5:0.465167 6:-0.301951 7:-0.183063 8:0.0350064 
-219.5279350607266 1:-0.122417 2:-0.120246 3:-0.162252 4:-0.68669 5:-0.296522 6:-0.959941 7:-0.526169 8:-0.210132 
227.2776411133803 1:-0.135336 2:-0.142741 3:-0.141686 4:-0.614596 5:-0.546788 6:-0.534921 7:0.0208005 8:0.0519362 
-88.1380638185942 1:-0.0881093 2:-0.138156 3:0.00450582 4:-0.257631 5:-0.466777 6:0.0486291 7:0.267106 8:0.197567 
-512 1:-0.023348 2:-0.119167 3:0.168764 4:0.132435 5:-0.271099 6:0.561492 7:0.410924 8:0.294393 
1.028107418499528 1:0.166568 2:-0.0274034 3:0.547597 4:0.59444 5:0.190504 6:0.903959 7:0.631208 8:0.472948 
28.25392053928098 1:0.29037 2:0.043649 3:0.762521 4:0.716577 5:0.380245 6:0.91643 7:0.776467 8:0.617374 
261.3996580776081 1:0.641507 2:0.393408 3:0.949478 4:0.85127 5:0.814063 6:0.671272 7:0.649467 8:0.63414 
-273.9960363037465 1:0.808527 2:0.636359 3:0.820048 4:0.892764 5:0.915991 6:0.632313 7:0.801145 8:0.745806 
-63.90058386021974 1:0.805363 2:0.696488 3:0.637946 4:0.707845 5:0.860716 6:0.345955 7:0.264067 8:0.503913 
-512 1:0.823267 2:0.748827 3:0.5491 4:0.703097 5:0.822134 6:0.381449 7:0.451549 8:0.58889 
-47.03771010795928 1:0.837842 2:0.794146 3:0.469044 4:0.649853 5:0.776984 6:0.332703 7:0.500814 8:0.613078 
-82.86811346492121 1:0.835621 2:0.829875 3:0.359686 4:0.518222 5:0.698851 6:0.173584 7:0.405234 8:0.570594 
-422.759912512827 1:0.809049 2:0.852173 3:0.206504 4:0.255 5:0.550711 6:-0.153948 7:0.134334 8:0.443836 
-116.7995514638076 1:0.749679 2:0.855966 3:-0.00452524 4:-0.0642905 5:0.33544 6:-0.510232 7:-0.213244 8:0.239979 
-87.33763334040262 1:0.693334 2:0.845672 3:-0.16519 4:-0.29679 5:0.107086 6:-0.687121 7:-0.239717 8:0.222544 
-23.36574392708933 1:0.631587 2:0.822829 3:-0.308295 4:-0.530347 5:-0.130376 6:-0.855511 7:-0.349208 8:0.150636 
-506.5247196680721 1:0.611181 2:0.799728 3:-0.311246 4:-0.450381 5:-0.259504 6:-0.555247 7:0.143254 8:0.331052 
-63.10831616629537 1:0.620593 2:0.783473 3:-0.233162 4:-0.181039 5:-0.247305 6:-0.0594 7:0.404632 8:0.462707 
-151.0246029216261 1:0.591564 2:0.763602 3:-0.274404 4:-0.217509 5:-0.252481 6:-0.122477 7:0.0341143 8:0.262077 
-449.2739924040364 1:0.524335 2:0.731801 3:-0.410455 4:-0.407773 5:-0.325359 6:-0.398658 7:-0.271573 8:0.0570444 
-512 1:0.444769 2:0.687538 3:-0.552579 4:-0.626715 5:-0.453838 6:-0.665028 7:-0.398564 8:-0.041792 
-297.6384537887462 1:0.342423 2:0.627917 3:-0.727736 4:-0.789576 5:-0.59892 6:-0.806084 7:-0.555847 8:-0.180195 
-322.2805376641496 1:0.172312 2:0.483008 3:-0.888262 4:-0.829539 5:-0.785286 6:-0.666877 7:-0.487665 8:-0.181826 
50.11967203567617 1:0.0856136 2:0.40354 3:-0.954067 4:-0.924792 5:-0.869226 6:-0.75043 7:-0.619673 8:-0.288748 
12.43587431914065 1:-0.0322255 2:0.245293 3:-0.900282 4:-0.836598 5:-0.93471 6:-0.507967 7:-0.234788 8:-0.133873 
-149.8172567510145 1:-0.0880631 2:0.0694583 3:-0.587265 4:-0.449625 5:-0.7466 6:0.00776422 7:-0.0862562 8:-0.0480961 
-78.24903037879872 1:-0.0733911 2:0.0350856 3:-0.439786 4:-0.0746233 5:-0.533204 6:0.47168 7:0.0919945 8:0.0550943 
-512 1:-0.104412 2:0.000248992 3:-0.445077 4:-0.225877 5:-0.446133 6:0.0849452 7:-0.244921 8:-0.121994 
-512 1:-0.123205 2:-0.0320661 3:-0.416321 4:-0.298765 5:-0.414684 6:-0.0893031 7:-0.214321 8:-0.106172 
-512 1:-0.118183 2:-0.05673 3:-0.329063 4:-0.179668 5:-0.350258 6:0.0618905 7:-0.0238523 8:-0.00934634 
-512 1:-0.142231 2:-0.0821501 3:-0.337689 4:-0.433412 5:-0.3999 6:-0.361257 7:-0.273614 8:-0.135028 
-512 1:-0.191587 2:-0.114162 3:-0.412865 4:-0.479044 5:-0.449646 6:-0.390293 7:-0.4615 8:-0.250314 
-512 1:-0.159252 2:-0.132122 3:-0.252614 4:-0.11311 5:-0.349279 6:0.186768 7:0.134091 8:0.0928023 
-195.4035864055604 1:-0.130587 2:-0.139709 3:-0.134313 4:0.130846 5:-0.193347 6:0.468842 7:0.134091 8:0.0928023 
-154.6278137486016 1:-0.107928 2:-0.140419 3:-0.0558761 4:0.276969 5:-0.0360709 6:0.564152 7:0.105819 8:0.0801063 
-98.49974692774279 1:-0.16568 2:-0.158446 3:-0.199237 4:-0.173089 5:0.00677528 6:-0.337282 7:-0.371832 8:-0.172872 
-512 1:-0.196571 2:-0.176378 3:-0.252288 4:-0.294373 5:-0.111142 6:-0.430946 7:-0.387195 8:-0.182356 
-512 1:-0.315445 2:-0.241621 3:-0.467157 4:-0.701998 5:-0.457474 6:-0.803359 7:-0.630228 8:-0.35277 
-512 1:-0.323037 2:-0.272835 3:-0.403767 4:-0.64599 5:-0.548948 6:-0.591864 7:-0.197117 8:-0.144271 
-512 1:-0.323788 2:-0.297984 3:-0.334595 4:-0.608652 5:-0.596306 6:-0.466577 7:-0.197117 8:-0.144271 
-407.2247680472333 1:-0.269114 2:-0.315083 3:-0.101466 4:-0.332012 5:-0.512461 6:-0.0395164 7:0.0208657 8:-0.0182613 
-512 1:-0.24448 2:-0.313021 3:-0.024272 4:-0.0801766 5:-0.379138 6:0.283542 7:0.0566208 8:-0.000719302 
-512 1:-0.20966 2:-0.303134 3:0.0649647 4:0.301435 5:-0.151004 6:0.742979 7:0.203779 8:0.0717193 
-128.6103811421997 1:-0.167315 2:-0.272978 3:0.121789 4:0.466073 5:0.212661 6:0.635393 7:-0.105273 8:-0.031999 
-106.6131395460769 1:-0.0868556 2:-0.207959 3:0.207749 4:0.591115 5:0.513457 6:0.525325 7:0.0675183 8:0.0689292 
-512 1:-0.0558138 2:-0.18269 3:0.240389 4:0.748962 5:0.607365 6:0.71589 7:0.303695 8:0.178164 
-24.11562593997201 1:0.0267464 2:-0.142944 3:0.40549 4:0.854194 5:0.708369 6:0.798663 7:0.712901 8:0.490532 
-71.73075946093628 1:-0.031367 2:-0.106093 3:0.104445 4:-0.100692 5:0.330125 6:-0.573018 7:-0.206134 8:-0.0432254 
-292.8026330919722 1:-0.0553734 2:-0.0956131 3:-0.00639044 4:-0.391867 5:-0.0946792 6:-0.634499 7:-0.170216 8:-0.0255249 
-512 1:-0.0789821 2:-0.0982941 3:-0.078363 4:-0.52704 5:-0.26368 6:-0.695562 7:-0.335737 8:-0.1192 
-512 1:-0.095062 2:-0.104243 3:-0.115629 4:-0.5586 5:-0.387863 6:-0.612138 7:-0.335737 8:-0.1192 
-512 1:-0.0938428 2:-0.108713 3:-0.0987716 4:-0.524799 5:-0.458318 6:-0.466918 7:-0.125468 8:-0.0321638 
-512 1:-0.0959099 2:-0.112779 3:-0.0941517 4:-0.529686 5:-0.507071 6:-0.419961 7:-0.200966 8:-0.0651477 
-512 1:-0.106137 2:-0.118451 3:-0.11247 4:-0.528497 5:-0.539139 6:-0.380739 7:-0.342803 8:-0.130963 
-172.1832879290267 1:-0.111423 2:-0.124239 3:-0.113796 4:-0.433436 5:-0.525829 6:-0.216117 7:-0.342803 8:-0.130963 
-426.7621801678611 1:-0.115583 2:-0.129853 3:-0.111816 4:-0.337767 5:-0.482046 6:-0.0854764 7:-0.385418 8:-0.149445 
143.272556200355 1:-0.139628 2:-0.145298 3:-0.148866 4:-0.380884 5:-0.450991 6:-0.202909 7:-0.627174 8:-0.276684 
-490.8493354445774 1:-0.176477 2:-0.161106 3:-0.228066 4:-0.625688 5:-0.537218 6:-0.566953 7:-0.78916 8:-0.420459 
-512 1:-0.190603 2:-0.177094 3:-0.230119 4:-0.677098 5:-0.613462 6:-0.576378 7:-0.460008 8:-0.284762 
-512 1:-0.167133 2:-0.184332 3:-0.130335 4:-0.403942 5:-0.564616 6:-0.115562 7:0.11609 8:0.020499 
-512 1:-0.170563 2:-0.190934 3:-0.123078 4:-0.433446 5:-0.542818 6:-0.196549 7:-0.196403 8:-0.13566 
-512 1:-0.169789 2:-0.196033 3:-0.105933 4:-0.453114 5:-0.535463 6:-0.242265 7:-0.196403 8:-0.13566 
-512 1:-0.146101 2:-0.194508 3:-0.0303965 4:-0.22401 5:-0.446958 6:0.0894311 7:0.121336 8:0.0420194 
-490.3951239790648 1:-0.0794906 2:-0.17753 3:0.145831 4:0.205546 5:-0.231208 6:0.653913 7:0.513919 8:0.338874 
-183.2651056354836 1:-0.0108585 2:-0.147712 3:0.292267 4:0.491917 5:0.0171242 6:0.909756 7:0.590262 8:0.410536 
-294.5088648015217 1:0.173601 2:-0.00690911 3:0.512883 4:0.693933 5:0.534283 6:0.695967 7:0.402653 8:0.399677 
-139.3889542151831 1:0.388225 2:0.207409 3:0.625627 4:0.907347 5:0.823712 6:0.76631 7:0.80841 8:0.716834 
-96.4501624726058 1:0.565609 2:0.479458 3:0.448187 4:0.701508 5:0.795055 6:0.40966 7:0.373136 8:0.540452 
-512 1:0.621185 2:0.527398 3:0.498929 4:0.822558 5:0.821952 6:0.607818 7:0.652947 8:0.71047 
-228.7646578174868 1:0.687209 2:0.581368 3:0.567709 4:0.889547 5:0.864328 6:0.685785 7:0.742129 8:0.780044 
-512 1:0.787888 2:0.690435 3:0.596271 4:0.909321 5:0.904544 6:0.676855 7:0.771619 8:0.817618 
-506.4443462764154 1:0.884733 2:0.802814 3:0.602463 4:0.967671 5:0.965003 6:0.717618 7:0.850912 8:0.881591 
-318.2074926928637 1:0.898959 2:0.931223 3:0.284332 4:0.765509 5:0.935647 6:0.368735 7:0.16565 8:0.526467 
-81.5199476475743 1:0.869043 2:0.947444 3:0.137198 4:0.657611 5:0.85549 6:0.256879 7:0.16565 8:0.526467 
-8.067541509598129 1:0.831609 2:0.951565 3:-0.000792002 4:0.378064 5:0.700044 6:-0.0931358 7:0.066601 8:0.47357 
-36.83754341904216 1:0.771885 2:0.940733 3:-0.171318 4:-0.0159155 5:0.452648 6:-0.55378 7:-0.251437 8:0.276905 
-293.4752445414569 1:0.743052 2:0.925247 3:-0.224398 4:-0.0450019 5:0.277103 6:-0.406458 7:0.13457 8:0.416213 
-255.2063372901142 1:0.707903 2:0.904543 3:-0.283904 4:-0.116296 5:0.134058 6:-0.376511 7:0.0485229 8:0.367922 
-31.7267293408993 1:0.718683 2:0.89053 3:-0.207597 4:0.251403 5:0.17287 6:0.274861 7:0.482681 8:0.573385 
-42.11820847163205 1:0.60694 2:0.793553 3:-0.307942 4:0.310596 5:0.393666 6:0.132364 7:-0.0565707 8:0.275523 
