svm_type epsilon_svr
kernel_type rbf
gamma 0.5
nr_class 2
total_sv 341
rho -35.8581
SV
-44.18849986180382 1:0.17417 2:0.230841 3:0.131675 4:0.296374 5:0.13622 6:0.352913 7:-1 8:-1 
2.103592718724137 1:0.158389 2:0.221608 3:0.103425 4:-0.0403553 5:0.0982351 6:-0.219027 7:-1 8:-1 
24.94273969443247 1:0.141465 2:0.210329 3:0.0772583 4:-0.423572 5:-0.152954 6:-0.630901 7:-0.604626 8:-0.537056 
168.8310391790913 1:0.130027 2:0.202712 3:0.0595551 4:-0.636604 5:-0.325555 6:-0.821974 7:-0.632384 8:-0.559874 
135.7139918218449 1:0.0877835 2:0.176442 3:-0.0114041 4:-0.856999 5:-0.626865 6:-0.878574 7:-0.784017 8:-0.693958 
1024 1:0.0887498 2:0.158934 3:0.0444561 4:-0.714824 5:-0.699568 6:-0.535089 7:-0.281971 8:-0.330421 
185.8973655596939 1:0.0892802 2:0.152903 3:0.064396 4:-0.692701 5:-0.709793 6:-0.482893 7:-0.232525 8:-0.298239 
290.6940368351044 1:0.109234 2:0.153141 3:0.134367 4:-0.371607 5:-0.603116 6:-0.0184891 7:0.285298 8:0.0753242 
785.6562166397532 1:0.122412 2:0.156558 3:0.170812 4:-0.148947 5:-0.453297 6:0.216373 7:0.20365 8:0.0361068 
415.87957474192 1:0.11192 2:0.158223 3:0.12866 4:-0.345742 5:-0.372059 6:-0.236778 7:-0.245618 8:-0.198471 
355.4982091950345 1:0.0712065 2:0.148211 3:0.0144278 4:-0.590229 5:-0.455234 6:-0.588141 7:-0.617457 8:-0.459801 
-414.9260567378354 1:-0.0569546 2:0.0888752 3:-0.261846 4:-0.782593 5:-0.645272 6:-0.72139 7:-0.718551 8:-0.586042 
-1024 1:-0.0709767 2:0.0590049 3:-0.222053 4:-0.689455 5:-0.672449 6:-0.519881 7:-0.251942 8:-0.285764 
-1024 1:-0.0632371 2:-0.000984917 3:-0.0149635 4:-0.391672 5:-0.5717 6:-0.0912801 7:0.120716 8:-0.0552684 
-1024 1:0.00501161 2:-0.00114568 3:0.227277 4:0.492732 5:0.0596992 6:0.799841 7:0.277796 8:0.126068 
-1024 1:0.0305663 2:0.0113023 3:0.280517 4:0.728186 5:0.29861 6:0.955691 7:0.277796 8:0.126068 
-1024 1:0.0612105 2:0.0374319 3:0.310809 4:0.731882 5:0.523088 6:0.704436 7:0.278044 8:0.165377 
-791.3574510770642 1:0.0356002 2:0.0433405 3:0.202392 4:0.207648 5:0.423547 6:-0.139544 7:-0.266265 8:-0.131817 
-997.9564447053106 1:0.00876229 2:0.0417134 3:0.112197 4:-0.119566 5:0.24153 6:-0.52854 7:-0.329963 8:-0.17363 
-246.6219792138893 1:-0.00861876 2:0.0362986 3:0.0668457 4:-0.318365 5:0.0499177 6:-0.671743 7:-0.298937 8:-0.158361 
-185.6102306829154 1:-0.0318995 2:0.0221097 3:0.0268747 4:-0.53515 5:-0.252606 6:-0.720346 7:-0.355158 8:-0.194771 
-17.39719373299991 1:-0.0664168 2:0.00694265 3:-0.0499705 4:-0.730829 5:-0.425295 6:-0.879595 7:-0.531037 8:-0.306035 
-1024 1:-0.0723725 2:-0.0205656 3:0.0113214 4:-0.65561 5:-0.617819 6:-0.520798 7:0.102566 8:0.00682828 
-867.1086959435034 1:-0.054994 2:-0.0269465 3:0.0919928 4:-0.376777 5:-0.501013 6:-0.145297 7:-0.150145 8:-0.0975825 
-1024 1:-0.055207 2:-0.0296469 3:0.0993262 4:-0.357407 5:-0.458911 6:-0.158277 7:-0.150145 8:-0.0975825 
-1024 1:-0.03872 2:-0.0279071 3:0.152517 4:-0.106413 5:-0.342126 6:0.166352 7:0.119131 8:0.0338867 
-523.7649258846144 1:-0.00228079 2:-0.0178953 3:0.251611 4:0.10229 5:-0.190502 6:0.373623 7:0.40513 8:0.204537 
-966.7179804114299 1:-0.000831956 2:-0.00168822 3:0.208202 4:-0.225694 5:-0.162986 6:-0.257616 7:-0.162323 8:-0.0590873 
-945.158725947785 1:0.0104675 2:0.006095 3:0.224917 4:-0.259818 5:-0.199065 6:-0.27853 7:0.0703814 8:0.0602164 
-107.4096931731705 1:-0.0302611 2:0.00142452 3:0.0946315 4:-0.658896 5:-0.590782 6:-0.557881 7:-0.0924187 8:-0.0498614 
-1024 1:0.0757767 2:0.0522951 3:0.31789 4:0.425347 5:0.0899987 6:0.641825 7:0.293203 8:0.181174 
-1024 1:0.0828158 2:0.0775498 3:0.267186 4:0.321436 5:0.252645 6:0.264914 7:-0.0955553 8:0.0367181 
-1024 1:0.0915623 2:0.0886677 3:0.26487 4:0.339429 5:0.289831 6:0.255067 7:0.121197 8:0.119945 
-451.8262767614277 1:0.10475 2:0.100681 3:0.275603 4:0.35685 5:0.320779 6:0.251344 7:0.264701 8:0.181166 
-1024 1:0.170455 2:0.146989 3:0.369655 4:0.678046 5:0.497881 6:0.634987 7:0.797496 8:0.507815 
-1024 1:0.192277 2:0.184815 3:0.333668 4:0.50504 5:0.571434 6:0.234161 7:0.0430779 8:0.174125 
-1024 1:0.176129 2:0.194483 3:0.247506 4:0.122719 5:0.425759 6:-0.297351 7:-0.234835 8:0.00875804 
-1024 1:0.154432 2:0.197086 3:0.162855 4:-0.265568 5:0.191399 6:-0.737837 7:-0.354304 8:-0.0719284 
-483.7789996502832 1:0.144881 2:0.196909 3:0.129552 4:-0.417701 5:-0.0186141 6:-0.774576 7:-0.153764 8:0.0170367 
536.1651166862936 1:0.129347 2:0.191285 3:0.0913711 4:-0.670911 5:-0.377261 6:-0.825264 7:-0.188032 8:-0.00137653 
78.80700662047346 1:0.144583 2:0.192197 3:0.142609 4:-0.434456 5:-0.403643 6:-0.362661 7:0.353115 8:0.249196 
310.2375736318963 1:0.151434 2:0.194548 3:0.159836 4:-0.33634 5:-0.38655 6:-0.202932 7:0.187047 8:0.178707 
1024 1:0.144403 2:0.194765 3:0.134278 4:-0.463722 5:-0.42018 6:-0.397156 7:-0.125862 8:0.0282764 
-1024 1:0.0698274 2:0.170983 3:-0.0586623 4:-0.630868 5:-0.543707 6:-0.560748 7:-0.60693 8:-0.316392 
-1024 1:0.0483609 2:0.153195 3:-0.0814277 4:-0.585081 5:-0.567846 6:-0.449296 7:-0.36037 8:-0.194762 
-1024 1:0.0148786 2:0.131045 3:-0.133691 4:-0.715756 5:-0.630128 6:-0.616608 7:-0.527861 8:-0.312091 
-1024 1:-0.0095372 2:0.107549 3:-0.149809 4:-0.802873 5:-0.702441 6:-0.692757 7:-0.527861 8:-0.312091 
-580.501272239604 1:0.106566 2:0.0900027 3:0.31402 4:0.315891 5:-0.182298 6:0.754694 7:0.51357 8:0.40746 
-672.7951151419571 1:0.166588 2:0.133412 3:0.39662 4:0.401257 5:0.157504 6:0.520193 7:0.238661 8:0.251578 
-1024 1:0.187121 2:0.155962 3:0.401821 4:0.424021 5:0.256304 6:0.448251 7:0.275301 8:0.273251 
-1024 1:0.21937 2:0.181629 3:0.439181 4:0.53868 5:0.362697 6:0.535581 7:0.435841 8:0.369093 
-1024 1:0.238684 2:0.206732 3:0.432412 4:0.581959 5:0.448924 6:0.515595 7:0.331695 8:0.321936 
-1024 1:0.269393 2:0.234078 3:0.459288 4:0.710295 5:0.551769 6:0.632005 7:0.502536 8:0.419404 
-1024 1:0.290554 2:0.260961 3:0.453732 4:0.714508 5:0.621822 6:0.55919 7:0.459199 8:0.401583 
-1024 1:0.29493 2:0.283502 3:0.401722 4:0.57513 5:0.61926 6:0.307328 7:0.199683 8:0.293332 
-1024 1:0.296982 2:0.30202 3:0.353529 4:0.366478 5:0.543802 6:0.0126062 7:0.199683 8:0.293332 
-1024 1:0.300816 2:0.317741 3:0.320023 4:0.341241 5:0.484576 6:0.0345419 7:0.278606 8:0.323366 
-1024 1:0.307816 2:0.331974 3:0.302189 4:0.406118 5:0.468023 6:0.172173 7:0.395465 8:0.369513 
-1024 1:0.313589 2:0.344726 3:0.284449 4:0.486215 5:0.485299 6:0.298748 7:0.435207 8:0.385481 
-1024 1:0.320151 2:0.35648 3:0.272487 4:0.613304 5:0.541738 6:0.46622 7:0.518002 8:0.419011 
-521.8387502740441 1:0.345387 2:0.371853 3:0.315842 4:0.662181 5:0.596639 6:0.492472 7:0.80699 8:0.590608 
1024 1:0.377816 2:0.405718 3:0.329283 4:0.630902 5:0.64824 6:0.375979 7:0.651256 8:0.552824 
-764.5221418415861 1:0.43067 2:0.514656 3:0.190236 4:0.893555 5:0.83308 6:0.643701 7:0.657732 8:0.62912 
287.6550396173444 1:0.421096 2:0.51872 3:0.144151 4:0.791804 5:0.848677 6:0.439757 7:0.447507 8:0.547337 
-278.2035212691561 1:0.373812 2:0.508368 3:0.0076579 4:0.256975 5:0.658042 6:-0.31889 7:-0.544756 8:-0.0799193 
-1024 1:0.330862 2:0.489927 3:-0.0892521 4:-0.0855093 5:0.409897 6:-0.659797 7:-0.577655 8:-0.116112 
-1024 1:0.309939 2:0.470225 3:-0.104358 4:-0.126254 5:0.230066 6:-0.52759 7:-0.124225 8:0.0899098 
-1024 1:0.295628 2:0.451079 3:-0.0977076 4:-0.106522 5:0.117153 6:-0.361736 7:-0.0281106 8:0.136688 
-1024 1:0.299359 2:0.436644 3:-0.0412582 4:0.117658 5:0.121116 6:0.0435489 7:0.320798 8:0.324098 
-778.4724137854691 1:0.266401 2:0.396763 3:-0.0385629 4:0.0713762 5:0.12897 6:-0.0500887 7:-0.12964 8:0.0805383 
-1024 1:0.25686 2:0.383139 3:-0.0315532 4:0.132047 5:0.13408 6:0.0549539 7:-0.00715711 8:0.132529 
-1024 1:0.239371 2:0.368102 3:-0.0484679 4:0.0292044 5:0.101136 6:-0.0951942 7:-0.238449 8:0.00975706 
-1024 1:0.257582 2:0.36038 3:0.0391692 4:0.298268 5:0.174276 6:0.312634 7:0.46224 8:0.390431 
12.44962598387383 1:0.64398 2:0.539533 3:0.871339 4:0.804339 5:0.768391 6:0.554953 7:0.793753 8:0.811927 
-665.1563293998072 1:0.836838 2:0.789723 3:0.805167 4:0.849282 5:0.896359 6:0.490031 7:0.875438 8:0.877579 
-587.8780428838212 1:0.903823 2:0.850542 3:0.860293 4:0.965886 5:0.9404 6:0.652583 7:1 8:0.985961 
407.746260706164 1:1 2:0.968541 3:0.847568 4:1 5:1 6:0.646447 7:0.985602 8:1 
441.374361552065 1:0.896293 2:0.991815 3:0.410499 4:0.32945 5:0.784541 6:-0.331789 7:-0.239792 8:0.119697 
-747.5384328291162 1:0.835841 2:0.996134 3:0.183422 4:0.0297995 5:0.534987 6:-0.592769 7:-0.0483231 8:0.22692 
54.13889494945094 1:0.563965 2:0.896408 3:-0.48096 4:-0.652694 5:-0.22872 6:-0.962692 7:-0.373267 8:-0.0361273 
-59.73639623633743 1:0.359613 2:0.749015 3:-0.763392 4:-0.742066 5:-0.545539 6:-0.761931 7:-0.20484 8:-0.0234149 
-592.7924776971286 1:0.224048 2:0.541992 3:-0.62356 4:-0.5075 5:-0.607345 6:-0.262065 7:-0.0279346 8:0.0474367 
-131.2865706210779 1:0.193334 2:0.437824 3:-0.420369 4:-0.108704 5:-0.408905 6:0.238919 7:0.151943 8:0.129904 
-694.1537615271595 1:0.212555 2:0.405507 3:-0.255489 4:0.327229 5:-0.155515 6:0.744637 7:0.307093 8:0.212492 
-84.09498873035436 1:0.212663 2:0.379679 3:-0.177751 4:0.44903 5:0.0564642 6:0.723665 7:0.128236 8:0.139041 
-341.6088154824128 1:0.197794 2:0.3555 3:-0.158003 4:0.417684 5:0.186704 6:0.516664 7:-0.0365558 8:0.0672081 
-1.98282127531631 1:0.20039 2:0.33677 3:-0.0927109 4:0.471818 5:0.292665 6:0.49384 7:0.143646 8:0.145861 
1002.477808897213 1:0.446456 2:0.423065 3:0.520477 4:0.877284 5:0.827369 6:0.62052 7:0.677295 8:0.497922 
296.3626413202699 1:0.497063 2:0.488667 3:0.503259 4:0.880204 5:0.902795 6:0.539165 7:0.476443 8:0.450046 
-678.3240111440198 1:0.475443 2:0.508366 3:0.367676 4:0.634792 5:0.827663 6:0.176864 7:-0.0217537 8:0.2327 
1024 1:0.473215 2:0.523598 3:0.314161 4:0.54655 5:0.746385 6:0.108962 7:0.218659 8:0.330335 
754.307824351047 1:0.439032 2:0.527698 3:0.180793 4:0.100841 5:0.53466 6:-0.462517 7:-0.14012 8:0.139374 
396.7518399971297 1:0.438261 2:0.530796 3:0.168786 4:0.0596832 5:0.378962 6:-0.358804 7:0.201724 8:0.294666 
1024 1:0.445534 2:0.534994 3:0.181974 4:0.154417 5:0.308649 6:-0.104796 7:0.305742 8:0.347446 
168.0743892890696 1:0.455397 2:0.540686 3:0.199865 4:0.299022 5:0.312885 6:0.154698 7:0.376147 8:0.382996 
1024 1:0.409508 2:0.547885 3:0.0157479 4:0.0733326 5:0.35146 6:-0.302239 7:-0.285871 8:0.0546162 
793.4442237829636 1:0.338703 2:0.523396 3:-0.161717 4:-0.325174 5:0.120798 6:-0.765659 7:-0.509932 8:-0.118705 
774.0065481656993 1:0.218169 2:0.391677 3:-0.194184 4:-0.414847 5:-0.403994 6:-0.326408 7:0.0783402 8:0.117519 
1024 1:0.213062 2:0.36871 3:-0.143483 4:-0.344043 5:-0.389508 6:-0.213616 7:0.0783402 8:0.117519 
1024 1:0.177774 2:0.341988 3:-0.188453 4:-0.534646 5:-0.44722 6:-0.495737 7:-0.340539 8:-0.0868164 
1024 1:0.155528 2:0.315349 3:-0.187468 4:-0.598388 5:-0.508225 6:-0.54215 7:-0.224427 8:-0.0399128 
1024 1:0.134683 2:0.289107 3:-0.182711 4:-0.648187 5:-0.566498 6:-0.566215 7:-0.272289 8:-0.0639123 
631.1702377196757 1:0.087095 2:0.220747 3:-0.146542 4:-0.457905 5:-0.480144 6:-0.3176 7:-0.487334 8:-0.178629 
1024 1:0.051133 2:0.193662 3:-0.192809 4:-0.645691 5:-0.546894 6:-0.584183 7:-0.631078 8:-0.2801 
1024 1:0.00621612 2:0.16137 3:-0.2552 4:-0.740043 5:-0.624744 6:-0.667196 7:-0.734479 8:-0.375367 
-1024 1:0.0237411 2:0.139681 3:-0.128162 4:-0.304689 5:-0.522764 6:0.0114923 7:0.18912 8:0.103995 
442.7059882697349 1:0.0528246 2:0.118251 3:0.0390441 4:0.205834 5:-0.160614 6:0.528566 7:0.18912 8:0.103995 
879.9079803158859 1:0.0467494 2:0.110629 3:0.0403542 4:0.168463 5:-0.046104 6:0.328631 7:-0.116173 8:-0.0340196 
1024 1:0.0615855 2:0.10804 3:0.100662 4:0.357255 5:0.0969659 6:0.509332 7:0.186743 8:0.124819 
1024 1:0.00736056 2:0.0931423 3:-0.0468011 4:-0.0700405 5:0.0413143 6:-0.207873 7:-0.441181 8:-0.250822 
1024 1:-0.0474988 2:0.056527 3:-0.131465 4:-0.370854 5:-0.125617 6:-0.565944 7:-0.325869 8:-0.195303 
1024 1:-0.120632 2:0.0216561 3:-0.286087 4:-0.524579 5:-0.267735 6:-0.683631 7:-0.508189 8:-0.332676 
482.1381804216202 1:-0.221745 2:-0.0301582 3:-0.489073 4:-0.723782 5:-0.43289 6:-0.857981 7:-0.644172 8:-0.450502 
314.9571254145217 1:-0.256536 2:-0.0798392 3:-0.463516 4:-0.679263 5:-0.527258 6:-0.668129 7:-0.242581 8:-0.205796 
-420.7686591074577 1:-0.25873 2:-0.218868 3:-0.0548864 4:-0.317633 5:-0.442215 6:-0.104753 7:0.00801209 8:-0.0474022 
929.5003606428813 1:0.0121413 2:-0.13258 3:0.646187 4:0.646839 5:0.244254 6:0.869451 7:0.435993 8:0.312688 
295.0490178119376 1:0.147056 2:-0.02442 3:0.800152 4:0.859491 5:0.601178 6:0.847971 7:0.510729 8:0.3732 
1024 1:0.177104 2:0.0273262 3:0.751608 4:0.81794 5:0.691321 6:0.668401 7:0.280523 8:0.27827 
1024 1:0.184283 2:0.0704213 3:0.647965 4:0.703191 5:0.710857 6:0.436166 7:0.0756399 8:0.187088 
1024 1:0.187978 2:0.105771 3:0.555178 4:0.589079 5:0.683546 6:0.258939 7:0.0522565 8:0.176726 
1024 1:0.19253 2:0.135128 3:0.483376 4:0.446989 5:0.615117 6:0.0778255 7:0.080785 8:0.187212 
1024 1:0.23036 2:0.167562 3:0.520241 4:0.552611 5:0.60683 6:0.280446 7:0.485885 8:0.369496 
1024 1:0.252101 2:0.198652 3:0.504139 4:0.526305 5:0.592007 6:0.249391 7:0.348912 8:0.317532 
1024 1:0.237402 2:0.220047 3:0.387992 4:0.0977077 5:0.430634 6:-0.348679 7:-0.0945205 8:0.11733 
1024 1:0.237866 2:0.237272 3:0.338043 4:-0.0187637 5:0.281884 6:-0.390638 7:0.0827778 8:0.192147 
1024 1:0.255647 2:0.255259 3:0.347159 4:0.145389 5:0.240739 6:-0.0432462 7:0.297958 8:0.292799 
1024 1:0.263207 2:0.271436 3:0.325485 4:0.212912 5:0.237175 6:0.0842937 7:0.205152 8:0.253714 
1024 1:0.257228 2:0.282964 3:0.269782 4:0.103175 5:0.196012 6:-0.0690118 7:0.0223962 8:0.174786 
1024 1:0.264299 2:0.293859 3:0.262197 4:0.210561 5:0.206526 6:0.115224 7:0.223098 8:0.257295 
1024 1:0.279697 2:0.306217 3:0.279729 4:0.429535 5:0.290934 6:0.418529 7:0.370576 8:0.325076 
1024 1:0.283302 2:0.316956 3:0.260333 4:0.428135 5:0.346711 6:0.351859 7:0.207109 8:0.262386 
1024 1:0.292139 2:0.327638 3:0.259646 4:0.53037 5:0.420031 6:0.454488 7:0.32693 8:0.312625 
1024 1:0.292276 2:0.336216 3:0.234439 4:0.504569 5:0.459792 6:0.36162 7:0.183033 8:0.260178 
1024 1:0.276522 2:0.339352 3:0.169242 4:0.266294 5:0.402079 6:-0.0076527 7:-0.131067 8:0.126783 
1024 1:0.275713 2:0.341669 3:0.159437 4:0.300885 5:0.37583 6:0.0857549 7:0.152871 8:0.233302 
1024 1:0.277551 2:0.343958 3:0.159094 4:0.379214 5:0.386017 6:0.217245 7:0.22561 8:0.26308 
1024 1:0.208867 2:0.329542 3:-0.0410306 4:-0.121253 5:0.215913 6:-0.502181 7:-0.557037 8:-0.214196 
-1024 1:0.102043 2:0.29274 3:-0.309214 4:-0.406538 5:0.00167448 6:-0.777488 7:-0.724726 8:-0.404881 
-1024 1:0.0536437 2:0.251851 3:-0.358193 4:-0.41296 5:-0.143421 6:-0.622457 7:-0.28564 8:-0.153682 
-1024 1:-0.00694389 2:0.172409 3:-0.33488 4:-0.396948 5:-0.29391 6:-0.420215 7:-0.270411 8:-0.145527 
-1024 1:-0.0193013 2:0.138331 3:-0.276588 4:-0.360934 5:-0.322089 6:-0.321987 7:-0.153623 8:-0.0887914 
-1024 1:-0.0394788 2:0.106296 3:-0.252116 4:-0.406365 5:-0.356932 6:-0.364994 7:-0.284154 8:-0.154744 
-886.2422489214796 1:-0.142546 2:-0.00305202 3:-0.289709 4:-0.62867 5:-0.581327 6:-0.51349 7:-0.391126 8:-0.252594 
602.4983279343286 1:-0.206564 2:-0.07626 3:-0.297218 4:-0.801921 5:-0.714448 6:-0.677215 7:-0.537782 8:-0.348965 
1024 1:-0.248895 2:-0.114913 3:-0.331401 4:-0.895102 5:-0.791254 6:-0.759287 7:-0.686708 8:-0.451733 
354.53349476521 1:-0.304455 2:-0.158978 3:-0.396235 4:-0.939428 5:-0.858125 6:-0.763462 7:-0.776658 8:-0.533545 
1024 1:-0.304429 2:-0.194224 3:-0.290578 4:-0.731214 5:-0.82911 6:-0.416159 7:-0.138822 8:-0.194089 
1024 1:-0.269924 2:-0.214259 3:-0.108347 4:-0.345698 5:-0.673503 6:0.109779 7:0.167827 8:0.00706239 
721.3474692778368 1:-0.23783 2:-0.222695 3:0.0306084 4:0.0144809 5:-0.442457 6:0.502687 7:0.167827 8:0.00706239 
907.5249431944703 1:-0.165006 2:-0.209567 3:0.249253 4:0.546903 5:0.0845581 6:0.870303 7:0.184383 8:0.0482583 
-1024 1:-0.0903151 2:-0.171172 3:0.398838 4:0.868774 5:0.512834 6:0.966484 7:0.399629 8:0.170791 
-545.9176860789288 1:-0.0524564 2:-0.144376 3:0.452692 4:0.913308 5:0.666133 6:0.8717 7:0.447038 8:0.198553 
1024 1:0.010894 2:-0.084704 3:0.498376 4:0.937592 5:0.849263 6:0.705608 7:0.509935 8:0.230949 
216.015353235153 1:-0.0287444 2:-0.0488164 3:0.250479 4:-0.02052 5:0.479702 6:-0.621218 7:-0.593795 8:-0.287296 
-176.036252017503 1:-0.0605887 2:-0.0484156 3:0.136476 4:-0.320459 5:0.207959 6:-0.857221 7:-0.553095 8:-0.268811 
-510.1217743499914 1:0.0976643 2:0.022445 3:0.484826 4:0.622533 5:0.329588 6:0.726934 7:0.513457 8:0.340828 
1024 1:0.104345 2:0.0476075 3:0.433129 4:0.51712 5:0.403933 6:0.44877 7:0.0472324 8:0.134182 
-1024 1:0.0965354 2:0.0810752 3:0.305226 4:0.200732 5:0.33711 6:-0.0528386 7:-0.110799 8:0.0511072 
-1024 1:0.105992 2:0.0949013 3:0.297315 4:0.103652 5:0.262804 6:-0.14491 7:0.126065 8:0.152049 
-581.7490184583372 1:0.117807 2:0.108757 3:0.297669 4:-0.0668808 5:0.15299 6:-0.330455 7:0.200047 8:0.185313 
-700.1027639393054 1:0.14585 2:0.126475 3:0.343939 4:0.117031 5:0.144786 6:0.0151973 7:0.493368 8:0.33914 
1024 1:0.183037 2:0.16569 3:0.358215 4:0.342044 5:0.269807 6:0.282862 7:0.253735 8:0.260442 
-236.0993876977372 1:0.398079 2:0.407804 3:0.394814 4:0.798755 5:0.89559 6:0.398544 7:0.127461 8:0.352221 
1024 1:0.394439 2:0.424515 3:0.331873 4:0.666912 5:0.834213 6:0.228058 7:0.198162 8:0.381893 
-211.8322392622571 1:0.383635 2:0.435328 3:0.261214 4:0.33968 5:0.677632 6:-0.190208 7:0.0583118 8:0.311117 
333.4949353916785 1:0.361896 2:0.438836 3:0.173703 4:-0.0803257 5:0.42479 6:-0.667437 7:-0.180747 8:0.177139 
1024 1:0.355426 2:0.440112 3:0.146961 4:-0.124837 5:0.240495 6:-0.536986 7:0.144202 8:0.304774 
1024 1:0.348291 2:0.439445 3:0.123685 4:-0.154511 5:0.107144 6:-0.437964 7:0.144202 8:0.304774 
1024 1:0.351603 2:0.439694 3:0.134668 4:0.0275567 5:0.0825961 6:-0.0768973 7:0.389994 8:0.410904 
1024 1:0.396073 2:0.464678 3:0.21737 4:0.347355 5:0.322954 6:0.231485 7:0.11073 8:0.303438 
33.92143144338788 1:0.381729 2:0.470517 3:0.149069 4:0.189318 5:0.275215 6:-0.0025632 7:0.129089 8:0.310667 
884.6737493180947 1:0.451356 2:0.496824 3:0.316921 4:0.579352 5:0.435874 6:0.525828 7:0.703366 8:0.650681 
1024 1:0.50335 2:0.539991 3:0.371811 4:0.532805 5:0.547181 6:0.312797 7:0.323605 8:0.469207 
-266.1778932025017 1:0.491568 2:0.574863 3:0.225632 4:0.267984 5:0.404222 6:-0.00702637 7:0.0769074 8:0.280187 
-1024 1:0.484491 2:0.579463 3:0.186787 4:0.2379 5:0.354996 6:-0.00544629 7:0.173887 8:0.331725 
-1024 1:0.460521 2:0.581364 3:0.0961798 4:0.138803 5:0.247538 6:-0.0631021 7:0.150093 8:0.29278 
-1024 1:0.451292 2:0.572922 3:0.0887748 4:0.40569 5:0.296978 6:0.367988 7:0.317266 8:0.371477 
-1024 1:0.458228 2:0.571697 3:0.11701 4:0.449084 5:0.358145 6:0.377016 7:0.424722 8:0.425442 
-751.718955021509 1:0.458568 2:0.583575 3:0.0826412 4:0.433745 5:0.557502 6:0.119836 7:0.0198668 8:0.282314 
1024 1:0.64315 2:0.642215 3:0.560857 4:0.794299 5:0.761938 6:0.544014 7:0.868412 8:0.822399 
284.4524703077317 1:0.825286 2:0.754968 3:0.86834 4:0.813022 5:0.817213 6:0.514712 7:0.980343 8:0.94799 
1024 1:0.853039 2:0.810725 3:0.799655 4:0.712003 5:0.7979 6:0.35223 7:0.509608 8:0.666878 
846.1239097914556 1:0.834388 2:0.850919 3:0.613204 4:0.535847 5:0.72276 6:0.11655 7:0.163807 8:0.436539 
-949.5895755725072 1:0.888455 2:0.895863 3:0.670116 4:0.668137 5:0.719426 6:0.362232 7:0.551041 8:0.655935 
-113.1024323809599 1:0.927268 2:0.975552 3:0.568929 4:0.736425 5:0.757252 6:0.443596 7:0.431587 8:0.584675 
-718.8777230250842 1:0.881582 2:0.993944 3:0.352011 4:0.417794 5:0.653935 6:-0.0201642 7:0.0134537 8:0.322927 
1024 1:0.808666 2:0.996254 3:0.0867991 4:-0.0692937 5:0.298106 6:-0.501661 7:0.0775341 8:0.350987 
-289.3770835248756 1:0.784038 2:0.982402 3:0.0410484 4:0.0458346 5:0.143205 6:-0.113145 7:0.368015 8:0.471083 
19.11737398482037 1:0.707004 2:0.958128 3:-0.159128 4:-0.293586 5:-0.00687365 6:-0.561167 7:-0.265291 8:0.102617 
-220.2272786263243 1:0.669608 2:0.929864 3:-0.206943 4:-0.247386 5:-0.0905964 6:-0.380476 7:0.0334818 8:0.237607 
-403.0081436258838 1:0.54705 2:0.810685 3:-0.284135 4:-0.00531718 5:0.0497104 6:-0.099198 7:-0.221212 8:0.0447915 
-184.7632157038391 1:0.497423 2:0.77118 3:-0.341609 4:-0.145479 5:-0.0168537 6:-0.27893 7:-0.11686 8:0.0947453 
537.2361947505979 1:0.47663 2:0.734657 3:-0.305877 4:-0.0841681 5:-0.0395589 6:-0.140746 7:0.0849396 8:0.192365 
175.5946912389943 1:0.489551 2:0.708495 3:-0.181751 4:0.188834 5:0.0417993 6:0.264837 7:0.328295 8:0.323369 
1024 1:0.503337 2:0.690827 3:-0.0799967 4:0.42242 5:0.178601 6:0.534634 7:0.377013 8:0.350948 
801.2233722300614 1:0.490307 2:0.663636 3:-0.0447159 4:0.347618 5:0.317898 6:0.237777 7:0.0719196 8:0.219163 
1024 1:0.434297 2:0.625527 3:-0.12898 4:0.0564525 5:0.224625 6:-0.187317 7:-0.168082 8:0.107967 
1024 1:0.391713 2:0.598048 3:-0.197527 4:-0.164481 5:0.0930398 6:-0.439979 7:-0.287695 8:0.0444596 
320.0676005834951 1:0.290553 2:0.552136 3:-0.418359 4:-0.395789 5:-0.0764418 6:-0.668051 7:-0.657274 8:-0.24431 
555.964568023783 1:0.0865409 2:0.377239 3:-0.617206 4:-0.65478 5:-0.461842 6:-0.698558 7:-0.650576 8:-0.292435 
1024 1:0.0537003 2:0.275456 3:-0.428691 4:-0.474373 5:-0.50607 6:-0.317906 7:-0.0656259 8:-0.0323016 
1024 1:0.0640524 2:0.240485 3:-0.287281 4:-0.272062 5:-0.432116 6:-0.0330491 7:0.17386 8:0.0878183 
1024 1:0.0697892 2:0.213866 3:-0.187232 4:-0.158101 5:-0.342533 6:0.0723262 7:0.11791 8:0.0659416 
1024 1:0.0718447 2:0.193056 3:-0.117626 4:-0.0152063 5:-0.232303 6:0.206865 7:0.0550506 8:0.0426436 
1024 1:0.0528487 2:0.171915 3:-0.121598 4:-0.0270797 5:-0.163013 6:0.105518 7:-0.257904 8:-0.0899598 
875.451875959882 1:0.0248335 2:0.148376 3:-0.150334 4:-0.154035 5:-0.161694 6:-0.128096 7:-0.404985 8:-0.168311 
1024 1:0.0372447 2:0.13248 3:-0.0587606 4:-0.00576791 5:-0.108408 6:0.0817168 7:0.144637 8:0.0861439 
1024 1:0.0993313 2:0.13445 3:0.155271 4:0.30988 5:0.0386847 6:0.489709 7:0.549249 8:0.363224 
1024 1:0.145199 2:0.146875 3:0.280533 4:0.491654 5:0.200996 6:0.635465 7:0.494492 8:0.338329 
1024 1:0.185094 2:0.166252 3:0.363818 4:0.572715 5:0.337855 6:0.626356 7:0.521408 8:0.356824 
1024 1:0.23437 2:0.19341 3:0.45703 4:0.755716 5:0.493779 6:0.781698 7:0.648821 8:0.447512 
1024 1:0.210602 2:0.209514 3:0.324604 4:0.439253 5:0.48587 6:0.212237 7:-0.127071 8:0.0520764 
1024 1:0.216966 2:0.223902 3:0.304054 4:0.408821 5:0.469842 6:0.175025 7:0.118158 8:0.187202 
1024 1:0.170662 2:0.22446 3:0.13836 4:0.0274451 5:0.324356 6:-0.354976 7:-0.248273 8:-0.0478685 
1024 1:0.123538 2:0.21376 3:0.00348015 4:-0.329084 5:0.101346 6:-0.75045 7:-0.308935 8:-0.0907346 
1024 1:0.0944519 2:0.198319 3:-0.0533066 4:-0.429321 5:-0.0827564 6:-0.722095 7:-0.218228 8:-0.0468738 
1024 1:0.0399134 2:0.173066 3:-0.170864 4:-0.618452 5:-0.272341 6:-0.849952 7:-0.422803 8:-0.179305 
1024 1:0.0168576 2:0.14741 3:-0.175693 4:-0.639976 5:-0.406339 6:-0.735288 7:-0.183919 8:-0.0649522 
1024 1:-0.0719881 2:0.105869 3:-0.365995 4:-0.793053 5:-0.549778 6:-0.850272 7:-0.538648 8:-0.307925 
1024 1:-0.140606 2:0.0564048 3:-0.460913 4:-0.680784 5:-0.605721 6:-0.580725 7:-0.544831 8:-0.312884 
-814.9132271315935 1:-0.11639 2:0.022562 3:-0.273771 4:-0.312078 5:-0.512693 6:-0.0135902 7:0.13737 8:0.0762799 
1024 1:-0.0481884 2:-0.00582232 3:0.052832 4:0.348498 5:-0.0980775 6:0.717502 7:0.314638 8:0.188333 
1024 1:0.00120687 2:0.000596962 3:0.20858 4:0.60108 5:0.148499 6:0.895855 7:0.385846 8:0.234605 
1024 1:0.0346205 2:0.0136362 3:0.287888 4:0.711138 5:0.351784 6:0.863407 7:0.291898 8:0.196628 
1024 1:0.0551321 2:0.0289194 3:0.314772 4:0.75475 5:0.502723 6:0.769651 7:0.190976 8:0.157081 
1024 1:0.0907027 2:0.0495601 3:0.378955 4:0.858225 5:0.639923 6:0.801125 7:0.375356 8:0.250518 
1024 1:0.0779144 2:0.0782779 3:0.247643 4:0.420157 5:0.636251 6:0.00447972 7:-0.234701 8:-0.0232432 
1024 1:0.0715136 2:0.0845077 3:0.206311 4:0.109663 5:0.464356 6:-0.365582 7:-0.0798217 8:0.042991 
1024 1:0.00960888 2:0.0748484 3:0.0159545 4:-0.252594 5:0.221716 6:-0.748963 7:-0.476053 8:-0.200094 
1024 1:-0.0660465 2:0.0492252 3:-0.175298 4:-0.542458 5:-0.0424992 6:-0.975201 7:-0.58716 8:-0.291794 
1024 1:-0.118954 2:0.0162116 3:-0.263836 4:-0.6518 5:-0.25729 6:-0.928218 7:-0.532068 8:-0.267343 
1024 1:-0.128036 2:-0.0123476 3:-0.210471 4:-0.569781 5:-0.371494 6:-0.647008 7:-0.128309 8:-0.0795676 
1024 1:-0.113564 2:-0.0317716 3:-0.101029 4:-0.402207 5:-0.388399 6:-0.321224 7:0.0724433 8:0.0259291 
1024 1:-0.124347 2:-0.0498615 3:-0.0850469 4:-0.425547 5:-0.40792 6:-0.341458 7:-0.161536 8:-0.0854206 
1024 1:-0.11125 2:-0.0612354 3:-0.00458748 4:-0.299752 5:-0.37647 6:-0.147631 7:0.0491377 8:0.0219422 
1024 1:-0.104994 2:-0.0688547 3:0.0403947 4:-0.219803 5:-0.327244 6:-0.0580493 7:-0.0299409 8:-0.0128526 
1024 1:-0.115055 2:-0.0773299 3:0.0301405 4:-0.272411 5:-0.313022 6:-0.170572 7:-0.214874 8:-0.0981473 
1024 1:-0.12327 2:-0.0860532 3:0.0271674 4:-0.285753 5:-0.308256 6:-0.200441 7:-0.250591 8:-0.115138 
1024 1:-0.111801 2:-0.0903191 3:0.0805685 4:-0.150692 5:-0.257341 6:-0.0120486 7:0.00536369 8:-0.00824884 
1024 1:-0.110443 2:-0.0934106 3:0.0946379 4:-0.259591 5:-0.261888 6:-0.205907 7:-0.143444 8:-0.0682399 
-66.06545458681421 1:-0.234956 2:-0.125337 3:-0.250806 4:-0.404588 5:-0.316171 6:-0.408596 7:-0.731434 8:-0.481009 
-1024 1:-0.329661 2:-0.173279 3:-0.442689 4:-0.50804 5:-0.388925 6:-0.514102 7:-0.734641 8:-0.484583 
670.0997597166104 1:-0.427594 2:-0.275003 3:-0.484929 4:-0.564163 5:-0.489858 6:-0.500693 7:-0.550732 8:-0.398039 
1005.08764260572 1:-0.523362 2:-0.338831 3:-0.633001 4:-0.738268 5:-0.586092 6:-0.708375 7:-0.727153 8:-0.535908 
-519.297405092924 1:-0.632175 2:-0.415633 3:-0.788427 4:-0.799783 5:-0.671992 6:-0.722105 7:-0.792291 8:-0.60081 
343.1763941512444 1:-0.695538 2:-0.492062 3:-0.783968 4:-0.807564 5:-0.732008 6:-0.667348 7:-0.632186 8:-0.516407 
1024 1:-0.789701 2:-0.575479 3:-0.867684 4:-0.912439 5:-0.809088 6:-0.770482 7:-0.745641 8:-0.601991 
17.97695814135101 1:-0.90661 2:-0.745436 3:-0.77278 4:-0.516694 5:-0.730046 6:-0.137842 7:-0.15866 8:-0.25852 
-10.74935078562084 1:-0.672331 2:-0.804215 3:0.233157 4:0.368088 5:-0.104321 6:0.760494 7:0.367107 8:0.123538 
-58.00842500484078 1:-0.49713 2:-0.726308 3:0.620438 4:0.671278 5:0.345291 6:0.797999 7:0.0725314 8:0.031803 
98.68620573434464 1:-0.407501 2:-0.637604 3:0.672258 4:0.708143 5:0.569532 6:0.607656 7:0.0833977 8:0.0381825 
1024 1:-0.377781 2:-0.594476 3:0.648363 4:0.616059 5:0.598866 6:0.405594 7:-0.0117492 8:-3.24258e-05 
85.18740492668761 1:-0.357278 2:-0.555123 3:0.603128 4:0.448218 5:0.559098 6:0.144461 7:-0.094579 8:-0.0329908 
152.664573550349 1:-0.349673 2:-0.521842 3:0.530389 4:0.0389112 5:0.387912 6:-0.407065 7:-0.224565 8:-0.0865161 
139.3513257384585 1:-0.275992 2:-0.447708 3:0.569355 4:-0.115672 5:0.135559 6:-0.399619 7:0.0199929 8:0.0250401 
1024 1:-0.189961 2:-0.339819 3:0.550967 4:-0.00806895 5:-0.00605232 6:-0.0401358 7:0.0935759 8:0.063243 
298.7356079432749 1:-0.110675 2:-0.293065 3:0.691796 4:0.280158 5:0.0964162 6:0.369016 7:0.573155 8:0.323302 
-258.5788019373827 1:0.0109364 2:-0.226896 3:0.924399 4:0.58647 5:0.272997 6:0.726049 7:0.786069 8:0.516108 
774.6495336002706 1:0.113855 2:-0.0916318 3:0.883844 4:0.495722 5:0.465707 6:0.338647 7:0.113195 8:0.201707 
204.0225386180943 1:0.155843 2:-0.0314725 3:0.852399 4:0.509105 5:0.491846 6:0.333071 7:0.28975 8:0.298832 
-567.2678595433255 1:0.163434 2:0.0590972 3:0.608028 4:0.225525 5:0.391501 6:-0.0700289 7:-0.0240207 8:0.136404 
694.2659006183854 1:0.115266 2:0.0795125 3:0.376255 4:-0.189067 5:0.1956 6:-0.602808 7:-0.330596 8:-0.0491589 
-599.9030984704191 1:0.0675672 2:0.0913 3:0.171988 4:-0.22768 5:-0.0482326 6:-0.393142 7:-0.140877 8:0.0288034 
-1024 1:0.0376517 2:0.0869156 3:0.0791492 4:-0.309529 5:-0.140134 6:-0.437145 7:-0.304297 8:-0.0584968 
-1024 1:0.0502424 2:0.0863863 3:0.125335 4:-0.134015 5:-0.139364 6:-0.117159 7:0.113455 8:0.127322 
-567.2963809109324 1:0.118558 2:0.105635 3:0.309681 4:0.421428 5:0.0970766 6:0.626525 7:0.453766 8:0.314029 
-147.9524242900939 1:0.150144 2:0.137613 3:0.325789 4:0.573749 5:0.36762 6:0.594035 7:0.192217 8:0.202064 
-1024 1:0.162282 2:0.153447 3:0.321364 4:0.618727 5:0.465201 6:0.564104 7:0.192217 8:0.202064 
-453.4712381704833 1:0.161041 2:0.16582 3:0.27991 4:0.532028 5:0.499611 6:0.366053 7:0.00638763 8:0.131191 
-956.9290938770774 1:0.160219 2:0.175524 3:0.247932 4:0.401145 5:0.476289 6:0.153582 7:0.00638763 8:0.131191 
179.7345313550454 1:0.209599 2:0.21222 3:0.312945 4:0.499347 5:0.465196 6:0.345863 7:0.513583 8:0.333393 
1024 1:0.251827 2:0.30139 3:0.195463 4:-0.147155 5:0.206847 6:-0.539113 7:-0.236115 8:0.0515202 
1024 1:0.243336 2:0.303641 3:0.158643 4:-0.199074 5:0.0689605 6:-0.475544 7:-0.010824 8:0.147051 
1024 1:0.246782 2:0.306257 3:0.163013 4:-0.0971402 5:0.0130654 6:-0.224947 7:0.184188 8:0.237015 
-458.9127746477357 1:0.40424 2:0.36673 3:0.53966 4:0.793697 5:0.475726 6:0.871882 7:0.873487 8:0.740245 
-1024 1:0.415572 2:0.396654 3:0.490176 4:0.625599 5:0.539701 6:0.491037 7:0.210468 8:0.335923 
-393.3651506862004 1:0.423514 2:0.422472 3:0.440981 4:0.52399 5:0.546437 6:0.297537 7:0.224293 8:0.34415 
-1024 1:0.377906 2:0.432339 3:0.249875 4:0.173932 5:0.427196 6:-0.205375 7:-0.187645 8:0.0628243 
-1024 1:0.263871 2:0.409967 3:-0.0870704 4:-0.404452 5:0.0180322 6:-0.792476 7:-0.394985 8:-0.0955699 
-1024 1:0.227785 2:0.386824 3:-0.145585 4:-0.508289 5:-0.166211 6:-0.770541 7:-0.201762 8:-0.00350293 
-1024 1:0.220673 2:0.366627 3:-0.110285 4:-0.442572 5:-0.265811 6:-0.535919 7:0.0539258 8:0.125114 
-172.7241161903619 1:0.173044 2:0.325123 3:-0.154697 4:-0.553929 5:-0.405515 6:-0.578926 7:-0.297262 8:-0.0686766 
-1024 1:0.184065 2:0.308607 3:-0.0661894 4:-0.388708 5:-0.406309 6:-0.275961 7:0.178594 8:0.181027 
-1024 1:0.154041 2:0.274528 3:-0.0704741 4:-0.209695 5:-0.320966 6:-0.0467864 7:-0.0518145 8:0.0535006 
-1024 1:0.15123 2:0.260365 3:-0.0380121 4:-0.0797983 5:-0.240756 6:0.0984953 7:0.0430994 8:0.0980733 
-1024 1:0.149288 2:0.248574 3:-0.00957644 4:0.00679957 5:-0.156674 6:0.160168 7:0.0430994 8:0.0980733 
-269.1101116675412 1:0.151679 2:0.239708 3:0.0254502 4:0.102276 5:-0.0668718 6:0.231499 7:0.107274 8:0.123991 
-1024 1:0.118435 2:0.218792 3:-0.0296686 4:-0.12877 5:-0.0651661 6:-0.192855 7:-0.403885 8:-0.105824 
-1024 1:0.117785 2:0.207864 3:0.000758938 4:-0.0128476 5:-0.0465583 6:-0.00231509 7:0.0371363 8:0.0807387 
-1024 1:0.0973057 2:0.186966 3:-0.00919512 4:-0.0846492 5:-0.037103 6:-0.144449 7:-0.244657 8:-0.0524292 
-1024 1:0.0598664 2:0.168703 3:-0.0871185 4:-0.396106 5:-0.163316 6:-0.568779 7:-0.463845 8:-0.185437 
-1024 1:0.0390937 2:0.149179 3:-0.102227 4:-0.534965 5:-0.296538 6:-0.669513 7:-0.303754 8:-0.118867 
-1024 1:-0.0228154 2:0.118916 3:-0.230888 4:-0.730706 5:-0.45454 6:-0.845756 7:-0.616557 8:-0.33785 
-1024 1:-0.110805 2:0.0738918 3:-0.407726 4:-0.8612 5:-0.605998 6:-0.910237 7:-0.743823 8:-0.467844 
-1024 1:-0.160166 2:0.0261964 3:-0.439728 4:-0.690275 5:-0.646556 6:-0.551142 7:-0.482018 8:-0.331304 
-794.8308178591434 1:-0.233131 2:-0.0292193 3:-0.532219 4:-0.73563 5:-0.689625 6:-0.584554 7:-0.631951 8:-0.444555 
-430.9589426806122 1:-0.328725 2:-0.234182 3:-0.256966 4:-0.488272 5:-0.679937 6:-0.143478 7:0.21392 8:0.00807393 
-1024 1:-0.319107 2:-0.257859 3:-0.151983 4:-0.391938 5:-0.590398 6:-0.0702753 7:-0.0587592 8:-0.118604 
-1024 1:-0.29325 2:-0.270685 3:-0.0219757 4:-0.062198 5:-0.414156 6:0.329976 7:0.0713645 8:-0.0387587 
-1024 1:-0.258593 2:-0.272747 3:0.106967 4:0.295069 5:-0.170383 6:0.702932 7:0.165628 8:0.0183529 
-231.3265833106452 1:-0.22288 2:-0.265949 3:0.213116 4:0.449663 5:0.0467759 6:0.735958 7:0.206736 8:0.0421643 
59.57611618613636 1:-0.141048 2:-0.228935 3:0.392131 4:0.659012 5:0.391517 6:0.722444 7:0.360516 8:0.129229 
297.1481913549924 1:-0.0750413 2:-0.173994 3:0.461396 4:0.718723 5:0.61156 6:0.578692 7:0.148339 8:0.0843455 
-1024 1:-0.0663973 2:-0.149932 3:0.419948 4:0.562309 5:0.607887 6:0.296961 7:-0.090782 8:-0.00680464 
1024 1:0.0519787 2:-0.102681 3:0.697754 4:0.774571 5:0.680464 6:0.601594 7:0.75261 8:0.560147 
-172.4080143234732 1:-0.00991967 2:-0.0795219 3:0.409127 4:0.142318 5:0.505373 6:-0.353027 7:-0.216589 8:-0.0866187 
-1024 1:-0.0889763 2:-0.079695 3:0.129602 4:-0.271815 5:0.242267 6:-0.807723 7:-0.315607 8:-0.166933 
-83.88911324770906 1:-0.175132 2:-0.100213 3:-0.114136 4:-0.548824 5:-0.0310488 6:-1 7:-0.395232 8:-0.229653 
-1024 1:-0.264053 2:-0.137661 3:-0.316964 4:-0.652253 5:-0.249817 6:-0.937636 7:-0.467508 8:-0.285442 
-1024 1:-0.317841 2:-0.180343 3:-0.379662 4:-0.690254 5:-0.409094 6:-0.824038 7:-0.371346 8:-0.233645 
-1024 1:-0.388848 2:-0.231285 3:-0.478619 4:-0.813598 5:-0.558876 6:-0.877375 7:-0.492275 8:-0.314098 
-73.06428209471287 1:-0.578561 2:-0.403539 3:-0.634731 4:-0.97311 5:-0.863904 6:-0.818395 7:-0.70773 8:-0.469411 
-745.5261452000594 1:-0.690492 2:-0.481193 3:-0.798646 4:-0.970521 5:-0.917548 6:-0.752005 7:-0.795166 8:-0.556155 
-186.0258954770446 1:-0.839846 2:-0.646508 3:-0.832575 4:-0.855497 5:-0.926235 6:-0.531736 7:-0.668328 8:-0.513669 
-303.4679915172193 1:-0.920905 2:-0.730072 3:-0.869436 4:-0.938906 5:-0.947928 6:-0.659289 7:-0.770895 8:-0.591361 
33.14030451551478 1:-0.958349 2:-0.926385 3:-0.414101 4:-0.80736 5:-0.950608 6:-0.415719 7:-0.0557626 8:-0.241954 
-31.10894950238282 1:-0.911782 2:-1 3:-0.0286649 4:-0.691466 5:-0.845897 6:-0.324199 7:-0.277651 8:-0.332267 
78.20223678416924 1:-0.807561 2:-0.986054 3:0.29875 4:-0.156303 5:-0.617751 6:0.391945 7:0.369761 8:0.0467837 
-3.863044236057232 1:-0.660288 2:-0.940061 3:0.682686 4:0.295497 5:-0.305961 6:0.859546 7:0.602996 8:0.252414 
192.6499675566625 1:-0.434434 2:-0.744866 3:0.898109 4:0.426924 5:0.279661 6:0.426713 7:-0.0179104 8:-0.00566328 
-446.8190738418273 1:-0.430201 2:-0.692685 3:0.756819 4:0.14784 5:0.240123 6:-0.038057 7:-0.210877 8:-0.103103 
-660.8913736218155 1:-0.360123 2:-0.634363 3:0.830381 4:0.302239 5:0.268338 6:0.211781 7:0.240191 8:0.1484 
88.4031612341029 1:-0.193582 2:-0.455586 3:0.884873 4:0.551256 5:0.416937 6:0.496229 7:0.297346 8:0.200242 
-1024 1:-0.072353 2:-0.278294 3:0.783302 4:0.690269 5:0.643247 6:0.490252 7:0.0709649 8:0.123595 
-1024 1:-0.040331 2:-0.227206 3:0.743722 4:0.727233 5:0.687305 6:0.507188 7:0.202623 8:0.178712 
-662.6237005937273 1:0.00171687 2:-0.176389 3:0.74047 4:0.812543 5:0.746831 6:0.594731 7:0.361825 8:0.251259 
-308.606401865097 1:0.0275538 2:-0.129624 3:0.691929 4:0.709265 5:0.75001 6:0.402268 7:0.200878 8:0.195962 
-130.3763562604365 1:0.0911977 2:-0.0771578 3:0.760236 4:0.851629 5:0.80245 6:0.602261 7:0.577063 8:0.393554 
-1024 1:0.187366 2:-0.0124367 3:0.90705 4:0.954971 5:0.873936 6:0.709022 7:0.773431 8:0.552787 
829.2619394144959 1:0.323109 2:0.126414 3:0.972029 4:0.883442 5:0.923127 6:0.521716 7:0.753095 8:0.559417 
-1024 1:0.418463 2:0.309071 3:0.762734 4:0.734119 5:0.862902 6:0.317949 7:0.38421 8:0.438515 
-1024 1:0.431453 2:0.354283 3:0.673334 4:0.710551 5:0.827845 6:0.315156 7:0.457364 8:0.466769 
-1024 1:0.444141 2:0.393455 3:0.60096 4:0.673288 5:0.791303 6:0.289034 7:0.530843 8:0.495988 
-1024 1:0.416533 2:0.418262 3:0.428865 4:0.222179 5:0.607494 6:-0.324403 7:-0.178735 8:0.190582 
-1024 1:0.406655 2:0.43577 3:0.341435 4:-0.0438816 5:0.390912 6:-0.561873 7:0.0780517 8:0.284542 
-1024 1:0.40171 2:0.448608 3:0.285469 4:-0.152983 5:0.207962 6:-0.551048 7:0.166668 8:0.319027 
-1024 1:0.404315 2:0.459494 3:0.262091 4:-0.0633784 5:0.117667 6:-0.283452 7:0.310513 8:0.376892 
-1024 1:0.392846 2:0.46549 3:0.203508 4:-0.158395 5:0.0238853 6:-0.349367 7:0.0708267 8:0.273398 
-1024 1:0.255876 2:0.418452 3:-0.140804 4:-0.728795 5:-0.526436 6:-0.759626 7:-0.525137 8:-0.0813318 
-848.5982698949788 1:0.224049 2:0.392728 3:-0.176501 4:-0.777611 5:-0.624384 6:-0.73629 7:-0.525137 8:-0.0813318 
261.4443474894802 1:0.176772 2:0.360966 3:-0.24884 4:-0.878401 5:-0.725308 6:-0.804552 7:-0.706655 8:-0.237032 
