svm_type epsilon_svr
kernel_type rbf
gamma 1
nr_class 2
total_sv 376
rho -2435.56
SV
-613.5229164297075 1:-0.117078 2:-0.180536 3:-0.0983108 4:-0.250011 5:-0.11384 6:-0.413122 7:1 8:1 
-897.9279782640397 1:-0.12302 2:-0.182793 3:-0.108529 4:-0.263358 5:-0.181966 6:-0.36166 7:-0.788734 8:-0.864693 
-1024 1:-0.125089 2:-0.185125 3:-0.108593 4:-0.338989 5:-0.258967 6:-0.421736 7:-0.582659 8:-0.674805 
-1024 1:-0.144568 2:-0.200496 3:-0.124081 4:-0.447897 5:-0.467725 6:-0.396861 7:-0.407243 8:-0.586537 
-1024 1:-0.143555 2:-0.202961 3:-0.115905 4:-0.404357 5:-0.474402 6:-0.304232 7:-0.407243 8:-0.586537 
-227.0449475553632 1:-0.15326 2:-0.207319 3:-0.131076 4:-0.592655 5:-0.550663 6:-0.585185 7:-0.71892 8:-0.801951 
-1024 1:-0.135569 2:-0.206046 3:-0.0883564 4:-0.180521 5:-0.444331 6:0.09869 7:0.192744 8:-0.0385261 
-1024 1:-0.127501 2:-0.203067 3:-0.0742901 4:-0.0116048 5:-0.309026 6:0.274598 7:0.0359611 8:-0.145717 
-1024 1:-0.109476 2:-0.196365 3:-0.0429691 4:0.315754 5:-0.0939804 6:0.669192 7:0.281348 8:0.0632563 
-1024 1:-0.089176 2:-0.186276 3:-0.0134344 4:0.494428 5:0.117523 6:0.777445 7:0.391908 8:0.160478 
-1024 1:-0.0671278 2:-0.17315 3:0.0137465 4:0.693837 5:0.334571 6:0.919879 7:0.489986 8:0.247281 
-1024 1:-0.0529845 2:-0.159519 3:0.0194131 4:0.7981 5:0.519032 6:0.913583 7:0.411462 8:0.204522 
-1024 1:-0.0657114 2:-0.15178 3:-0.0308645 4:0.53497 5:0.541659 6:0.373951 7:-0.240574 8:-0.19934 
-1024 1:-0.0856859 2:-0.150334 3:-0.0856116 4:0.220949 5:0.436988 6:-0.120201 7:-0.402703 8:-0.32039 
-1024 1:-0.099406 2:-0.152377 3:-0.116357 4:-0.0205525 5:0.275108 6:-0.407624 7:-0.342631 8:-0.288444 
-1024 1:-0.118152 2:-0.15834 3:-0.151204 4:-0.255145 5:0.0777238 6:-0.64115 7:-0.484402 8:-0.385128 
-1024 1:-0.130558 2:-0.165943 3:-0.166008 4:-0.361234 5:-0.0943238 6:-0.652545 7:-0.406864 8:-0.348753 
-1024 1:-0.139982 2:-0.174165 3:-0.171728 4:-0.431959 5:-0.235994 6:-0.629447 7:-0.406864 8:-0.348753 
-1024 1:-0.140742 2:-0.18089 3:-0.158499 4:-0.39595 5:-0.316709 6:-0.467269 7:-0.130145 8:-0.229194 
-1024 1:-0.128363 2:-0.18341 3:-0.120904 4:-0.205624 5:-0.297935 6:-0.116935 7:0.242394 8:-0.0269078 
-1024 1:-0.110056 2:-0.181222 3:-0.0786631 4:0.074786 5:-0.178482 6:0.294756 7:0.405658 8:0.0846728 
-1024 1:-0.10672 2:-0.178711 3:-0.0757348 4:0.2468 5:-0.0332477 6:0.465414 7:0.0146745 8:-0.0948258 
-1024 1:-0.106429 2:-0.176639 3:-0.0796656 4:0.322668 5:0.0925085 6:0.47047 7:-0.0541171 8:-0.128503 
-1024 1:-0.11074 2:-0.17597 3:-0.0922864 4:0.295631 5:0.166035 6:0.333994 7:-0.195036 8:-0.196917 
-1024 1:-0.118626 2:-0.177239 3:-0.109746 4:0.19999 5:0.178579 6:0.132936 7:-0.327156 8:-0.264019 
-1024 1:-0.122518 2:-0.179143 3:-0.115476 4:-0.013032 5:0.105703 6:-0.200154 7:-0.221171 8:-0.222119 
-1024 1:-0.127753 2:-0.181861 3:-0.12283 4:-0.264505 5:-0.038782 6:-0.526844 7:-0.305155 8:-0.259849 
-1024 1:-0.0952955 2:-0.176619 3:-0.0510151 4:0.214646 5:0.0476235 6:0.310587 7:0.536398 8:0.227809 
-1024 1:-0.0701868 2:-0.166692 3:-0.00872172 4:0.39296 5:0.173229 6:0.515886 7:0.536398 8:0.227809 
-1024 1:-0.0557129 2:-0.155448 3:0.00318719 4:0.441276 5:0.275392 6:0.493984 7:0.348168 8:0.142579 
-1024 1:-0.00570402 2:-0.135034 3:0.0859746 4:0.685166 5:0.436511 6:0.786937 7:0.702143 8:0.440455 
-1024 1:0.0437696 2:-0.107411 3:0.151099 4:0.661481 5:0.534891 6:0.628725 7:0.751713 8:0.497505 
-1024 1:0.0970015 2:-0.0731629 3:0.210948 4:0.754354 5:0.635896 6:0.695157 7:0.807715 8:0.566291 
-1024 1:0.136186 2:-0.0368223 3:0.229867 4:0.814685 5:0.72624 6:0.710169 7:0.807715 8:0.566291 
-327.1751482402682 1:0.168657 2:-0.000340371 3:0.231165 4:0.78432 5:0.77489 6:0.595505 7:0.825305 8:0.586268 
-12.80215511942452 1:0.195065 2:0.0622566 3:0.157857 4:0.601921 5:0.746136 6:0.272009 7:0.386935 8:0.395255 
511.9721831796927 1:0.203395 2:0.143456 3:-0.0040545 4:0.235685 5:0.413243 6:-0.0644008 7:0.593211 8:0.483592 
-157.57718772077 1:0.187851 2:0.148256 3:-0.0549551 4:-0.0454276 5:0.249792 6:-0.427394 7:-0.0163752 8:0.209762 
-1024 1:0.169768 2:0.147968 3:-0.100911 4:-0.236348 5:0.0680146 6:-0.59339 7:-0.107399 8:0.160047 
-1024 1:0.171731 2:0.148186 3:-0.0963438 4:0.067097 5:0.062552 6:0.0054418 7:0.386633 8:0.351781 
-1024 1:0.155385 2:0.144629 3:-0.130438 4:-0.101627 5:-0.00543458 6:-0.2467 7:-0.0654808 8:0.0903091 
-1024 1:0.122432 2:0.134263 3:-0.191958 4:-0.297696 5:-0.125532 6:-0.492944 7:-0.390569 8:-0.145592 
-1024 1:0.103633 2:0.121679 3:-0.211987 4:-0.273177 5:-0.196246 6:-0.364586 7:-0.144683 8:-0.0330283 
-1024 1:0.0863872 2:0.107675 3:-0.224811 4:-0.256831 5:-0.237156 6:-0.286108 7:-0.144683 8:-0.0330283 
-1024 1:0.0949935 2:0.0984366 3:-0.181766 4:0.108882 5:-0.12496 6:0.300435 7:0.32296 8:0.207354 
-1024 1:0.106653 2:0.0937071 3:-0.141035 4:0.46357 5:0.0851015 6:0.754075 7:0.412903 8:0.264411 
-1024 1:0.105882 2:0.0897476 3:-0.134079 4:0.441309 5:0.216653 6:0.560895 7:0.190829 8:0.149721 
-1024 1:0.11254 2:0.0880997 3:-0.113197 4:0.541455 5:0.342546 6:0.613209 7:0.346047 8:0.233786 
-1024 1:0.134769 2:0.0918548 3:-0.064389 4:0.641073 5:0.464465 6:0.669013 7:0.558007 8:0.371804 
-1024 1:0.171414 2:0.103223 3:0.00438281 4:0.780502 5:0.598917 6:0.788307 7:0.696391 8:0.487255 
-1024 1:0.189452 2:0.116434 3:0.0210364 4:0.752557 5:0.677895 6:0.643854 7:0.483724 8:0.374358 
-1024 1:0.192704 2:0.127746 3:0.00387177 4:0.65984 5:0.695187 6:0.4431 7:0.278212 8:0.264678 
-1024 1:0.296837 2:0.176612 3:0.161896 4:0.913219 5:0.854515 6:0.756625 7:0.726748 8:0.576123 
-1024 1:0.328499 2:0.206882 3:0.175136 4:0.824061 5:0.875562 6:0.558551 7:0.567026 8:0.483678 
-198.3133346558079 1:0.353152 2:0.236726 3:0.171278 4:0.788168 5:0.875905 6:0.488063 7:0.59575 8:0.502009 
-1024 1:0.322688 2:0.253647 3:0.0545466 4:0.463668 5:0.752382 6:-0.00510192 7:-0.148831 8:0.0340043 
-1024 1:0.313554 2:0.265099 3:0.00514232 4:0.312015 5:0.612199 6:-0.141745 7:0.0715985 8:0.14467 
-1024 1:0.308895 2:0.273197 3:-0.0251533 4:0.269125 5:0.502387 6:-0.100542 7:0.148209 8:0.183639 
-1024 1:0.300387 2:0.277734 3:-0.0573265 4:0.240531 5:0.418275 6:-0.060663 7:0.148209 8:0.183639 
-1024 1:0.288961 2:0.278756 3:-0.0890824 4:0.0963466 5:0.307213 6:-0.215861 7:0.148209 8:0.183639 
-1024 1:0.280324 2:0.277602 3:-0.108737 4:0.0537518 5:0.216928 6:-0.196302 7:0.230851 8:0.216291 
-1024 1:0.320963 2:0.285954 3:-0.0228612 4:0.405257 5:0.290789 6:0.406119 7:0.661676 8:0.465641 
-1024 1:0.335436 2:0.295939 3:-0.00810933 4:0.439394 5:0.353047 6:0.401936 7:0.403316 8:0.329786 
-1024 1:0.373785 2:0.31268 3:0.0529198 4:0.649415 5:0.474647 6:0.673719 7:0.592534 8:0.452566 
-1024 1:0.457637 2:0.345211 3:0.195564 4:0.823926 5:0.622265 6:0.84654 7:0.764717 8:0.602094 
-1024 1:0.573721 2:0.397732 3:0.376136 4:0.940266 5:0.765045 6:0.911264 7:0.84379 8:0.691748 
-1024 1:0.632028 2:0.453056 3:0.401467 4:0.922004 5:0.853267 6:0.775202 7:0.536408 8:0.497778 
-1024 1:0.641924 2:0.499575 3:0.321914 4:0.804425 5:0.867242 6:0.529672 7:0.241631 8:0.30688 
-1024 1:0.678183 2:0.545065 3:0.312629 4:0.867561 5:0.900636 6:0.614971 7:0.415997 8:0.40367 
-1024 1:0.707434 2:0.588134 3:0.290754 4:0.93831 5:0.949879 6:0.697101 7:0.45757 8:0.427363 
-1024 1:0.730865 2:0.627937 3:0.261251 4:0.910199 5:0.971988 6:0.617042 7:0.501892 8:0.451575 
-1024 1:0.71725 2:0.656672 3:0.161267 4:0.780914 5:0.937422 6:0.403888 7:0.193865 8:0.285637 
-1024 1:0.687158 2:0.672791 3:0.0473053 4:0.401544 5:0.769702 6:-0.146138 7:0.0678043 8:0.214867 
-1024 1:0.651935 2:0.677647 3:-0.0544417 4:0.110801 5:0.547011 6:-0.460522 7:0.0331343 8:0.196327 
-1024 1:0.570164 2:0.660243 3:-0.225883 4:-0.295949 5:0.106786 6:-0.753911 7:-0.18322 8:0.0763005 
-1024 1:0.52039 2:0.637585 3:-0.302996 4:-0.491163 5:-0.124499 6:-0.871952 7:-0.220538 8:0.0562528 
-1024 1:0.489008 2:0.612295 3:-0.326764 4:-0.484337 5:-0.276086 6:-0.686114 7:0.0542563 8:0.140668 
-1024 1:0.450072 2:0.583177 3:-0.361352 4:-0.53066 5:-0.394809 6:-0.641473 7:-0.0938617 8:0.0732121 
-1024 1:0.44535 2:0.558805 3:-0.318481 4:-0.112053 5:-0.314318 6:0.0844503 7:0.344277 8:0.245246 
-1024 1:0.425317 2:0.534734 3:-0.315752 4:0.0679097 5:-0.192027 6:0.296741 7:0.145276 8:0.153975 
-1024 1:0.398478 2:0.509352 3:-0.327601 4:0.125792 5:-0.0884249 6:0.291883 7:0.0458018 8:0.107824 
-1024 1:0.388941 2:0.48687 3:-0.301406 4:0.381704 5:0.0782379 6:0.602006 7:0.286263 8:0.206806 
-1024 1:0.422845 2:0.476622 3:-0.190883 4:0.592532 5:0.269748 6:0.795804 7:0.615238 8:0.405666 
-1024 1:0.41844 2:0.467419 3:-0.18145 4:0.556684 5:0.38375 6:0.596059 7:0.205322 8:0.189583 
-1024 1:0.386554 2:0.452778 3:-0.230568 4:0.374025 5:0.390093 6:0.232117 7:-0.0751217 8:0.0224952 
-1024 1:0.37072 2:0.437452 3:-0.236762 4:0.358093 5:0.388245 6:0.203104 7:0.083351 8:0.0982242 
-1024 1:0.337866 2:0.417692 3:-0.276811 4:0.141839 5:0.304543 6:-0.123976 7:-0.10799 8:-0.0113469 
-1024 1:0.294533 2:0.391994 3:-0.330459 4:-0.213001 5:0.113419 6:-0.599465 7:-0.252822 8:-0.0983739 
-1024 1:0.245963 2:0.360349 3:-0.384171 4:-0.527177 5:-0.133811 6:-0.931689 7:-0.362201 8:-0.166314 
-1024 1:0.223629 2:0.329936 3:-0.37305 4:-0.518334 5:-0.295259 6:-0.730689 7:-0.0430444 8:-0.0345962 
-1024 1:0.204729 2:0.301292 3:-0.35707 4:-0.488183 5:-0.391392 6:-0.562405 7:-0.00620855 8:-0.0186188 
-1024 1:0.216039 2:0.280958 3:-0.281999 4:-0.159809 5:-0.330252 6:0.00931674 7:0.342234 8:0.15531 
-1024 1:0.216139 2:0.264714 3:-0.245055 4:0.129211 5:-0.179272 6:0.401944 7:0.242059 8:0.111186 
-1024 1:0.227313 2:0.254269 3:-0.192667 4:0.421683 5:0.0329196 6:0.731655 7:0.394778 8:0.193579 
-1024 1:0.23959 2:0.248715 3:-0.148483 4:0.622029 5:0.250785 6:0.874991 7:0.462471 8:0.233075 
-1024 1:0.235214 2:0.243273 3:-0.147471 4:0.655444 5:0.408771 6:0.76046 7:0.209668 8:0.130427 
-1024 1:0.222806 2:0.236087 3:-0.163222 4:0.627646 5:0.503494 6:0.598375 7:0.0884001 8:0.0791848 
-1024 1:0.201765 2:0.225536 3:-0.193624 4:0.534002 5:0.530931 6:0.384269 7:-0.088915 8:0.00156016 
-342.1890655381645 1:0.20647 2:0.218169 3:-0.164861 4:0.714643 5:0.618112 6:0.637843 7:0.318699 8:0.175432 
-1024 1:0.189091 2:0.208309 3:-0.187382 4:0.456503 5:0.577788 6:0.179595 7:-0.0427997 8:0.00130961 
1024 1:0.241497 2:0.212382 3:-0.0615159 4:0.695318 5:0.64198 6:0.572939 7:0.533137 8:0.347333 
1024 1:0.275986 2:0.223513 3:0.00223693 4:0.770618 5:0.713491 6:0.638618 7:0.492721 8:0.325204 
1024 1:0.333284 2:0.245495 3:0.100267 4:0.757525 5:0.756172 6:0.564476 7:0.643038 8:0.442766 
-1024 1:0.542055 2:0.520242 3:0.0178484 4:0.679808 5:0.831213 6:0.3273 7:-0.0114574 8:0.131216 
-486.9113426582327 1:0.568518 2:0.536569 3:0.0491773 4:0.810441 5:0.854833 6:0.555542 7:0.376676 8:0.329573 
-927.1966258132716 1:0.676433 2:0.651458 3:0.0678415 4:0.724346 5:0.908422 6:0.326418 7:0.0479474 8:0.165327 
-1024 1:0.572576 2:0.642468 3:-0.179525 4:0.165805 5:0.660467 6:-0.482216 7:-0.410484 8:-0.183339 
-1024 1:0.547902 2:0.629644 3:-0.214156 4:0.147482 5:0.488176 6:-0.321933 7:0.00374931 8:0.0392021 
-1024 1:0.513544 2:0.611543 3:-0.261827 4:0.0564454 5:0.338597 6:-0.329501 7:-0.0429922 8:0.00804424 
-1024 1:0.467024 2:0.586445 3:-0.325041 4:-0.078876 5:0.187272 6:-0.42157 7:-0.129122 8:-0.0459432 
-1024 1:0.339502 2:0.53726 3:-0.542625 4:-0.437761 5:-0.050476 6:-0.851898 7:-0.534882 8:-0.343033 
-1024 1:0.212043 2:0.46882 3:-0.716564 4:-0.612337 5:-0.275551 6:-0.936701 7:-0.606184 8:-0.405071 
-1024 1:0.135742 2:0.396653 3:-0.750232 4:-0.627082 5:-0.431225 6:-0.78834 7:-0.363353 8:-0.289635 
-1024 1:0.0904622 2:0.328585 3:-0.713209 4:-0.566597 5:-0.51194 6:-0.578361 7:-0.216997 8:-0.218832 
-1024 1:0.0451724 2:0.263793 3:-0.68361 4:-0.511798 5:-0.544852 6:-0.433886 7:-0.267543 8:-0.245976 
-56.93744600739111 1:0.00535698 2:0.202873 3:-0.648643 4:-0.486679 5:-0.557215 6:-0.370762 7:-0.287018 8:-0.255682 
-1024 1:0.0100111 2:0.155198 3:-0.52898 4:-0.298722 5:-0.493776 6:-0.0758823 7:0.0907318 8:-0.0864191 
-1024 1:-0.0592921 2:0.0629697 3:-0.499308 4:-0.346698 5:-0.461963 6:-0.205781 7:-0.21038 8:-0.234089 
-1024 1:-0.0833134 2:-0.0144701 3:-0.386329 4:-0.0312623 5:-0.331515 6:0.2618 7:0.114228 8:-0.0769731 
-820.695678515199 1:-0.00259719 2:-0.0411381 3:-0.118073 4:0.616599 5:0.313222 6:0.793333 7:0.186995 8:-0.0188995 
1024 1:0.0900409 2:-0.00744293 3:0.0445872 4:0.625562 5:0.575701 6:0.512133 7:0.451566 8:0.185744 
1024 1:0.124242 2:0.0130181 3:0.086525 4:0.5838 5:0.59806 6:0.405129 7:0.376045 8:0.15328 
1024 1:0.135873 2:0.0320416 3:0.073539 4:0.469718 5:0.56946 6:0.214881 7:0.180127 8:0.0701932 
245.4721801577705 1:0.122239 2:0.0441486 3:0.0110585 4:0.255681 5:0.468767 6:-0.0885375 7:-0.0914051 8:-0.0560121 
1024 1:0.126211 2:0.0547408 3:-0.0026263 4:0.233724 5:0.393265 6:-0.0454957 7:0.108235 8:0.0317061 
125.8464567293222 1:0.0744083 2:0.0513909 3:-0.128572 4:-0.14312 5:0.199217 6:-0.56063 7:-0.402262 8:-0.253651 
1024 1:-0.0102178 2:0.00913239 3:-0.251244 4:-0.441292 5:-0.288891 6:-0.587477 7:-0.281978 8:-0.21934 
235.10213997714 1:-0.0293759 2:-0.021723 3:-0.230936 4:-0.329522 5:-0.373659 6:-0.272728 7:-0.0752138 8:-0.129822 
1024 1:-0.0587022 2:-0.0401617 3:-0.264877 4:-0.416062 5:-0.416155 6:-0.393377 7:-0.360455 8:-0.265771 
1024 1:-0.156833 2:-0.0773102 3:-0.433894 4:-0.62438 5:-0.52393 6:-0.677564 7:-0.773858 8:-0.575081 
7.82739480005644 1:-0.2384 2:-0.253117 3:-0.247077 4:-0.13232 5:-0.469526 6:0.221497 7:0.149957 8:-0.0998765 
1024 1:-0.244596 2:-0.267705 3:-0.2301 4:-0.126595 5:-0.369675 6:0.119045 7:-0.17164 8:-0.251087 
1024 1:-0.277793 2:-0.286953 3:-0.272189 4:-0.320947 5:-0.377226 6:-0.251923 7:-0.402372 8:-0.37944 
-1024 1:-0.486058 2:-0.442206 3:-0.458333 4:-0.359728 5:-0.565706 6:-0.113169 7:-0.116328 8:-0.292188 
-216.1707810788223 1:-0.500787 2:-0.47745 3:-0.416695 4:-0.260294 5:-0.484783 6:-0.0110697 7:-0.266334 8:-0.374829 
-1024 1:-0.493055 2:-0.503882 3:-0.337078 4:-0.137897 5:-0.384156 6:0.113453 7:-0.141653 8:-0.302495 
-482.865958691447 1:-0.326486 2:-0.378499 3:-0.19094 4:-0.382074 5:-0.23719 6:-0.530663 7:-0.442483 8:-0.390904 
-1024 1:-0.357949 2:-0.393884 3:-0.237286 4:-0.410862 5:-0.323193 6:-0.489013 7:-0.457347 8:-0.399844 
-1024 1:-0.494438 2:-0.460257 3:-0.439162 4:-0.788184 5:-0.625755 6:-0.881589 7:-0.739375 8:-0.595549 
-1024 1:-0.538521 2:-0.500504 3:-0.461884 4:-0.850928 5:-0.75006 6:-0.862666 7:-0.698011 8:-0.578673 
-1024 1:-0.592254 2:-0.583407 3:-0.413143 4:-0.731579 5:-0.868476 6:-0.494825 7:-0.113527 8:-0.314654 
-132.2755152706196 1:-0.53262 2:-0.613116 3:-0.192352 4:-0.257682 5:-0.618744 6:0.14648 7:-0.0768275 8:-0.271482 
-1024 1:-0.490759 2:-0.61189 3:-0.0872335 4:-0.00256538 5:-0.421853 6:0.42065 7:0.0928694 8:-0.173918 
-1024 1:-0.416459 2:-0.593951 3:0.0637457 4:0.336651 5:-0.161229 6:0.786534 7:0.337547 8:-0.0121227 
-729.885506053128 1:-0.379665 2:-0.571201 3:0.107198 4:0.431243 5:0.0485936 6:0.732488 7:0.0651955 8:-0.129967 
-1024 1:-0.423529 2:-0.549444 3:-0.05499 4:0.0101357 5:0.0870003 6:-0.133624 7:-0.463551 8:-0.41371 
-1024 1:-0.383114 2:-0.536383 3:0.0196758 4:0.1741 5:0.116016 6:0.153572 7:0.0530059 8:-0.123101 
-518.6385858769888 1:-0.342515 2:-0.504694 3:0.0527453 4:0.0850906 5:0.0981018 6:0.000126518 7:-0.0348432 8:-0.168735 
-1024 1:-0.343513 2:-0.491544 3:0.0204767 4:-0.06973 5:0.0304296 6:-0.22522 7:-0.206501 8:-0.250226 
-1024 1:-0.32185 2:-0.47608 3:0.0413836 4:-0.0349599 5:-0.00142516 6:-0.121065 7:-0.0112969 8:-0.156365 
-1024 1:0.110244 2:-0.174646 3:0.474268 4:0.856485 5:0.701303 6:0.820182 7:0.590326 8:0.311265 
-122.9156732672399 1:0.188754 2:-0.10602 3:0.521627 4:0.927219 5:0.812761 6:0.831482 7:0.656694 8:0.366908 
47.18760909338898 1:0.295006 2:0.178286 3:0.153396 4:0.350206 5:0.594461 6:-0.0469739 7:0.128703 8:0.119545 
1024 1:0.275706 2:0.196172 3:0.0632611 4:0.171693 5:0.453405 6:-0.235079 7:-0.0662662 8:0.0237092 
-1024 1:0.10465 2:0.162651 3:-0.301899 4:-0.558959 5:-0.227831 6:-0.886761 7:-0.542412 8:-0.282888 
-1024 1:-0.075448 2:-0.0635853 3:-0.255137 4:-0.123424 5:-0.212 6:-0.0541957 7:-0.230395 8:-0.213383 
-1024 1:-0.0879706 2:-0.0803318 3:-0.249591 4:-0.188042 5:-0.221425 6:-0.169667 7:-0.230395 8:-0.213383 
-1024 1:-0.0782498 2:-0.0915103 3:-0.199292 4:0.0172501 5:-0.149417 6:0.149315 7:0.156049 8:-0.0549136 
-890.1697823883821 1:-0.0735592 2:-0.0993825 3:-0.169425 4:0.123065 5:-0.0610585 6:0.255414 7:0.0951175 8:-0.0768153 
560.8353477541048 1:-0.0281699 2:-0.0953205 3:-0.0616164 4:0.392733 5:0.100688 6:0.597997 7:0.546212 8:0.194316 
1024 1:0.024371 2:-0.0729843 3:0.0233536 4:0.489066 5:0.317488 6:0.539411 7:0.42213 8:0.1606 
1024 1:-0.0231957 2:-0.069988 3:-0.106007 4:-0.0806203 5:-0.0315602 6:-0.175944 7:0.132942 8:0.000437792 
1024 1:0.0244766 2:-0.0634624 3:0.00212162 4:0.448298 5:0.20074 6:0.592652 7:0.529284 8:0.209087 
1024 1:0.111796 2:-0.0346382 3:0.162074 4:0.65941 5:0.37692 6:0.804451 7:0.775055 8:0.456311 
1024 1:0.190015 2:0.0062741 3:0.271273 4:0.752973 5:0.530055 6:0.812907 7:0.801027 8:0.491625 
-1024 1:0.400518 2:0.127865 3:0.539203 4:0.986292 5:0.824775 6:0.933176 7:0.91372 8:0.681266 
-154.5368571110763 1:0.491797 2:0.205156 3:0.599904 4:1 5:0.922832 6:0.848359 7:0.83617 8:0.638308 
1024 1:0.504982 2:0.449036 3:0.0831097 4:0.294453 5:0.641836 6:-0.20977 7:0.0663743 8:0.190881 
1024 1:0.528911 2:0.470564 3:0.0961634 4:0.444725 5:0.589112 6:0.143704 7:0.429521 8:0.362936 
1024 1:0.525399 2:0.486985 3:0.050028 4:0.346713 5:0.516585 6:0.0348274 7:0.219752 8:0.248569 
1024 1:0.530224 2:0.501223 3:0.0303081 4:0.394956 5:0.486631 6:0.163131 7:0.33105 8:0.302387 
1024 1:0.404904 2:0.478411 3:-0.241162 4:-0.212232 5:0.0991634 6:-0.58174 7:-0.154259 8:-0.0502228 
1024 1:0.358927 2:0.455266 3:-0.307389 4:-0.328496 5:-0.0675459 6:-0.619083 7:-0.192885 8:-0.0756192 
1024 1:0.339827 2:0.432391 3:-0.304954 4:-0.25738 5:-0.151564 6:-0.384582 7:0.0214027 8:0.0247359 
1024 1:0.31469 2:0.408354 3:-0.315453 4:-0.242997 5:-0.202092 6:-0.298993 7:-0.0341043 8:-0.00474012 
1024 1:0.302491 2:0.386339 3:-0.297179 4:-0.150838 5:-0.200631 6:-0.120673 7:0.0996236 8:0.0544073 
1024 1:0.325395 2:0.373956 3:-0.210179 4:0.158311 5:-0.0817594 6:0.347807 7:0.393662 8:0.209521 
1024 1:0.325883 2:0.36416 3:-0.186799 4:0.364008 5:0.0759329 6:0.570069 7:0.209193 8:0.123965 
-1024 1:0.234153 2:0.321465 3:-0.326795 4:0.0246391 5:0.0843946 6:-0.102334 7:-0.317981 8:-0.168061 
-937.8745379024501 1:0.198566 2:0.293108 3:-0.354473 4:-0.174711 5:-0.0187441 6:-0.374284 7:-0.213858 8:-0.125989 
1024 1:0.159638 2:0.261538 3:-0.383503 4:-0.501651 5:-0.212185 6:-0.792646 7:-0.297679 8:-0.17056 
1024 1:0.106122 2:0.224067 3:-0.436806 4:-0.69805 5:-0.416045 6:-0.944213 7:-0.493351 8:-0.284543 
1024 1:0.121241 2:0.197541 3:-0.337934 4:-0.299062 5:-0.399793 6:-0.183501 7:0.199051 8:0.0422142 
1024 1:0.147751 2:0.182371 3:-0.23535 4:0.109906 5:-0.232994 6:0.42538 7:0.314867 8:0.115158 
1024 1:0.0205196 2:0.0717265 3:-0.313386 4:-0.249755 5:-0.223648 6:-0.28766 7:-0.258396 8:-0.200766 
1024 1:0.0379918 2:0.0566677 3:-0.234346 4:0.030439 5:-0.14587 6:0.171035 7:0.214524 8:0.0214266 
1024 1:0.0573626 2:0.0490418 3:-0.167199 4:0.281915 5:0.00188551 6:0.494011 7:0.278108 8:0.0577508 
1024 1:0.087932 2:0.0499184 3:-0.0903924 4:0.534574 5:0.196743 6:0.765694 7:0.415995 8:0.140469 
1024 1:0.0971312 2:0.0527193 3:-0.0730087 4:0.514517 5:0.318999 6:0.587396 7:0.18835 8:0.0476702 
1024 1:0.106863 2:0.0571813 3:-0.058003 4:0.539954 5:0.410204 6:0.533281 7:0.243462 8:0.0744633 
1024 1:0.109453 2:0.0613421 3:-0.0607246 4:0.499841 5:0.45571 6:0.403157 7:0.186876 8:0.0535533 
1024 1:0.103935 2:0.0634111 3:-0.0796198 4:0.427443 5:0.458438 6:0.258663 7:0.0637077 8:0.00931455 
295.514156035975 1:0.0623313 2:0.0555707 3:-0.169138 4:0.0595828 5:0.319968 6:-0.302174 7:-0.477233 8:-0.255322 
275.4884819848509 1:0.0152765 2:0.0385584 3:-0.251992 4:-0.345455 5:0.07319 6:-0.812361 7:-0.588564 8:-0.332581 
770.7131685647702 1:-0.0355129 2:0.0133562 3:-0.325976 4:-0.492 5:-0.147215 6:-0.847735 7:-0.684607 8:-0.405864 
1024 1:-0.0464391 2:-0.00929931 3:-0.302971 4:-0.378017 5:-0.250684 6:-0.507384 7:-0.110899 8:-0.166356 
1024 1:-0.0359409 2:-0.0250276 3:-0.240393 4:-0.160909 5:-0.236866 6:-0.0991046 7:0.134678 8:-0.035661 
1024 1:-0.0311234 2:-0.0365107 3:-0.202044 4:0.0120541 5:-0.161693 6:0.153137 7:0.0919034 8:-0.0547951 
1024 1:-0.0159138 2:-0.0422257 3:-0.149937 4:0.224383 5:-0.0306039 6:0.418626 7:0.248683 8:0.0279611 
1024 1:-0.0349458 2:-0.0511416 3:-0.178853 4:0.185755 5:0.0420578 6:0.260498 7:-0.227364 8:-0.199077 
1024 1:-0.0632077 2:-0.0647249 3:-0.221016 4:0.0491236 5:0.0383931 6:-0.00216662 7:-0.366056 8:-0.279555 
1024 1:-0.0771819 2:-0.0893626 3:-0.20139 4:0.126463 5:0.0688472 6:0.114216 7:-0.0647913 8:-0.143456 
1024 1:-0.0953803 2:-0.102645 3:-0.218297 4:-0.230308 5:-0.0503117 6:-0.446939 7:-0.298543 8:-0.255666 
1024 1:-0.0751242 2:-0.108647 3:-0.152535 4:-0.00951633 5:-0.0455496 6:-0.0211608 7:0.203488 8:-0.000521879 
1024 1:-0.0398684 2:-0.105402 3:-0.068998 4:0.352298 5:0.095607 6:0.524811 7:0.375848 8:0.113808 
1024 1:-0.000711454 2:-0.0938693 3:0.00587491 4:0.599083 5:0.283826 6:0.792578 7:0.466107 8:0.178961 
1024 1:0.090715 2:-0.0637753 3:0.173545 4:0.677703 5:0.439287 6:0.769203 7:0.719566 8:0.41706 
1024 1:0.164943 2:-0.022758 3:0.272221 4:0.694401 5:0.549296 6:0.676622 7:0.732276 8:0.431709 
1024 1:0.279476 2:0.0361971 3:0.434264 4:0.853916 5:0.683468 6:0.83546 7:0.840625 8:0.574334 
1024 1:0.404419 2:0.111878 3:0.58536 4:0.9289 5:0.801512 6:0.847566 7:0.880819 8:0.641062 
1024 1:0.481467 2:0.190009 3:0.607488 4:0.850859 5:0.850446 6:0.639468 7:0.666493 8:0.523016 
1024 1:0.577222 2:0.274369 3:0.663759 4:0.914699 5:0.907415 6:0.699313 7:0.757348 8:0.600188 
1024 1:0.644331 2:0.357174 3:0.649714 4:0.951761 5:0.959528 6:0.712389 7:0.757348 8:0.600188 
1024 1:0.648506 2:0.424371 3:0.508716 4:0.843835 5:0.953112 6:0.508917 7:0.212793 8:0.301986 
1024 1:0.623188 2:0.47235 3:0.335109 4:0.694819 5:0.892006 6:0.287434 7:0.0066489 8:0.173803 
1024 1:0.649541 2:0.516748 3:0.302761 4:0.747139 5:0.871221 6:0.413265 7:0.347048 8:0.337409 
1024 1:0.676349 2:0.558385 3:0.277821 4:0.859786 5:0.900323 6:0.600142 7:0.415348 8:0.374918 
1024 1:0.653549 2:0.586491 3:0.155585 4:0.645749 5:0.838099 6:0.252947 7:0.050241 8:0.162573 
1024 1:0.604558 2:0.597794 3:0.00379295 4:0.323943 5:0.673893 6:-0.188657 7:-0.139012 8:0.0413884 
1024 1:0.565399 2:0.597899 3:-0.0973669 4:0.187399 5:0.512349 6:-0.271485 7:-0.068599 8:0.0702317 
1024 1:0.556737 2:0.596005 3:-0.115415 4:0.348097 5:0.465938 6:0.0951678 7:0.183713 8:0.179901 
1024 1:0.50751 2:0.583255 3:-0.213492 4:0.161547 5:0.363853 6:-0.152984 7:-0.156999 8:-0.0142804 
1024 1:0.469274 2:0.564327 3:-0.269294 4:0.100112 5:0.272369 6:-0.168854 7:-0.082716 8:0.0167673 
1024 1:0.425185 2:0.539122 3:-0.326001 4:-0.253755 5:0.0764274 6:-0.63696 7:-0.161745 8:-0.026027 
1024 1:0.369565 2:0.506263 3:-0.395142 4:-0.554347 5:-0.168834 6:-0.944894 7:-0.315992 8:-0.111733 
1024 1:0.345272 2:0.474432 3:-0.385864 4:-0.456219 5:-0.294919 6:-0.609768 7:0.00779335 8:0.0127951 
1024 1:0.417806 2:0.465522 3:-0.178801 4:0.0868365 5:-0.171876 6:0.310772 7:0.548882 8:0.335388 
1024 1:0.471022 2:0.47054 3:-0.0529802 4:0.39138 5:0.0262938 6:0.680015 7:0.556632 8:0.341519 
1024 1:0.493598 2:0.479707 3:-0.0154972 4:0.522542 5:0.208427 6:0.728901 7:0.391504 8:0.262269 
869.3961913819624 1:0.581299 2:0.507058 3:0.148765 4:0.665424 5:0.384339 6:0.807754 7:0.652568 8:0.447726 
1024 1:0.644534 2:0.543372 3:0.229731 4:0.769918 5:0.541463 6:0.833019 7:0.658476 8:0.452658 
1024 1:0.682915 2:0.581183 3:0.243259 4:0.798421 5:0.657083 6:0.757108 7:0.620907 8:0.435593 
1024 1:0.731182 2:0.622448 3:0.274463 4:0.829183 5:0.745894 6:0.716117 7:0.705261 8:0.496101 
1024 1:0.727052 2:0.654518 3:0.191394 4:0.737346 5:0.770078 6:0.509241 7:0.247153 8:0.276401 
1024 1:0.6993 2:0.67384 3:0.0762307 4:0.609126 5:0.737303 6:0.296132 7:0.0730879 8:0.183515 
1024 1:0.685633 2:0.686178 3:0.0131443 4:0.496618 5:0.672547 6:0.150101 7:0.215907 8:0.241997 
1024 1:0.658329 2:0.689816 3:-0.0654432 4:0.366869 5:0.579895 6:0.00214577 7:0.112026 8:0.191657 
1024 1:0.635549 2:0.687528 3:-0.118985 4:0.230609 5:0.466163 6:-0.134537 7:0.189296 8:0.220233 
1024 1:0.484977 2:0.65133 3:-0.425306 4:-0.107957 5:0.261225 6:-0.562523 7:-0.671601 8:-0.37501 
454.1932972193345 1:0.343116 2:0.548566 3:-0.558845 4:-0.187203 5:-0.0316652 6:-0.383976 7:-0.1118 8:-0.0965032 
1024 1:0.262866 2:0.489465 3:-0.632203 4:-0.28281 5:-0.137342 6:-0.450432 7:-0.341066 8:-0.248861 
1024 1:0.194855 2:0.377926 3:-0.555588 4:-0.108451 5:-0.189242 6:-0.0508534 7:0.0387309 8:-0.0552126 
1024 1:0.184832 2:0.335142 3:-0.484798 4:0.0103445 5:-0.130596 6:0.114409 7:0.0387309 8:-0.0552126 
379.5393874465132 1:0.12388 2:0.287004 3:-0.533175 4:-0.123105 5:-0.14239 6:-0.132789 7:-0.33257 8:-0.255205 
1024 1:0.101038 2:0.20733 3:-0.41211 4:0.101495 5:-0.0601439 6:0.212248 7:0.0934387 8:-0.0443532 
1024 1:0.0977487 2:0.178789 3:-0.356132 4:0.18699 5:0.0228354 6:0.284785 7:0.0438881 8:-0.0669604 
1024 1:0.142383 2:0.166144 3:-0.21254 4:0.515642 5:0.20349 6:0.721043 7:0.362394 8:0.112782 
1024 1:0.226537 2:0.175236 3:-0.0161801 4:0.712246 5:0.398904 6:0.882621 7:0.556364 8:0.258513 
1024 1:0.30097 2:0.199498 3:0.120861 4:0.788197 5:0.558144 6:0.849734 7:0.593197 8:0.289392 
1024 1:0.384317 2:0.237931 3:0.248876 4:0.916447 5:0.713214 6:0.92373 7:0.674315 8:0.360418 
1024 1:0.416591 2:0.276044 3:0.245983 4:0.869647 5:0.798746 6:0.734996 7:0.335667 8:0.208457 
1024 1:0.393585 2:0.301283 3:0.129689 4:0.688507 5:0.786688 6:0.39496 7:-0.0561026 8:0.0040535 
1024 1:0.382156 2:0.318866 3:0.0605236 4:0.558928 5:0.729232 6:0.20728 7:0.0374378 8:0.046713 
1024 1:0.444484 2:0.347158 3:0.157267 4:0.740772 5:0.760277 6:0.527086 7:0.42923 8:0.263912 
1024 1:0.499331 2:0.38231 3:0.219238 4:0.872703 5:0.831287 6:0.703932 7:0.472517 8:0.292789 
1024 1:0.537761 2:0.419203 3:0.234965 4:0.95814 5:0.911209 6:0.779835 7:0.482332 8:0.298901 
1024 1:0.52068 2:0.444819 3:0.133092 4:0.780785 5:0.896854 6:0.449805 7:0.0405794 8:0.0880551 
1024 1:0.410643 2:0.440197 3:-0.140067 4:0.288227 5:0.699442 6:-0.287486 7:-0.473079 8:-0.254727 
104.2629969461514 1:0.233998 2:0.396181 3:-0.495932 4:-0.0144403 5:0.452408 6:-0.597456 7:-0.700768 8:-0.468542 
879.5319032495623 1:-0.00368004 2:0.158483 3:-0.571686 4:-0.0585725 5:-0.0139494 6:-0.152927 7:-0.222472 8:-0.234584 
1024 1:0.0172514 2:0.121339 3:-0.433854 4:0.084056 5:0.0143768 6:0.0933856 7:0.0771048 8:-0.0626093 
1024 1:-0.0150564 2:0.0842501 3:-0.433359 4:0.0554439 5:0.0223494 6:0.0284345 7:-0.161708 8:-0.195958 
1024 1:0.0205426 2:0.0627038 3:-0.29295 4:0.365495 5:0.145906 6:0.493344 7:0.120592 8:-0.0313681 
1024 1:0.0468652 2:0.0514748 3:-0.199749 4:0.625064 5:0.327266 6:0.793881 7:0.120592 8:-0.0313681 
1024 1:0.0631371 2:0.0462055 3:-0.145911 4:0.788042 5:0.510326 6:0.903847 7:0.101636 8:-0.0398253 
1024 1:-0.0453502 2:0.0172287 3:-0.360075 4:0.155403 5:0.391103 6:-0.195993 7:-0.488758 8:-0.369241 
1024 1:-0.153511 2:-0.0306398 3:-0.530733 4:-0.281574 5:0.144975 6:-0.769297 7:-0.554399 8:-0.417065 
582.7653536967723 1:-0.322258 2:-0.10745 3:-0.792179 4:-0.533293 5:-0.115107 6:-0.964918 7:-0.744056 8:-0.573086 
1024 1:-0.568317 2:-0.421776 3:-0.716477 4:-0.639613 5:-0.638893 6:-0.576485 7:-0.185714 8:-0.311666 
1024 1:-0.709223 2:-0.508681 3:-0.88337 4:-0.799266 5:-0.739117 6:-0.774225 7:-0.604489 8:-0.560331 
1024 1:-0.821718 2:-0.674345 3:-0.79917 4:-0.701511 5:-0.815198 6:-0.496732 7:-0.326921 8:-0.41588 
885.3896544852099 1:-0.987105 2:-0.77416 3:-1 4:-0.85285 5:-0.877088 6:-0.721861 7:-0.679318 8:-0.636688 
1024 1:-0.975211 2:-0.917535 3:-0.645551 4:-0.403342 5:-0.716527 6:-0.0267093 7:-0.121663 8:-0.30434 
1024 1:-0.864073 2:-0.940631 3:-0.306953 4:0.0112079 5:-0.48179 6:0.515756 7:0.142796 8:-0.131368 
1024 1:-0.857872 2:-0.957693 3:-0.25244 4:0.0253008 5:-0.319924 6:0.359075 7:-0.170872 8:-0.291022 
1024 1:-0.819743 2:-0.962639 3:-0.142997 4:0.154577 5:-0.162712 6:0.432638 7:-0.0796665 8:-0.238103 
1024 1:-0.811657 2:-0.964751 3:-0.117388 4:0.142719 5:-0.0624266 6:0.295355 7:-0.191276 8:-0.292315 
1024 1:-0.757274 2:-0.951871 3:-0.00631556 4:0.197629 5:0.0720868 6:0.249514 7:-0.0930066 8:-0.247104 
1024 1:-0.929359 2:-0.994462 3:-0.353643 4:-0.418177 5:-0.273959 6:-0.559327 7:-0.711994 8:-0.556216 
-609.1101612209861 1:-0.849015 2:-0.998736 3:-0.136921 4:-0.0642022 5:-0.215503 6:0.0654476 7:0.0663999 8:-0.175258 
1024 1:-0.731818 2:-0.971018 3:0.102534 4:0.303725 5:0.0276222 6:0.507317 7:0.0894055 8:-0.146554 
1024 1:-0.643691 2:-0.933117 3:0.244069 4:0.507226 5:0.203472 6:0.704628 7:0.171439 8:-0.0984708 
1024 1:-0.558712 2:-0.883401 3:0.350806 4:0.685199 5:0.388577 6:0.841552 7:0.215604 8:-0.0734609 
1024 1:-0.506965 2:-0.831816 3:0.367678 4:0.74527 5:0.534889 6:0.792364 7:0.0554379 8:-0.131771 
231.5775970968068 1:-0.476876 2:-0.783682 3:0.336518 4:0.741384 5:0.630948 6:0.675458 7:-0.0639047 8:-0.176238 
987.3806437450695 1:-0.491412 2:-0.748491 3:0.219581 4:0.614315 5:0.646528 6:0.409567 7:-0.34556 8:-0.296248 
858.0186472420748 1:-0.580473 2:-0.740667 3:-0.0276268 4:0.0562635 5:0.444096 6:-0.449915 7:-0.655509 8:-0.483348 
-316.921196051396 1:-0.785499 2:-0.796586 3:-0.429755 4:-0.537755 5:-0.0919371 6:-1 7:-0.788142 8:-0.59177 
-534.7073089924535 1:-0.726874 2:-0.812557 3:-0.242591 4:-0.316001 5:-0.190181 6:-0.455121 7:0.0259825 8:-0.187614 
993.5405906231616 1:-0.713721 2:-0.822333 3:-0.186615 4:-0.275256 5:-0.240139 6:-0.318697 7:-0.154647 8:-0.278417 
1024 1:-0.577201 2:-0.796232 3:0.106293 4:0.16934 5:-0.0901036 6:0.378841 7:0.182395 8:-0.0803239 
1024 1:-0.58066 2:-0.778902 3:0.0582421 4:0.110622 5:-0.0262616 6:0.191514 7:-0.205894 8:-0.269106 
1024 1:-0.560705 2:-0.760483 3:0.0680739 4:0.156393 5:0.0337552 6:0.212604 7:-0.114016 8:-0.221067 
1024 1:-0.475459 2:-0.726292 3:0.210561 4:0.463347 5:0.190827 6:0.633325 7:0.177082 8:-0.0560875 
1024 1:-0.412036 2:-0.684462 3:0.279556 4:0.632388 5:0.360007 6:0.770927 7:0.129011 8:-0.0769994 
1024 1:-0.411126 2:-0.650791 3:0.205859 4:0.409569 5:0.387819 6:0.30412 7:-0.178583 8:-0.218181 
1024 1:-0.399613 2:-0.621227 3:0.168763 4:0.220509 5:0.33426 6:-0.00415665 7:-0.129924 8:-0.19598 
1024 1:-0.419652 2:-0.602149 3:0.0740312 4:-0.12987 5:0.164934 6:-0.495737 7:-0.31571 8:-0.283769 
1024 1:-0.463968 2:-0.592015 3:-0.0630701 4:-0.343941 5:-0.191767 6:-0.507883 7:-0.244164 8:-0.272733 
1024 1:-0.548159 2:-0.60811 3:-0.243706 4:-0.614471 5:-0.370559 6:-0.832749 7:-0.606543 8:-0.476849 
1024 1:-0.6539 2:-0.645121 3:-0.43265 4:-0.794824 5:-0.558533 6:-0.971055 7:-0.719913 8:-0.562519 
1024 1:-0.740445 2:-0.723113 3:-0.479567 4:-0.757557 5:-0.727939 6:-0.705489 7:-0.49665 8:-0.475244 
1024 1:-0.625976 2:-0.74593 3:-0.133015 4:-0.133883 5:-0.49416 6:0.246478 7:0.0204776 8:-0.180989 
963.6813891730676 1:-0.613533 2:-0.746164 3:-0.100419 4:-0.0863524 5:-0.370751 6:0.198862 7:-0.152348 8:-0.262417 
1024 1:-0.553434 2:-0.732633 3:0.0239186 4:0.233264 5:-0.166589 6:0.590723 7:0.0827631 8:-0.133688 
1024 1:-0.536136 2:-0.71786 3:0.0351381 4:0.271081 5:-0.0160587 6:0.493273 7:-0.120709 8:-0.226867 
281.3582997274265 1:-0.557535 2:-0.710927 3:-0.0356738 4:0.0959924 5:0.0175226 6:0.113117 7:-0.316881 8:-0.325467 
1024 1:-0.696486 2:-0.778235 3:-0.241784 4:-0.631398 5:-0.607697 6:-0.595943 7:-0.413369 8:-0.415399 
389.1360525477624 1:-0.407204 2:-0.66765 3:0.254042 4:0.38001 5:0.0573523 6:0.622466 7:0.485514 8:0.0470935 
28.76037921328271 1:-0.284893 2:-0.60853 3:0.435757 4:0.631804 5:0.270801 6:0.871302 7:0.669725 8:0.217513 
1024 1:-0.154874 2:-0.531558 3:0.597021 4:0.781945 5:0.470358 6:0.937424 7:0.741379 8:0.303225 
596.1102771164595 1:0.0119798 2:-0.431897 3:0.801981 4:0.872271 5:0.637842 6:0.923228 7:0.832324 8:0.439629 
1024 1:0.0319849 2:-0.347602 3:0.66317 4:0.580416 5:0.638197 6:0.352845 7:-0.0117664 8:-0.0242012 
807.7217622376801 1:-0.00369957 2:-0.288311 3:0.437298 4:0.21419 5:0.498769 6:-0.20371 7:-0.233132 8:-0.174945 
1024 1:-0.0478473 2:-0.250954 3:0.239151 4:-0.0789817 5:0.294013 6:-0.543248 7:-0.295395 8:-0.217485 
1024 1:-0.132884 2:-0.240478 3:-0.00367398 4:-0.437831 5:0.0206576 6:-0.932986 7:-0.483662 8:-0.350155 
1024 1:-0.243678 2:-0.28639 3:-0.185536 4:-0.630188 5:-0.66161 6:-0.532227 7:-0.145796 8:-0.203616 
1024 1:-0.190766 2:-0.282038 3:-0.0589947 4:-0.213317 5:-0.530803 6:0.133047 7:0.225686 8:-0.0129237 
1024 1:-0.116192 2:-0.261535 3:0.0869009 4:0.210599 5:-0.281934 6:0.677723 7:0.375289 8:0.0825146 
1024 1:-0.0677077 2:-0.234067 3:0.149826 4:0.442314 5:-0.0276538 6:0.84088 7:0.270028 8:0.0398621 
1024 1:-0.154432 2:-0.231886 3:-0.0786128 4:-0.0394047 5:-0.0418426 6:-0.0837502 7:-0.465725 8:-0.360512 
1024 1:-0.199606 2:-0.240453 3:-0.175694 4:-0.246036 5:-0.130103 6:-0.386851 7:-0.312353 8:-0.282928 
1024 1:-0.242466 2:-0.295375 3:-0.16212 4:-0.352122 5:-0.434823 6:-0.24726 7:0.10698 8:-0.0975977 
1024 1:-0.211933 2:-0.294057 3:-0.0864045 4:-0.205973 5:-0.376812 6:-0.0278551 7:0.143927 8:-0.0788349 
1024 1:-0.216726 2:-0.294097 3:-0.0986682 4:-0.263773 5:-0.360179 6:-0.159662 7:-0.161661 8:-0.202154 
1024 1:-0.229277 2:-0.296993 3:-0.124476 4:-0.258134 5:-0.346941 6:-0.163715 7:-0.250108 8:-0.241658 
1024 1:-0.304873 2:-0.316565 3:-0.275108 4:-0.302408 5:-0.355 6:-0.241009 7:-0.636535 8:-0.465762 
348.5794574021688 1:-0.384306 2:-0.350352 3:-0.403528 4:-0.436184 5:-0.411389 6:-0.438097 7:-0.714186 8:-0.526117 
-1024 1:-0.566329 2:-0.496946 3:-0.541588 4:-0.832981 5:-0.765667 6:-0.809856 7:-0.562061 8:-0.511036 
-3.054909332863608 1:-0.792109 2:-0.686349 3:-0.695748 4:-0.904373 5:-1 6:-0.682609 7:-0.869242 8:-0.730623 
-1024 1:-0.726133 2:-0.795241 3:-0.279787 4:-0.121031 5:-0.577514 6:0.366433 7:0.0082683 8:-0.307904 
-357.1259009869071 1:-0.663752 2:-0.799614 3:-0.109136 4:0.226457 5:-0.127666 6:0.533135 7:-0.277984 8:-0.394493 
-1024 1:-0.633055 2:-0.793566 3:-0.043679 4:0.329136 5:0.0320297 6:0.551928 7:-0.0758067 8:-0.288267 
-1024 1:-0.59071 2:-0.779063 3:0.0327032 4:0.460182 5:0.188469 6:0.629826 7:0.0425307 8:-0.223542 
-1024 1:-0.562068 2:-0.760923 3:0.0655555 4:0.497471 5:0.306983 6:0.567781 7:-0.0752981 8:-0.268887 
-1024 1:-0.544488 2:-0.742399 3:0.0690285 4:0.361626 5:0.334186 6:0.271523 7:-0.193363 8:-0.31493 
-1024 1:-0.523362 2:-0.722758 3:0.0791208 4:0.210723 5:0.294773 6:0.021668 7:-0.153628 8:-0.298573 
-1024 1:-0.497213 2:-0.701076 3:0.0975482 4:0.105828 5:0.228495 6:-0.107761 7:-0.0649775 8:-0.263642 
-1024 1:-0.519571 2:-0.688834 3:0.0122784 4:-0.314624 5:0.0239651 6:-0.696132 7:-0.580999 8:-0.489347 
-154.6382354852513 1:-0.564779 2:-0.689359 3:-0.103052 4:-0.56118 5:-0.206415 6:-0.915472 7:-0.744882 8:-0.603755 
-718.3625982406704 1:-0.80996 2:-0.765213 3:-0.56365 4:-0.794804 5:-0.573998 6:-0.953418 7:-1 8:-0.889626 
-1024 1:-0.840037 2:-0.813287 3:-0.532597 4:-0.638913 5:-0.634701 6:-0.579888 7:-0.369337 8:-0.505195 
-1024 1:-0.875227 2:-0.859779 3:-0.518296 4:-0.588261 5:-0.655853 6:-0.456896 7:-0.445553 8:-0.550924 
-1024 1:-0.941334 2:-0.912061 3:-0.570601 4:-0.700503 5:-0.712759 6:-0.611341 7:-0.603609 8:-0.649278 
-1024 1:-0.92166 2:-0.949396 3:-0.435578 4:-0.574979 5:-0.702826 6:-0.377501 7:-0.169765 8:-0.378898 
-32.87669086618748 1:-0.951702 2:-0.986121 3:-0.430066 4:-0.663391 5:-0.729922 6:-0.519332 7:-0.393769 8:-0.503973 
-1024 1:-0.88379 2:-1 3:-0.223691 4:-0.338351 5:-0.624028 6:-0.00505015 7:0.0253504 8:-0.222492 
-1024 1:-0.83426 2:-0.999799 3:-0.0964921 4:-0.0424849 5:-0.4406 6:0.364022 7:-0.0377922 8:-0.254924 
-1024 1:-0.772384 2:-0.985515 3:0.0307235 4:0.237919 5:-0.211379 6:0.650786 7:0.0398153 8:-0.205815 
-1024 1:-0.778511 2:-0.975486 3:-0.00771739 4:0.0783557 5:-0.119417 6:0.234511 7:-0.292715 8:-0.37123 
-1024 1:-0.708734 2:-0.951537 3:0.118033 4:0.332339 5:0.0387506 6:0.550535 7:0.062175 8:-0.158073 
-1024 1:-0.667187 2:-0.922895 3:0.160428 4:0.374942 5:0.160443 6:0.49525 7:-0.0493764 8:-0.212901 
-1024 1:-0.588639 2:-0.882054 3:0.270633 4:0.475533 5:0.279932 6:0.55572 7:0.147358 8:-0.0944889 
-1024 1:-0.439787 2:-0.815406 3:0.503754 4:0.708004 5:0.448247 6:0.818183 7:0.425187 8:0.105612 
-1024 1:-0.359215 2:-0.743698 3:0.549468 4:0.688076 5:0.552857 6:0.660217 7:0.165996 8:-0.0190046 
-1024 1:-0.24367 2:-0.659959 3:0.658147 4:0.80119 5:0.665735 6:0.752669 7:0.336871 8:0.0938389 
-103.0758491031115 1:0.0840232 2:-0.437361 3:1 4:0.920555 5:0.841986 6:0.785209 7:0.608701 8:0.309535 
-168.3845998417146 1:0.193658 2:-0.225728 3:0.804611 4:0.613921 5:0.785109 6:0.251092 7:0.149627 8:0.0737581 
-1024 1:0.383978 2:0.0307817 3:0.715826 4:0.678573 5:0.675723 6:0.501837 7:0.55402 8:0.301181 
-1024 1:0.436067 2:0.177893 3:0.517842 4:0.561303 5:0.664034 6:0.286116 7:0.162967 8:0.111378 
-1024 1:0.481977 2:0.242937 3:0.48927 4:0.645775 5:0.680584 6:0.432253 7:0.316782 8:0.187706 
-1024 1:0.521051 2:0.303891 3:0.452319 4:0.699531 5:0.712117 6:0.501351 7:0.35886 8:0.209268 
-1024 1:0.546876 2:0.358548 3:0.395439 4:0.737086 5:0.747461 6:0.534472 7:0.370966 8:0.215056 
-1024 1:0.557059 2:0.404599 3:0.317686 4:0.751191 5:0.776403 6:0.529083 7:0.335975 8:0.202961 
-1024 1:0.549907 2:0.439806 3:0.219738 4:0.727799 5:0.786777 6:0.471594 7:0.217988 8:0.164016 
-1024 1:0.534219 2:0.464391 3:0.123782 4:0.587378 5:0.740142 6:0.250429 7:0.174191 8:0.150105 
-1024 1:0.606375 2:0.500529 3:0.228138 4:0.729947 5:0.763422 6:0.502366 7:0.667619 8:0.390709 
-1024 1:0.709577 2:0.615475 3:0.23453 4:0.55419 5:0.672716 6:0.262345 7:0.493203 8:0.346399 
-1024 1:0.695761 2:0.641797 3:0.139475 4:0.403163 5:0.593849 6:0.057146 7:0.134663 8:0.175549 
528.4035175086566 1:0.494753 2:0.616741 3:-0.321997 4:-0.421777 5:-0.019446 6:-0.855995 7:-0.362133 8:-0.115451 
1024 1:0.4525 2:0.587288 3:-0.364378 4:-0.475503 5:-0.202681 6:-0.752396 7:-0.110794 8:-0.0247425 
1024 1:0.417871 2:0.555821 3:-0.382564 4:-0.485872 5:-0.328793 6:-0.629131 7:-0.0566363 8:-0.00457175 
985.8514983736642 1:0.310155 2:0.506063 3:-0.547806 4:-0.709091 5:-0.497994 6:-0.872517 7:-0.577127 8:-0.320681 
1024 1:0.227878 2:0.410214 3:-0.543395 4:-0.575395 5:-0.595205 6:-0.500788 7:-0.222856 8:-0.175334 
-931.2735404305212 1:0.138738 2:0.246902 3:-0.404316 4:-0.0684973 5:-0.312151 6:0.167046 7:-0.0374319 8:-0.0892998 
-1024 1:0.102617 2:0.211559 3:-0.417591 4:-0.160088 5:-0.277531 6:-0.0512251 7:-0.260512 8:-0.188393 
