svm_type epsilon_svr
kernel_type rbf
gamma 64
nr_class 2
total_sv 534
rho -132.679
SV
-27.9296064209146 1:0.124202 2:0.0653232 3:0.0110867 4:-0.0334288 5:-0.0452356 6:-0.00927292 7:-1 8:-1 
-27.79913366002152 1:0.113289 2:0.058452 3:-0.00274798 4:-0.300532 5:-0.141468 6:-0.411498 7:-1 8:-1 
-29.80198917187439 1:0.110297 2:0.0548093 3:-0.00211523 4:-0.478601 5:-0.269777 6:-0.603034 7:-1 8:-1 
-29.92431515858461 1:0.104887 2:0.0509551 3:-0.00784809 4:-0.704155 5:-0.436579 6:-0.840539 7:-1 8:-1 
-30.22301296468567 1:0.121708 2:0.0543884 3:0.0314935 4:-0.427159 5:-0.447985 6:-0.290618 7:0.23164 8:0.201635 
-28.4184007903134 1:0.100669 2:0.0501229 3:-0.0177839 4:-0.595072 5:-0.516084 6:-0.534393 7:-0.412164 8:-0.351502 
-31.41384768102607 1:0.0985996 2:0.0466262 3:-0.0148876 4:-0.557435 5:-0.547924 6:-0.423501 7:-0.140185 8:-0.103959 
-29.71943292734152 1:0.10919 2:0.0470304 3:0.0143031 4:-0.382767 5:-0.50622 6:-0.135122 7:0.0879771 8:0.0982928 
-34.57749571296786 1:0.122784 2:0.050885 3:0.0433809 4:-0.191532 5:-0.40952 6:0.119653 7:0.192579 8:0.188057 
-28.97531830560292 1:0.151239 2:0.0609858 3:0.0991257 4:0.0991342 5:-0.240332 6:0.480373 7:0.446889 8:0.412129 
-27.09374286818375 1:0.197334 2:0.08007 3:0.182581 4:0.375471 5:-0.0279815 6:0.761804 7:0.656207 8:0.620367 
-21.67797289751656 1:0.236813 2:0.104313 3:0.234181 4:0.51963 5:0.165523 6:0.809829 7:0.696904 8:0.662722 
-22.31038150760555 1:0.264598 2:0.129737 3:0.24945 4:0.615735 5:0.329151 6:0.800496 7:0.696904 8:0.662722 
-24.24646850206636 1:0.269478 2:0.150707 3:0.210591 4:0.58632 5:0.427639 6:0.625928 7:0.324529 8:0.453774 
-18.808079272916 1:0.285735 2:0.170959 3:0.205997 4:0.64684 5:0.515102 6:0.638655 7:0.4933 8:0.563335 
-6.926249126949935 1:0.296041 2:0.1893 3:0.189234 4:0.678969 5:0.584985 6:0.617404 7:0.4933 8:0.563335 
-15.90448015194682 1:0.309294 2:0.206856 3:0.182851 4:0.757918 5:0.660018 6:0.680654 7:0.581874 8:0.618507 
-24.4219938276342 1:0.27117 2:0.211956 3:0.0612695 4:0.286389 5:0.540158 6:-0.0891486 7:-0.239376 8:0.10196 
-27.42884994816728 1:0.169882 2:0.192706 3:-0.17921 4:-0.194162 5:0.287117 6:-0.717373 7:-0.614567 8:-0.280666 
-31.98769880365004 1:0.115041 2:0.164832 3:-0.265487 4:-0.3743 5:0.053524 6:-0.787183 7:-0.320793 8:-0.095084 
-28.01312708466278 1:0.104959 2:0.140342 3:-0.232612 4:-0.307419 5:-0.0781092 6:-0.500496 7:-0.00451439 8:0.113339 
-25.93947692013985 1:0.0810698 2:0.115377 3:-0.237923 4:-0.356319 5:-0.183482 6:-0.469333 7:-0.125459 8:0.0306421 
-29.39161970074608 1:0.0878373 2:0.0970149 3:-0.172405 4:-0.248689 5:-0.214954 6:-0.223364 7:0.103496 8:0.175762 
-27.42311348536567 1:0.101882 2:0.0855631 3:-0.103521 4:-0.130192 5:-0.193243 6:-0.0198672 7:0.175619 8:0.221714 
-21.65280091898341 1:0.113066 2:0.0789659 3:-0.0550141 4:-0.0511947 5:-0.150308 6:0.0818087 7:0.175619 8:0.221714 
-27.38161403072671 1:0.164594 2:0.0854127 3:0.0757428 4:0.328672 5:0.0151741 6:0.619659 7:0.51076 8:0.441152 
-22.72898871384177 1:0.221507 2:0.103495 3:0.192578 4:0.581917 5:0.216734 6:0.869268 7:0.601785 8:0.51342 
-19.83273962816286 1:0.256055 2:0.125792 3:0.23501 4:0.700887 5:0.393971 6:0.887952 7:0.462596 8:0.449257 
-20.53416386443698 1:0.281478 2:0.149386 3:0.248147 4:0.76207 5:0.534171 6:0.838981 7:0.462596 8:0.449257 
-21.6758029830071 1:0.273003 2:0.166324 3:0.181344 4:0.598889 5:0.568847 6:0.481631 7:0.0392737 8:0.252573 
-16.42802751810567 1:0.282448 2:0.18201 3:0.168805 4:0.595863 5:0.590874 6:0.449468 7:0.247063 8:0.352635 
-12.93315548561715 1:0.279045 2:0.193781 3:0.129474 4:0.479586 5:0.563667 6:0.256831 7:0.112007 8:0.287308 
-10.91711197741016 1:0.292606 2:0.206271 3:0.136722 4:0.575684 5:0.580151 6:0.423205 7:0.324336 8:0.390113 
-17.20699521940643 1:0.292211 2:0.21617 3:0.110681 4:0.447436 5:0.544934 6:0.216954 7:0.168707 8:0.319085 
-14.27500330507972 1:0.299067 2:0.225642 3:0.106397 4:0.511514 5:0.544543 6:0.341486 7:0.289084 8:0.374361 
-0.2774740532619642 1:0.302416 2:0.233978 3:0.0949711 4:0.554234 5:0.559674 6:0.406128 7:0.289084 8:0.374361 
-19.57046039937336 1:0.293802 2:0.238693 3:0.0585335 4:0.545319 5:0.566548 6:0.380657 7:0.0741251 8:0.288877 
-13.31905952602204 1:0.331221 2:0.250948 3:0.134428 4:0.726348 5:0.636353 6:0.647791 7:0.602036 8:0.560868 
-21.23740265339362 1:0.413667 2:0.279442 3:0.297891 4:0.797174 5:0.708407 6:0.698874 7:0.821662 8:0.761642 
-18.47693820248969 1:0.502743 2:0.322431 3:0.443786 4:0.852702 5:0.776448 6:0.725127 7:0.882834 8:0.834419 
-16.73205963800392 1:0.540171 2:0.365304 3:0.442646 4:0.755296 5:0.786715 6:0.524274 7:0.486624 8:0.612096 
-14.63733228703408 1:0.583397 2:0.4094 3:0.454966 4:0.778346 5:0.801865 6:0.55081 7:0.579416 8:0.672719 
-14.78187583513145 1:0.593232 2:0.446906 3:0.388627 4:0.705725 5:0.7858 6:0.429391 7:0.331159 8:0.532451 
-16.18033001471377 1:0.661336 2:0.492348 3:0.468527 4:0.765295 5:0.796553 6:0.531886 7:0.647929 8:0.733004 
-11.83255715860935 1:0.680258 2:0.532989 3:0.420213 4:0.686026 5:0.775162 6:0.403956 7:0.352661 8:0.55134 
-16.79453839012114 1:0.669831 2:0.563138 3:0.314591 4:0.529307 5:0.704439 6:0.184986 7:0.17693 8:0.439559 
-17.81306059425705 1:0.66488 2:0.586135 3:0.242592 4:0.416517 5:0.616654 6:0.0714444 7:0.246895 8:0.474524 
-19.06513298579063 1:0.654819 2:0.602252 3:0.17333 4:0.23254 5:0.491848 6:-0.135713 7:0.246895 8:0.474524 
-17.94207222008026 1:0.593406 2:0.601224 3:0.000736969 4:-0.230061 5:0.241977 6:-0.732971 7:-0.214163 8:0.191449 
-20.05665453672074 1:0.54945 2:0.590437 3:-0.0974993 4:-0.470472 5:-0.0112184 6:-0.896068 7:-0.102235 8:0.238771 
-19.54837923973272 1:0.510162 2:0.572902 3:-0.165437 4:-0.574087 5:-0.217346 6:-0.850521 7:-0.102235 8:0.238771 
-19.9335272238515 1:0.49405 2:0.555222 3:-0.166901 4:-0.518516 5:-0.334743 6:-0.602731 7:0.150983 8:0.34055 
-19.00539695989765 1:0.515394 2:0.545917 3:-0.0825946 4:-0.0659744 5:-0.249966 6:0.172206 7:0.479749 8:0.511181 
-39.71197178072664 1:0.537204 2:0.543416 3:-0.0140886 4:0.318819 5:-0.0548147 6:0.684164 7:0.540678 8:0.548782 
-17.09584402877056 1:0.578279 2:0.550726 3:0.0846799 4:0.575348 5:0.167709 6:0.915097 7:0.692029 8:0.652892 
-14.67212354420165 1:0.624427 2:0.567035 3:0.175272 4:0.746367 5:0.377672 6:0.995471 7:0.767728 8:0.714063 
-12.88553017598556 1:0.674042 2:0.591329 3:0.255655 4:0.86038 5:0.558725 6:1 7:0.830822 8:0.770527 
-11.92203785281094 1:0.716227 2:0.620326 3:0.303008 4:0.857663 5:0.678448 6:0.851766 7:0.859624 8:0.797755 
-12.00871439285499 1:0.713705 2:0.642952 3:0.238867 4:0.737764 5:0.715066 6:0.575896 7:0.338946 8:0.553582 
-12.67278396858289 1:0.685778 2:0.654723 3:0.129583 4:0.579107 5:0.682316 6:0.307824 7:0.0856385 8:0.411566 
-12.50154729375257 1:0.686346 2:0.664268 3:0.107178 4:0.53519 5:0.644661 6:0.267764 7:0.353483 8:0.535372 
-5.771830093609222 1:0.678983 2:0.675261 3:0.0585086 4:0.496107 5:0.581709 6:0.267272 7:0.4441 8:0.577303 
-9.713138487213362 1:0.681198 2:0.679531 3:0.0540774 4:0.527342 5:0.574762 6:0.336043 7:0.530775 8:0.619094 
-10.54062396446591 1:0.686218 2:0.684086 3:0.0569356 4:0.631265 5:0.607572 6:0.498068 7:0.611778 8:0.660514 
-11.75589524202238 1:0.722316 2:0.695912 3:0.130142 4:0.783645 5:0.684345 6:0.701413 7:0.816506 8:0.799134 
-7.758031082566916 1:0.71483 2:0.703676 3:0.0892469 4:0.69826 5:0.704764 6:0.511711 7:0.310284 8:0.540317 
-7.760485339709532 1:0.682925 2:0.702655 3:0.000807389 4:0.516688 5:0.652961 6:0.222029 7:0.0633417 8:0.391986 
-10.62906707601814 1:0.70949 2:0.70786 3:0.0634868 4:0.70726 5:0.687084 6:0.550252 7:0.496158 8:0.624292 
-4.956736477006181 1:0.694652 2:0.70866 3:0.0191455 4:0.609942 5:0.674771 6:0.376535 7:0.188554 8:0.431097 
-5.95532184733803 1:0.676522 2:0.705191 3:-0.0238387 4:0.545063 5:0.643188 6:0.288638 7:0.188554 8:0.431097 
-10.08949303077031 1:0.646356 2:0.695577 3:-0.0856931 4:0.427021 5:0.579605 6:0.136026 7:0.0735921 8:0.364318 
-11.35158351823047 1:0.616769 2:0.68118 3:-0.133855 4:0.273538 5:0.481919 6:-0.0444794 7:0.0735921 8:0.364318 
-11.69662672060019 1:0.539624 2:0.652175 3:-0.280911 4:-0.12794 5:0.27215 6:-0.571285 7:-0.388495 8:0.0592187 
-13.89962536804251 1:0.484121 2:0.61639 3:-0.34917 4:-0.266411 5:0.0824158 6:-0.6128 7:-0.243056 8:0.120233 
-13.4987616737676 1:0.465556 2:0.583553 3:-0.319484 4:-0.154756 5:-0.00384628 6:-0.293605 7:0.117867 8:0.287575 
-11.82698466978255 1:0.408415 2:0.544332 3:-0.383764 4:-0.301286 5:-0.114146 6:-0.445584 7:-0.226416 8:0.0712615 
-14.10196262104755 1:0.350731 2:0.499879 3:-0.43643 4:-0.461297 5:-0.245328 6:-0.598727 7:-0.294332 8:0.023498 
-14.63462221495728 1:0.283596 2:0.449099 3:-0.500128 4:-0.585778 5:-0.377631 6:-0.681741 7:-0.42134 8:-0.0687688 
-16.34927203241332 1:0.248544 2:0.400529 3:-0.477874 4:-0.561923 5:-0.457239 6:-0.540488 7:-0.140359 8:0.0602212 
-14.66866585168881 1:0.229347 2:0.357322 3:-0.423889 4:-0.385759 5:-0.446842 6:-0.211826 7:-0.0117601 8:0.122222 
-14.81061159063885 1:0.232476 2:0.323465 3:-0.329753 4:-0.118737 5:-0.343708 6:0.181998 7:0.217593 8:0.240692 
-13.51527224129961 1:0.243378 2:0.298851 3:-0.236707 4:0.134066 5:-0.183872 6:0.48058 7:0.318662 8:0.297118 
-12.42904530906936 1:0.221503 2:0.274202 3:-0.237067 4:0.0782342 5:-0.09743 6:0.269252 7:-0.074873 8:0.108781 
-14.60666134699738 1:0.242004 2:0.259129 3:-0.140653 4:0.340169 5:0.0545681 6:0.594874 7:0.318233 8:0.328155 
-12.26871048239686 1:0.285787 2:0.256995 3:-0.0103925 4:0.589581 5:0.245758 6:0.849447 7:0.505908 8:0.459263 
-10.88726438741089 1:0.318248 2:0.262647 3:0.0679786 4:0.755856 5:0.433124 6:0.947622 7:0.505908 8:0.459263 
-6.144557052441913 1:0.341468 2:0.272431 3:0.109588 4:0.751646 5:0.556518 6:0.792112 7:0.505908 8:0.459263 
-1.706360910992145 1:0.337802 2:0.279428 3:0.081524 4:0.591939 5:0.581241 6:0.453375 7:0.150254 8:0.305752 
9.856966493257694 1:0.332496 2:0.283822 3:0.0553278 4:0.485468 5:0.559364 6:0.273359 7:0.150254 8:0.305752 
-15.09726095938243 1:0.316273 2:0.28366 3:0.00945839 4:0.346498 5:0.494711 6:0.0815033 7:-0.0289201 8:0.226131 
-25.18945027664177 1:0.330451 2:0.286745 3:0.0421384 4:0.45782 5:0.491716 6:0.300615 7:0.390517 8:0.415639 
13.10498609215212 1:0.339209 2:0.291198 3:0.0559123 4:0.454333 5:0.488463 6:0.297747 7:0.390517 8:0.415639 
-9.043351593236485 1:0.363006 2:0.300154 3:0.101254 4:0.541042 5:0.517534 6:0.430911 7:0.589784 8:0.529443 
-6.536613707394942 1:0.388623 2:0.313126 3:0.141679 4:0.616655 5:0.564157 6:0.52163 7:0.666464 8:0.581425 
-6.493132137913654 1:0.415375 2:0.329568 3:0.176607 4:0.773906 5:0.651892 6:0.721312 7:0.735409 8:0.63195 
-7.464889250951756 1:0.394235 2:0.337929 3:0.0952625 4:0.451373 5:0.594181 6:0.165768 7:-0.0249063 8:0.262206 
-10.41663404321302 1:0.326119 2:0.329178 3:-0.0770137 4:-0.0841723 5:0.36276 6:-0.594752 7:-0.421158 8:-0.0399105 
-13.71903554490182 1:0.328625 2:0.322745 3:-0.0536757 4:0.0573905 5:0.259482 6:-0.197332 7:0.158167 8:0.295867 
-16.15176290347185 1:0.34765 2:0.321911 3:0.00269255 4:0.317963 5:0.284509 6:0.277283 7:0.287698 8:0.382389 
-1.229964466393249 1:0.350313 2:0.321847 3:0.0104482 4:0.40858 5:0.333841 6:0.393815 7:0.18662 8:0.321992 
-7.830812534428415 1:0.340126 2:0.319488 3:-0.0126712 4:0.385892 5:0.358555 6:0.320374 7:0.080593 8:0.260788 
-8.394525333601997 1:0.339381 2:0.317431 3:-0.00962042 4:0.453866 5:0.399521 6:0.403058 7:0.183872 8:0.313979 
-7.819903926564979 1:0.365435 2:0.321691 3:0.0539784 4:0.665379 5:0.503035 6:0.688957 7:0.43692 8:0.458964 
-7.513440662426518 1:0.392797 2:0.331302 3:0.107839 4:0.806388 5:0.622848 6:0.818888 7:0.505665 8:0.502854 
-7.267749592233486 1:0.38208 2:0.336561 3:0.0640331 4:0.696424 5:0.663105 6:0.557908 7:0.088048 8:0.290491 
-7.847114331478227 1:0.361048 2:0.336001 3:0.00544707 4:0.527929 5:0.629237 6:0.272124 7:-0.0246692 8:0.226311 
-10.67544011653843 1:0.361265 2:0.335602 3:0.0070723 4:0.501072 5:0.596983 6:0.258644 7:0.208451 8:0.33794 
-6.698899982521911 1:0.378131 2:0.339106 3:0.0463614 4:0.69685 5:0.646015 6:0.579141 7:0.392565 8:0.438508 
-4.071537852833742 1:0.398148 2:0.346447 3:0.0849868 4:0.661171 5:0.665849 6:0.486376 7:0.473723 8:0.486179 
-3.354927917695518 1:0.420408 2:0.357365 3:0.121003 4:0.710096 5:0.696698 6:0.544262 7:0.552509 8:0.533609 
-3.536940999896712 1:0.405377 2:0.362692 3:0.064719 4:0.420705 5:0.613002 6:0.0839136 7:0.059454 8:0.295882 
-8.350983257665041 1:0.3613 2:0.356963 3:-0.0465902 4:-0.0215189 5:0.397881 6:-0.515388 7:-0.241613 8:0.10548 
-9.827714675307604 1:0.324065 2:0.34394 3:-0.120025 4:-0.249856 5:0.172201 6:-0.687969 7:-0.241613 8:0.10548 
-9.390122070700915 1:0.302314 2:0.32859 3:-0.143439 4:-0.327291 5:-0.00615089 6:-0.624904 7:-0.0675414 8:0.176324 
-8.934360668475586 1:0.30264 2:0.316385 3:-0.11179 4:-0.229337 5:-0.089761 6:-0.335404 7:0.219133 8:0.308085 
-9.173687039630229 1:0.32026 2:0.310614 3:-0.0470056 4:-0.0144565 5:-0.0680839 6:0.0547457 7:0.426844 8:0.423591 
-11.30931429660292 1:0.351229 2:0.313018 3:0.0352832 4:0.278375 5:0.0518691 6:0.478457 7:0.580883 8:0.525142 
-5.872507968240613 1:0.402002 2:0.326449 3:0.146308 4:0.490856 5:0.20839 6:0.702926 7:0.737915 8:0.652485 
-4.4290486535523 1:0.525908 2:0.365282 3:0.402019 4:0.690039 5:0.384499 6:0.878259 7:0.933397 8:0.889173 
1.433236875335368 1:0.763698 2:0.498911 3:0.743995 4:0.838757 5:0.658741 6:0.838693 7:0.982051 8:0.970282 
1.971291180839671 1:0.859243 2:0.57881 3:0.815448 4:0.921973 5:0.768295 6:0.868981 7:1 8:1 
2.948969182329421 1:0.896626 2:0.651203 3:0.739883 4:0.887704 5:0.828984 6:0.730155 7:0.579766 8:0.768139 
1.223438096648604 1:0.907412 2:0.711563 3:0.618738 4:0.829956 5:0.848638 6:0.594878 7:0.452593 8:0.695346 
0.6027696459670994 1:0.916637 2:0.761942 3:0.518258 4:0.814121 5:0.856036 6:0.555384 7:0.512567 8:0.723895 
1.535141054708494 1:0.953632 2:0.81063 3:0.501246 4:0.812063 5:0.860226 6:0.546396 7:0.699544 8:0.825479 
2.800487551507401 1:0.895567 2:0.836419 3:0.270711 4:0.447134 5:0.731543 6:-0.00647964 7:-0.0475012 8:0.34058 
-0.739098261604326 1:0.850984 2:0.846945 3:0.117048 4:0.162298 5:0.543133 6:-0.332957 7:0.0267956 8:0.376424 
0.04973823532867527 1:0.759274 2:0.834576 3:-0.113428 4:-0.230146 5:0.276137 6:-0.77393 7:-0.267447 8:0.149254 
-1.929692647693116 1:0.563787 2:0.78037 3:-0.534625 4:-0.46373 5:0.0139838 6:-0.913111 7:-0.606089 8:-0.201971 
-7.914258305867143 1:0.386219 2:0.696753 3:-0.830693 4:-0.603588 5:-0.211173 6:-0.915009 7:-0.640693 8:-0.244716 
-8.905770599873044 1:0.244113 2:0.597648 3:-0.986623 4:-0.696826 5:-0.394869 6:-0.876159 7:-0.640693 8:-0.244716 
-8.628842467627351 1:0.150809 2:0.497215 3:-1 4:-0.713659 5:-0.523398 6:-0.755258 7:-0.429567 8:-0.145927 
-7.590514227193931 1:0.087105 2:0.402427 3:-0.943156 4:-0.702217 5:-0.604962 6:-0.635701 7:-0.321677 8:-0.0961628 
-7.163841565224942 1:-0.00118247 2:0.306585 3:-0.95378 4:-0.766938 5:-0.682655 6:-0.668226 7:-0.497805 8:-0.212719 
-9.288263912237568 1:-0.0980241 2:0.207959 3:-0.981799 4:-0.867615 5:-0.770723 6:-0.757979 7:-0.596119 8:-0.289114 
-10.92866482300357 1:-0.122865 2:0.123427 3:-0.83991 4:-0.784004 5:-0.799311 6:-0.561958 7:-0.102275 8:-0.0397418 
-8.405403080784652 1:-0.129813 2:0.0542273 3:-0.685564 4:-0.326065 5:-0.653384 6:0.150403 7:-0.0205031 8:0.00569489 
-7.715887824995782 1:-0.20026 2:-0.0171014 3:-0.706994 4:-0.602465 5:-0.65568 6:-0.382 7:-0.384319 8:-0.19843 
-11.89385587405496 1:-0.271156 2:-0.0902349 3:-0.725163 4:-0.718741 5:-0.699103 6:-0.555269 7:-0.456426 8:-0.246953 
-12.4131053834968 1:-0.254296 2:-0.14492 3:-0.539439 4:-0.320329 5:-0.584511 6:0.0792617 7:0.0737862 8:0.0569689 
-7.218154323977792 1:-0.314373 2:-0.202286 3:-0.566429 4:-0.59864 5:-0.608387 6:-0.431073 7:-0.276421 8:-0.148959 
-11.71212537324242 1:-0.337044 2:-0.253318 3:-0.502661 4:-0.597209 5:-0.623789 6:-0.409909 7:-0.14832 8:-0.0721044 
-11.30193141325254 1:-0.33015 2:-0.292581 3:-0.384179 4:-0.471606 5:-0.588804 6:-0.208505 7:-0.0180633 8:0.00453348 
-3.34614027927303 1:-0.33897 2:-0.32599 3:-0.325255 4:-0.51252 5:-0.580222 6:-0.297968 7:-0.130678 8:-0.0522937 
-9.536654514018364 1:-0.340603 2:-0.353088 3:-0.261712 4:-0.539795 5:-0.584327 6:-0.345874 7:-0.130678 8:-0.0522937 
-11.91868791083073 1:-0.317185 2:-0.369458 3:-0.153712 4:-0.371006 5:-0.526252 6:-0.0884308 7:0.0576444 8:0.0391188 
-11.30736736441512 1:-0.274408 2:-0.372857 3:-0.0231347 4:-0.0507334 5:-0.372148 6:0.347626 7:0.225406 8:0.127637 
-10.81658324119091 1:-0.20725 2:-0.360354 3:0.136963 4:0.32898 5:-0.132608 6:0.796738 7:0.428853 8:0.251256 
-8.512981628704225 1:-0.150857 2:-0.337568 3:0.240478 4:0.457473 5:0.0733782 6:0.799527 7:0.428853 8:0.251256 
-8.359717864263793 1:-0.122939 2:-0.313011 3:0.258308 4:0.418488 5:0.196657 6:0.576825 7:0.152338 8:0.154964 
-10.54955713599621 1:-0.0788499 2:-0.283371 3:0.309475 4:0.505814 5:0.310304 6:0.61018 7:0.338596 8:0.248941 
-18.08678534831781 1:-0.0128931 2:-0.244709 3:0.400311 4:0.700011 5:0.456035 6:0.812138 7:0.544577 8:0.376486 
-10.83219029090898 1:0.0209447 2:-0.206108 3:0.399684 4:0.656886 5:0.537652 6:0.631175 7:0.263012 8:0.267526 
-24.60049427444847 1:0.0680326 2:-0.164554 3:0.429419 4:0.732736 5:0.61939 6:0.680417 7:0.419929 8:0.354875 
-5.791430629648485 1:0.095865 2:-0.125002 3:0.409266 4:0.715313 5:0.667605 6:0.589105 7:0.272353 8:0.296639 
-6.017968010295341 1:0.108294 2:-0.090543 3:0.357993 4:0.519153 5:0.629076 6:0.255326 7:0.126061 8:0.237536 
-7.517104036346145 1:0.137613 2:-0.0563299 3:0.355518 4:0.602062 5:0.63326 6:0.410853 7:0.345423 8:0.339671 
-4.529538685789007 1:0.150731 2:-0.0259858 3:0.316566 4:0.550494 5:0.617471 6:0.329865 7:0.180669 8:0.274545 
-7.420809006584435 1:0.141306 2:-0.00384695 3:0.233963 4:0.131486 5:0.455984 6:-0.288539 7:-0.0960595 8:0.15028 
-8.40466952999113 1:0.221027 2:0.0319351 3:0.371312 4:0.450459 5:0.463246 6:0.320362 7:0.588974 8:0.542802 
-4.141515910579017 1:0.233883 2:0.0634749 3:0.328604 4:0.289163 5:0.409976 6:0.0716881 7:0.139124 8:0.283209 
-5.836142416600846 1:0.281506 2:0.0995017 3:0.373776 4:0.480789 5:0.443501 6:0.402663 7:0.353024 8:0.421744 
-1.001138135208973 1:0.307324 2:0.134176 3:0.360156 4:0.51713 5:0.478944 6:0.430698 7:0.26575 8:0.372154 
-3.272260573708877 1:0.315766 2:0.163828 3:0.309605 4:0.458259 5:0.481363 6:0.313827 7:0.171308 8:0.320959 
-5.685449170280931 1:0.282634 2:0.199821 3:0.124509 4:0.0604506 5:0.331301 6:-0.277175 7:-0.201198 8:0.115445 
-7.404632935729129 1:0.251399 2:0.201754 3:0.0305465 4:-0.17859 5:0.15349 6:-0.527644 7:-0.201198 8:0.115445 
-7.365219894520939 1:0.186677 2:0.18863 3:-0.12104 4:-0.504148 5:-0.0823423 6:-0.876332 7:-0.466368 8:-0.0642819 
-9.520483717083664 1:0.144958 2:0.168673 3:-0.189819 4:-0.548596 5:-0.255578 6:-0.75551 7:-0.318344 8:-0.00378027 
-9.009118668073917 1:0.0926346 2:0.140847 3:-0.269039 4:-0.693289 5:-0.423198 6:-0.835479 7:-0.448037 8:-0.090376 
-9.871122288144027 1:0.0908008 2:0.118171 3:-0.217198 4:-0.55963 5:-0.486791 6:-0.500757 7:0.0537117 8:0.142486 
-5.676874458970498 1:0.0994447 2:0.10199 3:-0.151816 4:-0.412995 5:-0.476356 6:-0.229313 7:0.150243 8:0.194365 
-11.13745358390914 1:0.106499 2:0.0906437 3:-0.103137 4:-0.252478 5:-0.411568 6:0.00409854 7:0.150243 8:0.194365 
-18.06705017733577 1:0.0540276 2:0.0696727 3:-0.200033 4:-0.553406 5:-0.476795 6:-0.500643 7:-0.380898 8:-0.0943391 
-8.162506769439746 1:0.0234171 2:0.0459572 3:-0.227662 4:-0.660539 5:-0.558877 6:-0.610043 7:-0.250185 8:-0.0325416 
-8.730698732089431 1:0.0102831 2:0.0240076 3:-0.209884 4:-0.638475 5:-0.60565 6:-0.511467 7:-0.115867 8:0.0301937 
-7.00070093805595 1:-0.0181089 2:1.21572e-05 3:-0.23048 4:-0.727639 5:-0.668955 6:-0.6085 7:-0.291069 8:-0.0642971 
-8.402050978604118 1:-0.0581317 2:-0.0282565 3:-0.273499 4:-0.80219 5:-0.738018 6:-0.670365 7:-0.431811 8:-0.150838 
-4.985955377341005 1:-0.0971109 2:-0.059707 3:-0.305532 4:-0.857557 5:-0.804008 6:-0.698757 7:-0.494529 8:-0.192337 
-9.833097363206669 1:-0.134828 2:-0.0934171 3:-0.328279 4:-0.849951 5:-0.845261 6:-0.634766 7:-0.555817 8:-0.233935 
-12.35331324909376 1:-0.132326 2:-0.119818 3:-0.254697 4:-0.684619 5:-0.813196 6:-0.352952 7:-0.0355878 8:-0.00214272 
-10.86797606617611 1:-0.137143 2:-0.142031 3:-0.212532 4:-0.542344 5:-0.740562 6:-0.164232 7:-0.146716 8:-0.0535074 
-11.73959958334466 1:-0.0700381 2:-0.14459 3:-0.0146747 4:-0.0610851 5:-0.51875 6:0.502658 7:0.483505 8:0.34718 
-7.942636174160988 1:0.0138508 2:-0.127621 3:0.181912 4:0.322079 5:-0.23283 6:0.903062 7:0.615988 8:0.467106 
-6.488936726788538 1:0.0614331 2:-0.10326 3:0.25633 4:0.47068 5:0.0113219 6:0.899204 7:0.373408 8:0.3475 
-7.467565255492133 1:0.0509277 2:-0.0861533 3:0.183308 4:0.302643 5:0.11355 6:0.451783 7:-0.0651378 8:0.0986907 
-8.857662030909523 1:0.0920324 2:-0.0631501 3:0.242665 4:0.457723 5:0.237573 6:0.603926 7:0.269691 8:0.311367 
-7.396377055695271 1:0.0373029 2:-0.0571535 3:0.0714562 4:0.153776 5:0.21075 6:0.0474792 7:-0.226679 8:-0.0217119 
-10.4579457847008 1:0.00511397 2:-0.0596526 3:-0.0140727 4:-0.00211164 5:0.136705 6:-0.165914 7:-0.157913 8:0.0199325 
-1.975604110405449 1:-0.00904804 2:-0.0648622 3:-0.0413586 4:-0.0592938 5:0.0667392 6:-0.193072 7:-0.0813139 8:0.063331 
-8.553906790369693 1:-0.0186251 2:-0.0712007 3:-0.0527244 4:-0.0974153 5:0.00636121 6:-0.194776 7:-0.0813139 8:0.063331 
-10.83929428231428 1:0.0142994 2:-0.0688083 3:0.0351716 4:0.0641429 5:0.0243154 6:0.0965799 7:0.245092 8:0.241836 
-8.534316096585519 1:0.0898478 2:-0.0497693 3:0.202756 4:0.405564 5:0.159292 6:0.596424 7:0.504156 8:0.420777 
-4.320803292456202 1:0.130029 2:-0.0254298 3:0.256117 4:0.539692 5:0.2976 6:0.690944 7:0.307948 8:0.325479 
-7.44838899987883 1:0.239045 2:0.018753 3:0.455884 4:0.722596 5:0.455703 6:0.856263 7:0.623995 8:0.560298 
-3.241165826042675 1:0.294047 2:0.066567 3:0.49244 4:0.742548 5:0.568292 6:0.760436 7:0.370413 8:0.424037 
-4.235884328976013 1:0.296404 2:0.105352 3:0.401548 4:0.582296 5:0.585616 6:0.429478 7:0.0874175 8:0.260903 
-8.476590531804508 1:0.344789 2:0.147348 3:0.433869 4:0.6679 5:0.628007 6:0.544596 7:0.336526 8:0.410125 
2.77672604742499 1:0.380183 2:0.188968 3:0.430082 4:0.689981 5:0.664223 6:0.544097 7:0.336526 8:0.410125 
-4.097336791580682 1:0.424396 2:0.232286 3:0.447179 4:0.760465 5:0.713761 6:0.621405 7:0.438665 8:0.469664 
-3.108715657217691 1:0.445916 2:0.271819 3:0.409067 4:0.720201 5:0.73228 6:0.521333 7:0.328793 8:0.419597 
-4.124039448319277 1:0.497909 2:0.31523 3:0.448121 4:0.842936 5:0.788845 6:0.691413 7:0.544272 8:0.54168 
10.57062468905966 1:0.544087 2:0.360427 3:0.46609 4:0.775181 5:0.802144 6:0.544349 7:0.589128 8:0.570094 
1.931682072611854 1:0.59488 2:0.408098 3:0.491001 4:0.82973 5:0.830663 6:0.615905 7:0.675241 8:0.626589 
3.205467577402014 1:0.64176 2:0.526866 3:0.325811 4:0.744082 5:0.857331 6:0.418233 7:0.265488 8:0.479226 
-0.3141327835258259 1:0.696889 2:0.564372 3:0.388671 4:0.858857 5:0.877948 6:0.61583 7:0.701302 8:0.705566 
1.981775985238281 1:0.723855 2:0.60049 3:0.374691 4:0.841887 5:0.885579 6:0.573861 7:0.557528 8:0.637835 
3.111560496101504 1:0.699349 2:0.623829 3:0.246045 4:0.624904 5:0.812492 6:0.241036 7:0.0948913 8:0.39213 
0.4357646671496675 1:0.712394 2:0.645457 3:0.228824 4:0.613207 5:0.759553 6:0.281609 7:0.369354 8:0.528696 
3.661955439515978 1:0.735312 2:0.667955 3:0.237575 4:0.771607 5:0.781328 6:0.562287 7:0.476342 8:0.588945 
4.91534778366277 1:0.707503 2:0.679649 3:0.128817 4:0.503261 5:0.699166 6:0.140856 7:0.084086 8:0.36576 
0.0598679339430106 1:0.649968 2:0.675963 3:-0.0260238 4:0.0999977 5:0.499103 6:-0.400997 7:-0.132099 8:0.222648 
-1.041351810511401 1:0.6862 2:0.681227 3:0.064079 4:0.367143 5:0.461975 6:0.160569 7:0.398728 8:0.513963 
2.188321982926203 1:0.766382 2:0.703613 3:0.236457 4:0.607564 5:0.523842 6:0.552173 7:0.585298 8:0.648159 
4.892356459374636 1:0.812185 2:0.731905 3:0.295905 4:0.679858 5:0.591132 6:0.611783 7:0.502998 8:0.600471 
2.915287283836237 1:0.84023 2:0.760896 3:0.30294 4:0.65859 5:0.62833 6:0.526184 7:0.502998 8:0.600471 
-3.464194825530166 1:0.863743 2:0.789418 3:0.298226 4:0.683774 5:0.662202 6:0.534494 7:0.548434 8:0.626253 
-2.648258939859957 1:0.892425 2:0.838804 3:0.255748 4:0.693864 5:0.707506 6:0.499928 7:0.654823 8:0.682892 
3.783231480100696 1:0.916571 2:0.885618 3:0.206802 4:0.73294 5:0.763533 6:0.508676 7:0.335568 8:0.559411 
7.120818723983916 1:0.850546 2:0.886204 3:0.016991 4:0.178328 5:0.570235 6:-0.334287 7:-0.118358 8:0.287822 
4.376639220417204 1:0.80024 2:0.87527 3:-0.0989881 4:-0.0622326 5:0.354701 6:-0.542649 7:-0.0222717 8:0.327324 
5.026704418477152 1:0.772523 2:0.86024 3:-0.140224 4:-0.0866263 5:0.202223 6:-0.407788 7:0.16288 8:0.405374 
5.576741372332471 1:0.714319 2:0.835022 3:-0.242785 4:-0.306859 5:0.0212252 6:-0.618037 7:-0.110263 8:0.246508 
3.312704888064238 1:0.671692 2:0.805186 3:-0.289285 4:-0.38569 5:-0.127841 6:-0.592648 7:-0.00161111 8:0.290771 
3.506903218561399 1:0.632056 2:0.772332 3:-0.31966 4:-0.438245 5:-0.246153 6:-0.553111 7:-0.00161111 8:0.290771 
4.984587634779714 1:0.556414 2:0.728903 3:-0.426125 4:-0.677251 5:-0.411137 6:-0.818832 7:-0.358837 8:0.0770395 
3.020938223466558 1:0.463125 2:0.673013 3:-0.551569 4:-0.836589 5:-0.578532 6:-0.927424 7:-0.519886 8:-0.0535575 
1.495160174454469 1:0.395873 2:0.613056 3:-0.592507 4:-0.874824 5:-0.703905 6:-0.851731 7:-0.3656 8:0.00668027 
2.070644005350871 1:0.359486 2:0.556843 3:-0.554822 4:-0.764334 5:-0.747679 6:-0.585533 7:-0.0832964 8:0.12362 
3.065921081965314 1:0.270097 2:0.49161 3:-0.645627 4:-0.894644 5:-0.82381 6:-0.746913 7:-0.466452 8:-0.129388 
0.06836073149858635 1:0.149899 2:0.412178 3:-0.788575 4:-0.942154 5:-0.891681 6:-0.757848 7:-0.628289 8:-0.279588 
-1.926235450520394 1:0.0748348 2:0.331616 3:-0.79994 4:-0.888542 5:-0.917613 6:-0.62308 7:-0.399564 8:-0.163678 
-0.9293133767796462 1:0.142687 2:0.282548 3:-0.482895 4:-0.312659 5:-0.727421 6:0.264777 7:0.379994 8:0.349756 
5.070362896713362 1:0.205337 2:0.257494 3:-0.241132 4:0.0421795 5:-0.472786 6:0.6477 7:0.414491 8:0.377917 
5.162646165706652 1:0.234097 2:0.243971 3:-0.125057 4:0.203949 5:-0.244747 6:0.68858 7:0.264776 8:0.296631 
4.99928952396418 1:0.265078 2:0.240175 3:-0.0271311 4:0.34919 5:-0.0403929 6:0.725743 7:0.317131 8:0.329994 
5.208936019424639 1:0.278045 2:0.240077 3:0.0101031 4:0.408623 5:0.117255 6:0.652548 7:0.222329 8:0.284696 
5.366158830087731 1:0.315551 2:0.2485 3:0.0958893 4:0.560428 5:0.277047 6:0.755638 7:0.410694 8:0.393103 
6.267007011286369 1:0.333056 2:0.259207 3:0.118874 4:0.624237 5:0.406563 6:0.72451 7:0.295926 8:0.342413 
8.984542776997987 1:0.39289 2:0.281336 3:0.23386 4:0.77896 5:0.548651 6:0.85439 7:0.569849 8:0.511507 
7.57662544224972 1:0.417307 2:0.304574 3:0.245025 4:0.732531 5:0.626649 6:0.671351 7:0.343429 8:0.406399 
6.743322236252064 1:0.452497 2:0.33114 3:0.278541 4:0.783166 5:0.696891 6:0.685504 7:0.460303 8:0.473934 
7.776656170025229 1:0.447226 2:0.351199 3:0.213021 4:0.612953 5:0.682394 6:0.373262 7:0.135182 8:0.316554 
6.702989441473981 1:0.323015 2:0.33909 3:-0.110817 4:0.0675407 5:0.476228 6:-0.436521 7:-0.462813 8:-0.107153 
0.6367882666911271 1:0.233132 2:0.309029 3:-0.291548 4:-0.252074 5:0.223633 6:-0.753684 7:-0.381072 8:-0.0650455 
1.102387003088214 1:0.239071 2:0.286326 3:-0.217469 4:-0.113202 5:0.10527 6:-0.343459 7:0.128663 8:0.224051 
5.392927085203787 1:0.164814 2:0.251331 3:-0.341213 4:-0.372569 5:-0.0670841 6:-0.6398 7:-0.209472 8:-0.0026669 
1.104645235312702 1:0.0673719 2:0.201247 3:-0.493115 4:-0.633467 5:-0.275983 6:-0.895463 7:-0.334148 8:-0.0957173 
-0.6869243300380788 1:0.00137643 2:0.146221 3:-0.542876 4:-0.671419 5:-0.428923 6:-0.786301 7:-0.266384 8:-0.0592466 
-2.441260001759346 1:-0.143217 2:0.0162889 3:-0.628316 4:-0.83338 5:-0.695944 6:-0.780998 7:-0.20867 8:-0.0595414 
-0.9308860232647334 1:-0.069341 2:-0.0177759 3:-0.331851 4:-0.417152 5:-0.617289 6:-0.0690569 7:0.318215 8:0.272654 
4.892083252072638 1:0.0295447 2:-0.0226127 3:-0.0376061 4:0.00991179 5:-0.41099 6:0.511428 7:0.439806 8:0.366269 
6.172227755255427 1:0.0886979 2:-0.0130735 3:0.10712 4:0.219832 5:-0.197827 6:0.663299 7:0.313509 8:0.303239 
5.217745992675327 1:0.193648 2:0.0183476 3:0.327409 4:0.509357 5:0.0485917 6:0.92958 7:0.510304 8:0.442486 
8.079034414744759 1:0.255682 2:0.0575463 3:0.405707 4:0.577725 5:0.237502 6:0.83635 7:0.369102 8:0.374629 
6.917624836049427 1:0.399787 2:0.12157 3:0.65563 4:0.747952 5:0.424772 6:0.942292 7:0.641829 8:0.576305 
11.86780166432085 1:0.509549 2:0.19767 3:0.777198 4:0.837311 5:0.581813 6:0.927762 7:0.641829 8:0.576305 
10.95865298243422 1:0.629954 2:0.285843 3:0.89874 4:0.921009 5:0.716662 6:0.928775 7:0.729263 8:0.647934 
13.17682342941064 1:0.708824 2:0.374259 3:0.901192 4:0.942813 5:0.814417 6:0.85425 7:0.63363 8:0.606513 
13.4959953925666 1:0.705755 2:0.444297 3:0.716166 4:0.715806 5:0.797801 6:0.434578 7:0.154695 8:0.375945 
10.57063536777333 1:0.648222 2:0.487285 3:0.44386 4:0.367654 5:0.661291 6:-0.0764664 7:-0.115439 8:0.214546 
8.069988614510955 1:0.626275 2:0.516701 3:0.307223 4:0.159171 5:0.495172 6:-0.281736 7:0.0672658 8:0.296753 
11.49985251493691 1:0.642159 2:0.543834 3:0.284242 4:0.219619 5:0.406204 6:-0.0584539 7:0.274712 8:0.39875 
8.930789771892126 1:0.677801 2:0.57362 3:0.310946 4:0.394155 5:0.409774 6:0.275206 7:0.40594 8:0.469759 
10.87387436615519 1:0.689717 2:0.60015 3:0.278166 4:0.452982 5:0.433349 6:0.36095 7:0.319422 8:0.430136 
12.40239142000276 1:0.644107 2:0.611035 3:0.12067 4:0.20455 5:0.35956 6:-0.0319263 7:-0.0470806 8:0.243843 
9.724664766060583 1:0.583049 2:0.605902 3:-0.0405826 4:-0.0761312 5:0.209243 6:-0.395852 7:-0.163289 8:0.175773 
8.459578216880608 1:0.539682 2:0.591966 3:-0.129212 4:-0.186545 5:0.069252 6:-0.442449 7:-0.0732152 8:0.210361 
9.570626048718616 1:0.607671 2:0.596229 3:0.0539986 4:0.150451 5:0.0973378 6:0.17648 7:0.509829 8:0.511888 
12.94999303817192 1:0.665129 2:0.612663 3:0.176536 4:0.380004 5:0.198765 6:0.499798 7:0.541614 8:0.533689 
13.82016300480249 1:0.703982 2:0.634618 3:0.232108 4:0.484157 5:0.303908 6:0.57589 7:0.541614 8:0.533689 
15.48122890883718 1:0.776315 2:0.668578 3:0.352968 4:0.614346 5:0.420907 6:0.68823 7:0.707822 8:0.646583 
18.07309553141301 1:0.893455 2:0.722299 3:0.551907 4:0.772366 5:0.555838 6:0.83304 7:0.843704 8:0.771015 
21.52455468196749 1:0.898865 2:0.766502 3:0.456088 4:0.647593 5:0.600839 6:0.537723 7:0.242061 8:0.445406 
16.02439138918858 1:0.865175 2:0.794227 3:0.290207 4:0.478115 5:0.56978 6:0.246684 7:0.0772765 8:0.342557 
12.30919844856283 1:0.859436 2:0.815107 3:0.221286 4:0.451426 5:0.539458 6:0.23122 7:0.223975 8:0.416225 
16.53409941068399 1:0.846561 2:0.828892 3:0.149865 4:0.311804 5:0.468941 6:0.0451072 7:0.223975 8:0.416225 
17.13963726483622 1:0.818541 2:0.833569 3:0.0581689 4:0.0898852 5:0.341976 6:-0.232934 7:0.139549 8:0.374773 
16.95829247425167 1:0.769276 2:0.826143 3:-0.0636713 4:-0.210104 5:0.149253 6:-0.5836 7:-0.0280555 8:0.290815 
15.93884572248592 1:0.655426 2:0.794395 3:-0.308526 4:-0.485795 5:-0.0785551 6:-0.845321 7:-0.408604 8:0.043086 
12.55353177846314 1:0.531073 2:0.740809 3:-0.528376 4:-0.708951 5:-0.310826 6:-1 7:-0.511142 8:-0.0442582 
11.04696345881891 1:0.467809 2:0.6836 3:-0.564852 4:-0.653752 5:-0.445786 6:-0.731957 7:-0.148023 8:0.109395 
13.06311150979596 1:0.453128 2:0.634504 3:-0.483166 4:-0.446978 5:-0.461263 6:-0.313132 7:0.127036 8:0.244688 
15.01817415016036 1:0.457277 2:0.596168 3:-0.374847 4:-0.155151 5:-0.366441 6:0.138645 7:0.245157 8:0.307811 
16.07173402401848 1:0.398532 2:0.552184 3:-0.431717 4:-0.224561 5:-0.328233 6:-0.0413692 7:-0.142034 8:0.0983485 
13.04812325827674 1:0.407581 2:0.519047 3:-0.322507 4:0.0261225 5:-0.212446 6:0.30571 7:0.20801 8:0.287137 
39.15148984930464 1:0.498742 2:0.513202 3:-0.0477595 4:0.346222 5:-0.0199283 6:0.695558 7:0.517966 8:0.500522 
20.69880114473078 1:0.575596 2:0.525946 3:0.139391 4:0.531292 5:0.175094 6:0.82098 7:0.54491 8:0.521057 
19.01196036040277 1:0.630665 2:0.548625 3:0.239398 4:0.654673 5:0.34956 6:0.851511 7:0.54491 8:0.521057 
19.47940487648446 1:0.658338 2:0.573041 3:0.256887 4:0.705764 5:0.484278 6:0.789549 7:0.44211 8:0.476877 
20.75249618393879 1:0.635133 2:0.587314 3:0.154771 4:0.542465 5:0.515257 6:0.436386 7:0.0820912 8:0.308022 
18.78894951139905 1:0.601429 2:0.591092 3:0.0491226 4:0.39205 5:0.481718 6:0.185215 7:0.0037814 8:0.267759 
18.26445721970952 1:0.462884 2:0.562709 3:-0.274645 4:-0.0524935 5:0.299198 6:-0.457511 7:-0.49687 8:-0.0788095 
12.57057568327926 1:0.292277 2:0.501331 3:-0.606824 4:-0.420084 5:0.0450828 6:-0.865745 7:-0.624549 8:-0.209739 
9.573410947217624 1:0.156695 2:0.421495 3:-0.79264 4:-0.636379 5:-0.202254 6:-0.989148 7:-0.624549 8:-0.209739 
9.166898677683673 1:0.1083 2:0.346656 3:-0.742332 4:-0.607985 5:-0.356916 6:-0.749476 7:-0.132463 8:0.0227944 
12.30208135756652 1:0.0414646 2:0.271635 3:-0.744166 4:-0.665763 5:-0.48084 6:-0.71335 7:-0.263211 8:-0.0555319 
9.905245025426098 1:0.0482441 2:0.213154 3:-0.577645 4:-0.517309 5:-0.509971 6:-0.391135 7:0.1122 8:0.148583 
13.22300064703872 1:0.0350212 2:0.163373 3:-0.490073 4:-0.469825 5:-0.512284 6:-0.296437 7:-0.00164094 8:0.089879 
10.70280755792565 1:-0.0325228 2:0.108237 3:-0.543976 4:-0.627077 5:-0.570481 6:-0.531398 7:-0.278558 8:-0.0687714 
5.328333498380974 1:-0.0836558 2:0.0525378 3:-0.549649 4:-0.678491 5:-0.627802 6:-0.562488 7:-0.278558 8:-0.0687714 
10.07227879410232 1:-0.043748 2:0.0170245 3:-0.346433 4:-0.214174 5:-0.498732 6:0.182353 7:0.229448 8:0.205088 
14.04862778409362 1:-0.0105672 2:-0.00386481 3:-0.19921 4:0.0953713 5:-0.301162 6:0.545732 7:0.229448 8:0.205088 
13.54362447832201 1:-0.0412355 2:-0.027528 3:-0.227136 4:-0.171929 5:-0.265752 6:-0.0140834 7:-0.13975 8:0.0221443 
8.453010004764568 1:-0.0827781 2:-0.0558754 3:-0.274292 4:-0.327117 5:-0.298057 6:-0.275969 7:-0.235417 8:-0.0322672 
9.763168778542024 1:-0.0353665 2:-0.0678061 3:-0.109023 4:0.0296638 5:-0.191052 6:0.287018 7:0.244848 8:0.231811 
12.05991607842977 1:-0.0837028 2:-0.0883075 3:-0.195304 4:-0.240664 5:-0.217109 6:-0.205253 7:-0.171491 8:-0.00592725 
6.990128926602516 1:-0.109504 2:-0.110557 3:-0.212904 4:-0.358558 5:-0.276956 6:-0.362042 7:-0.11467 8:0.0255819 
8.746322421425873 1:-0.136755 2:-0.134534 3:-0.230293 4:-0.499478 5:-0.367624 6:-0.526604 7:-0.161211 8:-0.000269446 
8.748073620476092 1:-0.135732 2:-0.153483 3:-0.179682 4:-0.468777 5:-0.417008 6:-0.408187 7:-0.0137158 8:0.071247 
10.26189959412593 1:-0.0640671 2:-0.152398 3:0.0220104 4:-0.01204 5:-0.285378 6:0.31892 7:0.364443 8:0.289577 
14.11295187315302 1:0.100927 2:-0.11413 3:0.396341 4:0.354775 5:-0.0654683 6:0.766503 7:0.660805 8:0.532937 
18.84676296354618 1:0.21106 2:-0.0585506 3:0.570616 4:0.501768 5:0.134097 6:0.812776 7:0.522954 8:0.464893 
17.84751235010845 1:0.296358 2:0.00524781 3:0.653358 4:0.572666 5:0.292683 6:0.760658 7:0.522954 8:0.464893 
18.58168191677845 1:0.303024 2:0.0577976 3:0.540116 4:0.432958 5:0.348074 6:0.424018 7:0.0963791 8:0.258066 
14.71782312785501 1:0.277108 2:0.0939629 3:0.375171 4:0.246334 5:0.317764 6:0.0988859 7:-0.0669595 8:0.166562 
13.00191349013306 1:0.264762 2:0.120097 3:0.274179 4:0.15308 5:0.263959 6:-0.0174125 7:0.00174644 8:0.197553 
14.44448638370071 1:0.243786 2:0.136249 3:0.173695 4:0.00187564 5:0.173614 6:-0.202271 7:-0.066457 8:0.163637 
14.09862935822747 1:0.23569 2:0.147336 3:0.122698 4:-0.16387 5:0.0536687 6:-0.379936 7:0.0257011 8:0.199769 
14.42243972573108 1:0.208676 2:0.150081 3:0.0387303 4:-0.400848 5:-0.111673 6:-0.641303 7:-0.142446 8:0.123596 
13.4403398393771 1:0.186549 2:0.147262 3:-0.0172931 4:-0.558834 5:-0.27882 6:-0.747575 7:-0.142446 8:0.123596 
13.69084453498245 1:0.207303 2:0.149712 3:0.0357424 4:-0.477185 5:-0.360835 6:-0.491549 7:0.281337 8:0.289528 
16.5369387292067 1:0.203215 2:0.150744 3:0.0214841 4:-0.431251 5:-0.398963 6:-0.357083 7:0.0574535 8:0.199238 
18.33272545857832 1:0.208813 2:0.152839 3:0.0321778 4:-0.138382 5:-0.318866 6:0.114298 7:0.160939 8:0.24225 
12.01376919509122 1:0.173433 2:0.146496 3:-0.0527755 4:-0.370501 5:-0.349096 6:-0.299014 7:-0.222029 8:0.0650194 
3.426809623179004 1:0.154854 2:0.137209 3:-0.0824019 4:-0.35163 5:-0.362451 6:-0.246529 7:-0.0976806 8:0.113926 
9.391981592910847 1:0.118755 2:0.103884 3:-0.101499 4:-0.32507 5:-0.364627 6:-0.192508 7:-0.0976806 8:0.113926 
6.329904986204544 1:0.0921035 2:0.0888955 3:-0.139801 4:-0.435604 5:-0.403059 6:-0.360619 7:-0.380408 8:-0.00203781 
14.37177076657454 1:0.0715884 2:0.0722547 3:-0.156439 4:-0.509293 5:-0.455229 6:-0.440988 7:-0.380408 8:-0.00203781 
12.15141231320121 1:0.0949153 2:0.0642298 3:-0.0697019 4:-0.226023 5:-0.387952 6:0.027116 7:0.356244 8:0.274023 
13.77844774796984 1:0.0941248 2:0.0576307 3:-0.0553479 4:-0.161825 5:-0.319972 6:0.0702289 7:0.0359247 8:0.144055 
5.703668455717271 1:0.0647481 2:0.0456924 3:-0.109099 4:-0.399485 5:-0.360276 6:-0.34178 7:-0.282024 8:-0.0221935 
22.44358051210775 1:0.08121 2:0.0398732 3:-0.0474956 4:-0.18398 5:-0.309503 6:0.0148319 7:0.188583 8:0.22053 
12.58542240101339 1:0.0751973 2:0.033855 3:-0.0495001 4:-0.227283 5:-0.291256 6:-0.0907987 7:-0.0189275 8:0.111174 
8.248660236566201 1:0.0516448 2:0.0237016 3:-0.0911296 4:-0.370412 5:-0.330657 6:-0.320862 7:-0.194676 8:0.01057 
17.09811461975648 1:0.0146186 2:0.00718592 3:-0.15518 4:-0.55724 5:-0.424235 6:-0.570833 7:-0.342014 8:-0.0817995 
10.87717106164784 1:-0.0325417 2:-0.0167168 3:-0.229547 4:-0.756581 5:-0.55844 6:-0.796515 7:-0.464484 8:-0.166454 
9.512070105111491 1:-0.106505 2:-0.0526047 3:-0.350204 4:-0.801488 5:-0.664088 6:-0.757294 7:-0.63454 8:-0.308192 
6.910798900789096 1:-0.181224 2:-0.0982521 3:-0.448455 4:-0.840688 5:-0.748644 6:-0.732213 7:-0.695062 8:-0.367904 
6.736820602418938 1:-0.265384 2:-0.153847 3:-0.548601 4:-0.945547 5:-0.842792 6:-0.822799 7:-0.767313 8:-0.447399 
5.15766064505803 1:-0.317182 2:-0.210065 3:-0.554866 4:-0.936727 5:-0.90238 6:-0.734562 7:-0.598759 8:-0.367493 
5.950583209989269 1:-0.343034 2:-0.260899 3:-0.50067 4:-0.891485 5:-0.925806 6:-0.618992 7:-0.426361 8:-0.286657 
6.60017549664056 1:-0.280364 2:-0.28736 3:-0.255304 4:-0.465237 5:-0.787854 6:0.0415355 7:0.344827 8:0.195903 
10.58436636756064 1:-0.207252 2:-0.291956 3:-0.0351855 4:0.0526442 5:-0.509304 6:0.711572 7:0.448468 8:0.283217 
11.55693521452652 1:-0.175294 2:-0.288389 3:0.0469974 4:0.225308 5:-0.261397 6:0.749818 7:0.154672 8:0.139309 
8.771737087573968 1:-0.166243 2:-0.283484 3:0.0604705 4:0.225357 5:-0.0961076 6:0.552523 7:-0.0122792 8:0.0519239 
7.456161799128579 1:-0.146141 2:-0.275003 3:0.0964653 4:0.28292 5:0.0348241 6:0.507612 7:0.0806142 8:0.104894 
6.273894371384196 1:-0.137011 2:-0.266149 3:0.100224 4:0.263766 5:0.115211 6:0.374527 7:-0.0208256 8:0.0568993 
5.874379933297866 1:-0.126882 2:-0.256769 3:0.105513 4:0.250996 5:0.164201 6:0.291298 7:-0.0208256 8:0.0568993 
10.12969616568335 1:-0.0675836 2:-0.235824 3:0.221946 4:0.462142 5:0.272933 6:0.570256 7:0.457011 8:0.32989 
18.75392785401381 1:-0.00923926 2:-0.205843 3:0.312916 4:0.670897 5:0.420632 6:0.798048 7:0.519336 8:0.375581 
12.40761233632059 1:0.067093 2:-0.164555 3:0.42674 4:0.747742 5:0.546783 6:0.79618 7:0.674897 8:0.502119 
17.16173640544391 1:0.117848 2:-0.120019 3:0.459433 4:0.688707 5:0.609615 6:0.606845 7:0.508912 8:0.433053 
13.07550366157884 1:0.0121851 2:-0.108343 3:0.12864 4:0.0740501 5:0.430054 6:-0.368776 7:-0.472066 8:-0.188681 
5.402747050739443 1:-0.0305226 2:-0.108682 3:0.00767057 4:-0.169523 5:0.222592 6:-0.592612 7:-0.19054 8:-0.0136438 
6.67630809866607 1:-0.0525198 2:-0.11394 3:-0.0418437 4:-0.290356 5:0.0407502 6:-0.609403 7:-0.122045 8:0.028118 
7.031728070735218 1:-0.05804 2:-0.119397 3:-0.0438548 4:-0.329362 5:-0.0945306 6:-0.523369 7:-0.0459549 8:0.0716146 
8.552300835357045 1:-0.040888 2:-0.119875 3:0.00627444 4:-0.272267 5:-0.164148 6:-0.329688 7:0.108615 8:0.15871 
7.605364261990687 1:-0.0643688 2:-0.12558 3:-0.0463462 4:-0.400402 5:-0.256723 6:-0.467218 7:-0.169393 8:0.00614257 
3.723661129454181 1:-0.0806164 2:-0.133827 3:-0.0719367 4:-0.485824 5:-0.349217 6:-0.522151 7:-0.169393 8:0.00614257 
6.671996018968024 1:-0.139512 2:-0.153775 3:-0.189732 4:-0.708971 5:-0.491274 6:-0.784545 7:-0.442466 8:-0.163774 
5.054137757519698 1:-0.211751 2:-0.186108 3:-0.314417 4:-0.637767 5:-0.560326 6:-0.564224 7:-0.552746 8:-0.248394 
4.108106675475767 1:-0.225719 2:-0.215141 3:-0.281192 4:-0.414324 5:-0.525858 6:-0.172771 7:-0.140854 8:-0.0402712 
4.72760138310813 1:-0.232675 2:-0.239944 3:-0.23861 4:-0.265363 5:-0.449212 6:0.0241067 7:-0.140854 8:-0.0402712 
4.769391737713657 1:-0.234058 2:-0.260099 3:-0.191826 4:-0.166055 5:-0.362335 6:0.112631 7:-0.140854 8:-0.0402712 
5.569640954331007 1:-0.269859 2:-0.284339 3:-0.232942 4:-0.275823 5:-0.343965 6:-0.121833 7:-0.421155 8:-0.185867 
4.160682350806439 1:-0.225517 2:-0.29368 3:-0.0829476 4:-0.00805268 5:-0.235246 6:0.266772 7:0.215916 8:0.16353 
6.932461265103093 1:-0.206191 2:-0.296772 3:-0.0200385 4:0.0769748 5:-0.132133 6:0.308257 7:0.0584814 8:0.0850644 
5.697043129204886 1:-0.158184 2:-0.288363 3:0.0957383 4:0.273889 5:0.00755332 6:0.522693 7:0.263613 8:0.21267 
-0.6593646279585522 1:-0.146454 2:-0.278977 3:0.105576 4:0.264936 5:0.097452 6:0.398001 7:0.0156157 8:0.0902699 
6.068106904661065 1:-0.19238 2:-0.281879 3:-0.0181244 4:-0.150934 5:0.00755475 6:-0.299821 7:-0.318676 8:-0.109474 
2.912611462932896 1:-0.205353 2:-0.287141 3:-0.0418884 4:-0.31312 5:-0.110809 6:-0.472483 7:-0.146542 8:-0.0168626 
4.054388523673538 1:-0.269963 2:-0.305996 3:-0.178732 4:-0.593835 5:-0.290855 6:-0.80097 7:-0.412329 8:-0.188702 
1.048594923256829 1:-0.316091 2:-0.331537 3:-0.246033 4:-0.780978 5:-0.478309 6:-0.939443 7:-0.412329 8:-0.188702 
1.056545394253291 1:-0.318113 2:-0.352427 3:-0.199224 4:-0.76551 5:-0.597705 6:-0.766911 7:-0.114707 8:-0.0390495 
2.571233594542392 1:-0.256457 2:-0.355164 3:-0.0164616 4:-0.47474 5:-0.572545 6:-0.23399 7:0.287149 8:0.207721 
5.571602034542288 1:-0.184412 2:-0.341022 3:0.153454 4:-0.153129 5:-0.4399 6:0.230286 7:0.386047 8:0.278212 
6.562379369913195 1:-0.221451 2:-0.338104 3:0.0404583 4:-0.429644 5:-0.451094 6:-0.291715 7:-0.209099 8:-0.0485539 
1.578393568357205 1:-0.20773 2:-0.33266 3:0.0658942 4:-0.383867 5:-0.442064 6:-0.21387 7:0.0237931 8:0.0939316 
3.695747008646933 1:-0.241698 2:-0.336005 3:-0.0225822 4:-0.640999 5:-0.528683 6:-0.608269 7:-0.197758 8:-0.041843 
-0.393901776264542 1:-0.264142 2:-0.343768 3:-0.067064 4:-0.636447 5:-0.584789 6:-0.532452 7:-0.197758 8:-0.041843 
0.9248713558396844 1:-0.2967 2:-0.357358 3:-0.125732 4:-0.684737 5:-0.639592 6:-0.560503 7:-0.293336 8:-0.0971786 
0.1054182471383172 1:-0.395013 2:-0.390516 3:-0.322718 4:-0.667072 5:-0.669762 6:-0.49027 7:-0.557142 8:-0.28158 
-3.279487454074442 1:-0.437021 2:-0.426564 3:-0.35182 4:-0.580506 5:-0.658687 6:-0.335893 7:-0.30907 8:-0.153773 
-3.861468005409534 1:-0.556073 2:-0.517305 3:-0.463038 4:-0.656272 5:-0.683769 6:-0.452633 7:-0.478851 8:-0.263169 
-4.072528583659476 1:-0.62922 2:-0.571563 3:-0.535136 4:-0.757569 5:-0.731818 6:-0.591376 7:-0.5968 8:-0.344982 
-6.221607626308085 1:-0.716744 2:-0.634808 3:-0.62562 4:-0.832604 5:-0.790884 6:-0.666116 7:-0.685714 8:-0.416918 
-7.028629103279613 1:-0.736933 2:-0.689981 3:-0.54435 4:-0.767567 5:-0.80683 6:-0.521154 7:-0.297995 8:-0.224976 
-3.854134906730522 1:-0.762337 2:-0.739878 3:-0.491235 4:-0.754344 5:-0.812697 6:-0.488546 7:-0.381522 8:-0.269134 
-7.387249872815147 1:-0.752737 2:-0.777619 3:-0.368864 4:-0.674301 5:-0.78777 6:-0.363341 7:-0.188595 8:-0.172853 
-6.38795211879291 1:-0.832223 2:-0.82583 3:-0.474261 4:-0.834622 5:-0.828912 6:-0.62461 7:-0.551514 8:-0.378444 
-11.42919799810311 1:-1 2:-0.90243 3:-0.760058 4:-0.834661 5:-0.856355 6:-0.591913 7:-0.731592 8:-0.533158 
-17.42956699052678 1:-0.953736 2:-0.953223 3:-0.500256 4:-0.471426 5:-0.743784 6:-0.0230783 7:0.0330995 8:-0.00359338 
-8.929090036805732 1:-0.924606 2:-0.987254 3:-0.331512 4:-0.231941 5:-0.582454 6:0.247935 7:-0.0263986 8:-0.0389585 
-9.929035672095665 1:-0.860731 2:-1 3:-0.117228 4:0.033667 5:-0.379208 6:0.519467 7:0.0842157 8:0.0385038 
-8.429320123849187 1:-0.780061 2:-0.991911 3:0.0925221 4:0.260598 5:-0.161952 6:0.699385 7:0.161161 8:0.0905263 
-7.429250264223228 1:-0.628953 2:-0.951187 3:0.421064 4:0.536534 5:0.0823001 6:0.941944 7:0.419836 8:0.279233 
-2.95555988543596 1:-0.598981 2:-0.911814 3:0.407464 4:0.493858 5:0.229759 6:0.683221 7:-0.00475304 8:0.0585921 
-8.111010331730405 1:-0.538158 2:-0.866528 3:0.466988 4:0.533397 5:0.342311 6:0.625364 7:0.107506 8:0.128693 
-6.76712775480101 1:-0.453855 2:-0.81119 3:0.568186 4:0.627747 5:0.451337 6:0.677836 7:0.219558 8:0.198153 
-5.409249869968625 1:-0.420019 2:-0.75925 3:0.53398 4:0.521164 5:0.485622 6:0.430535 7:0.0278142 8:0.104904 
-7.429536718019954 1:-0.435808 2:-0.721276 3:0.393372 4:0.198531 5:0.39224 6:-0.0826075 7:-0.174886 8:-0.00287766 
-9.928806904649008 1:-0.432096 2:-0.690056 3:0.325386 4:-0.145893 5:0.205896 6:-0.526922 7:-0.11458 8:0.0257846 
-9.276740764789821 1:-0.306447 2:-0.636598 3:0.549256 4:0.26554 5:0.229898 6:0.241002 7:0.391097 8:0.317354 
-3.428672772569882 1:-0.280697 2:-0.587995 3:0.500383 4:0.112463 5:0.190749 6:-0.00862272 7:0.0346428 8:0.132384 
-6.845178563840356 1:-0.207408 2:-0.5325 3:0.569769 4:0.277515 5:0.224114 6:0.271094 7:0.21377 8:0.240384 
-4.455581532846765 1:-0.146209 2:-0.474231 3:0.597689 4:0.38755 5:0.286001 6:0.410229 7:0.21377 8:0.240384 
-4.762896978319439 1:-0.12428 2:-0.422645 3:0.530412 4:0.300644 5:0.295949 6:0.230089 7:0.0496363 8:0.163794 
-6.410335027077558 1:-0.0363664 2:-0.361449 3:0.627165 4:0.516488 5:0.380345 6:0.547204 7:0.349156 8:0.327207 
-2.903731843010874 1:0.0634417 2:-0.289867 3:0.731712 4:0.667765 5:0.491111 6:0.707817 7:0.449085 8:0.390148 
-1.41176845110698 1:0.152031 2:-0.212521 3:0.789748 4:0.807979 5:0.615471 6:0.830776 7:0.483364 8:0.411534 
-0.9087320036586846 1:0.182322 2:-0.143778 3:0.703139 4:0.702017 5:0.660202 6:0.572203 7:0.177374 8:0.28411 
-2.861288532054289 1:0.195691 2:-0.0857526 3:0.595237 4:0.581517 5:0.646609 6:0.355132 7:0.106073 8:0.252698 
-3.442170994177943 1:0.118051 2:-0.0569318 3:0.301231 4:0.0524493 5:0.446934 6:-0.430757 7:-0.342128 8:0.00648616 
-7.445238377778309 1:0.105791 2:-0.0366541 3:0.215227 4:-0.0830181 5:0.265012 6:-0.475785 7:-0.0235488 8:0.151634 
-4.911690100246446 1:0.0963964 2:-0.0225615 3:0.15296 4:-0.17333 5:0.111192 6:-0.466947 7:-0.0235488 8:0.151634 
-5.378027618808659 1:0.147553 2:0.000308565 3:0.241324 4:0.0869867 5:0.102433 6:0.0475194 7:0.306648 8:0.316909 
-2.422273544329855 1:0.255267 2:0.043021 3:0.441081 4:0.38143 5:0.202676 6:0.497889 7:0.545953 8:0.473512 
0.7950501253842559 1:0.309065 2:0.0893856 3:0.477849 4:0.459638 5:0.297681 6:0.535854 7:0.332873 8:0.374129 
-0.3952637458770963 1:0.358808 2:0.137753 3:0.498009 4:0.55114 5:0.393984 6:0.598006 7:0.375001 8:0.397863 
1.988781514781434 1:0.547963 2:0.303049 3:0.621557 4:0.768684 5:0.645667 6:0.718637 7:0.655603 8:0.565539 
2.825255429101355 1:0.647665 2:0.37416 3:0.726982 4:0.848548 5:0.733125 6:0.76882 7:0.787173 8:0.669341 
4.580250987118314 1:0.700413 2:0.443007 3:0.704175 4:0.835014 5:0.786554 6:0.678812 7:0.560533 8:0.576396 
5.243334647068031 1:0.715773 2:0.501565 3:0.600609 4:0.722665 5:0.781696 6:0.46709 7:0.347008 8:0.484555 
3.742927622597477 1:0.788967 2:0.565004 3:0.649732 4:0.765853 5:0.794018 6:0.535994 7:0.632183 8:0.644047 
6.857514490281221 1:0.790236 2:0.616042 3:0.5249 4:0.597833 5:0.741698 6:0.273165 7:0.223213 8:0.433844 
3.972495422319918 1:0.79334 2:0.657576 3:0.429221 4:0.497396 5:0.670632 6:0.163574 7:0.275404 8:0.4591 
2.772405975990111 1:0.807547 2:0.694024 3:0.378014 4:0.507427 5:0.626869 6:0.235258 7:0.382418 8:0.510517 
5.256111910954118 1:0.80119 2:0.721741 3:0.290123 4:0.389466 5:0.555195 6:0.0924644 7:0.279688 8:0.463487 
3.513756356737332 1:0.769095 2:0.73664 3:0.161074 4:0.0989229 5:0.402735 6:-0.287995 7:0.0791963 8:0.368784 
4.272058519804503 1:0.7851 2:0.752187 3:0.1676 4:0.279173 5:0.366036 6:0.104819 7:0.41753 8:0.517981 
6.827200648474502 1:0.790108 2:0.765759 3:0.147726 4:0.399339 5:0.384863 6:0.314993 7:0.41753 8:0.517981 
6.220069377463865 1:0.767043 2:0.771389 3:0.0677631 4:0.329872 5:0.372387 6:0.195395 7:0.175959 8:0.411758 
5.50910651149465 1:0.722246 2:0.765739 3:-0.0457988 4:0.167222 5:0.30547 6:-0.0396032 7:-0.0305539 8:0.30991 
5.073050761569803 1:0.651233 2:0.745121 3:-0.196473 4:-0.273606 5:0.102037 6:-0.650162 7:-0.270694 8:0.169314 
2.901923347821494 1:0.58959 2:0.714654 3:-0.29563 4:-0.484393 5:-0.109527 6:-0.80562 7:-0.270694 8:0.169314 
2.244152187680967 1:0.555391 2:0.682529 3:-0.312329 4:-0.408861 5:-0.223357 6:-0.523442 7:0.0122012 8:0.264987 
4.861736280255954 1:0.562483 2:0.658436 3:-0.231462 4:-0.0593498 5:-0.173322 6:0.0935034 7:0.383825 8:0.430483 
6.607451547698069 1:0.660046 2:0.661276 3:0.0396862 4:0.323235 5:-0.00212766 6:0.629795 7:0.756622 8:0.703891 
10.92667035385951 1:0.691577 2:0.670697 3:0.105921 4:0.412095 5:0.144016 6:0.627311 7:0.397257 8:0.50462 
9.420298200845314 1:0.661315 2:0.671373 3:0.0178954 4:0.263587 5:0.187941 6:0.287325 7:0.0588077 8:0.294374 
6.848865803964137 1:0.670284 2:0.673947 3:0.0370024 4:0.330779 5:0.241433 6:0.353538 7:0.263503 8:0.410783 
8.648721674697944 1:0.622588 2:0.665195 3:-0.0770231 4:0.167827 5:0.218385 6:0.0655657 7:-0.0315579 8:0.223097 
6.275541402152655 1:0.54074 2:0.63964 3:-0.24618 4:-0.107005 5:0.104003 6:-0.329949 7:-0.214899 8:0.0937556 
4.321927353926853 1:0.491267 2:0.607982 3:-0.307624 4:-0.207128 5:-0.00832339 6:-0.389658 7:-0.0748719 8:0.163353 
6.408350308756845 1:0.399822 2:0.561927 3:-0.452558 4:-0.523173 5:-0.197073 6:-0.776156 7:-0.304747 8:0.0079843 
4.129882320036137 1:0.305637 2:0.503733 3:-0.574761 4:-0.662642 5:-0.373154 6:-0.835908 7:-0.38158 8:-0.0484939 
1.613824456463002 1:0.297677 2:0.455374 3:-0.475754 4:-0.506325 5:-0.434223 6:-0.460328 7:0.104074 8:0.201356 
7.829735576062857 1:0.260364 2:0.408229 3:-0.463534 4:-0.498271 5:-0.472034 6:-0.39958 7:-0.0600382 8:0.10704 
6.119170144827956 1:0.297479 2:0.378925 3:-0.283914 4:-0.177126 5:-0.381539 6:0.114128 7:0.293379 8:0.316907 
8.129432124984898 1:0.334283 2:0.363826 3:-0.140927 4:0.194859 5:-0.18719 6:0.602245 7:0.335147 8:0.343862 
7.808224234557365 1:0.360724 2:0.357739 3:-0.0501858 4:0.442848 5:0.0317212 6:0.820959 7:0.335147 8:0.343862 
7.910548851458875 1:0.349645 2:0.350359 3:-0.0632153 4:0.458597 5:0.183336 6:0.670389 7:0.0765785 8:0.225231 
5.751868471419926 1:0.367495 2:0.3485 3:-0.00762034 4:0.618674 5:0.342085 6:0.790739 7:0.277711 8:0.32552 
11.12385657771203 1:0.407808 2:0.356152 3:0.0881153 4:0.775251 5:0.50433 6:0.900139 7:0.440474 8:0.417837 
2.114039934005068 1:0.36826 2:0.353308 3:-0.0175395 4:0.419396 5:0.484285 6:0.235095 7:-0.0832994 8:0.148904 
5.385284118334624 1:0.334493 2:0.343379 3:-0.0888692 4:0.215034 5:0.397294 6:-0.0566917 7:-0.0832994 8:0.148904 
10.6695639598794 1:0.373542 2:0.344288 3:0.0202316 4:0.452737 5:0.42494 6:0.370517 7:0.348518 8:0.376419 
2.967431169909359 1:0.401295 2:0.351305 3:0.0817336 4:0.524397 5:0.469189 6:0.456419 7:0.348518 8:0.376419 
7.867106655154495 1:0.41988 2:0.361132 3:0.110016 4:0.572171 5:0.5159 6:0.493132 7:0.348518 8:0.376419 
9.440550980477788 1:0.392272 2:0.362736 3:0.0272279 4:0.417047 5:0.491152 6:0.222347 7:-0.0397609 8:0.198211 
-0.4440451343763687 1:0.425787 2:0.371615 3:0.100481 4:0.552847 5:0.52358 6:0.446546 7:0.362836 8:0.402283 
10.8870385078746 1:0.429208 2:0.379495 3:0.0904089 4:0.555392 5:0.546115 6:0.424563 7:0.189127 8:0.315789 
5.845680201527131 1:0.389612 2:0.376823 3:-0.0158131 4:0.381115 5:0.49835 6:0.144181 7:-0.0982257 8:0.157175 
9.366307802842639 1:0.365265 2:0.369166 3:-0.0659927 4:0.308924 5:0.440498 6:0.0734979 7:-0.0134925 8:0.195758 
8.637947759525394 1:0.314342 2:0.351498 3:-0.166782 4:-0.0544901 5:0.270999 6:-0.427701 7:-0.219103 8:0.0792035 
7.152267338199529 1:0.262579 2:0.32563 3:-0.249333 4:-0.261152 5:0.0835431 6:-0.603964 7:-0.2815 8:0.0416004 
6.304040311993283 1:0.201046 2:0.290987 3:-0.337666 4:-0.505769 5:-0.129558 6:-0.823085 7:-0.40113 8:-0.0332543 
6.759007401352441 1:0.258662 2:0.276334 3:-0.136436 4:-0.0812186 5:-0.118668 6:-0.0141061 7:0.404642 8:0.388245 
14.31368934167333 1:0.331371 2:0.281092 3:0.0589893 4:0.308656 5:0.0290558 6:0.564328 7:0.513007 8:0.469483 
11.70899593225326 1:0.327775 2:0.284083 3:0.0412027 4:0.269417 5:0.113401 6:0.387629 7:0.0925357 8:0.236835 
5.809732193435549 1:0.312937 2:0.283113 3:0.0013207 4:0.193398 5:0.142244 6:0.206003 7:0.0327433 8:0.201606 
0.2447797667600404 1:0.308862 2:0.281413 3:-0.0060263 4:0.192578 5:0.161176 6:0.181806 7:0.101628 8:0.236774 
5.801318532178596 1:0.293864 2:0.276654 3:-0.036828 4:0.142172 5:0.155638 6:0.0908276 7:0.0199908 8:0.196007 
1.334233963378664 1:0.289881 2:0.271943 3:-0.0363355 4:0.158427 5:0.157802 6:0.119716 7:0.11228 8:0.236708 
6.961627055449635 1:0.304272 2:0.271437 3:0.00598928 4:0.254737 5:0.193943 6:0.263024 7:0.286513 8:0.317606 
12.58239967260337 1:0.323195 2:0.275321 3:0.0501911 4:0.28333 5:0.228339 6:0.277307 7:0.367511 8:0.357659 
8.945215325781632 1:0.306653 2:0.274679 3:0.00462091 4:0.0530956 5:0.168321 6:-0.0967817 7:-0.00144793 8:0.201925 
8.43360187407667 1:0.301313 2:0.272955 3:-0.00627081 4:-0.0172953 5:0.102948 6:-0.154999 7:0.110727 8:0.248631 
8.30137024406581 1:0.304811 2:0.272368 3:0.00518382 4:0.137589 5:0.115168 6:0.130284 7:0.222639 8:0.296255 
10.01885302028345 1:0.237594 2:0.256663 3:-0.147027 4:-0.218573 5:-0.00500381 6:-0.415781 7:-0.382926 8:-0.0304233 
6.546406725865381 1:0.154538 2:0.225271 3:-0.304938 4:-0.423962 5:-0.159116 6:-0.629398 7:-0.512324 8:-0.134313 
5.069447850557438 1:0.0406191 2:0.174335 3:-0.501695 4:-0.62618 5:-0.334712 6:-0.811219 7:-0.660597 8:-0.277646 
2.567411915887917 1:-0.0961812 2:0.102577 3:-0.711317 4:-0.664043 5:-0.465418 6:-0.728436 7:-0.754065 8:-0.389887 
0.02322555114398028 1:-0.181449 2:0.0258423 3:-0.761418 4:-0.633886 5:-0.54169 6:-0.578963 7:-0.528632 8:-0.277623 
1.584852642055353 1:-0.264172 2:-0.0542968 3:-0.795689 4:-0.66918 5:-0.605254 6:-0.571389 7:-0.590573 8:-0.326 
0.6676381594147737 1:-0.324557 2:-0.132096 3:-0.772133 4:-0.69271 5:-0.656107 6:-0.556216 7:-0.590573 8:-0.326 
2.284322124390158 1:-0.357053 2:-0.201701 3:-0.689645 4:-0.680697 5:-0.685681 6:-0.49764 7:-0.432377 8:-0.259546 
0.5397697493581859 1:-0.415829 2:-0.270709 3:-0.683625 4:-0.781356 5:-0.741662 6:-0.625675 7:-0.612681 8:-0.370595 
-1.099135323497151 1:-0.349023 2:-0.310772 3:-0.392232 4:-0.394278 5:-0.639527 6:0.00178696 7:0.285756 8:0.169468 
4.230361857235323 1:-0.29129 2:-0.329735 3:-0.179821 4:0.000231626 5:-0.429302 6:0.514555 7:0.285756 8:0.169468 
5.847441543612619 1:-0.221922 2:-0.329181 3:0.016658 4:0.362956 5:-0.15847 6:0.893406 7:0.392012 8:0.247122 
3.900559754286789 1:-0.23153 2:-0.330917 3:-0.00638183 4:0.255758 5:-0.0165373 6:0.516358 7:-0.110521 8:-0.00725858 
-0.3353628719094814 1:-0.225303 2:-0.330893 3:0.0113203 4:0.234151 5:0.0703004 6:0.370822 7:-0.0366907 8:0.0352442 
2.937306600967673 1:-0.148542 2:-0.313475 3:0.186444 4:0.518903 5:0.230783 6:0.730488 7:0.359993 8:0.292663 
3.377722327350853 1:-0.0658926 2:-0.280805 3:0.339978 4:0.669374 5:0.391983 6:0.829314 7:0.442401 8:0.354509 
7.605309481037761 1:-0.0377729 2:-0.248295 3:0.338369 4:0.612238 5:0.478864 6:0.614936 7:0.131104 8:0.198438 
15.14109841818491 1:0.0249044 2:-0.20808 3:0.415942 4:0.713431 5:0.573243 6:0.698149 7:0.338774 8:0.328908 
16.15651613211782 1:0.0848422 2:-0.162322 3:0.471749 4:0.785002 5:0.661948 6:0.730788 7:0.386701 8:0.360054 
6.812889651460274 1:0.190451 2:-0.101775 3:0.620616 4:0.886137 5:0.757521 6:0.812462 7:0.616479 8:0.527278 
9.786885774002883 1:0.253038 2:-0.0391517 3:0.641533 4:0.874834 5:0.817165 6:0.719353 7:0.427191 8:0.43718 
8.521704579365261 1:0.339405 2:0.0305248 3:0.712534 4:0.946025 5:0.882576 6:0.779072 7:0.581491 8:0.542744 
10.83083162815234 1:0.375519 2:0.0944523 3:0.654657 4:0.817511 5:0.879882 6:0.53347 7:0.304538 8:0.406864 
8.566308569678531 1:0.46885 2:0.16675 3:0.738924 4:0.907809 5:0.910619 6:0.671593 7:0.576369 8:0.581819 
12.61736554867309 1:0.518645 2:0.235876 3:0.706988 4:0.84992 5:0.910254 6:0.559948 7:0.406537 8:0.493669 
5.936533840985192 1:0.601663 2:0.309995 3:0.757256 4:0.892021 5:0.925179 6:0.623637 7:0.583361 8:0.608189 
11.44606675933617 1:0.670965 2:0.384999 3:0.766169 4:0.889493 5:0.934218 6:0.607947 7:0.614474 8:0.629589 
10.35041222327447 1:0.777231 2:0.46909 3:0.857651 4:0.955797 5:0.964132 6:0.700598 7:0.766466 8:0.745731 
13.13887375372158 1:0.853045 2:0.553549 3:0.861347 4:1 5:1 6:0.743346 7:0.766466 8:0.745731 
16.46194974430478 1:0.904139 2:0.632697 3:0.80789 4:0.927484 5:0.997786 6:0.605589 7:0.766466 8:0.745731 
18.06125593521325 1:0.90618 2:0.696479 3:0.653188 4:0.777154 5:0.942149 6:0.380974 7:0.358393 8:0.571481 
16.53007091083087 1:0.869768 2:0.73925 3:0.441676 4:0.560381 5:0.826959 6:0.0988342 7:0.0540278 8:0.414595 
14.24668762624512 1:0.881244 2:0.776069 3:0.381746 4:0.593934 5:0.762254 6:0.241069 7:0.389627 8:0.560234 
16.91387069341512 1:0.852508 2:0.79901 3:0.242038 4:0.384813 5:0.643775 6:-0.0223272 7:0.12186 8:0.41323 
8.99881357581986 1:0.879895 2:0.82357 3:0.258344 4:0.551354 5:0.62479 6:0.322789 7:0.442649 8:0.575063 
14.9645457288192 1:0.91214 2:0.850528 3:0.282475 4:0.580793 5:0.62274 6:0.382235 7:0.522095 8:0.621638 
20.726388930682 1:0.947823 2:0.880183 3:0.309628 4:0.700138 5:0.664371 6:0.563586 7:0.598204 8:0.667218 
19.61657598347867 1:0.937295 2:0.90152 3:0.225893 4:0.630123 5:0.666901 6:0.425009 7:0.285425 8:0.509361 
11.9752905031375 1:0.91008 2:0.912421 3:0.120827 4:0.533588 5:0.633807 6:0.277624 7:0.188509 8:0.458224 
13.73595197956934 1:0.879801 2:0.914278 3:0.0297841 4:0.46923 5:0.588557 6:0.207057 7:0.188509 8:0.458224 
15.82754840268304 1:0.866868 2:0.912832 3:-0.00346837 4:0.503032 5:0.570569 6:0.293983 7:0.36395 8:0.526911 
18.4216110245621 1:0.877372 2:0.914057 3:0.0234131 4:0.698157 5:0.628877 6:0.602138 7:0.560061 8:0.620509 
19.63048509469009 1:0.886719 2:0.917155 3:0.0422769 4:0.82824 5:0.714615 6:0.751606 7:0.6143 8:0.649979 
13.62563230748421 1:0.904753 2:0.923721 3:0.0771911 4:0.774733 5:0.752496 6:0.602771 7:0.712271 8:0.707626 
13.66534340165753 1:0.880886 2:0.923564 3:0.00950648 4:0.598832 5:0.714376 6:0.307727 7:0.248328 8:0.501019 
19.78963294748299 1:0.882664 2:0.923842 3:0.0138801 4:0.621794 5:0.697236 6:0.372654 7:0.46597 8:0.601389 
20.58884091255975 1:0.923914 2:0.933414 3:0.107454 4:0.67049 5:0.703353 6:0.45963 7:0.687767 8:0.735747 
18.816760401443 1:0.966519 2:0.95073 3:0.185405 4:0.774181 5:0.74479 6:0.610907 7:0.7497 8:0.781089 
24.53019963805812 1:1 2:0.972171 3:0.226945 4:0.878923 5:0.81015 6:0.735646 7:0.77993 8:0.803492 
21.34648297435086 1:0.987151 2:0.986412 3:0.154451 4:0.81677 5:0.831331 6:0.590015 7:0.352641 8:0.593577 
20.78691167666394 1:0.98665 2:0.997691 3:0.124635 4:0.853895 5:0.858827 6:0.629057 7:0.478655 8:0.653458 
24.60517111300053 1:0.957028 2:1 3:0.0343297 4:0.771803 5:0.847582 6:0.483546 7:0.223671 8:0.519453 
23.6412340080207 1:0.91463 2:0.992236 3:-0.0670722 4:0.663654 5:0.801122 6:0.32964 7:0.104618 8:0.453987 
19.98707525212806 1:0.891804 2:0.980851 3:-0.103529 4:0.68059 5:0.776249 6:0.392132 7:0.301033 8:0.532105 
22.20973221679353 1:0.865173 2:0.965707 3:-0.141378 4:0.567232 5:0.718827 6:0.241231 7:0.301033 8:0.532105 
