svm_type epsilon_svr
kernel_type rbf
gamma 8
nr_class 2
total_sv 385
rho -7.96191
SV
0.2939095933498674 1:-0.00267569 2:0.0300173 3:-0.0480028 4:0.336618 5:0.176923 6:0.496528 7:-1 8:-1 
0.2331260721597178 1:-0.00720049 2:0.027002 3:-0.0531446 4:0.102171 5:0.168306 6:0.0645101 7:-1 8:-1 
0.1603717996873374 1:-0.00913607 2:0.0250619 3:-0.0539579 4:-0.105705 5:0.0861603 6:-0.233648 7:-1 8:-1 
0.06853605043464983 1:0.0192577 2:0.0434888 3:-0.0206394 4:0.0365983 5:0.188206 6:-0.0817436 7:0.453736 8:0.442564 
1 1:0.0159118 2:0.0482361 3:-0.0393134 4:-0.171839 5:0.0304987 6:-0.294858 7:-0.0546662 8:0.116376 
0.3868524890169492 1:0.0202705 2:0.0503209 3:-0.0326129 4:-0.157088 5:-0.0245964 6:-0.204279 7:0.359734 8:0.382159 
1 1:0.0135478 2:0.0501363 3:-0.0494079 4:-0.259789 5:-0.0990722 6:-0.312964 7:-0.118411 8:0.0388841 
0.8808028643202133 1:0.0108601 2:0.0493024 3:-0.0545021 4:-0.340944 5:-0.17855 6:-0.375344 7:-0.00402972 8:0.109804 
-0.01473269214035607 1:-0.0108238 2:0.0366046 3:-0.0828771 4:-0.749297 5:-0.631622 6:-0.628654 7:-0.144191 8:-0.0293598 
0.1379069093728315 1:-0.0252722 2:0.0297111 3:-0.105124 4:-0.777864 5:-0.694165 6:-0.611224 7:-0.42495 8:-0.226897 
1 1:-0.0643171 2:0.0147146 3:-0.172988 4:-0.898709 5:-0.780276 6:-0.740845 7:-0.716052 8:-0.506103 
1 1:-0.161841 2:-0.107489 3:-0.161851 4:-0.35929 5:-0.484283 6:-0.0615403 7:-0.186772 8:-0.259927 
0.3341290283156564 1:-0.0646348 2:-0.0966398 3:0.0635585 4:0.17157 5:-0.139596 6:0.546149 7:0.701115 8:0.468658 
0.8984297215133399 1:-0.00104494 2:-0.0708673 3:0.171208 4:0.319463 5:0.0371556 6:0.623461 7:0.761798 8:0.547548 
1 1:0.048551 2:-0.0383509 3:0.228703 4:0.413099 5:0.189404 6:0.626441 7:0.761798 8:0.547548 
1 1:0.0635591 2:0.0380608 3:0.1042 4:0.119588 5:0.263316 6:-0.0109289 7:-0.183274 8:0.0227408 
1 1:0.0906114 2:0.0941652 3:0.0537767 4:-0.127899 5:0.0590723 6:-0.244609 7:0.106298 8:0.188594 
1 1:0.0938011 2:0.104483 3:0.0399393 4:-0.117245 5:0.00909651 6:-0.167583 7:0.169051 8:0.217934 
0.5657526390123517 1:0.298824 2:0.189022 3:0.383937 4:0.378394 5:0.241734 6:0.501407 7:0.827232 8:0.729959 
0.6520128979904237 1:0.307231 2:0.231572 3:0.314733 4:0.18891 5:0.243393 6:0.142418 7:0.138838 8:0.274672 
1 1:0.348038 2:0.275401 3:0.325644 4:0.1806 5:0.241445 6:0.128976 7:0.331221 8:0.399638 
1 1:0.357275 2:0.341789 3:0.207752 4:0.0220094 5:0.155733 6:-0.0722361 7:0.172068 8:0.290708 
0.4947000634658849 1:0.313083 2:0.372487 3:0.0293275 4:-0.180728 5:0.0123609 6:-0.290942 7:-0.125329 8:0.114645 
1 1:0.299996 2:0.376603 3:-0.0129073 4:-0.257463 5:-0.073579 6:-0.337628 7:0.0574065 8:0.196195 
0.1274385925332215 1:0.275732 2:0.374078 3:-0.0695611 4:-0.506541 5:-0.309607 6:-0.538089 7:0.103278 8:0.214368 
0.5584197905999361 1:0.174638 2:0.338616 3:-0.252446 4:-0.745573 5:-0.539559 6:-0.72654 7:-0.462807 8:-0.108512 
1 1:0.0822037 2:0.297258 3:-0.400624 4:-0.785077 5:-0.635441 6:-0.691732 7:-0.649917 8:-0.277112 
0.6624149585936173 1:0.145086 2:0.258942 3:-0.158176 4:0.128913 5:-0.277104 6:0.622445 7:0.262809 8:0.233267 
0.6995371119745638 1:0.28204 2:0.28146 3:0.143987 4:0.479484 5:0.00429665 6:0.962477 7:0.617424 8:0.513623 
1 1:0.350796 2:0.315969 3:0.246224 4:0.50091 5:0.199771 6:0.780115 7:0.375119 8:0.368599 
0.8920425138179766 1:0.515361 2:0.383054 3:0.523983 4:0.727482 5:0.413361 6:0.96373 7:0.625478 8:0.566322 
1 1:0.611853 2:0.459871 3:0.606953 4:0.715842 5:0.551475 6:0.784413 7:0.465534 8:0.469468 
0.3673278037521247 1:0.689268 2:0.539896 3:0.634307 4:0.726158 5:0.647343 6:0.694615 7:0.488035 8:0.484431 
0.6723933014470377 1:0.724315 2:0.612324 3:0.569531 4:0.696883 5:0.700496 6:0.578876 7:0.354654 8:0.414075 
1 1:0.725761 2:0.670613 3:0.448982 4:0.641213 5:0.71547 6:0.456898 7:0.218165 8:0.343333 
0.7174808347917339 1:0.700857 2:0.711269 3:0.298646 4:0.471616 5:0.663121 6:0.196928 7:0.0819055 8:0.272595 
1 1:0.682188 2:0.739316 3:0.19113 4:0.363509 5:0.588488 6:0.0782332 7:0.144303 8:0.297186 
1 1:0.606512 2:0.743599 3:-0.0114857 4:-0.0641099 5:0.381569 6:-0.491872 7:-0.232045 8:0.0905406 
0.9303013118052618 1:0.540278 2:0.731136 3:-0.154267 4:-0.28832 5:0.161219 6:-0.663331 7:-0.232045 8:0.0905406 
1 1:0.402257 2:0.688054 3:-0.415325 4:-0.561449 5:-0.0860656 6:-0.896291 7:-0.566332 8:-0.157887 
0.7527144009474025 1:0.303728 2:0.629953 3:-0.543393 4:-0.697959 5:-0.301094 6:-0.908535 7:-0.424931 8:-0.102095 
0.5892300480830733 1:0.274607 2:0.576485 3:-0.503881 4:-0.598116 5:-0.40775 6:-0.598839 7:-0.00753594 8:0.0811639 
0.8602118364578255 1:0.268196 2:0.532173 3:-0.425819 4:-0.399624 5:-0.405902 6:-0.226868 7:0.116998 8:0.143124 
0.05259174610412578 1:0.240511 2:0.490081 3:-0.406883 4:-0.350732 5:-0.386701 6:-0.156605 7:-0.0278962 8:0.0731996 
1 1:0.169309 2:0.406328 3:-0.410404 4:-0.363452 5:-0.369488 6:-0.200191 7:-0.181691 8:0.000398568 
1 1:0.134528 2:0.36398 3:-0.409067 4:-0.285511 5:-0.338454 6:-0.0886669 7:-0.197255 8:-0.00666468 
1 1:0.0593937 2:0.312078 3:-0.490534 4:-0.557994 5:-0.417911 6:-0.511647 7:-0.503908 8:-0.174949 
1 1:-0.0910587 2:0.234463 3:-0.709767 4:-0.752129 5:-0.542233 6:-0.735848 7:-0.743839 8:-0.397436 
0.3729619280671614 1:-0.341996 2:-0.029064 3:-0.789636 4:-0.737045 5:-0.700592 6:-0.526974 7:-0.530542 8:-0.327982 
0.2877266978121661 1:-0.36606 2:-0.220512 3:-0.443079 4:-0.430516 5:-0.60595 6:-0.0571342 7:0.153409 8:-0.00757547 
0.7135888249405609 1:-0.365584 2:-0.257467 3:-0.363089 4:-0.364054 5:-0.524962 6:-0.0241651 7:-0.0935075 8:-0.109614 
0.5769082301042352 1:-0.287907 2:-0.268397 3:-0.141189 4:0.0796972 5:-0.307877 6:0.56476 7:0.366296 8:0.172862 
0.5806618116193561 1:-0.252355 2:-0.268611 3:-0.0498331 4:0.233246 5:-0.10672 6:0.624921 7:0.140073 8:0.0679956 
0.2955107202077514 1:-0.235935 2:-0.264844 3:-0.0158823 4:0.190234 5:0.0115771 6:0.409063 7:0.0331579 8:0.0174558 
1 1:-0.252546 2:-0.265815 3:-0.0562818 4:-0.0402687 5:0.00572425 6:-0.0186717 7:-0.182469 8:-0.0901806 
0.1903762396199394 1:-0.262711 2:-0.26903 3:-0.0754189 4:-0.210673 5:-0.0608067 6:-0.264003 7:-0.182469 8:-0.0901806 
0.7906602692936368 1:-0.246286 2:-0.267662 3:-0.0363378 4:-0.221094 5:-0.108991 6:-0.228737 7:0.0352752 8:0.00817473 
0.1492203450919394 1:-0.216755 2:-0.256291 3:0.0149262 4:-0.277333 5:-0.191016 6:-0.241259 7:0.0635966 8:0.0206525 
1 1:-0.193495 2:-0.244806 3:0.0499174 4:-0.247262 5:-0.205415 6:-0.16818 7:0.1561 8:0.0586701 
1 1:-0.203459 2:-0.238009 3:0.00995143 4:-0.448264 5:-0.288889 6:-0.45187 7:-0.231792 8:-0.0879061 
1 1:-0.164323 2:-0.223182 3:0.0784102 4:-0.0640031 5:-0.203309 6:0.174789 7:0.252167 8:0.138226 
0.5703231470149634 1:-0.137178 2:-0.204809 3:0.108651 4:0.105562 5:-0.0839358 6:0.358326 7:0.184394 8:0.110899 
1 1:-0.125096 2:-0.187212 3:0.102034 4:0.105385 5:-0.00441852 6:0.267384 7:0.043232 8:0.054632 
1 1:-0.132099 2:-0.174815 3:0.0577013 4:-0.0834344 5:-0.0208043 6:-0.0697925 7:-0.164279 8:-0.0358055 
0.9785873070765833 1:-0.137898 2:-0.166288 3:0.0247001 4:-0.257215 5:-0.0955982 6:-0.312071 7:-0.184554 8:-0.0449057 
0.6464217765502774 1:-0.151582 2:-0.158554 3:-0.0267723 4:-0.556106 5:-0.326663 6:-0.612065 7:-0.282473 8:-0.0854021 
0.3417272066072128 1:-0.169748 2:-0.16092 3:-0.0681766 4:-0.75087 5:-0.480938 6:-0.80332 7:-0.461944 8:-0.167929 
0.13066003287037 1:-0.161352 2:-0.162964 3:-0.0423509 4:-0.684821 5:-0.637327 6:-0.500643 7:0.0619453 8:0.0123016 
0.5020206016270928 1:-0.0824018 2:-0.143494 3:0.118005 4:-0.20252 5:-0.486511 6:0.236446 7:0.648344 8:0.390842 
0.8313078688940241 1:0.048267 2:-0.0965706 3:0.352076 4:0.216933 5:-0.231804 6:0.73671 7:0.815082 8:0.594043 
1 1:0.169719 2:-0.029896 3:0.520481 4:0.402772 5:0.00630168 6:0.815621 7:0.844892 8:0.637792 
1 1:0.202149 2:0.0312236 3:0.473117 4:0.307456 5:0.130007 6:0.495028 7:0.214261 8:0.283211 
0.1246551348577659 1:0.271687 2:0.0968012 3:0.511128 4:0.411542 5:0.250733 6:0.553622 7:0.416844 8:0.415989 
0.7485347699981335 1:0.299808 2:0.15601 3:0.456822 4:0.397117 5:0.325915 6:0.44077 7:0.22785 8:0.303476 
0.1307428494551693 1:0.338889 2:0.252154 3:0.351805 4:0.408915 5:0.401953 6:0.376361 7:0.312616 8:0.344473 
0.9427165268182698 1:0.329072 2:0.287312 3:0.251764 4:0.305104 5:0.39291 6:0.191023 7:0.0455004 8:0.197516 
0.2775623942307656 1:0.324749 2:0.314402 3:0.182969 4:0.077313 5:0.303162 6:-0.136004 7:0.101484 8:0.223639 
1 1:0.294396 2:0.328792 3:0.0746898 4:-0.256058 5:0.120804 6:-0.556479 7:-0.104062 8:0.11207 
1 1:0.217186 2:0.321781 3:-0.107777 4:-0.512154 5:-0.0948911 6:-0.793334 7:-0.403664 8:-0.0871231 
0.7920751016179588 1:0.0379088 2:0.172221 3:-0.247353 4:-0.610571 5:-0.652201 6:-0.343763 7:-0.0694904 8:0.031157 
0.8327953250334998 1:-0.00486986 2:0.143254 3:-0.294983 4:-0.759549 5:-0.701154 6:-0.568744 7:-0.482505 8:-0.158748 
0.7565095137903257 1:-0.0407991 2:0.0878664 3:-0.268785 4:-0.613336 5:-0.701318 6:-0.293005 7:-0.100551 8:-0.0251496 
1 1:-0.0371518 2:0.0680259 3:-0.217168 4:-0.39173 5:-0.598713 6:0.00771363 7:0.0929007 8:0.0525101 
0.734345712650372 1:-0.0392638 2:0.0516467 3:-0.187655 4:-0.306724 5:-0.499067 6:0.0543708 7:-0.0121134 8:0.0148595 
1 1:-0.0494388 2:0.0361025 3:-0.180537 4:-0.354604 5:-0.450233 6:-0.0915077 7:-0.176886 8:-0.0481928 
0.7590101195399195 1:-0.0497279 2:0.0235977 3:-0.154621 4:-0.302883 5:-0.398669 6:-0.0527924 7:-0.00338306 8:0.0138763 
0.8561564131873591 1:-0.0190309 2:0.0209581 3:-0.0705093 4:-0.11493 5:-0.295213 6:0.183536 7:0.445613 8:0.236597 
1 1:-0.0037317 2:0.0225166 3:-0.0347146 4:-0.0626162 5:-0.207016 6:0.181627 7:0.247629 8:0.161386 
0.3071578750583379 1:0.0225669 2:0.0300723 3:0.0164195 4:0.0890408 5:-0.0924791 6:0.336925 7:0.417323 8:0.25666 
1 1:0.033946 2:0.0388468 3:0.0268101 4:0.110701 5:-0.00816039 6:0.281665 7:0.213481 8:0.176911 
0.9134652321321908 1:0.119307 2:0.0663442 3:0.186446 4:0.280032 5:0.110287 6:0.465817 7:0.713461 8:0.539635 
1 1:0.163345 2:0.0989066 3:0.229633 4:0.275976 5:0.187761 6:0.369893 7:0.413948 8:0.378302 
1 1:0.203105 2:0.134495 3:0.255433 4:0.304982 5:0.250071 6:0.353555 7:0.456235 8:0.406676 
0.9834632336072207 1:0.260512 2:0.176738 3:0.312167 4:0.388887 5:0.322449 6:0.429208 7:0.603375 8:0.510786 
1 1:0.286402 2:0.216742 3:0.293088 4:0.34333 5:0.353957 6:0.307449 7:0.360883 8:0.387316 
1 1:0.281941 2:0.247676 3:0.215746 4:0.171935 5:0.31197 6:0.0322836 7:0.0869117 8:0.237487 
1 1:0.26984 2:0.26952 3:0.138245 4:0.00934908 5:0.224222 6:-0.174137 7:0.022579 8:0.201444 
1 1:0.212565 2:0.273255 3:-0.0161563 4:-0.35354 5:0.0323502 6:-0.6394 7:-0.36743 8:-0.053747 
1 1:0.183114 2:0.269178 3:-0.0827652 4:-0.493667 5:-0.147066 6:-0.69904 7:-0.142525 8:0.0490333 
0.9644696757963385 1:0.15971 2:0.260302 3:-0.123683 4:-0.585456 5:-0.300412 6:-0.697289 7:-0.119378 8:0.0593692 
1 1:0.068702 2:0.207293 3:-0.243381 4:-0.73753 5:-0.591501 6:-0.652195 7:-0.434823 8:-0.116059 
1 1:-0.0122739 2:0.169536 3:-0.369935 4:-0.741516 5:-0.654059 6:-0.588423 7:-0.691214 8:-0.333366 
1 1:-0.107427 2:0.0839563 3:-0.430803 4:-0.651908 5:-0.665704 6:-0.40628 7:-0.478192 8:-0.260814 
0.8779280648201911 1:-0.137631 2:0.0407929 3:-0.416024 4:-0.560696 5:-0.63707 6:-0.267009 7:-0.328227 8:-0.192903 
1 1:-0.161545 2:0.000525425 3:-0.391333 4:-0.511434 5:-0.599876 6:-0.216554 7:-0.344449 8:-0.201519 
0.6535942291683821 1:-0.155232 2:-0.0301742 3:-0.309755 4:-0.259598 5:-0.482522 6:0.124331 7:0.0448309 8:-0.0225947 
1 1:-0.178936 2:-0.0604204 3:-0.305889 4:-0.322453 5:-0.427387 6:-0.0569497 7:-0.284691 8:-0.181479 
1 1:-0.199074 2:-0.0894484 3:-0.295503 4:-0.384099 5:-0.413287 6:-0.189194 7:-0.316397 8:-0.19851 
0.5577048184086988 1:-0.282329 2:-0.132643 3:-0.416293 4:-0.55428 5:-0.466435 6:-0.449355 7:-0.671408 8:-0.447562 
0.9894125865754809 1:-0.321131 2:-0.176508 3:-0.422003 4:-0.547023 5:-0.499199 6:-0.398344 7:-0.367524 8:-0.283939 
0.4321115793673326 1:-0.370556 2:-0.254952 3:-0.381162 4:-0.511943 5:-0.498055 6:-0.333536 7:-0.398944 8:-0.302458 
0.9785554507332221 1:-0.357151 2:-0.282996 3:-0.28711 4:-0.345643 5:-0.446266 6:-0.0791414 7:-0.00481527 8:-0.0847126 
0.1776435637832087 1:-0.335458 2:-0.300227 3:-0.194918 4:-0.190566 5:-0.354744 6:0.108827 7:0.0653624 8:-0.0429554 
0.6662726525997992 1:-0.320032 2:-0.310311 3:-0.133983 4:-0.120339 5:-0.267918 6:0.14224 7:0.00207134 8:-0.069443 
0.9258613486575445 1:-0.260489 2:-0.304104 3:0.00502601 4:0.40637 5:0.0911562 6:0.725711 7:0.150328 8:0.0216903 
0.4758194998286883 1:-0.238994 2:-0.293972 3:0.0383852 4:0.542296 5:0.272889 6:0.774796 7:0.117325 8:0.0103281 
1 1:-0.187285 2:-0.273461 3:0.126876 4:0.684739 5:0.446396 6:0.845533 7:0.478046 8:0.21547 
1 1:-0.169693 2:-0.252833 3:0.127881 4:0.573723 5:0.521266 6:0.551 7:0.0699659 8:0.0503172 
1 1:-0.0860803 2:-0.216271 3:0.263729 4:0.741382 5:0.632799 6:0.739879 7:0.537618 8:0.366415 
1 1:-0.0178333 2:-0.17065 3:0.340977 4:0.76877 5:0.71722 6:0.695297 7:0.545436 8:0.372915 
1 1:0.00542061 2:-0.128574 3:0.310745 4:0.557902 5:0.696001 6:0.322077 7:0.159543 8:0.184378 
1 1:0.0306975 2:-0.0888497 3:0.290697 4:0.468902 5:0.649143 6:0.20774 7:0.219565 8:0.217421 
1 1:0.0340328 2:-0.0562701 3:0.229779 4:0.293517 5:0.553446 6:-0.0137423 7:0.0227641 8:0.120349 
1 1:0.0272898 2:-0.031824 3:0.160431 4:0.0687483 5:0.407037 6:-0.270509 7:-0.0802997 8:0.0677921 
1 1:-0.00336077 2:-0.0196201 3:0.0560505 4:-0.319422 5:0.166766 6:-0.728267 7:-0.320097 8:-0.0681997 
0.3977980894760841 1:-0.0434551 2:-0.0194755 3:-0.04677 4:-0.59308 5:-0.0939926 6:-0.94687 7:-0.437874 8:-0.145897 
1 1:-0.0904914 2:-0.0306437 3:-0.143226 4:-0.764467 5:-0.330822 6:-1 7:-0.537927 8:-0.21832 
0.6416410700917076 1:-0.115617 2:-0.0456059 3:-0.175574 4:-0.81241 5:-0.506329 6:-0.890365 7:-0.334518 8:-0.138176 
0.3308357476594802 1:-0.13044 2:-0.0611317 3:-0.180379 4:-0.805688 5:-0.620863 6:-0.747187 7:-0.264482 8:-0.110846 
1 1:-0.141056 2:-0.0869557 3:-0.152476 4:-0.733746 5:-0.711106 6:-0.508776 7:-0.208407 8:-0.0910158 
1 1:-0.13689 2:-0.0957587 3:-0.123059 4:-0.623127 5:-0.690284 6:-0.324031 7:-0.0277424 8:-0.0265957 
1 1:-0.139246 2:-0.103366 3:-0.112868 4:-0.561104 5:-0.653607 6:-0.248935 7:-0.176996 8:-0.0801755 
1 1:-0.166349 2:-0.115955 3:-0.155333 4:-0.609138 5:-0.64681 6:-0.347204 7:-0.521396 8:-0.251779 
0.1453115123337329 1:-0.236007 2:-0.159313 3:-0.241011 4:-0.565483 5:-0.625716 6:-0.28897 7:-0.498518 8:-0.299124 
1 1:-0.256965 2:-0.199883 3:-0.20812 4:-0.444543 5:-0.546175 6:-0.151682 7:-0.340525 8:-0.238818 
1 1:-0.260253 2:-0.215695 3:-0.182821 4:-0.408076 5:-0.501292 6:-0.134101 7:-0.369489 8:-0.250864 
1 1:-0.249168 2:-0.225685 3:-0.133184 4:-0.28903 5:-0.427616 6:0.00630036 7:-0.0210201 8:-0.118337 
1 1:-0.235887 2:-0.230492 3:-0.0889818 4:-0.177751 5:-0.337601 6:0.113444 7:0.0309083 8:-0.0965222 
1 1:-0.242487 2:-0.23592 3:-0.0942858 4:-0.259162 5:-0.307511 6:-0.0742693 7:-0.384517 8:-0.254714 
0.06200798580818911 1:-0.253863 2:-0.242992 3:-0.108298 4:-0.376067 5:-0.330418 6:-0.268485 7:-0.499184 8:-0.315265 
1 1:-0.274213 2:-0.253531 3:-0.137865 4:-0.630844 5:-0.439329 6:-0.624534 7:-0.635136 8:-0.401683 
0.3213251879605698 1:-0.394318 2:-0.290775 3:-0.365557 4:-0.800695 5:-0.574361 6:-0.790766 7:-0.897075 8:-0.708384 
-0.1560549318273264 1:-0.943009 2:-0.651282 3:-1 4:-0.876857 5:-0.868087 6:-0.599604 7:-0.937045 8:-0.829025 
-0.09384269404581226 1:-1 2:-0.754277 3:-0.92617 4:-0.810779 5:-0.863906 6:-0.479838 7:-0.650477 8:-0.6618 
0.2659483837147552 1:-0.954307 2:-0.934984 3:-0.424155 4:-0.470192 5:-0.638897 6:-0.0943652 7:-0.293858 8:-0.396992 
0.1263212999752716 1:-0.753859 2:-0.964854 3:0.152015 4:0.407836 5:0.147435 6:0.664346 7:0.132451 8:-0.105981 
0.2158159224910771 1:-0.674193 2:-0.926975 3:0.274962 4:0.602276 5:0.332453 6:0.819961 7:0.347249 8:0.0362536 
0.347851716936904 1:-0.533684 2:-0.823559 3:0.413774 4:0.775313 5:0.645143 6:0.789758 7:0.289719 8:0.0437948 
0.6121611133643609 1:-0.429168 2:-0.709058 3:0.436933 4:0.784043 5:0.795612 6:0.634754 7:0.195345 8:0.0307883 
0.8450000057087836 1:-0.313691 2:-0.589023 3:0.476321 4:0.906494 5:0.91648 6:0.727796 7:0.520867 8:0.215159 
0.4955643486137788 1:-0.276557 2:-0.530919 3:0.44741 4:0.685109 5:0.875593 6:0.357167 7:0.198821 8:0.10731 
0.1750716111982877 1:-0.149716 2:-0.364441 3:0.416859 4:0.605237 5:0.739076 6:0.3622 7:0.488153 8:0.261361 
1 1:-0.12061 2:-0.313842 3:0.383422 4:0.556928 5:0.710213 6:0.304046 7:0.320535 8:0.209191 
1 1:0.0334568 2:0.00451041 3:0.0987494 4:0.76991 5:0.749411 6:0.660765 7:0.527954 8:0.379452 
0.04634261616693757 1:0.115181 2:0.0539245 3:0.202372 4:0.9692 5:0.929492 6:0.831145 7:0.837974 8:0.662244 
0.1662258679363355 1:0.153785 2:0.0866775 3:0.231257 4:1 5:1 6:0.808847 7:0.728298 8:0.60786 
0.01128772676609853 1:0.155433 2:0.113275 3:0.178776 4:0.836496 5:0.986912 6:0.515622 7:0.108291 8:0.2634 
0.2441599641088572 1:0.16386 2:0.136575 3:0.150657 4:0.7741 5:0.955255 6:0.434104 7:0.229037 8:0.327679 
1 1:0.213254 2:0.167064 3:0.211957 4:0.797482 5:0.942744 6:0.492427 7:0.591216 8:0.562594 
0.5997148754836331 1:0.219103 2:0.192859 3:0.17193 4:0.565038 5:0.848972 6:0.161216 7:0.152141 8:0.281766 
0.285611553645542 1:0.240822 2:0.218705 3:0.172368 4:0.545166 5:0.779154 6:0.203321 7:0.313566 8:0.379716 
1 1:0.328312 2:0.376301 3:0.060137 4:0.646309 5:0.665113 6:0.523883 7:0.528592 8:0.490375 
0.085724742411819 1:0.319108 2:0.384239 3:0.019682 4:0.581693 5:0.670006 6:0.396533 7:0.158435 8:0.323145 
0.05109535948794504 1:0.302867 2:0.386694 3:-0.0270753 4:0.468576 5:0.631694 6:0.227009 7:0.0403446 8:0.264047 
0.05810908831876711 1:0.258059 2:0.377908 3:-0.122912 4:-0.0677486 5:0.409036 6:-0.530028 7:-0.380598 8:-0.000500036 
0.001564667374649809 1:0.241433 2:0.366891 3:-0.141938 4:-0.160038 5:0.226677 6:-0.496161 7:0.00921356 8:0.168542 
1 1:0.266739 2:0.364148 3:-0.071389 4:0.00551395 5:0.165951 6:-0.114966 7:0.417372 8:0.401425 
1 1:0.278132 2:0.364687 3:-0.0434067 4:0.0736816 5:0.150521 6:0.0310847 7:0.331168 8:0.354266 
1 1:0.307098 2:0.372067 3:0.0149201 4:0.104181 5:0.151443 6:0.0875119 7:0.506037 8:0.463513 
1 1:0.338774 2:0.38557 3:0.0671271 4:0.19221 5:0.184412 6:0.215844 7:0.581915 8:0.51543 
1 1:0.395452 2:0.409969 3:0.160032 4:0.444315 5:0.299048 6:0.560333 7:0.735673 8:0.637674 
0.4563262704272819 1:0.423925 2:0.461144 3:0.123747 4:0.474985 5:0.383065 6:0.522397 7:0.536345 8:0.518138 
0.4266632707563666 1:0.448892 2:0.483249 3:0.140466 4:0.411045 5:0.419255 6:0.360657 7:0.259143 8:0.337268 
0.5476017400703022 1:0.465558 2:0.520472 3:0.103734 4:0.322807 5:0.406482 6:0.208921 7:0.257364 8:0.331655 
0.3363705583546657 1:0.453286 2:0.531765 3:0.0482866 4:0.237383 5:0.37104 6:0.0883167 7:0.116312 8:0.254523 
0.2976748587598296 1:0.427751 2:0.534674 3:-0.0232028 4:0.11854 5:0.303734 6:-0.0589596 7:0.0100821 8:0.196758 
1 1:0.408202 2:0.532311 3:-0.0681491 4:0.0702582 5:0.241118 6:-0.078601 7:0.0677217 8:0.22023 
1 1:0.388203 2:0.525623 3:-0.105025 4:0.0326337 5:0.185545 6:-0.086184 7:0.0677217 8:0.22023 
1 1:0.350204 2:0.511157 3:-0.171344 4:-0.0970001 5:0.100852 6:-0.233984 7:-0.173834 8:0.106639 
0.2053238770157527 1:0.164393 2:0.384476 3:-0.376395 4:-0.840466 5:-0.584837 6:-0.85378 7:-0.484029 8:-0.0992577 
1 1:-0.0774515 2:0.112421 3:-0.414837 4:-0.92908 5:-0.934401 6:-0.622459 7:-0.556514 8:-0.260119 
0.159044882627986 1:-0.101031 2:0.0411959 3:-0.323304 4:-0.761618 5:-0.897706 6:-0.348675 7:-0.0999519 8:-0.100595 
0.1165060051463063 1:-0.0732419 2:0.0220315 3:-0.211403 4:-0.273489 5:-0.686181 6:0.330219 7:0.413203 8:0.170255 
0.09858934863407941 1:-0.0649662 2:0.00868533 3:-0.161796 4:-0.0882706 5:-0.47709 6:0.441024 7:0.116687 8:0.0501592 
0.5418127817449755 1:0.00393544 2:0.00922668 3:0.0132168 4:0.642048 5:0.368294 6:0.854074 7:0.313235 8:0.196797 
0.3623077574461564 1:0.00616583 2:0.0155059 3:0.00553495 4:0.522087 5:0.45022 6:0.534644 7:0.0513238 8:0.0896131 
0.922160072634803 1:0.0542895 2:0.032074 3:0.0932608 4:0.503547 5:0.498023 6:0.445232 7:0.563105 8:0.405419 
0.3388692327363444 1:0.0734684 2:0.0499294 3:0.104237 4:0.360824 5:0.477436 6:0.199715 7:0.250821 8:0.245103 
0.2602252281373173 1:0.102646 2:0.0857011 3:0.102587 4:0.150441 5:0.344242 6:-0.0449981 7:0.292638 8:0.268367 
0.2462514748616367 1:0.152647 2:0.143429 3:0.107381 4:0.267388 5:0.320776 6:0.202138 7:0.331579 8:0.319268 
0.6092537437829728 1:0.194347 2:0.168012 3:0.161597 4:0.54417 5:0.426657 6:0.603109 7:0.599342 8:0.491116 
0.001868711902830033 1:0.217622 2:0.193262 3:0.167285 4:0.458755 5:0.465852 6:0.397476 7:0.446764 8:0.417627 
0.2733117991921128 1:0.208321 2:0.21123 3:0.105202 4:0.193515 5:0.394497 6:-0.0210863 7:0.020733 8:0.189622 
1 1:0.186116 2:0.220279 3:0.0291431 4:-0.138295 5:0.224976 6:-0.453246 7:-0.137927 8:0.0920441 
1 1:0.168355 2:0.223256 3:-0.0226145 4:-0.401995 5:0.0150441 6:-0.710998 7:-0.1062 8:0.105484 
1 1:0.156066 2:0.22269 3:-0.0528286 4:-0.486947 5:-0.156133 6:-0.676043 7:-0.0339053 8:0.134149 
0.8725574712859231 1:0.117815 2:0.213061 3:-0.130103 4:-0.67663 5:-0.339966 6:-0.824044 7:-0.393516 8:-0.0789742 
0.9756872710818172 1:-0.0839357 2:0.0528115 3:-0.304354 4:-0.703731 5:-0.682587 6:-0.484706 7:-0.742726 8:-0.462828 
0.05716036125530105 1:-0.140306 2:-0.0111801 3:-0.312079 4:-0.618842 5:-0.678449 6:-0.32944 7:-0.258181 8:-0.196672 
1 1:-0.162557 2:-0.0412957 3:-0.304775 4:-0.564396 5:-0.646927 6:-0.262751 7:-0.34899 8:-0.24959 
0.0728379772081378 1:-0.130406 2:-0.073084 3:-0.154816 4:-0.119177 5:-0.377224 6:0.268981 7:0.0989481 8:0.0258847 
0.5513210077851229 1:-0.132055 2:-0.0835014 3:-0.136824 4:-0.104455 5:-0.277067 6:0.1826 7:-0.0794825 8:-0.0625172 
1 1:-0.0925673 2:-0.0945788 3:-0.0122518 4:0.439552 5:0.113333 6:0.762976 7:0.399429 8:0.219346 
0.8800921646247156 1:-0.0593973 2:-0.083267 3:0.0484447 4:0.61494 5:0.314372 6:0.86443 7:0.433124 8:0.243281 
1 1:-0.0417008 2:-0.0699721 3:0.0653519 4:0.66023 5:0.465044 6:0.778094 7:0.229947 8:0.159355 
0.2823260631162156 1:-0.0388876 2:-0.0491218 3:0.0281011 4:0.361087 5:0.498886 6:0.175768 7:-0.0919071 8:0.015486 
1 1:-0.0389426 2:-0.0355581 3:-0.000951633 4:0.157331 5:0.372052 6:-0.0637032 7:-0.127468 8:-0.00110593 
1 1:-0.0486773 2:-0.0334787 3:-0.0302734 4:-0.0642432 5:0.23723 6:-0.327651 7:-0.268354 8:-0.0677389 
0.7270620737196829 1:-0.0593551 2:-0.0343768 3:-0.0556599 4:-0.258848 5:0.0758241 6:-0.510483 7:-0.335422 8:-0.101053 
0.3402618617140551 1:-0.0795397 2:-0.0419938 3:-0.0910314 4:-0.42284 5:-0.175924 6:-0.532677 7:-0.483406 8:-0.17394 
0.8442214679355977 1:-0.142974 2:-0.0848618 3:-0.161844 4:-0.392665 5:-0.387962 6:-0.234195 7:-0.0760791 8:-0.0926366 
0.1568833789123255 1:-0.14079 2:-0.0950193 3:-0.134608 4:-0.264068 5:-0.342889 6:-0.0432022 7:-0.0760791 8:-0.0926366 
1 1:-0.167894 2:-0.109647 3:-0.172726 4:-0.435828 5:-0.375967 6:-0.329208 7:-0.498048 8:-0.324868 
0.4057685524776646 1:-0.467035 2:-0.395366 3:-0.328536 4:-0.959638 5:-0.96455 6:-0.645694 7:-0.607462 8:-0.54438 
0.2356041984723736 1:-0.446162 2:-0.449436 3:-0.159916 4:-0.802972 5:-0.873652 6:-0.454019 7:-0.436975 8:-0.442769 
1 1:-0.54735 2:-0.522443 3:-0.263012 4:-0.881987 5:-0.833774 6:-0.648371 7:-0.830231 8:-0.692284 
-0.02442173284191669 1:-0.827977 2:-0.882756 3:-0.212486 4:-0.854567 5:-0.967942 6:-0.443813 7:-0.253031 8:-0.454898 
-0.1899536773831675 1:-0.768702 2:-0.883969 3:-0.0583477 4:-0.550112 5:-0.834672 6:-0.021898 7:0.201394 8:-0.177563 
-0.3333557282664217 1:-0.407339 2:-0.52601 3:0.102566 4:-0.310436 5:-0.251756 6:-0.234433 7:-0.0637754 8:-0.116261 
-0.279677149648639 1:-0.389129 2:-0.507513 3:0.109699 4:-0.25071 5:-0.247175 6:-0.127092 7:-0.0890522 8:-0.127341 
-0.002300417282446008 1:-0.403794 2:-0.483558 3:0.0211422 4:-0.483827 5:-0.350975 6:-0.448144 7:-0.521251 8:-0.350519 
-0.1812753444908124 1:-0.415925 2:-0.479981 3:-0.0174982 4:-0.590149 5:-0.438077 6:-0.549268 7:-0.534161 8:-0.358727 
-0.3190055054034265 1:-0.431444 2:-0.480842 3:-0.0553437 4:-0.745432 5:-0.553215 6:-0.710713 7:-0.612525 8:-0.408559 
-0.02631999647844387 1:-0.435142 2:-0.482418 3:-0.0614395 4:-0.733814 5:-0.625705 6:-0.606217 7:-0.504489 8:-0.365299 
-0.2110139420582108 1:-0.46008 2:-0.49371 3:-0.101128 4:-0.802344 5:-0.756026 6:-0.586869 7:-0.660739 8:-0.458764 
-0.6669571940107103 1:-0.485229 2:-0.504728 3:-0.141944 4:-0.875689 5:-0.813055 6:-0.66011 7:-0.78382 8:-0.553696 
-0.178734995921475 1:-0.56915 2:-0.533675 3:-0.294809 4:-0.909768 5:-0.8636 6:-0.66674 7:-0.908416 8:-0.71836 
-1 1:-0.632019 2:-0.571914 3:-0.374042 4:-0.94218 5:-0.909209 6:-0.675854 7:-0.911679 8:-0.724159 
-0.3466016877898337 1:-0.668741 2:-0.611315 3:-0.383946 4:-0.93711 5:-0.937752 6:-0.633774 7:-0.789659 8:-0.662383 
-0.7190374969628754 1:-0.677408 2:-0.644916 3:-0.334485 4:-0.864204 5:-0.929985 6:-0.505227 7:-0.507575 8:-0.519802 
-0.4099953313158417 1:-0.749441 2:-0.735275 3:-0.326051 4:-0.765236 5:-0.868447 6:-0.388834 7:-0.790884 8:-0.684587 
-0.3885218835001046 1:-0.762217 2:-0.764429 3:-0.296573 4:-0.685494 5:-0.8181 6:-0.295922 7:-0.570309 8:-0.56861 
-0.3181728902409204 1:-0.776084 2:-0.791078 3:-0.275222 4:-0.661293 5:-0.77564 6:-0.298695 7:-0.634615 8:-0.601486 
-0.9455001078543906 1:-0.762046 2:-0.80903 3:-0.201065 4:-0.464859 5:-0.675138 6:-0.0430174 7:-0.310542 8:-0.43072 
-0.4828399848653446 1:-0.71558 2:-0.812245 3:-0.0754109 4:-0.149694 5:-0.492303 6:0.342602 7:0.0771194 8:-0.18941 
-0.3612760100241991 1:-0.660632 2:-0.798234 3:0.0352143 4:-0.0017437 5:-0.210376 6:0.300176 7:-0.155681 8:-0.281321 
-0.3286420815877313 1:-0.630578 2:-0.783216 3:0.0800436 4:0.134488 5:-0.0780157 6:0.406094 7:-0.12166 8:-0.263838 
-0.4617040931131745 1:-0.54863 2:-0.733637 3:0.183888 4:0.419237 5:0.225026 6:0.597418 7:0.0715367 8:-0.153029 
-1 1:-0.526362 2:-0.706537 3:0.183057 4:0.306556 5:0.275493 6:0.327554 7:-0.202976 8:-0.244915 
-1 1:-0.551212 2:-0.690819 3:0.0860153 4:-0.142839 5:0.14397 6:-0.369505 7:-0.61696 8:-0.463272 
-1 1:-0.54298 2:-0.676269 3:0.0760504 4:-0.244902 5:0.0187768 6:-0.419196 7:-0.246605 8:-0.263202 
-1 1:-0.589363 2:-0.675757 3:-0.0436329 4:-0.531853 5:-0.170149 6:-0.744703 7:-0.574304 8:-0.466793 
-1 1:-0.717333 2:-0.706047 3:-0.306261 4:-0.734701 5:-0.370653 6:-0.898517 7:-0.776676 8:-0.64728 
-1 1:-0.791575 2:-0.748089 3:-0.406466 4:-0.641466 5:-0.470056 6:-0.609538 7:-0.599843 8:-0.533026 
-1 1:-0.801425 2:-0.784086 3:-0.35492 4:-0.465075 5:-0.471494 6:-0.275474 7:-0.253769 8:-0.306979 
-1 1:-0.785739 2:-0.80912 3:-0.261452 4:-0.305941 5:-0.413967 6:-0.0411238 7:-0.140601 8:-0.232097 
-1 1:-0.739499 2:-0.818055 3:-0.124182 4:-0.117769 5:-0.306455 6:0.190997 7:0.0488982 8:-0.106679 
-0.645994581662062 1:-0.684149 2:-0.811924 3:0.00426753 4:0.046393 5:-0.174446 6:0.349952 7:0.127316 8:-0.0546907 
-1 1:-0.627655 2:-0.793467 3:0.109368 4:0.22367 5:-0.0212853 6:0.509522 7:0.170305 8:-0.0276426 
-1 1:-0.55482 2:-0.761228 3:0.226872 4:0.477641 5:0.174165 6:0.765441 7:0.335943 8:0.0790855 
-1 1:-0.475375 2:-0.716379 3:0.334396 4:0.692788 5:0.383538 6:0.932327 7:0.442459 8:0.154152 
-0.6803443755436166 1:-0.432771 2:-0.670278 3:0.345059 4:0.725424 5:0.535115 6:0.821112 7:0.113442 8:0.0281517 
-0.9678934283454798 1:-0.392703 2:-0.623786 3:0.348403 4:0.701323 5:0.627309 6:0.670639 7:0.131872 8:0.0376835 
-1 1:-0.356866 2:-0.577995 3:0.342424 4:0.63354 5:0.663859 6:0.501247 7:0.131872 8:0.0376835 
-1 1:-0.271125 2:-0.520793 3:0.439716 4:0.802789 5:0.75043 6:0.721567 7:0.5693 8:0.303204 
-0.348544651992103 1:-0.213403 2:-0.461184 3:0.460239 4:0.804947 5:0.808937 6:0.658966 7:0.375397 8:0.226459 
-1 1:-0.146114 2:-0.397354 3:0.496225 4:0.887974 5:0.878457 6:0.736219 7:0.504582 8:0.311428 
-0.6999120105283287 1:-0.107848 2:-0.33711 3:0.465649 4:0.795499 5:0.890816 6:0.54786 7:0.254085 8:0.208957 
-1 1:-0.0891823 2:-0.284437 3:0.401098 4:0.546034 5:0.807369 6:0.172807 7:0.0793729 8:0.132484 
-1 1:-0.0574842 2:-0.234695 3:0.376114 4:0.541656 5:0.750129 6:0.229781 7:0.254532 8:0.215799 
-1 1:-0.0177242 2:-0.185363 3:0.372616 4:0.682677 5:0.763798 6:0.479971 7:0.386686 8:0.285556 
-1 1:0.0672256 2:-0.125517 3:0.462251 4:0.84866 5:0.833915 6:0.712885 7:0.674003 8:0.489824 
-1 1:0.11051 2:-0.02457 3:0.357743 4:0.566425 5:0.76299 6:0.261806 7:0.188054 8:0.242716 
-1 1:0.110923 2:0.0135995 3:0.277439 4:0.402743 5:0.669487 6:0.0598757 7:0.0288978 8:0.160201 
-1 1:0.0902886 2:0.039185 3:0.170145 4:0.158535 5:0.517398 6:-0.227053 7:-0.163668 8:0.0533474 
-1 1:0.0820007 2:0.0576651 3:0.109563 4:0.0571324 5:0.378736 6:-0.260152 7:-0.0482767 8:0.101548 
-1 1:0.0620293 2:0.0676581 3:0.0371999 4:-0.220683 5:0.184189 6:-0.562037 7:-0.185313 8:0.0303119 
-1 1:0.0545827 2:0.0738661 3:0.00492789 4:-0.30829 5:0.022292 6:-0.542661 7:-0.0460904 8:0.084378 
-1 1:0.0409456 2:0.0755609 3:-0.0335518 4:-0.425085 5:-0.128565 6:-0.590873 7:-0.143642 8:0.0392787 
-1 1:0.0458524 2:0.078094 3:-0.0264056 4:-0.276685 5:-0.174595 6:-0.258749 7:0.120048 8:0.142739 
-1 1:0.0545064 2:0.0821965 3:-0.0130238 4:-0.119726 5:-0.147594 6:0.00628678 7:0.198112 8:0.176279 
-1 1:0.162527 2:0.111392 3:0.200928 4:0.313725 5:0.0297148 6:0.621125 7:0.759327 8:0.576023 
-1 1:0.2274 2:0.150312 3:0.283835 4:0.33516 5:0.155798 6:0.517851 7:0.534202 8:0.457874 
-1 1:0.268454 2:0.191296 3:0.30144 4:0.320528 5:0.234476 6:0.400622 7:0.441946 8:0.410866 
-1 1:0.283229 2:0.227628 3:0.261772 4:0.252928 5:0.262083 6:0.241767 7:0.253504 8:0.316532 
-1 1:0.291546 2:0.258689 3:0.216829 4:0.207861 5:0.263924 6:0.154737 7:0.253504 8:0.316532 
-1 1:0.30186 2:0.286012 3:0.184959 4:0.173195 5:0.252411 6:0.102525 7:0.326073 8:0.349084 
-1 1:0.322558 2:0.312836 3:0.180704 4:0.202937 5:0.255666 6:0.154867 7:0.472987 8:0.420193 
-1 1:0.32613 2:0.335152 3:0.142269 4:0.151207 5:0.238823 6:0.0765678 7:0.288095 8:0.345321 
-0.9294992838619581 1:0.328757 2:0.353635 3:0.109588 4:0.126379 5:0.21847 6:0.0529709 7:0.332312 8:0.363464 
-1 1:0.350277 2:0.373584 3:0.122087 4:0.112058 5:0.199638 6:0.0474401 7:0.560751 8:0.473332 
-1 1:0.363115 2:0.392623 3:0.114328 4:0.335618 5:0.269249 6:0.389439 7:0.560751 8:0.473332 
-1 1:0.376155 2:0.410982 3:0.108534 4:0.515488 5:0.381764 6:0.600211 7:0.624958 8:0.507314 
-1 1:0.419593 2:0.436091 3:0.166076 4:0.626676 5:0.49764 6:0.677717 7:0.818342 8:0.652185 
-0.201040825774263 1:0.461327 2:0.466189 3:0.208624 4:0.78418 5:0.632778 6:0.820559 7:0.854093 8:0.69027 
-1 1:0.469073 2:0.492126 3:0.173143 4:0.680293 5:0.684688 6:0.565623 7:0.403134 8:0.486684 
-1 1:0.441165 2:0.506181 3:0.0718296 4:0.401224 5:0.616728 6:0.117133 7:-0.0271044 8:0.244442 
-1 1:0.408879 2:0.509679 3:-0.0181758 4:0.110526 5:0.46458 6:-0.257345 7:-0.0923344 8:0.203585 
-1 1:0.389619 2:0.507857 3:-0.0635362 4:-0.012452 5:0.31795 6:-0.322025 7:0.0697658 8:0.267109 
-1 1:0.380784 2:0.50428 3:-0.0785007 4:-0.0177146 5:0.218262 6:-0.21835 7:0.2169 8:0.328271 
-1 1:0.376642 2:0.500425 3:-0.0808723 4:0.0432499 5:0.17421 6:-0.0532603 7:0.309161 8:0.36831 
-0.149355299709651 1:0.374438 2:0.496812 3:-0.0788082 4:0.132248 5:0.177552 6:0.110656 7:0.378598 8:0.39877 
-1 1:0.3559 2:0.489474 3:-0.110565 4:0.0787519 5:0.160118 6:0.0297041 7:0.0784505 8:0.268577 
-1 1:0.319413 2:0.474851 3:-0.172682 4:-0.118094 5:0.076148 6:-0.245588 7:-0.223457 8:0.105282 
-1 1:0.285369 2:0.454986 3:-0.217381 4:-0.20097 5:-0.0102916 6:-0.303279 7:-0.249712 8:0.0896966 
-1 1:0.226813 2:0.425046 3:-0.303279 4:-0.514113 5:-0.183008 6:-0.696616 7:-0.552388 8:-0.128718 
-0.9928706406152583 1:0.17832 2:0.38946 3:-0.351412 4:-0.593929 5:-0.327487 6:-0.682405 7:-0.552388 8:-0.128718 
-1 1:0.131114 2:0.349668 3:-0.387286 4:-0.711612 5:-0.467059 6:-0.74515 7:-0.613322 8:-0.179479 
-1 1:0.0836665 2:0.306451 3:-0.416479 4:-0.682613 5:-0.549449 6:-0.596616 7:-0.681144 8:-0.240901 
-1 1:0.0687472 2:0.268298 3:-0.3733 4:-0.503633 5:-0.538595 6:-0.27168 7:-0.0573868 8:0.0042374 
-1 1:0.0437314 2:0.231775 3:-0.359409 4:-0.457996 5:-0.514585 6:-0.213032 7:-0.242502 8:-0.0923208 
-1 1:0.0253908 2:0.198157 3:-0.334642 4:-0.39006 5:-0.47361 6:-0.131691 7:-0.199157 8:-0.0738291 
-0.9515951297738112 1:-0.00717422 2:0.163449 3:-0.343923 4:-0.4591 5:-0.471668 6:-0.264015 7:-0.437415 8:-0.206386 
-1 1:-0.0415747 2:0.127431 3:-0.355103 4:-0.587432 5:-0.51754 6:-0.453599 7:-0.525623 8:-0.26484 
-1 1:-0.0788089 2:0.0896843 3:-0.369842 4:-0.70142 5:-0.590015 6:-0.585835 7:-0.615946 8:-0.330583 
-1 1:-0.124989 2:0.0484082 3:-0.399933 4:-0.817989 5:-0.681175 6:-0.701645 7:-0.725023 8:-0.42569 
-1 1:-0.152626 2:0.00875729 3:-0.386076 4:-0.836188 5:-0.748637 6:-0.659072 7:-0.505937 8:-0.332829 
-0.6990949949931117 1:-0.176145 2:-0.0286056 3:-0.366568 4:-0.878078 5:-0.809007 6:-0.669225 7:-0.541565 8:-0.35414 
-1 1:-0.208683 2:-0.0663017 3:-0.369409 4:-0.947525 5:-0.874778 6:-0.72516 7:-0.67386 8:-0.443087 
-1 1:-0.205015 2:-0.0955785 3:-0.297624 4:-0.723937 5:-0.83645 6:-0.347462 7:-0.0315395 8:-0.121839 
-1 1:-0.208772 2:-0.119901 3:-0.255386 4:-0.66484 5:-0.789178 6:-0.289955 7:-0.162555 8:-0.183305 
-1 1:-0.204005 2:-0.138216 3:-0.204158 4:-0.571465 5:-0.723344 6:-0.188997 7:-0.0520716 8:-0.124407 
-1 1:-0.206914 2:-0.153566 3:-0.178876 4:-0.550107 5:-0.671606 6:-0.207701 7:-0.204696 8:-0.191184 
-1 1:-0.192564 2:-0.162403 3:-0.123351 4:-0.308455 5:-0.548298 6:0.107207 7:0.0977186 8:-0.0325131 
-1 1:-0.193458 2:-0.169687 3:-0.11011 4:-0.353666 5:-0.48271 6:-0.0527351 7:-0.158498 8:-0.145827 
-1 1:-0.204498 2:-0.178163 3:-0.120269 4:-0.545576 5:-0.509517 6:-0.383859 7:-0.329635 8:-0.233147 
-1 1:-0.175096 2:-0.17789 3:-0.0456759 4:-0.295933 5:-0.435637 6:0.00243052 7:0.245292 8:0.102756 
-1 1:-0.142944 2:-0.169959 3:0.0196216 4:-0.0480645 5:-0.295284 6:0.309631 7:0.320626 8:0.156201 
-1 1:-0.0786171 2:-0.148182 3:0.137673 4:0.273914 5:-0.0833773 6:0.674964 7:0.59598 8:0.383426 
-1 1:-0.0112645 2:-0.114602 3:0.238303 4:0.357936 5:0.0887744 6:0.637146 7:0.671272 8:0.458325 
-1 1:0.0541155 2:-0.0720543 3:0.314771 4:0.483383 5:0.249648 6:0.690249 7:0.723329 8:0.512019 
-1 1:0.104692 2:-0.0258828 3:0.345667 4:0.567014 5:0.387634 6:0.690627 7:0.723329 8:0.512019 
-1 1:0.118068 2:0.0142633 3:0.294292 4:0.483903 5:0.449079 6:0.463982 7:0.192625 8:0.265161 
-1 1:0.132534 2:0.0498505 3:0.255423 4:0.458253 5:0.480616 6:0.379706 7:0.256956 8:0.297813 
-1 1:0.119089 2:0.0750949 3:0.167236 4:0.187632 5:0.402178 6:-0.0409243 7:-0.110282 8:0.099693 
-1 1:0.108955 2:0.0928592 3:0.10346 4:-0.00636312 5:0.278586 6:-0.265695 7:-0.078937 8:0.113063 
-1 1:0.0961674 2:0.104003 3:0.0470122 4:-0.173372 5:0.13481 6:-0.416609 7:-0.137834 8:0.0820924 
-1 1:0.0814474 2:0.109387 3:-0.00209942 4:-0.460547 5:-0.0665863 6:-0.728328 7:-0.201647 8:0.0496412 
-1 1:0.0492926 2:0.10598 3:-0.0770502 4:-0.687164 5:-0.28414 6:-0.907509 7:-0.470887 8:-0.11293 
-1 1:0.0109949 2:0.0940669 3:-0.149576 4:-0.838242 5:-0.484702 6:-0.963692 7:-0.582805 8:-0.200488 
-0.9285662595039148 1:-0.0191663 2:0.077301 3:-0.190954 4:-0.93896 5:-0.655427 6:-0.958966 7:-0.582805 8:-0.200488 
-1 1:-0.0354586 2:0.0599797 3:-0.195688 4:-0.926755 5:-0.764758 6:-0.811383 7:-0.325514 8:-0.113367 
-1 1:-0.021036 2:0.0495826 3:-0.136651 4:-0.512173 5:-0.685272 6:-0.120638 7:0.255961 8:0.153594 
-1 1:-0.0363406 2:0.0375934 3:-0.150226 4:-0.448519 5:-0.608888 6:-0.0877164 7:-0.180994 8:-0.0674855 
-1 1:-0.0783366 2:0.0179273 3:-0.215681 4:-0.659308 5:-0.635436 6:-0.454715 7:-0.451386 8:-0.248778 
-1 1:-0.117527 2:-0.00720736 3:-0.262307 4:-0.566007 5:-0.618844 6:-0.297788 7:-0.499943 8:-0.285113 
-1 1:-0.141561 2:-0.0330807 3:-0.268605 4:-0.465757 5:-0.570937 6:-0.163446 7:-0.382196 8:-0.229982 
-1 1:-0.137357 2:-0.0527708 3:-0.215886 4:-0.215574 5:-0.447049 6:0.166879 7:0.0108539 8:-0.0290511 
-1 1:-0.166493 2:-0.0755125 3:-0.241903 4:-0.306676 5:-0.39794 6:-0.0607718 7:-0.347076 8:-0.228452 
-1 1:-0.176727 2:-0.096161 3:-0.224057 4:-0.285972 5:-0.357591 6:-0.0677295 7:-0.177364 8:-0.13662 
-1 1:-0.200638 2:-0.118416 3:-0.237754 4:-0.407902 5:-0.375505 6:-0.277104 7:-0.344764 8:-0.232191 
-1 1:-0.229629 2:-0.143175 3:-0.259102 4:-0.584201 5:-0.452243 6:-0.521914 7:-0.443799 8:-0.293055 
-1 1:-0.23188 2:-0.163522 3:-0.221487 4:-0.446063 5:-0.452632 6:-0.261138 7:-0.129109 8:-0.133139 
-1 1:-0.227457 2:-0.178738 3:-0.177743 4:-0.325837 5:-0.408704 6:-0.0846166 7:-0.0702823 8:-0.102339 
-1 1:-0.248243 2:-0.195898 3:-0.194312 4:-0.456689 5:-0.427511 6:-0.309788 7:-0.368827 8:-0.253165 
-1 1:-0.265305 2:-0.213719 3:-0.19995 4:-0.572057 5:-0.482451 6:-0.464607 7:-0.40089 8:-0.271304 
-1 1:-0.266743 2:-0.228321 3:-0.1725 4:-0.578635 5:-0.521495 6:-0.432514 7:-0.203919 8:-0.182247 
-1 1:-0.255921 2:-0.237406 3:-0.125467 4:-0.389507 5:-0.478014 6:-0.125631 7:-0.0225035 8:-0.0956318 
-1 1:-0.24992 2:-0.243235 3:-0.0976984 4:-0.252966 5:-0.398843 6:0.0414786 7:-0.119102 8:-0.133534 
-1 1:-0.247763 2:-0.24738 3:-0.0833476 4:-0.239307 5:-0.341042 6:0.00135815 7:-0.215954 8:-0.172088 
-1 1:-0.22898 2:-0.246191 3:-0.0378585 4:-0.023887 5:-0.223334 6:0.27321 7:0.120044 8:-0.0195118 
-1 1:-0.193808 2:-0.236801 3:0.0320525 4:0.377618 5:0.00270348 6:0.772316 7:0.390782 8:0.141644 
-1 1:-0.149774 2:-0.218726 3:0.106111 4:0.534763 5:0.211151 6:0.830946 7:0.538074 8:0.251365 
-1 1:-0.126111 2:-0.198589 3:0.123689 4:0.484791 5:0.33175 6:0.599349 7:0.231093 8:0.130323 
-1 1:-0.122253 2:-0.181554 3:0.0972423 4:0.224398 5:0.316447 6:0.126053 7:-0.0678943 8:-0.00690474 
-1 1:-0.121442 2:-0.167732 3:0.0698506 4:0.00391299 5:0.225209 6:-0.185507 7:-0.126802 8:-0.0358081 
-1 1:-0.135542 2:-0.160056 3:0.0174396 4:-0.222789 5:0.0810633 6:-0.448495 7:-0.355807 8:-0.158295 
-1 1:-0.125412 2:-0.151486 3:0.0250724 4:-0.161163 5:0.00761586 6:-0.248663 7:0.0425735 8:0.0324036 
-1 1:-0.116076 2:-0.14239 3:0.0295529 4:-0.120079 5:-0.0262494 6:-0.132648 7:0.0425735 8:0.0324036 
-1 1:-0.103894 2:-0.13219 3:0.0389587 4:-0.0540056 5:-0.0245422 6:-0.010072 7:0.117302 8:0.0677437 
-1 1:-0.0860463 2:-0.119749 3:0.058073 4:0.0674106 5:0.0212204 6:0.166602 7:0.262752 8:0.138724 
-1 1:-0.103289 2:-0.113933 3:0.00158884 4:-0.196327 5:-0.0452035 6:-0.254747 7:-0.331786 8:-0.144889 
-1 1:-0.101351 2:-0.108815 3:-0.00436579 4:-0.136659 5:-0.0675559 6:-0.116825 7:-0.0480175 8:-0.00440627 
-1 1:-0.0951334 2:-0.103229 3:-0.000374921 4:0.0548608 5:-0.0120679 6:0.180882 7:0.0179967 8:0.0293169 
-1 1:-0.0766952 2:-0.0943367 3:0.0278136 4:0.399169 5:0.151469 6:0.643416 7:0.232207 8:0.143482 
-1 1:-0.0578305 2:-0.0826974 3:0.0512365 4:0.659655 5:0.35623 6:0.901003 7:0.288407 8:0.174963 
-1 1:-0.042422 2:-0.0696895 3:0.0629056 4:0.833313 5:0.556563 6:1 7:0.288407 8:0.174963 
-1 1:-0.0281093 2:-0.0558496 3:0.0699995 4:0.799341 5:0.677632 6:0.79802 7:0.327132 8:0.193419 
-1 1:-0.00409272 2:-0.0390162 3:0.0955231 4:0.658018 5:0.706404 6:0.4989 7:0.548313 8:0.315951 
-1 1:0.030828 2:-0.017172 3:0.138246 4:0.705907 5:0.743186 6:0.547238 7:0.711345 8:0.444463 
-0.3927132784536487 1:0.0810443 2:0.01235 3:0.203709 4:0.799674 5:0.80217 6:0.656739 7:0.833731 8:0.583557 
-0.6309445956815508 1:0.14758 2:0.0990682 3:0.188981 4:0.623864 5:0.767087 6:0.365386 7:0.541577 8:0.462426 
-0.7498708800910086 1:0.193913 2:0.132419 3:0.236355 4:0.728013 5:0.791766 6:0.533541 7:0.76973 8:0.637847 
-1 1:0.211885 2:0.163411 3:0.216245 4:0.646782 5:0.778364 6:0.395726 7:0.374104 8:0.431307 
-0.3602836178826561 1:0.191345 2:0.183278 3:0.121381 4:0.257369 5:0.626307 6:-0.164892 7:-0.11853 8:0.118005 
-0.6080990717973456 1:0.178403 2:0.196066 3:0.0610335 4:0.0124966 5:0.434937 6:-0.408312 7:-0.0382323 8:0.157732 
-1 1:0.1662 2:0.203369 3:0.0142663 4:-0.242856 5:0.213507 6:-0.637231 7:-0.0382323 8:0.157732 
-1 1:0.152928 2:0.206028 3:-0.0253359 4:-0.434581 5:-0.00457868 6:-0.75005 7:-0.0718298 8:0.139465 
-1 1:0.140756 2:0.205234 3:-0.0547664 4:-0.562399 5:-0.196946 6:-0.771733 7:-0.0718298 8:0.139465 
-1 1:0.190362 2:0.2165 3:0.0480527 4:0.0186101 5:-0.111651 6:0.226039 7:0.64863 8:0.537224 
-0.5637364842514412 1:0.209152 2:0.230021 3:0.0672749 4:-0.0171543 5:-0.0679327 6:0.108821 7:0.330709 8:0.360129 
-1 1:0.216097 2:0.242503 3:0.0584242 4:-0.0772632 5:-0.060879 6:-0.0124979 7:0.240968 8:0.30983 
-1 1:0.210107 2:0.251052 3:0.0248867 4:-0.177779 5:-0.0931194 6:-0.165192 7:0.0880954 8:0.225877 
-1 1:0.194051 2:0.254039 3:-0.0225321 4:-0.305233 5:-0.161457 6:-0.327522 7:-0.0570979 8:0.144378 
-1 1:0.157779 2:0.247727 3:-0.101818 4:-0.492601 5:-0.275878 6:-0.550251 7:-0.32665 8:-0.0279509 
